{"learner":{"attributes":{"best_iteration":"460","best_score":"0.8785604712567645"},"feature_names":["Close","High","Low","Open","RSI","EMA_short","EMA_long","MACD","BB_upper","BB_middle","BB_lower","ATR","OBV","wavelet_cA","wavelet_cD"],"feature_types":["float","float","float","float","float","float","float","float","float","float","float","float","float","float","float"],"gradient_booster":{"model":{"gbtree_model_param":{"num_parallel_tree":"1","num_trees":"1533"},"iteration_indptr":[0,3,6,9,12,15,18,21,24,27,30,33,36,39,42,45,48,51,54,57,60,63,66,69,72,75,78,81,84,87,90,93,96,99,102,105,108,111,114,117,120,123,126,129,132,135,138,141,144,147,150,153,156,159,162,165,168,171,174,177,180,183,186,189,192,195,198,201,204,207,210,213,216,219,222,225,228,231,234,237,240,243,246,249,252,255,258,261,264,267,270,273,276,279,282,285,288,291,294,297,300,303,306,309,312,315,318,321,324,327,330,333,336,339,342,345,348,351,354,357,360,363,366,369,372,375,378,381,384,387,390,393,396,399,402,405,408,411,414,417,420,423,426,429,432,435,438,441,444,447,450,453,456,459,462,465,468,471,474,477,480,483,486,489,492,495,498,501,504,507,510,513,516,519,522,525,528,531,534,537,540,543,546,549,552,555,558,561,564,567,570,573,576,579,582,585,588,591,594,597,600,603,606,609,612,615,618,621,624,627,630,633,636,639,642,645,648,651,654,657,660,663,666,669,672,675,678,681,684,687,690,693,696,699,702,705,708,711,714,717,720,723,726,729,732,735,738,741,744,747,750,753,756,759,762,765,768,771,774,777,780,783,786,789,792,795,798,801,804,807,810,813,816,819,822,825,828,831,834,837,840,843,846,849,852,855,858,861,864,867,870,873,876,879,882,885,888,891,894,897,900,903,906,909,912,915,918,921,924,927,930,933,936,939,942,945,948,951,954,957,960,963,966,969,972,975,978,981,984,987,990,993,996,999,1002,1005,1008,1011,1014,1017,1020,1023,1026,1029,1032,1035,1038,1041,1044,1047,1050,1053,1056,1059,1062,1065,1068,1071,1074,1077,1080,1083,1086,1089,1092,1095,1098,1101,1104,1107,1110,1113,1116,1119,1122,1125,1128,1131,1134,1137,1140,1143,1146,1149,1152,1155,1158,1161,1164,1167,1170,1173,1176,1179,1182,1185,1188,1191,1194,1197,1200,1203,1206,1209,1212,1215,1218,1221,1224,1227,1230,1233,1236,1239,1242,1245,1248,1251,1254,1257,1260,1263,1266,1269,1272,1275,1278,1281,1284,1287,1290,1293,1296,1299,1302,1305,1308,1311,1314,1317,1320,1323,1326,1329,1332,1335,1338,1341,1344,1347,1350,1353,1356,1359,1362,1365,1368,1371,1374,1377,1380,1383,1386,1389,1392,1395,1398,1401,1404,1407,1410,1413,1416,1419,1422,1425,1428,1431,1434,1437,1440,1443,1446,1449,1452,1455,1458,1461,1464,1467,1470,1473,1476,1479,1482,1485,1488,1491,1494,1497,1500,1503,1506,1509,1512,1515,1518,1521,1524,1527,1530,1533],"tree_info":[0,1,2,0,1,2,0,1,2,0,1,2,0,1,2,0,1,2,0,1,2,0,1,2,0,1,2,0,1,2,0,1,2,0,1,2,0,1,2,0,1,2,0,1,2,0,1,2,0,1,2,0,1,2,0,1,2,0,1,2,0,1,2,0,1,2,0,1,2,0,1,2,0,1,2,0,1,2,0,1,2,0,1,2,0,1,2,0,1,2,0,1,2,0,1,2,0,1,2,0,1,2,0,1,2,0,1,2,0,1,2,0,1,2,0,1,2,0,1,2,0,1,2,0,1,2,0,1,2,0,1,2,0,1,2,0,1,2,0,1,2,0,1,2,0,1,2,0,1,2,0,1,2,0,1,2,0,1,2,0,1,2,0,1,2,0,1,2,0,1,2,0,1,2,0,1,2,0,1,2,0,1,2,0,1,2,0,1,2,0,1,2,0,1,2,0,1,2,0,1,2,0,1,2,0,1,2,0,1,2,0,1,2,0,1,2,0,1,2,0,1,2,0,1,2,0,1,2,0,1,2,0,1,2,0,1,2,0,1,2,0,1,2,0,1,2,0,1,2,0,1,2,0,1,2,0,1,2,0,1,2,0,1,2,0,1,2,0,1,2,0,1,2,0,1,2,0,1,2,0,1,2,0,1,2,0,1,2,0,1,2,0,1,2,0,1,2,0,1,2,0,1,2,0,1,2,0,1,2,0,1,2,0,1,2,0,1,2,0,1,2,0,1,2,0,1,2,0,1,2,0,1,2,0,1,2,0,1,2,0,1,2,0,1,2,0,1,2,0,1,2,0,1,2,0,1,2,0,1,2,0,1,2,0,1,2,0,1,2,0,1,2,0,1,2,0,1,2,0,1,2,0,1,2,0,1,2,0,1,2,0,1,2,0,1,2,0,1,2,0,1,2,0,1,2,0,1,2,0,1,2,0,1,2,0,1,2,0,1,2,0,1,2,0,1,2,0,1,2,0,1,2,0,1,2,0,1,2,0,1,2,0,1,2,0,1,2,0,1,2,0,1,2,0,1,2,0,1,2,0,1,2,0,1,2,0,1,2,0,1,2,0,1,2,0,1,2,0,1,2,0,1,2,0,1,2,0,1,2,0,1,2,0,1,2,0,1,2,0,1,2,0,1,2,0,1,2,0,1,2,0,1,2,0,1,2,0,1,2,0,1,2,0,1,2,0,1,2,0,1,2,0,1,2,0,1,2,0,1,2,0,1,2,0,1,2,0,1,2,0,1,2,0,1,2,0,1,2,0,1,2,0,1,2,0,1,2,0,1,2,0,1,2,0,1,2,0,1,2,0,1,2,0,1,2,0,1,2,0,1,2,0,1,2,0,1,2,0,1,2,0,1,2,0,1,2,0,1,2,0,1,2,0,1,2,0,1,2,0,1,2,0,1,2,0,1,2,0,1,2,0,1,2,0,1,2,0,1,2,0,1,2,0,1,2,0,1,2,0,1,2,0,1,2,0,1,2,0,1,2,0,1,2,0,1,2,0,1,2,0,1,2,0,1,2,0,1,2,0,1,2,0,1,2,0,1,2,0,1,2,0,1,2,0,1,2,0,1,2,0,1,2,0,1,2,0,1,2,0,1,2,0,1,2,0,1,2,0,1,2,0,1,2,0,1,2,0,1,2,0,1,2,0,1,2,0,1,2,0,1,2,0,1,2,0,1,2,0,1,2,0,1,2,0,1,2,0,1,2,0,1,2,0,1,2,0,1,2,0,1,2,0,1,2,0,1,2,0,1,2,0,1,2,0,1,2,0,1,2,0,1,2,0,1,2,0,1,2,0,1,2,0,1,2,0,1,2,0,1,2,0,1,2,0,1,2,0,1,2,0,1,2,0,1,2,0,1,2,0,1,2,0,1,2,0,1,2,0,1,2,0,1,2,0,1,2,0,1,2,0,1,2,0,1,2,0,1,2,0,1,2,0,1,2,0,1,2,0,1,2,0,1,2,0,1,2,0,1,2,0,1,2,0,1,2,0,1,2,0,1,2,0,1,2,0,1,2,0,1,2,0,1,2,0,1,2,0,1,2,0,1,2,0,1,2,0,1,2,0,1,2,0,1,2,0,1,2,0,1,2,0,1,2,0,1,2,0,1,2,0,1,2,0,1,2,0,1,2,0,1,2,0,1,2,0,1,2,0,1,2,0,1,2,0,1,2,0,1,2,0,1,2,0,1,2,0,1,2,0,1,2,0,1,2,0,1,2,0,1,2,0,1,2,0,1,2,0,1,2,0,1,2,0,1,2,0,1,2,0,1,2,0,1,2,0,1,2,0,1,2,0,1,2,0,1,2,0,1,2,0,1,2,0,1,2,0,1,2,0,1,2,0,1,2,0,1,2,0,1,2,0,1,2,0,1,2,0,1,2,0,1,2,0,1,2,0,1,2,0,1,2,0,1,2,0,1,2,0,1,2,0,1,2,0,1,2,0,1,2,0,1,2,0,1,2,0,1,2,0,1,2,0,1,2,0,1,2,0,1,2,0,1,2,0,1,2,0,1,2,0,1,2,0,1,2,0,1,2,0,1,2,0,1,2,0,1,2,0,1,2,0,1,2,0,1,2,0,1,2,0,1,2,0,1,2,0,1,2,0,1,2,0,1,2,0,1,2,0,1,2,0,1,2,0,1,2,0,1,2,0,1,2,0,1,2,0,1,2,0,1,2,0,1,2,0,1,2,0,1,2,0,1,2,0,1,2,0,1,2,0,1,2,0,1,2,0,1,2,0,1,2,0,1,2,0,1,2,0,1,2,0,1,2,0,1,2,0,1,2,0,1,2,0,1,2,0,1,2,0,1,2,0,1,2,0,1,2,0,1,2,0,1,2,0,1,2,0,1,2,0,1,2,0,1,2,0,1,2,0,1,2,0,1,2,0,1,2,0,1,2,0,1,2,0,1,2,0,1,2,0,1,2,0,1,2,0,1,2,0,1,2,0,1,2,0,1,2,0,1,2,0,1,2,0,1,2,0,1,2,0,1,2,0,1,2,0,1,2,0,1,2,0,1,2,0,1,2,0,1,2,0,1,2,0,1,2,0,1,2,0,1,2,0,1,2,0,1,2,0,1,2,0,1,2,0,1,2,0,1,2,0,1,2,0,1,2,0,1,2,0,1,2,0,1,2,0,1,2,0,1,2,0,1,2,0,1,2,0,1,2,0,1,2,0,1,2,0,1,2,0,1,2,0,1,2,0,1,2,0,1,2,0,1,2,0,1,2,0,1,2,0,1,2,0,1,2,0,1,2,0,1,2,0,1,2,0,1,2,0,1,2,0,1,2,0,1,2,0,1,2,0,1,2,0,1,2,0,1,2,0,1,2,0,1,2,0,1,2,0,1,2,0,1,2,0,1,2,0,1,2,0,1,2,0,1,2,0,1,2,0,1,2,0,1,2,0,1,2,0,1,2,0,1,2,0,1,2,0,1,2,0,1,2],"trees":[{"base_weights":[2.679505E-1,-3.083141E-1,3.601075E-1,9.8159626E-2,-3.8665444E-2,6.67631E-2,3.2282582E-1,-1.1612392E-2,5.459852E-2,5.0260187E-3,2.55409E-2],"categories":[],"categories_nodes":[],"categories_segments":[],"categories_sizes":[],"default_left":[0,0,0,0,0,0,0,0,0,0,0],"id":0,"left_children":[1,3,5,7,-1,-1,9,-1,-1,-1,-1],"loss_changes":[3.1596249E1,1.3007771E1,1.5961037E1,1.1049691E1,0E0,0E0,1.5673531E1,0E0,0E0,0E0,0E0],"parents":[2147483647,0,0,1,1,2,2,3,3,6,6],"right_children":[2,4,6,8,-1,-1,10,-1,-1,-1,-1],"split_conditions":[4.281912E0,4.217402E0,1.6276103E-1,4.37333E0,-3.8665444E-2,6.67631E-2,7.870051E0,-1.1612392E-2,5.459852E-2,5.0260187E-3,2.55409E-2],"split_indices":[10,9,11,8,0,0,5,0,0,0,0],"split_type":[0,0,0,0,0,0,0,0,0,0,0],"sum_hessian":[5.9422217E2,8.177777E1,5.124444E2,3.9999996E1,4.1777775E1,2.1333332E1,4.9111108E2,2.9777777E1,1.0222221E1,1.831111E2,3.0799997E2],"tree_param":{"num_deleted":"0","num_feature":"15","num_nodes":"11","size_leaf_vector":"1"}},{"base_weights":[-2.1330594E-1,4.8633944E-2,-2.451412E-1,-7.55151E-2,-3.819622E-1,-9.900467E-3,5.5058405E-2,-3.398196E-2,-1.7207377E-2],"categories":[],"categories_nodes":[],"categories_segments":[],"categories_sizes":[],"default_left":[0,0,0,0,0,0,0,0,0],"id":1,"left_children":[1,-1,3,5,7,-1,-1,-1,-1],"loss_changes":[2.0400057E1,0E0,1.321928E1,2.8093657E1,5.1343536E0,0E0,0E0,0E0,0E0],"parents":[2147483647,0,0,2,2,3,3,4,4],"right_children":[2,-1,4,6,8,-1,-1,-1,-1],"split_conditions":[3.3228302E0,4.8633944E-2,7.870051E0,3.1802484E-1,8.752843E0,-9.900467E-3,5.5058405E-2,-3.398196E-2,-1.7207377E-2],"split_indices":[10,0,5,11,3,0,0,0,0],"split_type":[0,0,0,0,0,0,0,0,0],"sum_hessian":[5.871111E2,1.6444443E1,5.706666E2,2.551111E2,3.1555554E2,2.3288887E2,2.2222221E1,7.422222E1,2.4133331E2],"tree_param":{"num_deleted":"0","num_feature":"15","num_nodes":"9","size_leaf_vector":"1"}},{"base_weights":[-7.915885E-2,3.564355E-2,-1.0980874E-1,-1.6073026E-1,2.3466933E-1,-1.31871905E-2,4.6414966E-4,5.332775E-2,6.4669447E-3],"categories":[],"categories_nodes":[],"categories_segments":[],"categories_sizes":[],"default_left":[0,0,0,0,0,0,0,0,0],"id":2,"left_children":[1,-1,3,5,7,-1,-1,-1,-1],"loss_changes":[1.2923711E1,0E0,9.84713E0,6.385355E0,6.117215E0,0E0,0E0,0E0,0E0],"parents":[2147483647,0,0,2,2,3,3,4,4],"right_children":[2,-1,4,6,8,-1,-1,-1,-1],"split_conditions":[9.344436E-2,3.564355E-2,1.5849366E-5,9.014565E0,2.0453143E-1,-1.31871905E-2,4.6414966E-4,5.332775E-2,6.4669447E-3],"split_indices":[11,0,14,6,11,0,0,0,0],"split_type":[0,0,0,0,0,0,0,0,0],"sum_hessian":[5.844444E2,2.3555553E1,5.6088885E2,4.8888885E2,7.199999E1,3.3599997E2,1.5288889E2,9.777777E0,6.2222218E1],"tree_param":{"num_deleted":"0","num_feature":"15","num_nodes":"9","size_leaf_vector":"1"}},{"base_weights":[2.883027E-1,-1.09288834E-1,4.033912E-1,-2.4474956E-1,3.0198293E-2,4.8751092E-1,4.096727E-2,3.453131E-3,-3.750068E-2,3.9958555E-2,2.070022E-2,-2.2200688E-3,3.908665E-2],"categories":[],"categories_nodes":[],"categories_segments":[],"categories_sizes":[],"default_left":[0,0,0,0,0,0,0,0,0,0,0,0,0],"id":3,"left_children":[1,3,5,7,-1,9,11,-1,-1,-1,-1,-1,-1],"loss_changes":[2.746378E1,1.194224E1,1.41502075E1,1.4848345E1,0E0,9.931168E0,4.77177E0,0E0,0E0,0E0,0E0,0E0,0E0],"parents":[2147483647,0,0,1,1,2,2,3,3,5,5,6,6],"right_children":[2,4,6,8,-1,10,12,-1,-1,-1,-1,-1,-1],"split_conditions":[5.9662094E0,1.4935684E-1,1.0113363E-5,4.478268E0,3.0198293E-2,2.2932914E-1,6.378726E-1,3.453131E-3,-3.750068E-2,3.9958555E-2,2.070022E-2,-2.2200688E-3,3.908665E-2],"split_indices":[5,7,14,6,0,11,11,0,0,0,0,0,0],"split_type":[0,0,0,0,0,0,0,0,0,0,0,0,0],"sum_hessian":[5.994253E2,1.3446272E2,4.649626E2,1.1156553E2,2.2897194E1,3.7719495E2,8.776765E1,6.522228E1,4.6343243E1,1.23570816E2,2.5362411E2,7.833857E1,9.429081E0],"tree_param":{"num_deleted":"0","num_feature":"15","num_nodes":"13","size_leaf_vector":"1"}},{"base_weights":[-1.758742E-1,5.5541337E-1,-2.313181E-1,1.0109593E0,-3.1008692E-2,4.686294E-2,-2.553588E-1,1.5758539E-2,7.482646E-2,-8.446767E-3,-2.3034442E-2],"categories":[],"categories_nodes":[],"categories_segments":[],"categories_sizes":[],"default_left":[0,0,0,0,0,0,0,0,0,0,0],"id":4,"left_children":[1,3,5,7,-1,-1,9,-1,-1,-1,-1],"loss_changes":[2.3778925E1,2.1122684E1,1.4121941E1,7.0675735E0,0E0,0E0,8.750717E0,0E0,0E0,0E0,0E0],"parents":[2147483647,0,0,1,1,2,2,3,3,6,6],"right_children":[2,4,6,8,-1,-1,10,-1,-1,-1,-1],"split_conditions":[-2.5448495E-1,1.37798395E1,3.6482177E0,3.1571692E1,-3.1008692E-2,4.686294E-2,9.351706E0,1.5758539E-2,7.482646E-2,-8.446767E-3,-2.3034442E-2],"split_indices":[7,2,5,4,0,0,8,0,0,0,0],"split_type":[0,0,0,0,0,0,0,0,0,0,0],"sum_hessian":[5.85969E2,4.1088882E1,5.448801E2,2.9215015E1,1.1873869E1,1.1692299E1,5.331878E2,9.45671E0,1.9758305E1,3.247583E2,2.0842953E2],"tree_param":{"num_deleted":"0","num_feature":"15","num_nodes":"11","size_leaf_vector":"1"}},{"base_weights":[-9.077928E-2,5.9182805E-1,-1.2720217E-1,-1.2161502E-2,5.336098E-2,-1.7161371E-1,1.8776268E-2,-1.4028783E-2,7.7370714E-5],"categories":[],"categories_nodes":[],"categories_segments":[],"categories_sizes":[],"default_left":[0,0,0,0,0,0,0,0,0],"id":5,"left_children":[1,3,5,-1,-1,7,-1,-1,-1],"loss_changes":[1.4929666E1,9.2173395E0,1.1807462E1,0E0,0E0,7.3480587E0,0E0,0E0,0E0],"parents":[2147483647,0,0,1,1,2,2,5,5],"right_children":[2,4,6,-1,-1,8,-1,-1,-1],"split_conditions":[9.361776E-2,3.6786776E0,2.4947527E-5,-1.2161502E-2,5.336098E-2,9.014565E0,1.8776268E-2,-1.4028783E-2,7.7370714E-5],"split_indices":[11,6,14,0,0,6,0,0,0],"split_type":[0,0,0,0,0,0,0,0,0],"sum_hessian":[6.005677E2,3.017907E1,5.703886E2,9.44443E0,2.0734638E1,5.2096484E2,4.9423767E1,3.544884E2,1.6647647E2],"tree_param":{"num_deleted":"0","num_feature":"15","num_nodes":"9","size_leaf_vector":"1"}},{"base_weights":[2.2884658E-1,-3.3433953E-1,3.1417173E-1,6.1605625E-2,-3.9057516E-2,2.7455536E-1,5.5486277E-2,-2.9557947E-2,2.5772857E-2,5.8253974E-2,1.3007303E-2],"categories":[],"categories_nodes":[],"categories_segments":[],"categories_sizes":[],"default_left":[0,0,0,0,0,0,0,0,0,0,0],"id":6,"left_children":[1,3,5,7,-1,9,-1,-1,-1,-1,-1],"loss_changes":[2.8920887E1,1.1636216E1,1.4078381E1,9.247125E0,0E0,1.5225014E1,0E0,0E0,0E0,0E0,0E0],"parents":[2147483647,0,0,1,1,2,2,3,3,5,5],"right_children":[2,4,6,8,-1,10,-1,-1,-1,-1,-1],"split_conditions":[4.281912E0,4.194304E0,6.907996E-1,1.60793E7,-3.9057516E-2,1.6276103E-1,5.5486277E-2,-2.9557947E-2,2.5772857E-2,5.8253974E-2,1.3007303E-2],"split_indices":[10,9,11,12,0,11,0,0,0,0,0],"split_type":[0,0,0,0,0,0,0,0,0,0,0],"sum_hessian":[6.011592E2,7.893005E1,5.222291E2,3.814546E1,4.0784595E1,4.9409415E2,2.8134998E1,1.533178E1,2.2813677E1,2.3895725E1,4.7019843E2],"tree_param":{"num_deleted":"0","num_feature":"15","num_nodes":"11","size_leaf_vector":"1"}},{"base_weights":[-1.8992776E-1,3.379936E-2,-1.9604253E-2,-1.2301389E-1,6.167684E-1,4.7371443E-2,-1.0670076E-2,1.42368255E-2,6.739598E-2],"categories":[],"categories_nodes":[],"categories_segments":[],"categories_sizes":[],"default_left":[0,0,0,0,0,0,0,0,0],"id":7,"left_children":[1,3,-1,5,7,-1,-1,-1,-1],"loss_changes":[2.1556892E1,2.2771778E1,0E0,1.3293896E1,1.1234535E1,0E0,0E0,0E0,0E0],"parents":[2147483647,0,0,1,1,3,3,4,4],"right_children":[2,4,-1,6,8,-1,-1,-1,-1],"split_conditions":[7.030765E0,2.8452465E-1,-1.9604253E-2,3.6752071E0,2.15291E9,4.7371443E-2,-1.0670076E-2,1.42368255E-2,6.739598E-2],"split_indices":[10,11,0,9,12,0,0,0,0],"split_type":[0,0,0,0,0,0,0,0,0],"sum_hessian":[5.883352E2,2.4841205E2,3.3992313E2,1.9582297E2,5.258909E1,1.2766745E1,1.8305621E2,3.3086395E1,1.9502691E1],"tree_param":{"num_deleted":"0","num_feature":"15","num_nodes":"9","size_leaf_vector":"1"}},{"base_weights":[-5.703843E-2,5.6495374E-1,-9.223001E-2,-1.1606556E-2,8.960415E-1,-2.2279102E-1,5.506093E-2,7.207333E-2,1.7000291E-2,2.3680816E-3,-2.0983769E-2,7.6664663E-3,-2.21404E-2],"categories":[],"categories_nodes":[],"categories_segments":[],"categories_sizes":[],"default_left":[0,0,0,0,0,0,0,0,0,0,0,0,0],"id":8,"left_children":[1,3,5,-1,7,9,11,-1,-1,-1,-1,-1,-1],"loss_changes":[1.2912705E1,8.170708E0,1.0764372E1,0E0,5.1108704E0,1.2273747E1,9.92644E0,0E0,0E0,0E0,0E0,0E0,0E0],"parents":[2147483647,0,0,1,1,2,2,4,4,5,5,6,6],"right_children":[2,4,6,-1,8,10,12,-1,-1,-1,-1,-1,-1],"split_conditions":[9.449269E-2,3.581844E0,2.7106268E9,-1.1606556E-2,4.1668086E0,1.8974821E-1,6.5431464E-1,7.207333E-2,1.7000291E-2,2.3680816E-3,-2.0983769E-2,7.6664663E-3,-2.21404E-2],"split_indices":[11,10,12,0,10,11,11,0,0,0,0,0,0],"split_type":[0,0,0,0,0,0,0,0,0,0,0,0,0],"sum_hessian":[5.90294E2,3.135242E1,5.589416E2,9.368686E0,2.1983734E1,2.964249E2,2.625167E2,1.2839759E1,9.143976E0,1.0945963E2,1.8696526E2,2.2211665E2,4.0400032E1],"tree_param":{"num_deleted":"0","num_feature":"15","num_nodes":"13","size_leaf_vector":"1"}},{"base_weights":[2.2747827E-1,1.0052208E-2,4.1183403E-1,9.797402E-2,-3.014017E-2,6.6601676E-1,2.5349918E-1,-3.3949804E-3,3.173472E-2,3.1243872E-2,6.386617E-2,5.999203E-3,4.357725E-2],"categories":[],"categories_nodes":[],"categories_segments":[],"categories_sizes":[],"default_left":[0,0,0,0,0,0,0,0,0,0,0,0,0],"id":9,"left_children":[1,3,5,7,-1,9,11,-1,-1,-1,-1,-1,-1],"loss_changes":[2.3949558E1,1.3360912E1,1.293478E1,1.7955318E1,0E0,5.9433784E0,1.5391013E1,0E0,0E0,0E0,0E0,0E0,0E0],"parents":[2147483647,0,0,1,1,2,2,3,3,5,5,6,6],"right_children":[2,4,6,8,-1,10,12,-1,-1,-1,-1,-1,-1],"split_conditions":[7.789259E0,7.381828E0,9.014565E0,6.6044126E0,-3.014017E-2,9.151389E0,6.5431464E-1,-3.3949804E-3,3.173472E-2,3.1243872E-2,6.386617E-2,5.999203E-3,4.357725E-2],"split_indices":[5,6,6,9,0,1,11,0,0,0,0,0,0],"split_type":[0,0,0,0,0,0,0,0,0,0,0,0,0],"sum_hessian":[5.9783606E2,2.7455057E2,3.2328552E2,2.3715639E2,3.7394188E1,1.2368727E2,1.9959824E2,1.7761862E2,5.9537766E1,1.0258682E2,2.1100454E1,1.5707524E2,4.2522987E1],"tree_param":{"num_deleted":"0","num_feature":"15","num_nodes":"13","size_leaf_vector":"1"}},{"base_weights":[-1.704204E-1,5.042987E-1,-2.288438E-1,9.615951E-1,-3.153571E-2,3.7726782E-2,-2.551345E-1,2.2548286E-2,6.501965E-2,-3.0621205E-2,-1.0220387E-2],"categories":[],"categories_nodes":[],"categories_segments":[],"categories_sizes":[],"default_left":[0,0,0,0,0,0,0,0,0,0,0],"id":10,"left_children":[1,3,5,7,-1,-1,9,-1,-1,-1,-1],"loss_changes":[2.29457E1,2.2888721E1,1.2819389E1,3.6295204E0,0E0,0E0,1.0898514E1,0E0,0E0,0E0,0E0],"parents":[2147483647,0,0,1,1,2,2,3,3,6,6],"right_children":[2,4,6,8,-1,-1,10,-1,-1,-1,-1],"split_conditions":[-2.5448495E-1,1.408433E1,3.6752071E0,3.1571692E1,-3.153571E-2,3.7726782E-2,1.7762394E-1,2.2548286E-2,6.501965E-2,-3.0621205E-2,-1.0220387E-2],"split_indices":[7,1,9,4,0,0,11,0,0,0,0],"split_type":[0,0,0,0,0,0,0,0,0,0,0],"sum_hessian":[5.815859E2,4.6140694E1,5.354451E2,3.2401947E1,1.37387495E1,1.4839244E1,5.206059E2,9.165221E0,2.3236723E1,9.983371E1,4.2077222E2],"tree_param":{"num_deleted":"0","num_feature":"15","num_nodes":"11","size_leaf_vector":"1"}},{"base_weights":[-4.0211793E-2,7.177165E-1,-7.728436E-2,1.5417034E-2,5.4383606E-2,-5.731489E-2,-3.7231605E-2,-7.7733803E-3,1.0570412E-2],"categories":[],"categories_nodes":[],"categories_segments":[],"categories_sizes":[],"default_left":[0,0,0,0,0,0,0,0,0],"id":11,"left_children":[1,3,5,-1,-1,7,-1,-1,-1],"loss_changes":[1.6509274E1,3.0407429E0,6.610352E0,0E0,0E0,1.1160714E1,0E0,0E0,0E0],"parents":[2147483647,0,0,1,1,2,2,5,5],"right_children":[2,4,6,-1,-1,8,-1,-1,-1],"split_conditions":[9.361776E-2,3.7732904E0,7.2296935E-1,1.5417034E-2,5.4383606E-2,1.2182461E1,-3.7231605E-2,-7.7733803E-3,1.0570412E-2],"split_indices":[11,5,11,0,0,6,0,0,0],"split_type":[0,0,0,0,0,0,0,0,0],"sum_hessian":[5.880784E2,2.7168688E1,5.609097E2,1.0409779E1,1.675891E1,5.429869E2,1.7922874E1,4.0720782E2,1.3577904E2],"tree_param":{"num_deleted":"0","num_feature":"15","num_nodes":"9","size_leaf_vector":"1"}},{"base_weights":[2.1048719E-1,2.1152569E-3,4.0105513E-1,1.8187729E-1,-2.427653E-1,6.703543E-1,2.606686E-1,4.291431E-3,5.7130832E-2,8.677129E-3,-2.6345711E-2,2.9829647E-2,6.363838E-2,7.43261E-3,3.9973356E-2],"categories":[],"categories_nodes":[],"categories_segments":[],"categories_sizes":[],"default_left":[0,0,0,0,0,0,0,0,0,0,0,0,0,0,0],"id":12,"left_children":[1,3,5,7,9,11,13,-1,-1,-1,-1,-1,-1,-1,-1],"loss_changes":[2.3995138E1,1.273989E1,1.1850929E1,1.4733156E1,1.1385906E1,6.5989265E0,1.2057864E1,0E0,0E0,0E0,0E0,0E0,0E0,0E0,0E0],"parents":[2147483647,0,0,1,1,2,2,3,3,4,4,5,5,6,6],"right_children":[2,4,6,8,10,12,14,-1,-1,-1,-1,-1,-1,-1,-1],"split_conditions":[7.8304296E0,2.1871078E-1,9.521979E0,2.0321722E9,1.6234778E9,9.027232E0,6.5431464E-1,4.291431E-3,5.7130832E-2,8.677129E-3,-2.6345711E-2,2.9829647E-2,6.363838E-2,7.43261E-3,3.9973356E-2],"split_indices":[6,11,8,12,12,3,11,0,0,0,0,0,0,0,0],"split_type":[0,0,0,0,0,0,0,0,0,0,0,0,0,0,0],"sum_hessian":[6.045851E2,2.8903867E2,3.155464E2,1.6683629E2,1.22202385E2,1.0771512E2,2.0783127E2,1.4880763E2,1.8028643E1,4.489347E1,7.7308914E1,8.475997E1,2.2955153E1,1.6328462E2,4.454665E1],"tree_param":{"num_deleted":"0","num_feature":"15","num_nodes":"15","size_leaf_vector":"1"}},{"base_weights":[-1.833811E-1,6.6696393E-1,-2.2176099E-1,9.007491E-3,5.3100992E-2,-2.5684811E-2,-1.5438919E-1,1.3563639E-2,-1.5738139E-2],"categories":[],"categories_nodes":[],"categories_segments":[],"categories_sizes":[],"default_left":[0,0,0,0,0,0,0,0,0],"id":13,"left_children":[1,3,5,-1,-1,-1,7,-1,-1],"loss_changes":[1.9028328E1,3.595952E0,9.023088E0,0E0,0E0,0E0,2.255518E1,0E0,0E0],"parents":[2147483647,0,0,1,1,2,2,6,6],"right_children":[2,4,6,-1,-1,-1,8,-1,-1],"split_conditions":[3.3844862E0,3.59777E0,1.8833683E-1,9.007491E-3,5.3100992E-2,-2.5684811E-2,6.6398826E0,1.3563639E-2,-1.5738139E-2],"split_indices":[10,2,11,0,0,0,10,0,0],"split_type":[0,0,0,0,0,0,0,0,0],"sum_hessian":[5.82529E2,2.4941881E1,5.575871E2,9.305227E0,1.5636654E1,1.2122029E2,4.363668E2,1.067186E2,3.296482E2],"tree_param":{"num_deleted":"0","num_feature":"15","num_nodes":"9","size_leaf_vector":"1"}},{"base_weights":[-6.641405E-2,5.200114E-1,-9.875146E-2,-6.2208558E-3,8.0605596E-1,-2.253331E-1,3.6073737E-2,6.447896E-2,1.9429702E-2,3.8392737E-4,-2.1689143E-2,3.652481E-2,-2.3476374E-3],"categories":[],"categories_nodes":[],"categories_segments":[],"categories_sizes":[],"default_left":[0,0,0,0,0,0,0,0,0,0,0,0,0],"id":14,"left_children":[1,3,5,-1,7,9,11,-1,-1,-1,-1,-1,-1],"loss_changes":[1.1061325E1,5.564933E0,9.459698E0,0E0,3.253314E0,1.1021589E1,1.3122176E1,0E0,0E0,0E0,0E0,0E0,0E0],"parents":[2147483647,0,0,1,1,2,2,4,4,5,5,6,6],"right_children":[2,4,6,-1,8,10,12,-1,-1,-1,-1,-1,-1],"split_conditions":[9.361776E-2,3.5853643E0,2.6651366E9,-6.2208558E-3,4.1391873E0,6.2118535E0,8.404224E0,6.447896E-2,1.9429702E-2,3.8392737E-4,-2.1689143E-2,3.652481E-2,-2.3476374E-3],"split_indices":[11,10,12,0,10,9,3,0,0,0,0,0,0],"split_type":[0,0,0,0,0,0,0,0,0,0,0,0,0],"sum_hessian":[5.8362897E2,3.0243065E1,5.533859E2,9.406624E0,2.0836441E1,2.8554056E2,2.6784537E2,1.1433056E1,9.403385E0,1.1887315E2,1.6666742E2,2.985192E1,2.3799344E2],"tree_param":{"num_deleted":"0","num_feature":"15","num_nodes":"13","size_leaf_vector":"1"}},{"base_weights":[2.1436772E-1,7.836998E-3,3.8542935E-1,1.01415336E-1,-2.3894701E-2,6.351427E-1,2.5076726E-1,-2.0993385E-3,4.5429986E-2,2.7651062E-2,5.6939077E-2,-2.2295674E-3,2.0964876E-2],"categories":[],"categories_nodes":[],"categories_segments":[],"categories_sizes":[],"default_left":[0,0,0,0,0,0,0,0,0,0,0,0,0],"id":15,"left_children":[1,3,5,7,-1,9,11,-1,-1,-1,-1,-1,-1],"loss_changes":[2.1638174E1,1.1409241E1,1.119001E1,2.2987013E1,0E0,6.071327E0,8.102668E0,0E0,0E0,0E0,0E0,0E0,0E0],"parents":[2147483647,0,0,1,1,2,2,3,3,5,5,6,6],"right_children":[2,4,6,8,-1,10,12,-1,-1,-1,-1,-1,-1],"split_conditions":[7.838802E0,7.186455E0,2.950542E-1,6.2518344E0,-2.3894701E-2,9.027232E0,4.477101E9,-2.0993385E-3,4.5429986E-2,2.7651062E-2,5.6939077E-2,-2.2295674E-3,2.0964876E-2],"split_indices":[5,6,11,10,0,3,12,0,0,0,0,0,0],"split_type":[0,0,0,0,0,0,0,0,0,0,0,0,0],"sum_hessian":[6.128433E2,2.7788025E2,3.349631E2,2.2926398E2,4.8616287E1,1.1692798E2,2.1803511E2,1.9212262E2,3.7141357E1,8.716467E1,2.9763302E1,6.626626E1,1.5176886E2],"tree_param":{"num_deleted":"0","num_feature":"15","num_nodes":"13","size_leaf_vector":"1"}},{"base_weights":[-1.7269927E-1,4.9924582E-1,-2.3353545E-1,7.983454E-1,-2.8091263E-2,-6.4780295E-2,-3.5503277E-1,1.4869431E-2,5.400037E-2,-6.4392295E-3,6.0290992E-2,-2.8857961E-2,-1.608687E-2],"categories":[],"categories_nodes":[],"categories_segments":[],"categories_sizes":[],"default_left":[0,0,0,0,0,0,0,0,0,0,0,0,0],"id":16,"left_children":[1,3,5,7,-1,9,11,-1,-1,-1,-1,-1,-1],"loss_changes":[2.3425491E1,1.4409017E1,1.0746136E1,3.2973309E0,0E0,1.3008247E1,3.2029152E0,0E0,0E0,0E0,0E0,0E0,0E0],"parents":[2147483647,0,0,1,1,2,2,3,3,5,5,6,6],"right_children":[2,4,6,8,-1,10,12,-1,-1,-1,-1,-1,-1],"split_conditions":[-2.5448495E-1,1.37798395E1,8.128277E0,3.1857397E1,-2.8091263E-2,7.74041E0,8.577353E0,1.4869431E-2,5.400037E-2,-6.4392295E-3,6.0290992E-2,-2.8857961E-2,-1.608687E-2],"split_indices":[7,2,8,4,0,2,2,0,0,0,0,0,0],"split_type":[0,0,0,0,0,0,0,0,0,0,0,0,0],"sum_hessian":[5.725362E2,4.732932E1,5.2520685E2,3.6555542E1,1.0773778E1,2.2016808E2,3.050388E2,9.297736E0,2.7257807E1,2.1100958E2,9.158482E0,8.538949E1,2.1964929E2],"tree_param":{"num_deleted":"0","num_feature":"15","num_nodes":"13","size_leaf_vector":"1"}},{"base_weights":[-6.500548E-2,-1.0701202E-1,2.1770263E-2,2.7213857E-2,-1.4203368E-1,-1.185458E-2,4.1677807E-3],"categories":[],"categories_nodes":[],"categories_segments":[],"categories_sizes":[],"default_left":[0,0,0,0,0,0,0],"id":17,"left_children":[1,3,-1,-1,5,-1,-1],"loss_changes":[1.1185638E1,1.1166681E1,0E0,0E0,7.866091E0,0E0,0E0],"parents":[2147483647,0,0,1,1,4,4],"right_children":[2,4,-1,-1,6,-1,-1],"split_conditions":[2.4947527E-5,9.502179E-2,2.1770263E-2,2.7213857E-2,1.2182461E1,-1.185458E-2,4.1677807E-3],"split_indices":[14,11,0,0,6,0,0],"split_type":[0,0,0,0,0,0,0],"sum_hessian":[5.820364E2,5.3335394E2,4.8682472E1,2.9279453E1,5.0407446E2,3.7911917E2,1.24955315E2],"tree_param":{"num_deleted":"0","num_feature":"15","num_nodes":"7","size_leaf_vector":"1"}},{"base_weights":[2.0210016E-1,-3.0972815E-1,2.780344E-1,2.8993407E-2,-3.359131E-2,6.2106688E-2,2.477613E-1,-3.1061053E-2,2.050729E-2,6.0733855E-2,1.2101509E-2],"categories":[],"categories_nodes":[],"categories_segments":[],"categories_sizes":[],"default_left":[0,0,0,0,0,0,0,0,0,0,0],"id":18,"left_children":[1,3,5,7,-1,-1,9,-1,-1,-1,-1],"loss_changes":[2.415905E1,8.080611E0,1.3658089E1,7.5756927E0,0E0,0E0,1.2968067E1,0E0,0E0,0E0,0E0],"parents":[2147483647,0,0,1,1,2,2,3,3,6,6],"right_children":[2,4,6,8,-1,-1,10,-1,-1,-1,-1],"split_conditions":[4.302677E0,4.217402E0,1.6127771E-1,1.68691E7,-3.359131E-2,6.2106688E-2,-4.661513E-5,-3.1061053E-2,2.050729E-2,6.0733855E-2,1.2101509E-2],"split_indices":[10,9,11,12,0,0,14,0,0,0,0],"split_type":[0,0,0,0,0,0,0,0,0,0,0],"sum_hessian":[6.209412E2,8.004435E1,5.4089685E2,3.733777E1,4.270658E1,1.8439947E1,5.224569E2,1.3575993E1,2.3761776E1,1.727974E1,5.051772E2],"tree_param":{"num_deleted":"0","num_feature":"15","num_nodes":"11","size_leaf_vector":"1"}},{"base_weights":[-1.5629175E-1,4.425426E-2,-3.3010337E-1,-9.3886256E-2,6.0779935E-1,1.0101999E-2,-3.690528E-1,4.709378E-2,-8.186486E-3,1.3423133E-2,6.212461E-2,-3.4626033E-2,-1.6551496E-2],"categories":[],"categories_nodes":[],"categories_segments":[],"categories_sizes":[],"default_left":[0,0,0,0,0,0,0,0,0,0,0,0,0],"id":19,"left_children":[1,3,5,7,9,-1,11,-1,-1,-1,-1,-1,-1],"loss_changes":[2.005138E1,2.0816809E1,6.1707993E0,1.0858232E1,9.736258E0,0E0,5.074379E0,0E0,0E0,0E0,0E0,0E0,0E0],"parents":[2147483647,0,0,1,1,2,2,3,3,4,4,6,6],"right_children":[2,4,6,8,10,-1,12,-1,-1,-1,-1,-1,-1],"split_conditions":[7.8234687E0,2.8452465E-1,3.7348915E1,3.616884E0,2.1334508E9,1.0101999E-2,8.577353E0,4.709378E-2,-8.186486E-3,1.3423133E-2,6.212461E-2,-3.4626033E-2,-1.6551496E-2],"split_indices":[9,11,4,9,12,0,2,0,0,0,0,0,0],"split_type":[0,0,0,0,0,0,0,0,0,0,0,0,0],"sum_hessian":[5.745037E2,2.6667593E2,3.0782782E2,2.1424963E2,5.2426296E1,2.1600143E1,2.8622766E2,1.1319783E1,2.0292986E2,3.083941E1,2.1586887E1,6.147326E1,2.2475441E2],"tree_param":{"num_deleted":"0","num_feature":"15","num_nodes":"13","size_leaf_vector":"1"}},{"base_weights":[-7.4320294E-2,-2.2979347E-2,-2.7467713E-2,3.163282E-2,-5.145653E-2,-6.871067E-3,9.08039E-3],"categories":[],"categories_nodes":[],"categories_segments":[],"categories_sizes":[],"default_left":[0,0,0,0,0,0,0],"id":20,"left_children":[1,-1,3,-1,5,-1,-1],"loss_changes":[9.469305E0,0E0,7.4971905E0,0E0,7.862566E0,0E0,0E0],"parents":[2147483647,0,0,2,2,4,4],"right_children":[2,-1,4,-1,6,-1,-1],"split_conditions":[-1.0914634E-5,-2.2979347E-2,9.021808E-2,3.163282E-2,1.2182461E1,-6.871067E-3,9.08039E-3],"split_indices":[14,0,11,0,6,0,0],"split_type":[0,0,0,0,0,0,0],"sum_hessian":[5.95759E2,7.1803696E1,5.239553E2,1.9934816E1,5.0402048E2,3.7733408E2,1.266864E2],"tree_param":{"num_deleted":"0","num_feature":"15","num_nodes":"7","size_leaf_vector":"1"}},{"base_weights":[2.0982528E-1,-3.1975827E-1,2.859726E-1,5.4322205E-2,-3.553911E-2,7.2789204E-1,2.2925395E-1,-1.841626E-2,3.2318436E-2,3.103714E-2,6.215848E-2,6.851407E-2,1.1412799E-2],"categories":[],"categories_nodes":[],"categories_segments":[],"categories_sizes":[],"default_left":[0,0,0,0,0,0,0,0,0,0,0,0,0],"id":21,"left_children":[1,3,5,7,-1,9,11,-1,-1,-1,-1,-1,-1],"loss_changes":[2.509637E1,9.429688E0,1.3546284E1,7.456354E0,0E0,3.8502846E0,1.1259317E1,0E0,0E0,0E0,0E0,0E0,0E0],"parents":[2147483647,0,0,1,1,2,2,3,3,5,5,6,6],"right_children":[2,4,6,8,-1,10,12,-1,-1,-1,-1,-1,-1],"split_conditions":[4.302677E0,4.203183E0,-1.24567905E-5,3.8422248E0,-3.553911E-2,2.2660197E-1,4.9685135E0,-1.841626E-2,3.2318436E-2,3.103714E-2,6.215848E-2,6.851407E-2,1.1412799E-2],"split_indices":[10,5,14,6,0,7,2,0,0,0,0,0,0],"split_type":[0,0,0,0,0,0,0,0,0,0,0,0,0],"sum_hessian":[6.216522E2,7.797418E1,5.4367804E2,3.6023857E1,4.1950325E1,6.144002E1,4.82238E2,2.0799139E1,1.5224716E1,4.3487095E1,1.7952927E1,1.0679217E1,4.7155878E2],"tree_param":{"num_deleted":"0","num_feature":"15","num_nodes":"13","size_leaf_vector":"1"}},{"base_weights":[-1.530094E-1,5.424244E-1,-1.9733746E-1,2.7720547E-1,5.7371613E-2,-2.5929099E-2,-1.1710074E-1,4.216528E-2,-1.86386E-2,1.6382733E-2,-1.3484681E-2],"categories":[],"categories_nodes":[],"categories_segments":[],"categories_sizes":[],"default_left":[0,0,0,0,0,0,0,0,0,0,0],"id":22,"left_children":[1,3,5,7,-1,-1,9,-1,-1,-1,-1],"loss_changes":[1.7480362E1,4.299963E0,1.1515678E1,6.725362E0,0E0,0E0,2.1409285E1,0E0,0E0,0E0,0E0],"parents":[2147483647,0,0,1,1,2,2,3,3,6,6],"right_children":[2,4,6,8,-1,-1,10,-1,-1,-1,-1],"split_conditions":[3.56259E0,3.8338735E0,1.9283369E-1,1.68691E7,5.7371613E-2,-2.5929099E-2,6.6398826E0,4.216528E-2,-1.86386E-2,1.6382733E-2,-1.3484681E-2],"split_indices":[10,3,11,12,0,0,10,0,0,0,0],"split_type":[0,0,0,0,0,0,0,0,0,0,0],"sum_hessian":[5.666347E2,3.3734844E1,5.3289984E2,2.2213379E1,1.1521466E1,1.2162061E2,4.112792E2,1.2443242E1,9.770137E0,9.6093506E1,3.151857E2],"tree_param":{"num_deleted":"0","num_feature":"15","num_nodes":"11","size_leaf_vector":"1"}},{"base_weights":[-7.327695E-2,2.739504E-2,-1.01046026E-1,-1.4627287E-1,1.7087638E-1,-3.0131424E-2,-6.7066913E-3,4.4630542E-2,4.612297E-3],"categories":[],"categories_nodes":[],"categories_segments":[],"categories_sizes":[],"default_left":[0,0,0,0,0,0,0,0,0],"id":23,"left_children":[1,-1,3,5,7,-1,-1,-1,-1],"loss_changes":[9.292948E0,0E0,6.931305E0,4.8129253E0,4.401429E0,0E0,0E0,0E0,0E0],"parents":[2147483647,0,0,2,2,3,3,4,4],"right_children":[2,-1,4,6,8,-1,-1,-1,-1],"split_conditions":[9.449269E-2,2.739504E-2,1.5659914E-5,3.7820718E0,1.9931597E-1,-3.0131424E-2,-6.7066913E-3,4.4630542E-2,4.612297E-3],"split_indices":[11,0,14,10,11,0,0,0,0],"split_type":[0,0,0,0,0,0,0,0,0],"sum_hessian":[5.9032635E2,2.7289574E1,5.630368E2,4.829966E2,8.004017E1,2.8583977E1,4.5441263E2,9.437283E0,7.060289E1],"tree_param":{"num_deleted":"0","num_feature":"15","num_nodes":"9","size_leaf_vector":"1"}},{"base_weights":[1.9191848E-1,-2.639566E-1,2.546643E-1,6.8848446E-2,-3.3147786E-2,3.3660764E-1,-8.061025E-2,-1.9540489E-2,3.746534E-2,6.679729E-2,1.7140295E-2,-1.8594684E-2,4.004202E-3],"categories":[],"categories_nodes":[],"categories_segments":[],"categories_sizes":[],"default_left":[0,0,0,0,0,0,0,0,0,0,0,0,0],"id":24,"left_children":[1,3,5,7,-1,9,11,-1,-1,-1,-1,-1,-1],"loss_changes":[1.7856693E1,8.419766E0,1.5088783E1,9.757282E0,0E0,1.0379135E1,4.2137313E0,0E0,0E0,0E0,0E0,0E0,0E0],"parents":[2147483647,0,0,1,1,2,2,3,3,5,5,6,6],"right_children":[2,4,6,8,-1,10,12,-1,-1,-1,-1,-1,-1],"split_conditions":[4.288715E0,4.1912622E0,1.0113363E-5,3.8801594E0,-3.3147786E-2,4.9685135E0,6.1439067E-2,-1.9540489E-2,3.746534E-2,6.679729E-2,1.7140295E-2,-1.8594684E-2,4.004202E-3],"split_indices":[10,9,14,6,0,2,7,0,0,0,0,0,0],"split_type":[0,0,0,0,0,0,0,0,0,0,0,0,0],"sum_hessian":[6.235428E2,7.525402E1,5.482888E2,3.7690178E1,3.7563843E1,4.407263E2,1.0756249E2,2.2250473E1,1.5439703E1,1.3208523E1,4.2751776E2,4.0364994E1,6.7197495E1],"tree_param":{"num_deleted":"0","num_feature":"15","num_nodes":"13","size_leaf_vector":"1"}},{"base_weights":[-1.3116327E-1,3.604339E-1,-1.9098206E-1,3.757182E-2,-2.5601126E-2,-9.4111815E-2,-3.4832227E-1,-1.854566E-2,4.9250848E-3,-3.554827E-2,-1.3346537E-2],"categories":[],"categories_nodes":[],"categories_segments":[],"categories_sizes":[],"default_left":[0,0,0,0,0,0,0,0,0,0,0],"id":25,"left_children":[1,3,5,-1,-1,7,9,-1,-1,-1,-1],"loss_changes":[1.7166252E1,1.6574232E1,7.902561E0,0E0,0E0,1.4200865E1,6.160475E0,0E0,0E0,0E0,0E0],"parents":[2147483647,0,0,1,1,2,2,5,5,6,6],"right_children":[2,4,6,-1,-1,8,10,-1,-1,-1,-1],"split_conditions":[-2.11296E-1,1.408433E1,9.351706E0,3.757182E-2,-2.5601126E-2,1.9283369E-1,3.6504874E-1,-1.854566E-2,4.9250848E-3,-3.554827E-2,-1.3346537E-2],"split_indices":[7,1,8,0,0,11,11,0,0,0,0],"split_type":[0,0,0,0,0,0,0,0,0,0,0],"sum_hessian":[5.8331226E2,6.3064266E1,5.20248E2,4.5585503E1,1.7478764E1,3.2242358E2,1.9782442E2,1.3939964E2,1.8302394E2,5.2778633E1,1.4504579E2],"tree_param":{"num_deleted":"0","num_feature":"15","num_nodes":"11","size_leaf_vector":"1"}},{"base_weights":[-4.6242964E-2,1.8347396E-1,-1.2017145E-1,-3.4806736E-2,3.344392E-1,-3.60982E-1,3.838212E-2,6.3737765E-2,1.3793911E-2,-4.247789E-3,-2.7191302E-2,3.7934136E-2,-2.36201E-3],"categories":[],"categories_nodes":[],"categories_segments":[],"categories_sizes":[],"default_left":[0,0,0,0,0,0,0,0,0,0,0,0,0],"id":26,"left_children":[1,3,5,-1,7,9,11,-1,-1,-1,-1,-1,-1],"loss_changes":[9.788789E0,1.7201849E1,1.667826E1,0E0,8.135418E0,6.338087E0,1.3796743E1,0E0,0E0,0E0,0E0,0E0,0E0],"parents":[2147483647,0,0,1,1,2,2,4,4,5,5,6,6],"right_children":[2,4,6,-1,8,10,12,-1,-1,-1,-1,-1,-1],"split_conditions":[6.584932E0,3.5640526E0,2.6651366E9,-3.4806736E-2,1.837235E8,1.7094546E9,8.404224E0,6.3737765E-2,1.3793911E-2,-4.247789E-3,-2.7191302E-2,3.7934136E-2,-2.36201E-3],"split_indices":[8,10,12,0,12,12,3,0,0,0,0,0,0],"split_type":[0,0,0,0,0,0,0,0,0,0,0,0,0],"sum_hessian":[5.760854E2,1.4000867E2,4.3607672E2,2.1806557E1,1.1820212E2,1.7314688E2,2.6292984E2,1.0931568E1,1.07270546E2,5.435819E1,1.1878869E2,2.9188951E1,2.3374089E2],"tree_param":{"num_deleted":"0","num_feature":"15","num_nodes":"13","size_leaf_vector":"1"}},{"base_weights":[1.8200935E-1,-6.7681134E-2,2.933271E-1,-1.6731751E-1,5.754998E-1,5.141788E-2,2.4168374E-1,-5.318688E-4,-2.468728E-2,3.5376407E-3,4.7372572E-2,-2.3687841E-2,1.7747428E-2],"categories":[],"categories_nodes":[],"categories_segments":[],"categories_sizes":[],"default_left":[0,0,0,0,0,0,0,0,0,0,0,0,0],"id":27,"left_children":[1,3,5,7,9,-1,11,-1,-1,-1,-1,-1,-1],"loss_changes":[1.7775202E1,1.262804E1,1.4360714E1,7.4628644E0,3.7068577E0,0E0,2.1459618E1,0E0,0E0,0E0,0E0,0E0,0E0],"parents":[2147483647,0,0,1,1,2,2,3,3,4,4,6,6],"right_children":[2,4,6,8,10,-1,12,-1,-1,-1,-1,-1,-1],"split_conditions":[6.2518344E0,6.991073E1,6.953736E0,2.1897809E-1,4.38845E0,5.141788E-2,7.789259E0,-5.318688E-4,-2.468728E-2,3.5376407E-3,4.7372572E-2,-2.3687841E-2,1.7747428E-2],"split_indices":[10,4,6,11,10,0,5,0,0,0,0,0,0],"split_type":[0,0,0,0,0,0,0,0,0,0,0,0,0],"sum_hessian":[6.3871075E2,1.9683093E2,4.4187985E2,1.7064095E2,2.618998E1,3.2933735E1,4.089461E2,1.0911234E2,6.1528606E1,9.396058E0,1.6793922E1,4.270026E1,3.6624585E2],"tree_param":{"num_deleted":"0","num_feature":"15","num_nodes":"13","size_leaf_vector":"1"}},{"base_weights":[-1.4372121E-1,4.3601462E-1,-1.9421941E-1,4.2877745E-2,-2.4192462E-2,3.3511244E-2,-2.1431345E-1,-2.4018345E-2,-7.647308E-3],"categories":[],"categories_nodes":[],"categories_segments":[],"categories_sizes":[],"default_left":[0,0,0,0,0,0,0,0,0],"id":28,"left_children":[1,3,5,-1,-1,-1,7,-1,-1],"loss_changes":[1.6379438E1,1.3265656E1,8.266598E0,0E0,0E0,0E0,8.35495E0,0E0,0E0],"parents":[2147483647,0,0,1,1,2,2,6,6],"right_children":[2,4,6,-1,-1,-1,8,-1,-1],"split_conditions":[-2.5448495E-1,1.408433E1,3.6752071E0,4.2877745E-2,-2.4192462E-2,3.3511244E-2,1.9315183E-1,-2.4018345E-2,-7.647308E-3],"split_indices":[7,1,9,0,0,0,11,0,0],"split_type":[0,0,0,0,0,0,0,0,0],"sum_hessian":[5.590586E2,4.4577538E1,5.14481E2,3.2211823E1,1.2365714E1,1.2408102E1,5.0207294E2,1.2953627E2,3.7253668E2],"tree_param":{"num_deleted":"0","num_feature":"15","num_nodes":"9","size_leaf_vector":"1"}},{"base_weights":[-3.369316E-2,-6.9770396E-2,1.913023E-2,1.305959E-1,-1.5071772E-1,-2.7970206E-2,1.5405813E-2,-3.0395111E-2,-3.4945204E-3],"categories":[],"categories_nodes":[],"categories_segments":[],"categories_sizes":[],"default_left":[0,0,0,0,0,0,0,0,0],"id":29,"left_children":[1,3,-1,5,7,-1,-1,-1,-1],"loss_changes":[7.9581995E0,8.647081E0,0E0,1.4341654E1,1.31960945E1,0E0,0E0,0E0,0E0],"parents":[2147483647,0,0,1,1,3,3,4,4],"right_children":[2,4,-1,6,8,-1,-1,-1,-1],"split_conditions":[2.4947527E-5,6.3195214E0,1.913023E-2,3.5640526E0,6.9421277E0,-2.7970206E-2,1.5405813E-2,-3.0395111E-2,-3.4945204E-3],"split_indices":[14,9,0,10,10,0,0,0,0],"split_type":[0,0,0,0,0,0,0,0,0],"sum_hessian":[5.8301544E2,5.3258734E2,5.0428116E1,1.530272E2,3.7956012E2,2.8631577E1,1.2439563E2,6.831391E1,3.112462E2],"tree_param":{"num_deleted":"0","num_feature":"15","num_nodes":"9","size_leaf_vector":"1"}},{"base_weights":[1.8127307E-1,-1.2891802E-2,3.3780164E-1,-1.0429511E-1,3.5716346E-1,5.426358E-1,1.7664859E-1,-1.0279422E-3,-2.3085678E-2,3.7241884E-2,-1.3665647E-2,2.3812987E-2,4.9824104E-2,-2.884737E-2,1.7551417E-2],"categories":[],"categories_nodes":[],"categories_segments":[],"categories_sizes":[],"default_left":[0,0,0,0,0,0,0,0,0,0,0,0,0,0,0],"id":30,"left_children":[1,3,5,7,9,11,13,-1,-1,-1,-1,-1,-1,-1,-1],"loss_changes":[1.9068861E1,9.46075E0,1.140276E1,5.987533E0,1.0564291E1,5.995716E0,1.9005516E1,0E0,0E0,0E0,0E0,0E0,0E0,0E0,0E0],"parents":[2147483647,0,0,1,1,2,2,3,3,4,4,5,5,6,6],"right_children":[2,4,6,8,10,12,14,-1,-1,-1,-1,-1,-1,-1,-1],"split_conditions":[7.838802E0,1.7148443E-1,1.0387555E1,4.292577E-6,1.7740979E9,9.055162E0,4.423183E9,-1.0279422E-3,-2.3085678E-2,3.7241884E-2,-1.3665647E-2,2.3812987E-2,4.9824104E-2,-2.884737E-2,1.7551417E-2],"split_indices":[5,7,5,14,12,3,12,0,0,0,0,0,0,0,0],"split_type":[0,0,0,0,0,0,0,0,0,0,0,0,0,0,0],"sum_hessian":[6.266154E2,2.7962622E2,3.469892E2,2.2447916E2,5.514705E1,1.524154E2,1.9457379E2,1.7639091E2,4.8088238E1,3.6301243E1,1.8845808E1,1.16092896E2,3.6322514E1,3.2356956E1,1.6221684E2],"tree_param":{"num_deleted":"0","num_feature":"15","num_nodes":"15","size_leaf_vector":"1"}},{"base_weights":[-1.5470797E-1,1.644088E-2,-3.1466284E-1,-1.3616218E-1,5.2236533E-1,-3.3066627E-2,-2.3603939E-1,-1.3249438E-2,9.14624E-3,3.756653E-2,-1.7215764E-2,2.3008376E-2,-1.7345553E-2],"categories":[],"categories_nodes":[],"categories_segments":[],"categories_sizes":[],"default_left":[0,0,0,0,0,0,0,0,0,0,0,0,0],"id":31,"left_children":[1,3,5,7,9,-1,11,-1,-1,-1,-1,-1,-1],"loss_changes":[1.5571156E1,2.1231695E1,6.4313526E0,6.5402203E0,8.29459E0,0E0,1.1521534E1,0E0,0E0,0E0,0E0,0E0,0E0],"parents":[2147483647,0,0,1,1,2,2,3,3,4,4,6,6],"right_children":[2,4,6,8,10,-1,12,-1,-1,-1,-1,-1,-1],"split_conditions":[7.870051E0,2.8089893E-1,8.577353E0,7.2347865E0,6.54199E0,-3.3066627E-2,8.623842E0,-1.3249438E-2,9.14624E-3,3.756653E-2,-1.7215764E-2,2.3008376E-2,-1.7345553E-2],"split_indices":[5,11,2,3,10,0,6,0,0,0,0,0,0],"split_type":[0,0,0,0,0,0,0,0,0,0,0,0,0],"sum_hessian":[5.679582E2,2.743174E2,2.9364078E2,2.1079417E2,6.352323E1,6.3633133E1,2.3000764E2,1.5732498E2,5.3469204E1,5.364201E1,9.881221E0,2.407912E1,2.0592851E2],"tree_param":{"num_deleted":"0","num_feature":"15","num_nodes":"13","size_leaf_vector":"1"}},{"base_weights":[-2.4898015E-2,-6.358049E-2,3.5600385E-1,4.756235E-1,-9.725806E-2,4.7494967E-2,2.1398306E-1,-8.702739E-3,4.3703895E-2,-1.1593824E-2,2.008734E-3,-1.725864E-2,2.067005E-2],"categories":[],"categories_nodes":[],"categories_segments":[],"categories_sizes":[],"default_left":[0,0,0,0,0,0,0,0,0,0,0,0,0],"id":32,"left_children":[1,3,5,7,9,-1,11,-1,-1,-1,-1,-1,-1],"loss_changes":[8.562986E0,9.588068E0,3.7097173E0,6.1896815E0,7.4378657E0,0E0,3.5374305E0,0E0,0E0,0E0,0E0,0E0,0E0],"parents":[2147483647,0,0,1,1,2,2,3,3,4,4,6,6],"right_children":[2,4,6,8,10,-1,12,-1,-1,-1,-1,-1,-1],"split_conditions":[2.4947527E-5,9.4920345E-2,2.7717108E-1,3.5804348E0,2.7106268E9,4.7494967E-2,8.730171E0,-8.702739E-3,4.3703895E-2,-1.1593824E-2,2.008734E-3,-1.725864E-2,2.067005E-2],"split_indices":[14,11,11,10,12,0,9,0,0,0,0,0,0],"split_type":[0,0,0,0,0,0,0,0,0,0,0,0,0],"sum_hessian":[5.8163196E2,5.283009E2,5.333106E1,3.079562E1,4.9750528E2,1.1463229E1,4.1867832E1,1.0162992E1,2.0632627E1,2.708866E2,2.266187E2,9.591876E0,3.2275955E1],"tree_param":{"num_deleted":"0","num_feature":"15","num_nodes":"13","size_leaf_vector":"1"}},{"base_weights":[1.7666745E-1,2.066429E-2,3.303896E-1,-2.2254227E-1,1.15726866E-1,-2.9046182E-2,3.5949966E-1,6.666893E-3,-3.7190136E-2,2.2476068E-2,-7.5852913E-3,1.72553E-2,4.430452E-2],"categories":[],"categories_nodes":[],"categories_segments":[],"categories_sizes":[],"default_left":[0,0,0,0,0,0,0,0,0,0,0,0,0],"id":33,"left_children":[1,3,5,7,9,-1,11,-1,-1,-1,-1,-1,-1],"loss_changes":[1.5146189E1,7.2662544E0,7.9485893E0,1.3598074E1,1.6568237E1,0E0,6.433094E0,0E0,0E0,0E0,0E0,0E0,0E0],"parents":[2147483647,0,0,1,1,2,2,3,3,4,4,6,6],"right_children":[2,4,6,8,10,-1,12,-1,-1,-1,-1,-1,-1],"split_conditions":[9.03832E-2,6.024746E0,4.4797335E0,4.478268E0,2.3817032E9,-2.9046182E-2,6.355446E-1,6.666893E-3,-3.7190136E-2,2.2476068E-2,-7.5852913E-3,1.72553E-2,4.430452E-2],"split_indices":[7,9,9,6,12,0,11,0,0,0,0,0,0],"split_type":[0,0,0,0,0,0,0,0,0,0,0,0,0],"sum_hessian":[6.3218915E2,3.1405878E2,3.1813037E2,8.802203E1,2.2603674E2,1.0302347E1,3.0782803E2,4.989704E1,3.8124992E1,1.0532707E2,1.2070967E2,2.7775217E2,3.0075853E1],"tree_param":{"num_deleted":"0","num_feature":"15","num_nodes":"13","size_leaf_vector":"1"}},{"base_weights":[-1.4292413E-1,3.4592357E-1,-2.0184435E-1,5.8140826E-1,-3.2214407E-2,-5.8053814E-2,-3.279537E-1,-0E0,3.9862853E-2,-1.2916427E-2,1.1555884E-2,-3.1152101E-2,-1.3906304E-2],"categories":[],"categories_nodes":[],"categories_segments":[],"categories_sizes":[],"default_left":[0,0,0,0,0,0,0,0,0,0,0,0,0],"id":34,"left_children":[1,3,5,7,-1,9,11,-1,-1,-1,-1,-1,-1],"loss_changes":[1.6102448E1,1.3189417E1,9.02261E0,3.8075638E0,0E0,1.0892691E1,4.7192287E0,0E0,0E0,0E0,0E0,0E0,0E0],"parents":[2147483647,0,0,1,1,2,2,3,3,5,5,6,6],"right_children":[2,4,6,8,-1,10,12,-1,-1,-1,-1,-1,-1],"split_conditions":[-1.8921515E-1,1.3705381E1,8.292313E0,3.1608948E-1,-3.2214407E-2,2.08534E-1,8.58399E0,-0E0,3.9862853E-2,-1.2916427E-2,1.1555884E-2,-3.1152101E-2,-1.3906304E-2],"split_indices":[7,2,8,11,0,11,2,0,0,0,0,0,0],"split_type":[0,0,0,0,0,0,0,0,0,0,0,0,0],"sum_hessian":[5.585565E2,5.9870052E1,4.986865E2,4.785042E1,1.20196295E1,2.3335194E2,2.6533453E2,9.249609E0,3.8600815E1,1.4102362E2,9.232832E1,6.536223E1,1.9997232E2],"tree_param":{"num_deleted":"0","num_feature":"15","num_nodes":"13","size_leaf_vector":"1"}},{"base_weights":[-2.0419624E-2,-1.741685E-2,2.4598878E-2,-4.7021363E-2,2.570769E-1,5.388362E-4,-3.2657564E-2,7.353545E-2,7.747709E-3],"categories":[],"categories_nodes":[],"categories_segments":[],"categories_sizes":[],"default_left":[0,0,0,0,0,0,0,0,0],"id":35,"left_children":[1,-1,3,5,7,-1,-1,-1,-1],"loss_changes":[7.9006534E0,0E0,8.624726E0,1.2186787E1,1.5190144E1,0E0,0E0,0E0,0E0],"parents":[2147483647,0,0,2,2,3,3,4,4],"right_children":[2,-1,4,6,8,-1,-1,-1,-1],"split_conditions":[-8.897731E-6,-1.741685E-2,1.1757553E1,3.7662274E-1,1.4148672E1,5.388362E-4,-3.2657564E-2,7.353545E-2,7.747709E-3],"split_indices":[14,0,10,11,8,0,0,0,0],"split_type":[0,0,0,0,0,0,0,0,0],"sum_hessian":[5.9619366E2,7.923266E1,5.16961E2,3.951722E2,1.2178879E2,3.5782507E2,3.734715E1,1.1781401E1,1.10007385E2],"tree_param":{"num_deleted":"0","num_feature":"15","num_nodes":"9","size_leaf_vector":"1"}},{"base_weights":[1.56306E-1,-2.4102241E-1,2.0841072E-1,8.2149826E-2,-3.3219315E-2,6.249575E-2,1.8200915E-1,-7.990424E-3,4.3150358E-2,-3.8221784E-2,1.1406217E-2],"categories":[],"categories_nodes":[],"categories_segments":[],"categories_sizes":[],"default_left":[0,0,0,0,0,0,0,0,0,0,0],"id":36,"left_children":[1,3,5,7,-1,-1,9,-1,-1,-1,-1],"loss_changes":[1.2980422E1,8.4393215E0,1.3324064E1,6.0852146E0,0E0,0E0,1.111661E1,0E0,0E0,0E0,0E0],"parents":[2147483647,0,0,1,1,2,2,3,3,6,6],"right_children":[2,4,6,8,-1,-1,10,-1,-1,-1,-1],"split_conditions":[4.281912E0,4.217402E0,4.9685135E0,4.425925E0,-3.3219315E-2,6.249575E-2,5.454855E0,-7.990424E-3,4.3150358E-2,-3.8221784E-2,1.1406217E-2],"split_indices":[10,9,2,8,0,0,3,0,0,0,0],"split_type":[0,0,0,0,0,0,0,0,0,0,0],"sum_hessian":[6.2631604E2,7.2403076E1,5.5391296E2,3.8064358E1,3.4338722E1,1.5164751E1,5.387482E2,2.880212E1,9.262237E0,1.4022832E1,5.247254E2],"tree_param":{"num_deleted":"0","num_feature":"15","num_nodes":"11","size_leaf_vector":"1"}},{"base_weights":[-1.3091473E-1,2.4647364E-2,-2.8044245E-1,-1.2354147E-1,6.012112E-1,-2.810714E-2,-2.2061312E-1,3.0449595E-2,-9.373846E-3,1.1478991E-2,6.2311154E-2,2.1064142E-2,-1.608233E-2],"categories":[],"categories_nodes":[],"categories_segments":[],"categories_sizes":[],"default_left":[0,0,0,0,0,0,0,0,0,0,0,0,0],"id":37,"left_children":[1,3,5,7,9,-1,11,-1,-1,-1,-1,-1,-1],"loss_changes":[1.2943619E1,2.3319077E1,3.7783947E0,6.634555E0,1.1373377E1,0E0,9.387117E0,0E0,0E0,0E0,0E0,0E0,0E0],"parents":[2147483647,0,0,1,1,2,2,3,3,4,4,6,6],"right_children":[2,4,6,8,10,-1,12,-1,-1,-1,-1,-1,-1],"split_conditions":[7.870051E0,2.8452465E-1,8.827219E0,3.6752071E0,2.1334508E9,-2.810714E-2,9.2703705E0,3.0449595E-2,-9.373846E-3,1.1478991E-2,6.2311154E-2,2.1064142E-2,-1.608233E-2],"split_indices":[5,11,1,9,12,0,8,0,0,0,0,0,0],"split_type":[0,0,0,0,0,0,0,0,0,0,0,0,0],"sum_hessian":[5.5559753E2,2.722246E2,2.8337296E2,2.1662997E2,5.5594627E1,5.8711647E1,2.246613E2,1.34939E1,2.0313608E2,3.191551E1,2.3679115E1,2.3089201E1,2.015721E2],"tree_param":{"num_deleted":"0","num_feature":"15","num_nodes":"13","size_leaf_vector":"1"}},{"base_weights":[-3.635156E-2,5.076478E-1,-6.904602E-2,2.0285496E-3,3.922831E-2,-1.1424438E-1,1.8817E-1,-4.435578E-3,-3.65762E-2,5.6157865E-2,-1.6525147E-3],"categories":[],"categories_nodes":[],"categories_segments":[],"categories_sizes":[],"default_left":[0,0,0,0,0,0,0,0,0,0,0],"id":38,"left_children":[1,3,5,-1,-1,7,9,-1,-1,-1,-1],"loss_changes":[1.0258789E1,3.0303373E0,6.339021E0,0E0,0E0,8.619275E0,1.4684122E1,0E0,0E0,0E0,0E0],"parents":[2147483647,0,0,1,1,2,2,5,5,6,6],"right_children":[2,4,6,-1,-1,8,10,-1,-1,-1,-1],"split_conditions":[9.502179E-2,3.5853643E0,1.6334417E1,2.0285496E-3,3.922831E-2,1.4908041E1,1.922866E1,-4.435578E-3,-3.65762E-2,5.6157865E-2,-1.6525147E-3],"split_indices":[11,10,0,0,0,5,8,0,0,0,0],"split_type":[0,0,0,0,0,0,0,0,0,0,0],"sum_hessian":[5.774207E2,3.2463505E1,5.449572E2,9.820096E0,2.264341E1,4.6378497E2,8.117222E1,4.3669266E2,2.7092306E1,1.685432E1,6.43179E1],"tree_param":{"num_deleted":"0","num_feature":"15","num_nodes":"11","size_leaf_vector":"1"}},{"base_weights":[1.6208743E-1,4.9618724E-1,1.0233293E-1,4.9946934E-2,2.0751612E-2,6.881324E-2,4.2683538E-2,-2.616893E-2,5.8252737E-3],"categories":[],"categories_nodes":[],"categories_segments":[],"categories_sizes":[],"default_left":[0,0,0,0,0,0,0,0,0],"id":39,"left_children":[1,3,5,-1,-1,7,-1,-1,-1],"loss_changes":[1.1939433E1,4.342882E0,1.1341831E1,0E0,0E0,9.500332E0,0E0,0E0,0E0],"parents":[2147483647,0,0,1,1,2,2,5,5],"right_children":[2,4,6,-1,-1,8,-1,-1,-1],"split_conditions":[-8.690971E-6,-4.3114494E-5,6.907996E-1,4.9946934E-2,2.0751612E-2,-2.1117951E-1,4.2683538E-2,-2.616893E-2,5.8252737E-3],"split_indices":[14,14,11,0,0,7,0,0,0],"split_type":[0,0,0,0,0,0,0,0,0],"sum_hessian":[5.999465E2,9.064537E1,5.093011E2,2.0582077E1,7.006329E1,4.8524844E2,2.405265E1,3.021282E1,4.5503564E2],"tree_param":{"num_deleted":"0","num_feature":"15","num_nodes":"9","size_leaf_vector":"1"}},{"base_weights":[-1.0311855E-1,5.9942756E-2,-2.6178896E-1,-7.580798E-2,5.1902795E-1,-2.8926132E-2,-1.8853667E-1,-1.2916375E-2,5.3871702E-3,1.3412681E-2,4.9731817E-2,2.340883E-2,-1.4391598E-2],"categories":[],"categories_nodes":[],"categories_segments":[],"categories_sizes":[],"default_left":[0,0,0,0,0,0,0,0,0,0,0,0,0],"id":40,"left_children":[1,3,5,7,9,-1,11,-1,-1,-1,-1,-1,-1],"loss_changes":[1.4071606E1,1.673238E1,5.185705E0,5.6339808E0,6.307667E0,0E0,9.352676E0,0E0,0E0,0E0,0E0,0E0,0E0],"parents":[2147483647,0,0,1,1,2,2,3,3,4,4,6,6],"right_children":[2,4,6,8,10,-1,12,-1,-1,-1,-1,-1,-1],"split_conditions":[7.870051E0,2.8089893E-1,8.727411E0,1.9283369E-1,2.1791816E9,-2.8926132E-2,8.979678E0,-1.2916375E-2,5.3871702E-3,1.3412681E-2,4.9731817E-2,2.340883E-2,-1.4391598E-2],"split_indices":[5,11,3,11,12,0,3,0,0,0,0,0,0],"split_type":[0,0,0,0,0,0,0,0,0,0,0,0,0],"sum_hessian":[5.431119E2,2.6775638E2,2.7535547E2,2.067055E2,6.105088E1,6.0110306E1,2.1524518E2,1.0843437E2,9.827113E1,3.5499893E1,2.555099E1,2.2220278E1,1.930249E2],"tree_param":{"num_deleted":"0","num_feature":"15","num_nodes":"13","size_leaf_vector":"1"}},{"base_weights":[-5.0674662E-2,-2.1785613E-2,-1.0219545E-2,-7.9744026E-2,2.071519E-1,8.0122175E-3,-1.136141E-2,6.662218E-2,4.908061E-3],"categories":[],"categories_nodes":[],"categories_segments":[],"categories_sizes":[],"default_left":[0,0,0,0,0,0,0,0,0],"id":41,"left_children":[1,-1,3,5,7,-1,-1,-1,-1],"loss_changes":[7.897257E0,0E0,7.7344527E0,1.0901585E1,1.4530508E1,0E0,0E0,0E0,0E0],"parents":[2147483647,0,0,2,2,3,3,4,4],"right_children":[2,-1,4,6,8,-1,-1,-1,-1],"split_conditions":[-1.2456734E-5,-2.1785613E-2,1.2182461E1,6.645665E0,1.4148672E1,8.0122175E-3,-1.136141E-2,6.662218E-2,4.908061E-3],"split_indices":[14,0,6,8,8,0,0,0,0],"split_type":[0,0,0,0,0,0,0,0,0],"sum_hessian":[5.718916E2,6.0129883E1,5.1176175E2,3.8803177E2,1.2372997E2,1.3881778E2,2.4921399E2,1.2930946E1,1.1079903E2],"tree_param":{"num_deleted":"0","num_feature":"15","num_nodes":"9","size_leaf_vector":"1"}},{"base_weights":[1.2943494E-1,4.1372785E-1,4.1104365E-2,4.1996095E-2,3.2290602E-1,-1.05981365E-1,1.8662412E-1,-1.8652702E-3,2.2686576E-2,6.679459E-4,-1.5309171E-2,2.7700832E-2,1.6813718E-3],"categories":[],"categories_nodes":[],"categories_segments":[],"categories_sizes":[],"default_left":[0,0,0,0,0,0,0,0,0,0,0,0,0],"id":42,"left_children":[1,3,5,-1,7,9,11,-1,-1,-1,-1,-1,-1],"loss_changes":[1.5810131E1,4.549156E0,1.0315863E1,0E0,3.6666498E0,4.8208094E0,1.1819544E1,0E0,0E0,0E0,0E0,0E0,0E0],"parents":[2147483647,0,0,1,1,2,2,4,4,5,5,6,6],"right_children":[2,4,6,-1,8,10,12,-1,-1,-1,-1,-1,-1],"split_conditions":[-2.1337099E-16,-3.0687956E-5,7.9163165E0,4.1996095E-2,5.989603E0,2.1871078E-1,9.014565E0,-1.8652702E-3,2.2686576E-2,6.679459E-4,-1.5309171E-2,2.7700832E-2,1.6813718E-3],"split_indices":[14,14,6,0,1,11,6,0,0,0,0,0,0],"split_type":[0,0,0,0,0,0,0,0,0,0,0,0,0],"sum_hessian":[6.304594E2,1.4911829E2,4.8134116E2,3.0721888E1,1.1839639E2,2.3923506E2,2.421061E2,2.2953094E1,9.54433E1,1.4116606E2,9.806899E1,8.038675E1,1.6171935E2],"tree_param":{"num_deleted":"0","num_feature":"15","num_nodes":"13","size_leaf_vector":"1"}},{"base_weights":[-1.4015251E-1,3.0754557E-1,-1.9589739E-1,5.916069E-1,-3.241678E-2,3.496353E-2,-2.2066249E-1,1.9416198E-2,5.804342E-2,-9.191796E-3,-2.1426454E-2],"categories":[],"categories_nodes":[],"categories_segments":[],"categories_sizes":[],"default_left":[0,0,0,0,0,0,0,0,0,0,0],"id":43,"left_children":[1,3,5,7,-1,-1,9,-1,-1,-1,-1],"loss_changes":[1.37447605E1,1.5517022E1,1.0031509E1,4.94174E0,0E0,0E0,4.2859573E0,0E0,0E0,0E0,0E0],"parents":[2147483647,0,0,1,1,2,2,3,3,6,6],"right_children":[2,4,6,8,-1,-1,10,-1,-1,-1,-1],"split_conditions":[-1.8675749E-1,1.37798395E1,3.6752071E0,2.4034857E9,-3.241678E-2,3.496353E-2,1.2282381E1,1.9416198E-2,5.804342E-2,-9.191796E-3,-2.1426454E-2],"split_indices":[7,2,9,12,0,0,3,0,0,0,0],"split_type":[0,0,0,0,0,0,0,0,0,0,0],"sum_hessian":[5.5021765E2,6.071038E1,4.8950726E2,4.61481E1,1.456228E1,1.402509E1,4.7548215E2,3.0477001E1,1.5671102E1,3.5767746E2,1.17804695E2],"tree_param":{"num_deleted":"0","num_feature":"15","num_nodes":"11","size_leaf_vector":"1"}},{"base_weights":[-3.768965E-2,-1.2811776E-1,1.2214365E-1,1.9654013E-2,-1.5830426E-1,1.6548923E-1,-3.0029817E-2,-1.4203366E-2,-1.1845339E-3,-0E0,1.7031299E-2],"categories":[],"categories_nodes":[],"categories_segments":[],"categories_sizes":[],"default_left":[0,0,0,0,0,0,0,0,0,0,0],"id":44,"left_children":[1,3,5,-1,7,9,-1,-1,-1,-1,-1],"loss_changes":[8.157862E0,5.2548485E0,5.861434E0,0E0,4.5335283E0,4.4898176E0,0E0,0E0,0E0,0E0,0E0],"parents":[2147483647,0,0,1,1,2,2,4,4,5,5],"right_children":[2,4,6,-1,8,10,-1,-1,-1,-1,-1],"split_conditions":[1.2983321E-15,9.449269E-2,6.907996E-1,1.9654013E-2,2.7647183E9,2.8001475E9,-3.0029817E-2,-1.4203366E-2,-1.1845339E-3,-0E0,1.7031299E-2],"split_indices":[14,11,11,0,12,12,0,0,0,0,0],"split_type":[0,0,0,0,0,0,0,0,0,0,0],"sum_hessian":[5.6394214E2,3.6040573E2,2.0353638E2,2.0978914E1,3.3942682E2,1.9128647E2,1.2249907E1,1.9767824E2,1.4174858E2,8.828863E1,1.0299784E2],"tree_param":{"num_deleted":"0","num_feature":"15","num_nodes":"11","size_leaf_vector":"1"}},{"base_weights":[1.2765044E-1,-4.1037187E-2,2.5832975E-1,4.3384794E-2,-2.3023752E-2,4.7355294E-1,1.13700315E-1,-4.6297982E-3,3.826112E-2,1.8842604E-2,5.3634316E-2,-1.7205033E-2,1.2361414E-2],"categories":[],"categories_nodes":[],"categories_segments":[],"categories_sizes":[],"default_left":[0,0,0,0,0,0,0,0,0,0,0,0,0],"id":45,"left_children":[1,3,5,7,-1,9,11,-1,-1,-1,-1,-1,-1],"loss_changes":[1.3821157E1,8.6593685E0,1.0950247E1,1.8349913E1,0E0,9.217854E0,9.808135E0,0E0,0E0,0E0,0E0,0E0,0E0],"parents":[2147483647,0,0,1,1,2,2,3,3,5,5,6,6],"right_children":[2,4,6,8,-1,10,12,-1,-1,-1,-1,-1,-1],"split_conditions":[7.838802E0,7.186455E0,9.064064E0,6.232844E0,-2.3023752E-2,9.027232E0,4.4287457E9,-4.6297982E-3,3.826112E-2,1.8842604E-2,5.3634316E-2,-1.7205033E-2,1.2361414E-2],"split_indices":[5,6,6,10,0,3,12,0,0,0,0,0,0],"split_type":[0,0,0,0,0,0,0,0,0,0,0,0,0],"sum_hessian":[6.261417E2,2.7321555E2,3.5292618E2,2.2295969E2,5.0255856E1,1.4149922E2,2.1142697E2,1.8647911E2,3.6480576E1,1.1169835E2,2.980087E1,4.312336E1,1.6830362E2],"tree_param":{"num_deleted":"0","num_feature":"15","num_nodes":"13","size_leaf_vector":"1"}},{"base_weights":[-1.09759584E-1,4.1223835E-2,-2.621534E-1,-2.2350322E-1,2.6329875E-1,-5.2268714E-1,-1.918089E-1,2.6646985E-2,-1.7429015E-2,4.624393E-2,9.655915E-3,-3.423488E-3,-3.540945E-2,2.4607249E-2,-1.4676834E-2],"categories":[],"categories_nodes":[],"categories_segments":[],"categories_sizes":[],"default_left":[0,0,0,0,0,0,0,0,0,0,0,0,0,0,0],"id":46,"left_children":[1,3,5,7,9,11,13,-1,-1,-1,-1,-1,-1,-1,-1],"loss_changes":[1.2545963E1,1.6100836E1,4.9122734E0,8.001602E0,7.4978027E0,3.0180511E0,9.927045E0,0E0,0E0,0E0,0E0,0E0,0E0,0E0,0E0],"parents":[2147483647,0,0,1,1,2,2,3,3,4,4,5,5,6,6],"right_children":[2,4,6,8,10,12,14,-1,-1,-1,-1,-1,-1,-1,-1],"split_conditions":[7.8563304E0,1.9767854E-1,8.577353E0,3.6752071E0,5.6111073E0,1.8235668E9,9.2703705E0,2.6646985E-2,-1.7429015E-2,4.624393E-2,9.655915E-3,-3.423488E-3,-3.540945E-2,2.4607249E-2,-1.4676834E-2],"split_indices":[5,11,2,9,8,12,8,0,0,0,0,0,0,0,0],"split_type":[0,0,0,0,0,0,0,0,0,0,0,0,0,0,0],"sum_hessian":[5.4444135E2,2.7339618E2,2.7104517E2,1.2461374E2,1.4878242E2,5.7164795E1,2.1388036E2,1.4058124E1,1.1055561E2,1.9785332E1,1.289971E2,1.1635251E1,4.5529545E1,2.1803122E1,1.9207724E2],"tree_param":{"num_deleted":"0","num_feature":"15","num_nodes":"15","size_leaf_vector":"1"}},{"base_weights":[-3.93601E-2,-2.8778436E-2,-1.31562315E-2,-6.0970075E-2,2.766536E-1,-1.4553544E-3,-4.046487E-2,5.6709584E-2,2.157493E-3],"categories":[],"categories_nodes":[],"categories_segments":[],"categories_sizes":[],"default_left":[0,0,0,0,0,0,0,0,0],"id":47,"left_children":[1,-1,3,5,7,-1,-1,-1,-1],"loss_changes":[7.139379E0,0E0,7.492328E0,1.07526245E1,1.3508688E1,0E0,0E0,0E0,0E0],"parents":[2147483647,0,0,2,2,3,3,4,4],"right_children":[2,-1,4,6,8,-1,-1,-1,-1],"split_conditions":[-2.6223714E-5,-2.8778436E-2,1.6141245E1,1.45157385E1,1.9061468E1,-1.4553544E-3,-4.046487E-2,5.6709584E-2,2.157493E-3],"split_indices":[14,0,0,5,8,0,0,0,0],"split_type":[0,0,0,0,0,0,0,0,0],"sum_hessian":[5.7023584E2,2.9226269E1,5.410096E2,4.6469614E2,7.631347E1,4.4204562E2,2.2650497E1,1.8215868E1,5.80976E1],"tree_param":{"num_deleted":"0","num_feature":"15","num_nodes":"9","size_leaf_vector":"1"}},{"base_weights":[1.11010894E-1,-2.6445398E-1,1.6017012E-1,7.7626444E-2,-3.3196516E-2,6.2180977E-2,1.3569573E-1,-2.2944981E-2,2.3843449E-2,-3.114884E-2,8.6669745E-3],"categories":[],"categories_nodes":[],"categories_segments":[],"categories_sizes":[],"default_left":[0,0,0,0,0,0,0,0,0,0,0],"id":48,"left_children":[1,3,5,7,-1,-1,9,-1,-1,-1,-1],"loss_changes":[1.15677185E1,8.323097E0,1.2937236E1,6.2615137E0,0E0,0E0,7.760269E0,0E0,0E0,0E0,0E0],"parents":[2147483647,0,0,1,1,2,2,3,3,6,6],"right_children":[2,4,6,8,-1,-1,10,-1,-1,-1,-1],"split_conditions":[4.281912E0,4.1595383E0,4.9685135E0,1.60793E7,-3.3196516E-2,6.2180977E-2,5.49194E0,-2.2944981E-2,2.3843449E-2,-3.114884E-2,8.6669745E-3],"split_indices":[10,5,2,12,0,0,3,0,0,0,0],"split_type":[0,0,0,0,0,0,0,0,0,0,0],"sum_hessian":[6.2628424E2,7.227128E1,5.5401294E2,3.5717796E1,3.6553486E1,1.3459583E1,5.4055334E2,1.4837779E1,2.0880016E1,1.5258095E1,5.252953E2],"tree_param":{"num_deleted":"0","num_feature":"15","num_nodes":"11","size_leaf_vector":"1"}},{"base_weights":[-1.1725182E-1,4.446995E-2,-1.3847324E-2,-1.9653806E-1,3.0656183E-1,3.1302057E-2,-1.6707709E-2,2.434125E-3,3.4377407E-2],"categories":[],"categories_nodes":[],"categories_segments":[],"categories_sizes":[],"default_left":[0,0,0,0,0,0,0,0,0],"id":49,"left_children":[1,3,-1,5,7,-1,-1,-1,-1],"loss_changes":[1.1596672E1,1.5400554E1,0E0,1.0136001E1,9.575372E0,0E0,0E0,0E0,0E0],"parents":[2147483647,0,0,1,1,3,3,4,4],"right_children":[2,4,-1,6,8,-1,-1,-1,-1],"split_conditions":[6.998071E0,2.1427917E-1,-1.3847324E-2,3.6752071E0,2.1334508E9,3.1302057E-2,-1.6707709E-2,2.434125E-3,3.4377407E-2],"split_indices":[10,11,0,9,12,0,0,0,0],"split_type":[0,0,0,0,0,0,0,0,0],"sum_hessian":[5.4061896E2,2.4328734E2,2.9733163E2,1.2666715E2,1.16620186E2,1.5146146E1,1.1152101E2,6.3664143E1,5.295604E1],"tree_param":{"num_deleted":"0","num_feature":"15","num_nodes":"9","size_leaf_vector":"1"}},{"base_weights":[-1.6150167E-2,-5.0453313E-2,1.9811587E-2,1.4365135E-1,-1.1809047E-1,-2.8903212E-2,1.5560085E-2,-2.6107699E-2,-1.5383849E-3],"categories":[],"categories_nodes":[],"categories_segments":[],"categories_sizes":[],"default_left":[0,0,0,0,0,0,0,0,0],"id":50,"left_children":[1,3,-1,5,7,-1,-1,-1,-1],"loss_changes":[7.25079E0,6.8247232E0,0E0,1.2234243E1,1.2260726E1,0E0,0E0,0E0,0E0],"parents":[2147483647,0,0,1,1,3,3,4,4],"right_children":[2,4,-1,6,8,-1,-1,-1,-1],"split_conditions":[2.4947527E-5,6.645665E0,1.9811587E-2,3.5640526E0,6.9421277E0,-2.8903212E-2,1.5560085E-2,-2.6107699E-2,-1.5383849E-3],"split_indices":[14,8,0,10,10,0,0,0,0],"split_type":[0,0,0,0,0,0,0,0,0],"sum_hessian":[5.6681714E2,5.1942694E2,4.7390205E1,1.3396347E2,3.8546344E2,2.270735E1,1.1125613E2,7.8305664E1,3.0715778E2],"tree_param":{"num_deleted":"0","num_feature":"15","num_nodes":"9","size_leaf_vector":"1"}},{"base_weights":[1.292322E-1,-4.4909615E-2,2.6684144E-1,4.334072E-2,-3.126444E-2,4.5337382E-1,1.3223568E-1,-4.2193136E-3,2.7879048E-2,1.7947298E-2,5.2746303E-2,-1.9987484E-2,1.3994523E-2],"categories":[],"categories_nodes":[],"categories_segments":[],"categories_sizes":[],"default_left":[0,0,0,0,0,0,0,0,0,0,0,0,0],"id":51,"left_children":[1,3,5,7,-1,9,11,-1,-1,-1,-1,-1,-1],"loss_changes":[1.4986789E1,1.2661367E1,8.72447E0,1.2968282E1,0E0,9.302643E0,1.2044305E1,0E0,0E0,0E0,0E0,0E0,0E0],"parents":[2147483647,0,0,1,1,2,2,3,3,5,5,6,6],"right_children":[2,4,6,8,-1,10,12,-1,-1,-1,-1,-1,-1],"split_conditions":[7.8080654E0,7.381828E0,9.722105E0,6.2518344E0,-3.126444E-2,9.055162E0,4.423183E9,-4.2193136E-3,2.7879048E-2,1.7947298E-2,5.2746303E-2,-1.9987484E-2,1.3994523E-2],"split_indices":[9,6,3,10,0,3,12,0,0,0,0,0,0],"split_type":[0,0,0,0,0,0,0,0,0,0,0,0,0],"sum_hessian":[6.245876E2,2.755969E2,3.489907E2,2.356218E2,3.997511E1,1.4589905E2,2.0309163E2,1.8706218E2,4.8559612E1,1.1610036E2,2.9798687E1,3.9637154E1,1.6345448E2],"tree_param":{"num_deleted":"0","num_feature":"15","num_nodes":"13","size_leaf_vector":"1"}},{"base_weights":[-9.227698E-2,2.2724671E-2,-2.7469006E-1,-2.5089788E-1,2.1032004E-1,-5.241912E-1,-1.475263E-1,3.1520806E-2,-1.9408658E-2,8.853538E-3,6.474243E-2,1.700563E-3,-3.581633E-2,6.519892E-2,-1.6804758E-2],"categories":[],"categories_nodes":[],"categories_segments":[],"categories_sizes":[],"default_left":[0,0,0,0,0,0,0,0,0,0,0,0,0,0,0],"id":52,"left_children":[1,3,5,7,9,11,13,-1,-1,-1,-1,-1,-1,-1,-1],"loss_changes":[1.1267434E1,1.6898962E1,6.535E0,1.0893858E1,9.36907E0,4.7513275E0,2.841795E1,0E0,0E0,0E0,0E0,0E0,0E0,0E0,0E0],"parents":[2147483647,0,0,1,1,2,2,3,3,4,4,5,5,6,6],"right_children":[2,4,6,8,10,12,14,-1,-1,-1,-1,-1,-1,-1,-1],"split_conditions":[2.9658524E9,1.9283369E-1,3.8867682E-1,3.6752071E0,8.483633E0,9.014324E0,1.2650965E1,3.1520806E-2,-1.9408658E-2,8.853538E-3,6.474243E-2,1.700563E-3,-3.581633E-2,6.519892E-2,-1.6804758E-2],"split_indices":[12,11,11,9,10,8,1,0,0,0,0,0,0,0,0],"split_type":[0,0,0,0,0,0,0,0,0,0,0,0,0,0,0],"sum_hessian":[5.362018E2,3.2881232E2,2.0738945E2,1.3359795E2,1.9521437E2,6.964468E1,1.3774478E2,1.4242832E1,1.1935512E2,1.8569409E2,9.52029E0,1.2474885E1,5.7169796E1,1.4296949E1,1.2344782E2],"tree_param":{"num_deleted":"0","num_feature":"15","num_nodes":"15","size_leaf_vector":"1"}},{"base_weights":[-4.9248036E-2,-3.0652406E-2,-2.1544386E-2,6.0839856E-1,-5.9867024E-2,5.590793E-2,1.0562788E-2,-4.0975176E-2,-2.1398307E-3],"categories":[],"categories_nodes":[],"categories_segments":[],"categories_sizes":[],"default_left":[0,0,0,0,0,0,0,0,0],"id":53,"left_children":[1,-1,3,5,7,-1,-1,-1,-1],"loss_changes":[7.9058022E0,0E0,1.3010648E1,5.0566874E0,7.3102493E0,0E0,0E0,0E0,0E0],"parents":[2147483647,0,0,2,2,3,3,4,4],"right_children":[2,-1,4,6,8,-1,-1,-1,-1],"split_conditions":[3.5640526E0,-3.0652406E-2,4.6752567E0,9.361776E-2,6.432061E8,5.590793E-2,1.0562788E-2,-4.0975176E-2,-2.1398307E-3],"split_indices":[10,0,8,11,12,0,0,0,0],"split_type":[0,0,0,0,0,0,0,0,0],"sum_hessian":[5.689236E2,2.9356773E1,5.3956683E2,3.0675879E1,5.0889093E2,1.5456849E1,1.521903E1,1.516583E1,4.937251E2],"tree_param":{"num_deleted":"0","num_feature":"15","num_nodes":"9","size_leaf_vector":"1"}},{"base_weights":[1.0108557E-1,-6.0277943E-2,2.3364879E-1,-2.2771687E-3,-3.2416288E-2,4.4259647E-1,1.1144593E-1,-3.98362E-3,2.7951133E-2,1.9588515E-2,4.7567315E-2,-1.4347215E-2,1.49577055E-2],"categories":[],"categories_nodes":[],"categories_segments":[],"categories_sizes":[],"default_left":[0,0,0,0,0,0,0,0,0,0,0,0,0],"id":54,"left_children":[1,3,5,7,-1,9,11,-1,-1,-1,-1,-1,-1],"loss_changes":[1.3403561E1,8.554279E0,8.741751E0,8.948429E0,0E0,4.5706997E0,1.2754462E1,0E0,0E0,0E0,0E0,0E0,0E0],"parents":[2147483647,0,0,1,1,2,2,3,3,5,5,6,6],"right_children":[2,4,6,8,-1,10,12,-1,-1,-1,-1,-1,-1],"split_conditions":[7.8304296E0,2.6210772E9,9.014565E0,2.1134456E-1,-3.2416288E-2,9.045209E0,9.5854804E-2,-3.98362E-3,2.7951133E-2,1.9588515E-2,4.7567315E-2,-1.4347215E-2,1.49577055E-2],"split_indices":[6,12,6,7,0,3,7,0,0,0,0,0,0],"split_type":[0,0,0,0,0,0,0,0,0,0,0,0,0],"sum_hessian":[6.2581464E2,2.82125E2,3.436896E2,2.5430963E2,2.7815388E1,1.26459366E2,2.1723024E2,2.238491E2,3.0460516E1,1.0449304E2,2.1966328E1,6.492199E1,1.5230824E2],"tree_param":{"num_deleted":"0","num_feature":"15","num_nodes":"13","size_leaf_vector":"1"}},{"base_weights":[-7.846973E-2,3.4662232E-1,-1.1229356E-1,5.842713E-1,-1.5390416E-2,-3.0143598E-2,-2.630774E-1,2.1969642E-4,4.8843626E-2,-3.6953369E-3,5.8248665E-2,-3.298259E-2,-6.9837584E-3],"categories":[],"categories_nodes":[],"categories_segments":[],"categories_sizes":[],"default_left":[0,0,0,0,0,0,0,0,0,0,0,0,0],"id":55,"left_children":[1,3,5,7,-1,9,11,-1,-1,-1,-1,-1,-1],"loss_changes":[7.596984E0,5.821894E0,6.0517755E0,4.8228054E0,0E0,1.2486316E1,7.793888E0,0E0,0E0,0E0,0E0,0E0,0E0],"parents":[2147483647,0,0,1,1,2,2,3,3,5,5,6,6],"right_children":[2,4,6,8,-1,10,12,-1,-1,-1,-1,-1,-1],"split_conditions":[-3.045321E-1,1.9471813E1,9.351706E0,3.1571692E1,-1.5390416E-2,8.491673E0,3.852459E-1,2.1969642E-4,4.8843626E-2,-3.6953369E-3,5.8248665E-2,-3.298259E-2,-6.9837584E-3],"split_indices":[7,13,8,4,0,10,11,0,0,0,0,0,0],"split_type":[0,0,0,0,0,0,0,0,0,0,0,0,0],"sum_hessian":[5.283927E2,3.8680683E1,4.8971204E2,2.8084389E1,1.0596295E1,3.173974E2,1.7231464E2,9.630884E0,1.8453505E1,3.0727576E2,1.0121656E1,5.0085346E1,1.2222929E2],"tree_param":{"num_deleted":"0","num_feature":"15","num_nodes":"13","size_leaf_vector":"1"}},{"base_weights":[-2.0088915E-2,-1.8690057E-2,2.8852385E-2,-1.1205793E-2,2.7344775E-1,1.2174194E-3,-2.9347567E-2,5.6507155E-2,3.0345607E-3],"categories":[],"categories_nodes":[],"categories_segments":[],"categories_sizes":[],"default_left":[0,0,0,0,0,0,0,0,0],"id":56,"left_children":[1,-1,3,5,7,-1,-1,-1,-1],"loss_changes":[8.741163E0,0E0,4.788144E0,7.21981E0,1.1142969E1,0E0,0E0,0E0,0E0],"parents":[2147483647,0,0,2,2,3,3,4,4],"right_children":[2,-1,4,6,8,-1,-1,-1,-1],"split_conditions":[-8.965456E-6,-1.8690057E-2,1.6334417E1,1.45157385E1,1.9219131E1,1.2174194E-3,-2.9347567E-2,5.6507155E-2,3.0345607E-3],"split_indices":[14,0,0,5,8,0,0,0,0],"split_type":[0,0,0,0,0,0,0,0,0],"sum_hessian":[5.6217395E2,7.516976E1,4.8700418E2,4.18469E2,6.853519E1,3.9339758E2,2.5071415E1,1.5310104E1,5.3225082E1],"tree_param":{"num_deleted":"0","num_feature":"15","num_nodes":"9","size_leaf_vector":"1"}},{"base_weights":[1.1338763E-1,2.4949739E-2,6.519072E-2,3.3578023E-2,2.9055282E-2,5.0927876E-3,-1.1792958E-2],"categories":[],"categories_nodes":[],"categories_segments":[],"categories_sizes":[],"default_left":[0,0,0,0,0,0,0],"id":57,"left_children":[1,-1,3,5,-1,-1,-1],"loss_changes":[1.0165875E1,0E0,7.9498844E0,7.3894844E0,0E0,0E0,0E0],"parents":[2147483647,0,0,2,2,3,3],"right_children":[2,-1,4,6,-1,-1,-1],"split_conditions":[-1.0914634E-5,2.4949739E-2,6.5431464E-1,1.0113363E-5,2.9055282E-2,5.0927876E-3,-1.1792958E-2],"split_indices":[14,0,11,14,0,0,0],"split_type":[0,0,0,0,0,0,0],"sum_hessian":[6.286576E2,7.839728E1,5.502603E2,5.1511176E2,3.5148544E1,4.168427E2,9.826905E1],"tree_param":{"num_deleted":"0","num_feature":"15","num_nodes":"7","size_leaf_vector":"1"}},{"base_weights":[-9.4862886E-2,2.8907672E-1,-1.5434861E-1,6.1838787E-2,4.360744E-2,-2.3186442E-2,-9.65341E-2,1.5339359E-2,-2.9092275E-2,4.953257E-3,-1.3527723E-2],"categories":[],"categories_nodes":[],"categories_segments":[],"categories_sizes":[],"default_left":[0,0,0,0,0,0,0,0,0,0,0],"id":58,"left_children":[1,3,5,7,-1,-1,9,-1,-1,-1,-1],"loss_changes":[1.1890257E1,7.8300266E0,6.839987E0,6.090095E0,0E0,0E0,1.0156176E1,0E0,0E0,0E0,0E0],"parents":[2147483647,0,0,1,1,2,2,3,3,6,6],"right_children":[2,4,6,8,-1,-1,10,-1,-1,-1,-1],"split_conditions":[4.2209344E0,5.172413E0,1.9283369E-1,1.1903915E-1,4.360744E-2,-2.3186442E-2,2.9658524E9,1.5339359E-2,-2.9092275E-2,4.953257E-3,-1.3527723E-2],"split_indices":[10,6,11,11,0,0,12,0,0,0,0],"split_type":[0,0,0,0,0,0,0,0,0,0,0],"sum_hessian":[5.2026666E2,6.9562454E1,4.507042E2,4.798566E1,2.1576792E1,8.06268E1,3.700774E2,3.5273457E1,1.2712202E1,1.6356674E2,2.0651064E2],"tree_param":{"num_deleted":"0","num_feature":"15","num_nodes":"11","size_leaf_vector":"1"}},{"base_weights":[-9.459275E-3,-1.6155414E-2,3.4344368E-2,4.4653338E-1,2.6319493E-3,-3.978637E-3,3.6867626E-2,-7.205295E-3,8.167961E-3],"categories":[],"categories_nodes":[],"categories_segments":[],"categories_sizes":[],"default_left":[0,0,0,0,0,0,0,0,0],"id":59,"left_children":[1,-1,3,5,7,-1,-1,-1,-1],"loss_changes":[7.081667E0,0E0,6.452011E0,4.031061E0,8.831648E0,0E0,0E0,0E0,0E0],"parents":[2147483647,0,0,2,2,3,3,4,4],"right_children":[2,-1,4,6,8,-1,-1,-1,-1],"split_conditions":[-9.245543E-6,-1.6155414E-2,9.502179E-2,3.5804348E0,2.6651366E9,-3.978637E-3,3.6867626E-2,-7.205295E-3,8.167961E-3],"split_indices":[14,0,11,10,12,0,0,0,0],"split_type":[0,0,0,0,0,0,0,0,0],"sum_hessian":[5.721241E2,7.694849E1,4.9517557E2,3.5051846E1,4.6012372E2,1.0360029E1,2.4691816E1,2.39924E2,2.2019972E2],"tree_param":{"num_deleted":"0","num_feature":"15","num_nodes":"9","size_leaf_vector":"1"}},{"base_weights":[1.05108716E-1,-4.560548E-2,2.4577509E-1,2.5040409E-2,-1.6528249E-2,2.0682965E-1,4.320464E-2,8.78132E-3,-9.851852E-3,1.53806545E-2,-8.852749E-3],"categories":[],"categories_nodes":[],"categories_segments":[],"categories_sizes":[],"default_left":[0,0,0,0,0,0,0,0,0,0,0],"id":60,"left_children":[1,3,5,7,-1,9,-1,-1,-1,-1,-1],"loss_changes":[1.3490374E1,5.488783E0,6.746666E0,6.485096E0,0E0,7.9487886E0,0E0,0E0,0E0,0E0,0E0],"parents":[2147483647,0,0,1,1,2,2,3,3,5,5],"right_children":[2,4,6,8,-1,10,-1,-1,-1,-1,-1],"split_conditions":[8.983362E-2,5.3829247E1,7.233238E-1,2.9900524E-1,-1.6528249E-2,1.7506346E1,4.320464E-2,8.78132E-3,-9.851852E-3,1.53806545E-2,-8.852749E-3],"split_indices":[7,4,7,11,0,0,0,0,0,0,0],"split_type":[0,0,0,0,0,0,0,0,0,0,0],"sum_hessian":[6.3549774E2,3.066858E2,3.2881192E2,2.3961742E2,6.7068375E1,3.0680942E2,2.2002523E1,1.4473413E2,9.488328E1,2.5746826E2,4.9341145E1],"tree_param":{"num_deleted":"0","num_feature":"15","num_nodes":"11","size_leaf_vector":"1"}},{"base_weights":[-1.01318754E-1,3.512451E-1,-1.4217892E-1,3.3451E-2,-2.9096762E-2,-9.5706957E-4,-2.6000506E-1,-2.7896806E-3,5.8145493E-2,-2.4392456E-2,-1.0239015E-2],"categories":[],"categories_nodes":[],"categories_segments":[],"categories_sizes":[],"default_left":[0,0,0,0,0,0,0,0,0,0,0],"id":61,"left_children":[1,3,5,-1,-1,7,9,-1,-1,-1,-1],"loss_changes":[9.892874E0,9.840465E0,8.155408E0,0E0,0E0,1.1544798E1,3.57485E0,0E0,0E0,0E0,0E0],"parents":[2147483647,0,0,1,1,2,2,5,5,6,6],"right_children":[2,4,6,-1,-1,8,10,-1,-1,-1,-1],"split_conditions":[-2.5448495E-1,1.37798395E1,8.095721E0,3.3451E-2,-2.9096762E-2,7.7080107E0,8.74056E0,-2.7896806E-3,5.8145493E-2,-2.4392456E-2,-1.0239015E-2],"split_indices":[7,2,8,0,0,2,3,0,0,0,0],"split_type":[0,0,0,0,0,0,0,0,0,0,0],"sum_hessian":[5.3475433E2,4.403839E1,4.9071594E2,3.4300945E1,9.737446E0,2.2350041E2,2.672155E2,2.1371135E2,9.789065E0,7.8408325E1,1.8880719E2],"tree_param":{"num_deleted":"0","num_feature":"15","num_nodes":"11","size_leaf_vector":"1"}},{"base_weights":[-1.2610911E-2,-1.6186558E-2,3.3159107E-2,2.5376363E-2,4.5492565E-3,-6.6118897E-3,7.4908785E-3],"categories":[],"categories_nodes":[],"categories_segments":[],"categories_sizes":[],"default_left":[0,0,0,0,0,0,0],"id":62,"left_children":[1,-1,3,-1,5,-1,-1],"loss_changes":[7.3362293E0,0E0,5.9512696E0,0E0,7.458156E0,0E0,0E0],"parents":[2147483647,0,0,2,2,4,4],"right_children":[2,-1,4,-1,6,-1,-1],"split_conditions":[-8.965456E-6,-1.6186558E-2,9.502179E-2,2.5376363E-2,2.6651366E9,-6.6118897E-3,7.4908785E-3],"split_indices":[14,0,11,0,12,0,0],"split_type":[0,0,0,0,0,0,0],"sum_hessian":[5.725302E2,8.061559E1,4.9191464E2,3.0741943E1,4.611727E2,2.3651363E2,2.2465907E2],"tree_param":{"num_deleted":"0","num_feature":"15","num_nodes":"7","size_leaf_vector":"1"}},{"base_weights":[8.881913E-2,-5.35436E-2,2.1546233E-1,-2.829219E-1,3.4612097E-2,1.6378754E-1,3.8340807E-2,-1.011794E-3,-3.3449624E-2,3.828993E-2,-5.6693563E-3,1.2776645E-2,-8.78257E-3],"categories":[],"categories_nodes":[],"categories_segments":[],"categories_sizes":[],"default_left":[0,0,0,0,0,0,0,0,0,0,0,0,0],"id":63,"left_children":[1,3,5,7,9,11,-1,-1,-1,-1,-1,-1,-1],"loss_changes":[1.13549595E1,6.0045166E0,8.124767E0,6.950944E0,1.9250675E1,6.4685774E0,0E0,0E0,0E0,0E0,0E0,0E0,0E0],"parents":[2147483647,0,0,1,1,2,2,3,3,4,4,5,5],"right_children":[2,4,6,8,10,12,-1,-1,-1,-1,-1,-1,-1],"split_conditions":[8.983362E-2,6.1046495E0,6.332705E-1,4.7074795E0,6.953736E0,1.6484247E1,3.8340807E-2,-1.011794E-3,-3.3449624E-2,3.828993E-2,-5.6693563E-3,1.2776645E-2,-8.78257E-3],"split_indices":[7,5,11,5,6,0,0,0,0,0,0,0,0],"split_type":[0,0,0,0,0,0,0,0,0,0,0,0,0],"sum_hessian":[6.2897815E2,2.9597888E2,3.3299927E2,8.219923E1,2.1377965E2,3.0074796E2,3.2251324E1,4.521941E1,3.6979816E1,3.6816788E1,1.7696286E2,2.494139E2,5.1334053E1],"tree_param":{"num_deleted":"0","num_feature":"15","num_nodes":"13","size_leaf_vector":"1"}},{"base_weights":[-9.59175E-2,2.2239406E-1,-1.4687169E-1,-1.5639264E-2,4.169837E-2,-3.2971356E-2,-1.2768911E-1,3.612277E-2,-9.612264E-3,2.2714785E-3,-1.0706034E-2],"categories":[],"categories_nodes":[],"categories_segments":[],"categories_sizes":[],"default_left":[0,0,0,0,0,0,0,0,0,0,0],"id":64,"left_children":[1,3,5,7,-1,-1,9,-1,-1,-1,-1],"loss_changes":[8.582738E0,9.233627E0,3.8635578E0,5.307881E0,0E0,0E0,4.836163E0,0E0,0E0,0E0,0E0],"parents":[2147483647,0,0,1,1,2,2,3,3,6,6],"right_children":[2,4,6,8,-1,-1,10,-1,-1,-1,-1],"split_conditions":[4.2209344E0,5.172413E0,5.1191707E0,3.668037E0,4.169837E-2,-3.2971356E-2,6.6390185E0,3.612277E-2,-9.612264E-3,2.2714785E-3,-1.0706034E-2],"split_indices":[10,6,6,6,0,0,10,0,0,0,0],"split_type":[0,0,0,0,0,0,0,0,0,0,0],"sum_hessian":[5.287431E2,7.271688E1,4.560262E2,5.0245472E1,2.2471407E1,1.835478E1,4.3767142E2,9.41203E0,4.0833443E1,1.2204125E2,3.156302E2],"tree_param":{"num_deleted":"0","num_feature":"15","num_nodes":"11","size_leaf_vector":"1"}},{"base_weights":[-1.2127746E-2,3.2951185E-1,-3.3337165E-2,-1.2105665E-2,3.0228566E-2,-1.3196164E-1,6.5679274E-2,2.5657455E-3,-1.7558541E-2,3.501156E-2,-1.7383938E-4],"categories":[],"categories_nodes":[],"categories_segments":[],"categories_sizes":[],"default_left":[0,0,0,0,0,0,0,0,0,0,0],"id":65,"left_children":[1,3,5,-1,-1,7,9,-1,-1,-1,-1],"loss_changes":[4.1067567E0,3.9529195E0,5.236321E0,0E0,0E0,8.859681E0,1.0432705E1,0E0,0E0,0E0,0E0],"parents":[2147483647,0,0,1,1,2,2,5,5,6,6],"right_children":[2,4,6,-1,-1,8,10,-1,-1,-1,-1],"split_conditions":[9.425794E-2,3.870414E0,2.6651366E9,-1.2105665E-2,3.0228566E-2,1.6773526E9,8.44281E0,2.5657455E-3,-1.7558541E-2,3.501156E-2,-1.7383938E-4],"split_indices":[11,1,12,0,0,12,3,0,0,0,0],"split_type":[0,0,0,0,0,0,0,0,0,0,0],"sum_hessian":[5.683287E2,3.288924E1,5.354394E2,9.218441E0,2.3670801E1,2.6847638E2,2.66963E2,1.36554E2,1.3192238E2,2.8841389E1,2.3812163E2],"tree_param":{"num_deleted":"0","num_feature":"15","num_nodes":"11","size_leaf_vector":"1"}},{"base_weights":[9.998397E-2,-3.009215E-1,1.4953831E-1,-2.8190885E-3,-3.367008E-2,5.8312252E-2,1.2608132E-1,-2.268624E-2,3.2328703E-2,-8.000536E-3,1.052278E-2],"categories":[],"categories_nodes":[],"categories_segments":[],"categories_sizes":[],"default_left":[0,0,0,0,0,0,0,0,0,0,0],"id":66,"left_children":[1,3,5,7,-1,-1,9,-1,-1,-1,-1],"loss_changes":[1.2717705E1,6.3911557E0,1.1966544E1,8.601721E0,0E0,0E0,9.573067E0,0E0,0E0,0E0,0E0],"parents":[2147483647,0,0,1,1,2,2,3,3,6,6],"right_children":[2,4,6,8,-1,-1,10,-1,-1,-1,-1],"split_conditions":[4.2796626E0,4.217402E0,4.960988E0,3.8717346E0,-3.367008E-2,5.8312252E-2,6.232844E0,-2.268624E-2,3.2328703E-2,-8.000536E-3,1.052278E-2],"split_indices":[10,9,0,6,0,0,10,0,0,0,0],"split_type":[0,0,0,0,0,0,0,0,0,0,0],"sum_hessian":[6.398283E2,7.014781E1,5.696805E2,3.5742836E1,3.4404976E1,1.4138851E1,5.555416E2,2.1197031E1,1.4545806E1,1.0567566E2,4.49866E2],"tree_param":{"num_deleted":"0","num_feature":"15","num_nodes":"11","size_leaf_vector":"1"}},{"base_weights":[-9.8571E-2,2.5807878E-1,-1.4520478E-1,4.608006E-1,-3.019836E-2,-8.216372E-2,-3.5244703E-1,1.8124116E-3,3.382062E-2,-7.2104773E-3,6.358217E-2,-2.7241442E-2,-8.740087E-4],"categories":[],"categories_nodes":[],"categories_segments":[],"categories_sizes":[],"default_left":[0,0,0,0,0,0,0,0,0,0,0,0,0],"id":67,"left_children":[1,3,5,7,-1,9,11,-1,-1,-1,-1,-1,-1],"loss_changes":[8.717476E0,9.901794E0,6.028818E0,3.0571642E0,0E0,2.0910755E1,5.012225E0,0E0,0E0,0E0,0E0,0E0,0E0],"parents":[2147483647,0,0,1,1,2,2,3,3,5,5,6,6],"right_children":[2,4,6,8,-1,10,12,-1,-1,-1,-1,-1,-1],"split_conditions":[-1.8921515E-1,1.37798395E1,1.2650965E1,3.1760513E1,-3.019836E-2,3.852459E-1,2.0300102E1,1.8124116E-3,3.382062E-2,-7.2104773E-3,6.358217E-2,-2.7241442E-2,-8.740087E-4],"split_indices":[7,2,1,4,0,11,10,0,0,0,0,0,0],"split_type":[0,0,0,0,0,0,0,0,0,0,0,0,0],"sum_hessian":[5.237738E2,6.0322025E1,4.6345178E2,4.8284985E1,1.2037039E1,3.5578485E2,1.0766694E2,1.2627854E1,3.565713E1,3.4267862E2,1.3106223E1,7.60638E1,3.1603144E1],"tree_param":{"num_deleted":"0","num_feature":"15","num_nodes":"13","size_leaf_vector":"1"}},{"base_weights":[-4.4250343E-2,-1.841821E-2,-2.310332E-3,-2.449557E-2,2.1640938E-2,1.5803682E-2,-2.937274E-3],"categories":[],"categories_nodes":[],"categories_segments":[],"categories_sizes":[],"default_left":[0,0,0,0,0,0,0],"id":68,"left_children":[1,-1,3,-1,5,-1,-1],"loss_changes":[6.78432E0,0E0,5.203044E0,0E0,9.185597E0,0E0,0E0],"parents":[2147483647,0,0,2,2,4,4],"right_children":[2,-1,4,-1,6,-1,-1],"split_conditions":[-8.965456E-6,-1.841821E-2,3.5731E0,-2.449557E-2,6.028836E0,1.5803682E-2,-2.937274E-3],"split_indices":[14,0,10,0,9,0,0],"split_type":[0,0,0,0,0,0,0],"sum_hessian":[5.631851E2,7.126783E1,4.9191727E2,2.5341564E1,4.665757E2,1.0302208E2,3.6355362E2],"tree_param":{"num_deleted":"0","num_feature":"15","num_nodes":"7","size_leaf_vector":"1"}},{"base_weights":[7.200527E-2,-7.671093E-2,1.8047705E-1,1.0246351E-2,-3.283112E-2,3.6706287E-1,5.7775274E-2,-5.658893E-3,2.623835E-2,1.4037852E-2,4.818917E-2,-1.6234342E-2,1.0747805E-2],"categories":[],"categories_nodes":[],"categories_segments":[],"categories_sizes":[],"default_left":[0,0,0,0,0,0,0,0,0,0,0,0,0],"id":69,"left_children":[1,3,5,7,-1,9,11,-1,-1,-1,-1,-1,-1],"loss_changes":[1.016867E1,1.1932138E1,8.317451E0,1.1847358E1,0E0,8.149155E0,1.0510735E1,0E0,0E0,0E0,0E0,0E0,0E0],"parents":[2147483647,0,0,1,1,2,2,3,3,5,5,6,6],"right_children":[2,4,6,8,-1,10,12,-1,-1,-1,-1,-1,-1],"split_conditions":[7.789259E0,7.378288E0,9.022794E0,6.2518344E0,-3.283112E-2,9.055162E0,5.583964E-2,-5.658893E-3,2.623835E-2,1.4037852E-2,4.818917E-2,-1.6234342E-2,1.0747805E-2],"split_indices":[5,6,6,10,0,3,7,0,0,0,0,0,0],"split_type":[0,0,0,0,0,0,0,0,0,0,0,0,0],"sum_hessian":[6.2961566E2,2.6537265E2,3.64243E2,2.2715482E2,3.821784E1,1.4416136E2,2.2008165E2,1.8285701E2,4.42978E1,1.1784292E2,2.631844E1,6.1352505E1,1.5872914E2],"tree_param":{"num_deleted":"0","num_feature":"15","num_nodes":"13","size_leaf_vector":"1"}},{"base_weights":[-8.7267645E-2,1.5563057E-1,-1.3724002E-1,4.252604E-2,-2.1165624E-2,-2.907252E-1,-7.703943E-2,6.846453E-3,-3.1188827E-2,2.2006234E-2,-1.9757602E-2,6.81032E-3,-1.3121875E-2],"categories":[],"categories_nodes":[],"categories_segments":[],"categories_sizes":[],"default_left":[0,0,0,0,0,0,0,0,0,0,0,0,0],"id":70,"left_children":[1,3,5,-1,7,9,11,-1,-1,-1,-1,-1,-1],"loss_changes":[6.3404284E0,9.659312E0,3.979251E0,0E0,5.4529643E0,5.514187E0,9.953189E0,0E0,0E0,0E0,0E0,0E0,0E0],"parents":[2147483647,0,0,1,1,2,2,4,4,5,5,6,6],"right_children":[2,4,6,-1,8,10,12,-1,-1,-1,-1,-1,-1],"split_conditions":[-1.1848257E-1,5.413649E0,1.9283369E-1,4.252604E-2,1.3705381E1,3.6752071E0,2.9159214E9,6.846453E-3,-3.1188827E-2,2.2006234E-2,-1.9757602E-2,6.81032E-3,-1.3121875E-2],"split_indices":[7,5,11,0,2,9,12,0,0,0,0,0,0],"split_type":[0,0,0,0,0,0,0,0,0,0,0,0,0],"sum_hessian":[5.218215E2,8.878115E1,4.330403E2,1.9819962E1,6.896119E1,1.2151673E2,3.115236E2,5.4478806E1,1.4482384E1,1.0408438E1,1.1110829E2,1.3818655E2,1.7333704E2],"tree_param":{"num_deleted":"0","num_feature":"15","num_nodes":"13","size_leaf_vector":"1"}},{"base_weights":[-3.962784E-2,-7.586827E-2,1.6796136E-2,3.7941426E-1,-1.0494789E-1,-6.245746E-3,3.3318907E-2,-8.6067105E-3,2.5861266E-3],"categories":[],"categories_nodes":[],"categories_segments":[],"categories_sizes":[],"default_left":[0,0,0,0,0,0,0,0,0],"id":71,"left_children":[1,3,-1,5,7,-1,-1,-1,-1],"loss_changes":[7.0388837E0,6.7949276E0,0E0,3.3928003E0,3.6863866E0,0E0,0E0,0E0,0E0],"parents":[2147483647,0,0,1,1,3,3,4,4],"right_children":[2,4,-1,6,8,-1,-1,-1,-1],"split_conditions":[2.4104467E-5,9.502179E-2,1.6796136E-2,3.5804348E0,1.2182461E1,-6.245746E-3,3.3318907E-2,-8.6067105E-3,2.5861266E-3],"split_indices":[14,11,0,10,6,0,0,0,0],"split_type":[0,0,0,0,0,0,0,0,0],"sum_hessian":[5.6742786E2,5.134234E2,5.400447E1,3.0557234E1,4.8286615E2,9.443028E0,2.1114206E1,3.6291034E2,1.1995581E2],"tree_param":{"num_deleted":"0","num_feature":"15","num_nodes":"9","size_leaf_vector":"1"}},{"base_weights":[9.11486E-2,-2.4835138E-2,2.1262038E-1,-5.1967677E-2,4.418379E-2,1.6181765E-1,6.096037E-1,1.4839268E-3,-2.0581998E-2,1.382538E-2,-1.3486362E-2,1.7497296E-2,5.42301E-2],"categories":[],"categories_nodes":[],"categories_segments":[],"categories_sizes":[],"default_left":[0,0,0,0,0,0,0,0,0,0,0,0,0],"id":72,"left_children":[1,3,5,7,-1,9,11,-1,-1,-1,-1,-1,-1],"loss_changes":[8.8410635E0,7.1167254E0,6.1170607E0,7.824495E0,0E0,9.6509495E0,3.607892E0,0E0,0E0,0E0,0E0,0E0,0E0],"parents":[2147483647,0,0,1,1,2,2,3,3,5,5,6,6],"right_children":[2,4,6,8,-1,10,12,-1,-1,-1,-1,-1,-1],"split_conditions":[1.0461485E-1,7.7423024E-1,6.355446E-1,8.952442E0,4.418379E-2,2.3312246E1,5.5095214E-1,1.4839268E-3,-2.0581998E-2,1.382538E-2,-1.3486362E-2,1.7497296E-2,5.42301E-2],"split_indices":[7,11,11,6,0,13,7,0,0,0,0,0,0],"split_type":[0,0,0,0,0,0,0,0,0,0,0,0,0],"sum_hessian":[6.265305E2,3.2037686E2,3.061537E2,3.1039584E2,9.980991E0,2.7181152E2,3.4342175E1,2.4901276E2,6.1383102E1,2.2370685E2,4.810467E1,1.939988E1,1.4942293E1],"tree_param":{"num_deleted":"0","num_feature":"15","num_nodes":"13","size_leaf_vector":"1"}},{"base_weights":[-9.604098E-2,2.2287524E-1,-1.3386539E-1,4.2694756E-1,-2.2587614E-2,1.979067E-2,-1.5011664E-1,9.38356E-4,4.2953633E-2,-1.8861124E-2,-4.47742E-3],"categories":[],"categories_nodes":[],"categories_segments":[],"categories_sizes":[],"default_left":[0,0,0,0,0,0,0,0,0,0,0],"id":73,"left_children":[1,3,5,7,-1,-1,9,-1,-1,-1,-1],"loss_changes":[6.176963E0,7.0112524E0,3.6528673E0,5.8164086E0,0E0,0E0,5.817734E0,0E0,0E0,0E0,0E0],"parents":[2147483647,0,0,1,1,2,2,3,3,6,6],"right_children":[2,4,6,8,-1,-1,10,-1,-1,-1,-1],"split_conditions":[-1.8921515E-1,1.408433E1,3.6752071E0,1.8952182E9,-2.2587614E-2,1.979067E-2,1.9377215E-1,9.38356E-4,4.2953633E-2,-1.8861124E-2,-4.47742E-3],"split_indices":[7,1,9,12,0,0,11,0,0,0,0],"split_type":[0,0,0,0,0,0,0,0,0,0,0],"sum_hessian":[5.1168118E2,5.3992176E1,4.5768903E2,4.0900593E1,1.3091583E1,1.4420511E1,4.432685E2,1.8939234E1,2.1961359E1,1.1814957E2,3.2511893E2],"tree_param":{"num_deleted":"0","num_feature":"15","num_nodes":"11","size_leaf_vector":"1"}},{"base_weights":[-6.4475527E-3,-3.6259346E-2,1.0404133E-2,2.13337E-2,-1.1264171E-2,-5.4958756E-3,6.598416E-3],"categories":[],"categories_nodes":[],"categories_segments":[],"categories_sizes":[],"default_left":[0,0,0,0,0,0,0],"id":74,"left_children":[1,-1,3,-1,5,-1,-1],"loss_changes":[6.158688E0,0E0,4.458411E0,0E0,5.920306E0,0E0,0E0],"parents":[2147483647,0,0,2,2,4,4],"right_children":[2,-1,4,-1,6,-1,-1],"split_conditions":[-4.520002E-5,-3.6259346E-2,9.4920345E-2,2.13337E-2,9.430893E0,-5.4958756E-3,6.598416E-3],"split_indices":[14,0,11,0,8,0,0],"split_type":[0,0,0,0,0,0,0],"sum_hessian":[5.611241E2,1.4102268E1,5.470218E2,2.9864607E1,5.1715717E2,3.09133E2,2.080242E2],"tree_param":{"num_deleted":"0","num_feature":"15","num_nodes":"7","size_leaf_vector":"1"}},{"base_weights":[7.608966E-2,-2.1965154E-1,1.1728526E-1,1.01222076E-1,-3.1072665E-2,5.6669448E-2,9.4771594E-2,-1.3352394E-2,2.9571742E-2,-3.3369627E-2,6.2710587E-3],"categories":[],"categories_nodes":[],"categories_segments":[],"categories_sizes":[],"default_left":[0,0,0,0,0,0,0,0,0,0,0],"id":75,"left_children":[1,3,5,7,-1,-1,9,-1,-1,-1,-1],"loss_changes":[7.6996684E0,8.4731865E0,1.1222803E1,5.931853E0,0E0,0E0,6.8971243E0,0E0,0E0,0E0,0E0],"parents":[2147483647,0,0,1,1,2,2,3,3,6,6],"right_children":[2,4,6,8,-1,-1,10,-1,-1,-1,-1],"split_conditions":[4.302677E0,4.212282E0,4.9594245E0,3.8801594E0,-3.1072665E-2,5.6669448E-2,5.454855E0,-1.3352394E-2,2.9571742E-2,-3.3369627E-2,6.2710587E-3],"split_indices":[10,5,2,6,0,0,3,0,0,0,0],"split_type":[0,0,0,0,0,0,0,0,0,0,0],"sum_hessian":[6.317359E2,7.6968056E1,5.547679E2,3.9635197E1,3.7332855E1,1.317813E1,5.415897E2,2.2109972E1,1.7525225E1,1.3616412E1,5.279733E2],"tree_param":{"num_deleted":"0","num_feature":"15","num_nodes":"11","size_leaf_vector":"1"}},{"base_weights":[-9.089304E-2,2.9576537E-1,-1.3318904E-1,5.177912E-1,-1.92469E-2,-4.981556E-2,-2.7928028E-1,2.49777E-3,3.8671646E-2,-4.692984E-3,5.3674005E-2,-2.0147325E-2,1.8776667E-3],"categories":[],"categories_nodes":[],"categories_segments":[],"categories_sizes":[],"default_left":[0,0,0,0,0,0,0,0,0,0,0,0,0],"id":76,"left_children":[1,3,5,7,-1,9,11,-1,-1,-1,-1,-1,-1],"loss_changes":[8.361042E0,7.2355804E0,5.596079E0,3.1435938E0,0E0,1.0387718E1,4.419651E0,0E0,0E0,0E0,0E0,0E0,0E0],"parents":[2147483647,0,0,1,1,2,2,3,3,5,5,6,6],"right_children":[2,4,6,8,-1,10,12,-1,-1,-1,-1,-1,-1],"split_conditions":[-2.11296E-1,4.9093975E9,9.351706E0,3.1486917E1,-1.92469E-2,8.491673E0,2.0300102E1,2.49777E-3,3.8671646E-2,-4.692984E-3,5.3674005E-2,-2.0147325E-2,1.8776667E-3],"split_indices":[7,12,8,4,0,10,10,0,0,0,0,0,0],"split_type":[0,0,0,0,0,0,0,0,0,0,0,0,0],"sum_hessian":[5.110124E2,5.0135437E1,4.6087695E2,3.735643E1,1.2779008E1,2.938374E2,1.6703954E2,1.043683E1,2.6919601E1,2.8436517E2,9.472237E0,1.3180936E2,3.5230183E1],"tree_param":{"num_deleted":"0","num_feature":"15","num_nodes":"13","size_leaf_vector":"1"}},{"base_weights":[-2.02702E-2,-3.2999847E-2,3.997579E-2,-4.158209E-3,-2.602245E-2,-3.4701321E-3,1.2434669E-2],"categories":[],"categories_nodes":[],"categories_segments":[],"categories_sizes":[],"default_left":[0,0,0,0,0,0,0],"id":77,"left_children":[1,3,-1,5,-1,-1,-1],"loss_changes":[5.326151E0,7.0016737E0,0E0,6.987525E0,0E0,0E0,0E0],"parents":[2147483647,0,0,1,1,3,3],"right_children":[2,4,-1,6,-1,-1,-1],"split_conditions":[2.6723448E1,6.489135E-1,3.997579E-2,1.2182461E1,-2.602245E-2,-3.4701321E-3,1.2434669E-2],"split_indices":[9,11,0,6,0,0,0],"split_type":[0,0,0,0,0,0,0],"sum_hessian":[5.6758484E2,5.5827673E2,9.308089E0,5.2397546E2,3.4301285E1,4.1755988E2,1.0641558E2],"tree_param":{"num_deleted":"0","num_feature":"15","num_nodes":"7","size_leaf_vector":"1"}},{"base_weights":[9.389411E-2,1.5701331E-1,-1.3820042E-1,-1.7212997E-1,2.0110169E-1,-1.8861236E-1,2.808248E-2,7.0118182E-3,-3.0073848E-2,5.4948933E-2,9.78948E-3,-5.6607868E-3,-2.9069884E-2],"categories":[],"categories_nodes":[],"categories_segments":[],"categories_sizes":[],"default_left":[0,0,0,0,0,0,0,0,0,0,0,0,0],"id":78,"left_children":[1,3,5,7,9,11,-1,-1,-1,-1,-1,-1,-1],"loss_changes":[9.135403E0,7.123126E0,4.3324037E0,6.4342113E0,8.298309E0,3.5496335E0,0E0,0E0,0E0,0E0,0E0,0E0,0E0],"parents":[2147483647,0,0,1,1,2,2,3,3,4,4,5,5],"right_children":[2,4,6,8,10,12,-1,-1,-1,-1,-1,-1,-1],"split_conditions":[4.292577E-6,4.281912E0,6.641027E-1,4.217402E0,4.9685135E0,4.7279805E-1,2.808248E-2,7.0118182E-3,-3.0073848E-2,5.4948933E-2,9.78948E-3,-5.6607868E-3,-2.9069884E-2],"split_indices":[14,10,11,9,2,11,0,0,0,0,0,0,0],"split_type":[0,0,0,0,0,0,0,0,0,0,0,0,0],"sum_hessian":[6.229777E2,4.9001187E2,1.3296587E2,5.7668236E1,4.3234366E2,1.2354068E2,9.425182E0,3.1923664E1,2.5744572E1,1.2726088E1,4.1961755E2,9.8564316E1,2.4976364E1],"tree_param":{"num_deleted":"0","num_feature":"15","num_nodes":"13","size_leaf_vector":"1"}},{"base_weights":[-8.4563576E-2,5.6869116E-2,-1.1046887E-2,-6.587695E-2,5.6355506E-1,9.846506E-3,-1.2363151E-2,1.9166699E-2,6.009991E-2],"categories":[],"categories_nodes":[],"categories_segments":[],"categories_sizes":[],"default_left":[0,0,0,0,0,0,0,0,0],"id":79,"left_children":[1,3,-1,5,7,-1,-1,-1,-1],"loss_changes":[8.239949E0,1.4165863E1,0E0,7.008134E0,4.878213E0,0E0,0E0,0E0,0E0],"parents":[2147483647,0,0,1,1,3,3,4,4],"right_children":[2,4,-1,6,8,-1,-1,-1,-1],"split_conditions":[6.9421277E0,2.2559465E9,-1.1046887E-2,4.2209344E0,7.381828E0,9.846506E-3,-1.2363151E-2,1.9166699E-2,6.009991E-2],"split_indices":[10,12,0,10,6,0,0,0,0],"split_type":[0,0,0,0,0,0,0,0,0],"sum_hessian":[5.074267E2,2.270015E2,2.804252E2,1.8280617E2,4.419532E1,7.1548065E1,1.1125811E2,3.1474497E1,1.2720821E1],"tree_param":{"num_deleted":"0","num_feature":"15","num_nodes":"9","size_leaf_vector":"1"}},{"base_weights":[-2.108403E-2,-5.750566E-2,1.220902E-2,-4.0281165E-2,-2.7561966E-2,-4.1478425E-3,2.4370983E-2],"categories":[],"categories_nodes":[],"categories_segments":[],"categories_sizes":[],"default_left":[0,0,0,0,0,0,0],"id":80,"left_children":[1,3,-1,5,-1,-1,-1],"loss_changes":[4.8648705E0,3.616261E0,0E0,7.672923E0,0E0,0E0,0E0],"parents":[2147483647,0,0,1,1,3,3],"right_children":[2,4,-1,6,-1,-1,-1],"split_conditions":[1.7223134E-5,6.653862E-1,1.220902E-2,1.7696085E1,-2.7561966E-2,-4.1478425E-3,2.4370983E-2],"split_indices":[14,7,0,0,0,0,0],"split_type":[0,0,0,0,0,0,0],"sum_hessian":[5.5412756E2,4.8177194E2,7.235562E1,4.639479E2,1.7824043E1,4.3308737E2,3.0860548E1],"tree_param":{"num_deleted":"0","num_feature":"15","num_nodes":"7","size_leaf_vector":"1"}},{"base_weights":[8.030513E-2,1.3629088E-1,-1.7585382E-1,-1.8713798E-1,1.8252178E-1,-1.8794155E-2,3.423037E-3,7.543149E-3,-3.1173624E-2,4.249236E-2,8.370649E-3],"categories":[],"categories_nodes":[],"categories_segments":[],"categories_sizes":[],"default_left":[0,0,0,0,0,0,0,0,0,0,0],"id":81,"left_children":[1,3,5,7,9,-1,-1,-1,-1,-1,-1],"loss_changes":[8.993081E0,7.7034893E0,4.3710556E0,7.83525E0,8.234152E0,0E0,0E0,0E0,0E0,0E0,0E0],"parents":[2147483647,0,0,1,1,2,2,3,3,4,4],"right_children":[2,4,6,8,10,-1,-1,-1,-1,-1,-1],"split_conditions":[1.0113363E-5,4.302677E0,1.680587E-1,4.217402E0,1.6429308E-1,-1.8794155E-2,3.423037E-3,7.543149E-3,-3.1173624E-2,4.249236E-2,8.370649E-3],"split_indices":[14,10,7,9,11,0,0,0,0,0,0],"split_type":[0,0,0,0,0,0,0,0,0,0,0],"sum_hessian":[6.266303E2,5.144902E2,1.1214015E2,6.411916E1,4.50371E2,6.657705E1,4.5563107E1,3.444047E1,2.967869E1,2.2772938E1,4.2759805E2],"tree_param":{"num_deleted":"0","num_feature":"15","num_nodes":"11","size_leaf_vector":"1"}},{"base_weights":[-6.750258E-2,5.9387963E-2,-1.7056178E-1,-1.5896298E-1,2.3058471E-1,-1.189297E-1,-2.2367613E-2,2.723951E-2,-1.4858493E-2,3.4951903E-2,7.6964367E-3,-1.1281717E-2,1.8254077E-2],"categories":[],"categories_nodes":[],"categories_segments":[],"categories_sizes":[],"default_left":[0,0,0,0,0,0,0,0,0,0,0,0,0],"id":82,"left_children":[1,3,5,7,9,11,-1,-1,-1,-1,-1,-1,-1],"loss_changes":[6.774002E0,8.677539E0,3.396819E0,7.234178E0,4.7165613E0,8.882755E0,0E0,0E0,0E0,0E0,0E0,0E0,0E0],"parents":[2147483647,0,0,1,1,2,2,3,3,4,4,5,5],"right_children":[2,4,6,8,10,12,-1,-1,-1,-1,-1,-1,-1],"split_conditions":[6.9421277E0,1.9767854E-1,6.0811406E-1,3.6752071E0,5.1571794E0,5.1357913E-1,-2.2367613E-2,2.723951E-2,-1.4858493E-2,3.4951903E-2,7.6964367E-3,-1.1281717E-2,1.8254077E-2],"split_indices":[10,11,11,9,9,11,0,0,0,0,0,0,0],"split_type":[0,0,0,0,0,0,0,0,0,0,0,0,0],"sum_hessian":[5.1716583E2,2.3160037E2,2.8556543E2,1.0165645E2,1.2994392E2,2.3417616E2,5.138927E1,1.441173E1,8.724471E1,2.3926336E1,1.0601759E2,1.9722171E2,3.695446E1],"tree_param":{"num_deleted":"0","num_feature":"15","num_nodes":"13","size_leaf_vector":"1"}},{"base_weights":[-3.0311882E-2,1.2261507E-1,-9.0816565E-2,-1.9909209E-2,2.1684185E-1,-2.7274234E-2,-1.7128762E-2,5.2831598E-2,8.229622E-3,3.1734787E-2,-4.5075277E-3],"categories":[],"categories_nodes":[],"categories_segments":[],"categories_sizes":[],"default_left":[0,0,0,0,0,0,0,0,0,0,0],"id":83,"left_children":[1,3,5,-1,7,-1,9,-1,-1,-1,-1],"loss_changes":[5.243222E0,7.2918634E0,1.1977626E1,0E0,6.682433E0,0E0,1.2974595E1,0E0,0E0,0E0,0E0],"parents":[2147483647,0,0,1,1,2,2,4,4,6,6],"right_children":[2,4,6,-1,8,-1,10,-1,-1,-1,-1],"split_conditions":[6.3195214E0,3.5640526E0,6.9421277E0,-1.9909209E-2,1.837235E8,-2.7274234E-2,7.747682E0,5.2831598E-2,8.229622E-3,3.1734787E-2,-4.5075277E-3],"split_indices":[9,10,10,0,12,0,6,0,0,0,0],"split_type":[0,0,0,0,0,0,0,0,0,0,0],"sum_hessian":[5.663545E2,1.602455E2,4.0610898E2,2.6029995E1,1.342155E2,6.274082E1,3.4336816E2,1.1115551E1,1.2309995E2,3.345406E1,3.099141E2],"tree_param":{"num_deleted":"0","num_feature":"15","num_nodes":"11","size_leaf_vector":"1"}},{"base_weights":[6.9120355E-2,2.7241927E-2,3.0094482E-2,-6.773047E-2,1.21620744E-1,1.698075E-4,-1.8817166E-2,-1.1518825E-3,1.2232491E-2],"categories":[],"categories_nodes":[],"categories_segments":[],"categories_sizes":[],"default_left":[0,0,0,0,0,0,0,0,0],"id":84,"left_children":[1,-1,3,5,7,-1,-1,-1,-1],"loss_changes":[1.0137449E1,0E0,5.0666513E0,5.2689743E0,4.131686E0,0E0,0E0,0E0,0E0],"parents":[2147483647,0,0,2,2,3,3,4,4],"right_children":[2,-1,4,6,8,-1,-1,-1,-1],"split_conditions":[-1.9574853E-5,2.7241927E-2,8.983362E-2,8.952442E0,7.7180467E0,1.698075E-4,-1.8817166E-2,-1.1518825E-3,1.2232491E-2],"split_indices":[14,0,7,6,6,0,0,0,0],"split_type":[0,0,0,0,0,0,0,0,0],"sum_hessian":[6.1703705E2,5.1892437E1,5.6514465E2,2.7292633E2,2.922183E2,2.1651364E2,5.64127E1,1.1966561E2,1.7255267E2],"tree_param":{"num_deleted":"0","num_feature":"15","num_nodes":"9","size_leaf_vector":"1"}},{"base_weights":[-6.988431E-2,6.7699045E-2,-9.835781E-3,8.0673015E-3,5.2355412E-2,-3.4756877E-3,2.691277E-2],"categories":[],"categories_nodes":[],"categories_segments":[],"categories_sizes":[],"default_left":[0,0,0,0,0,0,0],"id":85,"left_children":[1,3,-1,5,-1,-1,-1],"loss_changes":[7.3638744E0,1.1347159E1,0E0,6.9319434E0,0E0,0E0,0E0],"parents":[2147483647,0,0,1,1,3,3],"right_children":[2,4,-1,6,-1,-1,-1],"split_conditions":[6.9421277E0,2.6210772E9,-9.835781E-3,3.363584E-1,5.2355412E-2,-3.4756877E-3,2.691277E-2],"split_indices":[10,12,0,11,0,0,0],"split_type":[0,0,0,0,0,0,0],"sum_hessian":[4.9724564E2,2.1789397E2,2.7935165E2,2.0427623E2,1.3617731E1,1.7797719E2,2.6299051E1],"tree_param":{"num_deleted":"0","num_feature":"15","num_nodes":"7","size_leaf_vector":"1"}},{"base_weights":[-1.3839866E-2,4.4743214E-3,-3.4362603E-2,-2.6107427E-2,1.7995637E-2,7.550832E-3,-4.919823E-3],"categories":[],"categories_nodes":[],"categories_segments":[],"categories_sizes":[],"default_left":[0,0,0,0,0,0,0],"id":86,"left_children":[1,3,-1,5,-1,-1,-1],"loss_changes":[6.374595E0,5.4490833E0,0E0,5.146954E0,0E0,0E0,0E0],"parents":[2147483647,0,0,1,1,3,3],"right_children":[2,4,-1,6,-1,-1,-1],"split_conditions":[7.2296935E-1,2.4104467E-5,-3.4362603E-2,1.8974821E-1,1.7995637E-2,7.550832E-3,-4.919823E-3],"split_indices":[11,14,0,11,0,0,0],"split_type":[0,0,0,0,0,0,0],"sum_hessian":[5.7143646E2,5.547971E2,1.6639326E1,5.0644058E2,4.835655E1,1.4069438E2,3.6574622E2],"tree_param":{"num_deleted":"0","num_feature":"15","num_nodes":"7","size_leaf_vector":"1"}},{"base_weights":[8.149874E-2,5.7421796E-2,6.6376E-1,4.315322E-2,3.9582577E-2,9.178172E-3,5.3068798E-2,4.246624E-3,-2.1547183E-2],"categories":[],"categories_nodes":[],"categories_segments":[],"categories_sizes":[],"default_left":[0,0,0,0,0,0,0,0,0],"id":87,"left_children":[1,3,5,-1,7,-1,-1,-1,-1],"loss_changes":[8.777111E0,7.7250338E0,3.5414534E0,0E0,9.339716E0,0E0,0E0,0E0,0E0],"parents":[2147483647,0,0,1,1,2,2,4,4],"right_children":[2,4,6,-1,8,-1,-1,-1,-1],"split_conditions":[7.358957E-1,-4.661513E-5,6.05601E-1,4.315322E-2,5.7409347E9,9.178172E-3,5.3068798E-2,4.246624E-3,-2.1547183E-2],"split_indices":[7,14,11,0,12,0,0,0,0],"split_type":[0,0,0,0,0,0,0,0,0],"sum_hessian":[6.291336E2,6.044704E2,2.4663187E1,1.4302983E1,5.901674E2,9.329278E0,1.533391E1,5.435091E2,4.665833E1],"tree_param":{"num_deleted":"0","num_feature":"15","num_nodes":"9","size_leaf_vector":"1"}},{"base_weights":[-6.000469E-2,5.4500137E-2,-1.0482842E-2,9.589621E-2,-2.2409072E-2,-3.7755835E-5,2.7226562E-2],"categories":[],"categories_nodes":[],"categories_segments":[],"categories_sizes":[],"default_left":[0,0,0,0,0,0,0],"id":88,"left_children":[1,3,-1,5,-1,-1,-1],"loss_changes":[7.4895344E0,5.084162E0,0E0,9.422029E0,0E0,0E0,0E0],"parents":[2147483647,0,0,1,1,3,3],"right_children":[2,4,-1,6,-1,-1,-1],"split_conditions":[9.891856E-2,1.3705381E1,-1.0482842E-2,3.7662274E-1,-2.2409072E-2,-3.7755835E-5,2.7226562E-2],"split_indices":[7,2,0,11,0,0,0],"split_type":[0,0,0,0,0,0,0],"sum_hessian":[5.0612695E2,2.6799808E2,2.3812888E2,2.4607263E2,2.1925457E1,1.9780392E2,4.82687E1],"tree_param":{"num_deleted":"0","num_feature":"15","num_nodes":"7","size_leaf_vector":"1"}},{"base_weights":[-4.1891467E-2,3.9118326E-1,-6.695859E-2,-1.1122227E-2,3.5968438E-2,-1.6813204E-1,3.5133928E-2,2.9599958E-4,-1.736466E-2,3.5276018E-2,-2.2237995E-3],"categories":[],"categories_nodes":[],"categories_segments":[],"categories_sizes":[],"default_left":[0,0,0,0,0,0,0,0,0,0,0],"id":89,"left_children":[1,3,5,-1,-1,7,9,-1,-1,-1,-1],"loss_changes":[6.12016E0,4.7460313E0,5.5257673E0,0E0,0E0,6.771196E0,1.2053914E1,0E0,0E0,0E0,0E0],"parents":[2147483647,0,0,1,1,2,2,5,5,6,6],"right_children":[2,4,6,-1,-1,8,10,-1,-1,-1,-1],"split_conditions":[9.502179E-2,3.6786776E0,2.6651366E9,-1.1122227E-2,3.5968438E-2,6.3195214E0,8.404224E0,2.9599958E-4,-1.736466E-2,3.5276018E-2,-2.2237995E-3],"split_indices":[11,6,12,0,0,9,3,0,0,0,0],"split_type":[0,0,0,0,0,0,0,0,0,0,0],"sum_hessian":[5.645569E2,3.059956E1,5.3395734E2,9.228905E0,2.1370655E1,2.683693E2,2.65588E2,1.2211327E2,1.4625603E2,2.9442984E1,2.3614505E2],"tree_param":{"num_deleted":"0","num_feature":"15","num_nodes":"11","size_leaf_vector":"1"}},{"base_weights":[6.3112885E-2,2.0719191E-2,2.1874499E-2,-9.200425E-2,1.2512836E-1,-1.2758039E-3,-2.042184E-2,4.565647E-3,3.096478E-2],"categories":[],"categories_nodes":[],"categories_segments":[],"categories_sizes":[],"default_left":[0,0,0,0,0,0,0,0,0],"id":90,"left_children":[1,-1,3,5,7,-1,-1,-1,-1],"loss_changes":[8.031738E0,0E0,6.5379987E0,5.0120144E0,5.366628E0,0E0,0E0,0E0,0E0],"parents":[2147483647,0,0,2,2,3,3,4,4],"right_children":[2,-1,4,6,8,-1,-1,-1,-1],"split_conditions":[-1.24567905E-5,2.0719191E-2,9.62075E-2,8.952442E0,6.355446E-1,-1.2758039E-3,-2.042184E-2,4.565647E-3,3.096478E-2],"split_indices":[14,0,7,6,11,0,0,0,0],"split_type":[0,0,0,0,0,0,0,0,0],"sum_hessian":[6.2881274E2,7.336975E1,5.55443E2,2.6390427E2,2.9153876E2,2.1150105E2,5.2403217E1,2.6567227E2,2.5866482E1],"tree_param":{"num_deleted":"0","num_feature":"15","num_nodes":"9","size_leaf_vector":"1"}},{"base_weights":[-5.555217E-2,3.0871695E-1,-8.686387E-2,5.3795004E-1,-2.209385E-2,-1.03880055E-2,-2.3486401E-1,1.172015E-2,4.9153794E-2,-1.1371194E-2,6.7722215E-3,-3.3349928E-2,-5.5619082E-3],"categories":[],"categories_nodes":[],"categories_segments":[],"categories_sizes":[],"default_left":[0,0,0,0,0,0,0,0,0,0,0,0,0],"id":91,"left_children":[1,3,5,7,-1,9,11,-1,-1,-1,-1,-1,-1],"loss_changes":[5.7805166E0,6.5498447E0,5.2774296E0,3.3617926E0,0E0,7.970455E0,7.792485E0,0E0,0E0,0E0,0E0,0E0,0E0],"parents":[2147483647,0,0,1,1,2,2,3,3,5,5,6,6],"right_children":[2,4,6,8,-1,10,12,-1,-1,-1,-1,-1,-1],"split_conditions":[-2.5448495E-1,1.37798395E1,9.377043E0,5.1004624E0,-2.209385E-2,1.9498305E-1,3.6504874E-1,1.172015E-2,4.9153794E-2,-1.1371194E-2,6.7722215E-3,-3.3349928E-2,-5.5619082E-3],"split_indices":[7,2,8,0,0,11,11,0,0,0,0,0,0],"split_type":[0,0,0,0,0,0,0,0,0,0,0,0,0],"sum_hessian":[5.0706958E2,3.9850143E1,4.6721942E2,3.0189432E1,9.660713E0,3.0843152E2,1.5878792E2,1.5841315E1,1.4348117E1,1.250285E2,1.8340302E2,4.2337753E1,1.1645016E2],"tree_param":{"num_deleted":"0","num_feature":"15","num_nodes":"13","size_leaf_vector":"1"}},{"base_weights":[-1.6148416E-2,1.3422066E-1,-7.669658E-2,-1.6270043E-2,2.744913E-1,-2.945064E-1,4.0079925E-2,1.0398969E-2,5.1896494E-2,-2.4429325E-3,-2.242739E-2,3.2417875E-2,-1.8381927E-3],"categories":[],"categories_nodes":[],"categories_segments":[],"categories_sizes":[],"default_left":[0,0,0,0,0,0,0,0,0,0,0,0,0],"id":92,"left_children":[1,3,5,-1,7,9,11,-1,-1,-1,-1,-1,-1],"loss_changes":[5.0309978E0,9.522632E0,1.0047212E1,0E0,6.7789984E0,3.7663517E0,1.0270374E1,0E0,0E0,0E0,0E0,0E0,0E0],"parents":[2147483647,0,0,1,1,2,2,4,4,5,5,6,6],"right_children":[2,4,6,-1,8,10,12,-1,-1,-1,-1,-1,-1],"split_conditions":[6.3195214E0,-4.8283566E-2,2.6651366E9,-1.6270043E-2,5.803131E0,1.7094546E9,8.404224E0,1.0398969E-2,5.1896494E-2,-2.4429325E-3,-2.242739E-2,3.2417875E-2,-1.8381927E-3],"split_indices":[9,7,12,0,6,12,3,0,0,0,0,0,0],"split_type":[0,0,0,0,0,0,0,0,0,0,0,0,0],"sum_hessian":[5.52436E2,1.5826486E2,3.941711E2,3.894269E1,1.1932217E2,1.3761029E2,2.5656082E2,1.0577164E2,1.3550535E1,4.2204212E1,9.5406075E1,3.031558E1,2.2624524E2],"tree_param":{"num_deleted":"0","num_feature":"15","num_nodes":"13","size_leaf_vector":"1"}},{"base_weights":[4.6667337E-2,9.468252E-2,-1.9514224E-1,3.8257238E-2,7.504525E-2,-1.4516493E-2,2.1328272E-2,-1.1291552E-2,6.1285244E-3],"categories":[],"categories_nodes":[],"categories_segments":[],"categories_sizes":[],"default_left":[0,0,0,0,0,0,0,0,0],"id":93,"left_children":[1,3,5,-1,7,-1,-1,-1,-1],"loss_changes":[7.146495E0,5.9555125E0,3.9501698E0,0E0,4.9196777E0,0E0,0E0,0E0,0E0],"parents":[2147483647,0,0,1,1,2,2,4,4],"right_children":[2,4,6,-1,8,-1,-1,-1,-1],"split_conditions":[1.0113363E-5,-4.661513E-5,6.378726E-1,3.8257238E-2,4.2293444E0,-1.4516493E-2,2.1328272E-2,-1.1291552E-2,6.1285244E-3],"split_indices":[14,14,11,0,10,0,0,0,0],"split_type":[0,0,0,0,0,0,0,0,0],"sum_hessian":[6.153943E2,5.1373346E2,1.0166083E2,1.6083885E1,4.976496E2,9.137275E1,1.0288082E1,5.5897884E1,4.417517E2],"tree_param":{"num_deleted":"0","num_feature":"15","num_nodes":"9","size_leaf_vector":"1"}},{"base_weights":[-5.9861507E-2,-4.7097523E-3,-2.4155861E-1,-8.1241615E-2,7.3148817E-1,-2.9574875E-2,-9.0004705E-2,-1.046926E-3,-2.9355817E-2,2.4999108E-2,7.9476975E-2,1.2070897E-2,-1.6884921E-2],"categories":[],"categories_nodes":[],"categories_segments":[],"categories_sizes":[],"default_left":[0,0,0,0,0,0,0,0,0,0,0,0,0],"id":94,"left_children":[1,3,5,7,9,-1,11,-1,-1,-1,-1,-1,-1],