{"learner":{"attributes":{"best_iteration":"10","best_score":"0.6737227364006072"},"feature_names":["EMA_long","BB_middle","BB_upper","OBV","BB_lower","EMA_short","MACD_signal","ADX","wavelet_cA"],"feature_types":["float","float","float","float","float","float","float","float","float"],"gradient_booster":{"model":{"gbtree_model_param":{"num_parallel_tree":"1","num_trees":"183"},"iteration_indptr":[0,3,6,9,12,15,18,21,24,27,30,33,36,39,42,45,48,51,54,57,60,63,66,69,72,75,78,81,84,87,90,93,96,99,102,105,108,111,114,117,120,123,126,129,132,135,138,141,144,147,150,153,156,159,162,165,168,171,174,177,180,183],"tree_info":[0,1,2,0,1,2,0,1,2,0,1,2,0,1,2,0,1,2,0,1,2,0,1,2,0,1,2,0,1,2,0,1,2,0,1,2,0,1,2,0,1,2,0,1,2,0,1,2,0,1,2,0,1,2,0,1,2,0,1,2,0,1,2,0,1,2,0,1,2,0,1,2,0,1,2,0,1,2,0,1,2,0,1,2,0,1,2,0,1,2,0,1,2,0,1,2,0,1,2,0,1,2,0,1,2,0,1,2,0,1,2,0,1,2,0,1,2,0,1,2,0,1,2,0,1,2,0,1,2,0,1,2,0,1,2,0,1,2,0,1,2,0,1,2,0,1,2,0,1,2,0,1,2,0,1,2,0,1,2,0,1,2,0,1,2,0,1,2,0,1,2,0,1,2,0,1,2,0,1,2,0,1,2],"trees":[{"base_weights":[1.6903317E-1,8.16025E-2,6.65808E-2,-1.1947152E-1,1.8131767E-1,-2.3265231E-2,4.2224985E-2,4.342053E-2,2.8629338E-3],"categories":[],"categories_nodes":[],"categories_segments":[],"categories_sizes":[],"default_left":[0,0,0,0,0,0,0,0,0],"id":0,"left_children":[1,3,-1,5,7,-1,-1,-1,-1],"loss_changes":[3.6928215E1,1.2538708E1,0E0,2.114231E1,2.016275E1,0E0,0E0,0E0,0E0],"parents":[2147483647,0,0,1,1,3,3,4,4],"right_children":[2,4,-1,6,8,-1,-1,-1,-1],"split_conditions":[6.554507E1,2.8244408E1,6.65808E-2,4.5461437E-1,3.0818604E1,-2.3265231E-2,4.2224985E-2,4.342053E-2,2.8629338E-3],"split_indices":[0,1,0,6,4,0,0,0,0],"split_type":[0,0,0,0,0,0,0,0,0],"sum_hessian":[6.8622217E2,6.0888885E2,7.733333E1,2.0133333E2,4.0755554E2,1.6444443E2,3.6888885E1,1.1955555E2,2.8799997E2],"tree_param":{"num_deleted":"0","num_feature":"9","num_nodes":"9","size_leaf_vector":"1"}},{"base_weights":[-3.008979E-1,2.7308587E-2,-2.7378466E-2],"categories":[],"categories_nodes":[],"categories_segments":[],"categories_sizes":[],"default_left":[0,0,0],"id":1,"left_children":[1,-1,-1],"loss_changes":[1.0462288E1,0E0,0E0],"parents":[2147483647,0,0],"right_children":[2,-1,-1],"split_conditions":[1.3938053E1,2.7308587E-2,-2.7378466E-2],"split_indices":[4,0,0],"split_type":[0,0,0],"sum_hessian":[6.866666E2,1.9999998E1,6.666666E2],"tree_param":{"num_deleted":"0","num_feature":"9","num_nodes":"3","size_leaf_vector":"1"}},{"base_weights":[1.2806325E-1,2.0607063E-1,-3.2851987E-2,-9.060884E-2,2.4569352E-1,1.1562668E-2,3.710537E-2,3.8579173E-2,-2.0066906E-2],"categories":[],"categories_nodes":[],"categories_segments":[],"categories_sizes":[],"default_left":[0,0,0,0,0,0,0,0,0],"id":2,"left_children":[1,3,-1,7,5,-1,-1,-1,-1],"loss_changes":[2.849271E1,7.306961E0,0E0,7.0229917E0,1.0808537E1,0E0,0E0,0E0,0E0],"parents":[2147483647,0,0,1,1,4,4,3,3],"right_children":[2,4,-1,8,6,-1,-1,-1,-1],"split_conditions":[6.501953E1,-9.7679985E-1,-3.2851987E-2,-2.32621E0,3.6410347E1,1.1562668E-2,3.710537E-2,3.8579173E-2,-2.0066906E-2],"split_indices":[0,6,0,6,0,0,0,0,0],"split_type":[0,0,0,0,0,0,0,0,0],"sum_hessian":[6.844444E2,5.986666E2,8.577777E1,6.933333E1,5.293333E2,3.462222E2,1.831111E2,1.1111111E1,5.8222218E1],"tree_param":{"num_deleted":"0","num_feature":"9","num_nodes":"9","size_leaf_vector":"1"}},{"base_weights":[1.6772199E-1,8.810605E-2,6.147446E-2,-1.04695685E-1,1.8522093E-1,-2.1347754E-2,4.3151837E-2,4.4816423E-2,5.1614777E-3],"categories":[],"categories_nodes":[],"categories_segments":[],"categories_sizes":[],"default_left":[0,0,0,0,0,0,0,0,0],"id":3,"left_children":[1,3,-1,5,7,-1,-1,-1,-1],"loss_changes":[3.071972E1,1.1841883E1,0E0,2.0384932E1,1.7605515E1,0E0,0E0,0E0,0E0],"parents":[2147483647,0,0,1,1,3,3,4,4],"right_children":[2,4,-1,6,8,-1,-1,-1,-1],"split_conditions":[6.5726265E1,2.8244408E1,6.147446E-2,4.6235135E-1,5.973445E8,-2.1347754E-2,4.3151837E-2,4.4816423E-2,5.1614777E-3],"split_indices":[0,1,0,6,3,0,0,0,0],"split_type":[0,0,0,0,0,0,0,0,0],"sum_hessian":[6.9510486E2,6.16322E2,7.878287E1,2.062452E2,4.100768E2,1.701129E2,3.6132286E1,1.0204986E2,3.0802695E2],"tree_param":{"num_deleted":"0","num_feature":"9","num_nodes":"9","size_leaf_vector":"1"}},{"base_weights":[-2.9330385E-1,2.9139059E-2,-2.6918339E-2],"categories":[],"categories_nodes":[],"categories_segments":[],"categories_sizes":[],"default_left":[0,0,0],"id":4,"left_children":[1,-1,-1],"loss_changes":[1.1504742E1,0E0,0E0],"parents":[2147483647,0,0],"right_children":[2,-1,-1],"split_conditions":[1.3938053E1,2.9139059E-2,-2.6918339E-2],"split_indices":[4,0,0],"split_type":[0,0,0],"sum_hessian":[6.7561005E2,2.1114862E1,6.544952E2],"tree_param":{"num_deleted":"0","num_feature":"9","num_nodes":"3","size_leaf_vector":"1"}},{"base_weights":[1.2142356E-1,1.9211294E-1,-3.171546E-2,-9.238763E-2,2.2926714E-1,1.1711737E-2,3.3004135E-2,3.239611E-2,-1.9297443E-2],"categories":[],"categories_nodes":[],"categories_segments":[],"categories_sizes":[],"default_left":[0,0,0,0,0,0,0,0,0],"id":5,"left_children":[1,3,-1,7,5,-1,-1,-1,-1],"loss_changes":[2.5215176E1,6.7289486E0,0E0,5.6614637E0,7.617468E0,0E0,0E0,0E0,0E0],"parents":[2147483647,0,0,1,1,4,4,3,3],"right_children":[2,4,-1,8,6,-1,-1,-1,-1],"split_conditions":[6.501953E1,-1.0119436E0,-3.171546E-2,-2.3382895E0,3.640054E1,1.1711737E-2,3.3004135E-2,3.239611E-2,-1.9297443E-2],"split_indices":[0,6,0,6,0,0,0,0,0],"split_type":[0,0,0,0,0,0,0,0,0],"sum_hessian":[6.953119E2,6.127899E2,8.2521965E1,6.942268E1,5.4336725E2,3.559715E2,1.8739575E2,1.2197601E1,5.7225086E1],"tree_param":{"num_deleted":"0","num_feature":"9","num_nodes":"9","size_leaf_vector":"1"}},{"base_weights":[1.4345877E-1,7.283985E-2,5.3836595E-2,-1.2950131E-1,1.7460218E-1,-2.213532E-2,3.5187922E-2,3.7004877E-2,3.463656E-3],"categories":[],"categories_nodes":[],"categories_segments":[],"categories_sizes":[],"default_left":[0,0,0,0,0,0,0,0,0],"id":6,"left_children":[1,3,-1,5,7,-1,-1,-1,-1],"loss_changes":[2.406435E1,1.3024639E1,0E0,1.6173843E1,1.4529415E1,0E0,0E0,0E0,0E0],"parents":[2147483647,0,0,1,1,3,3,4,4],"right_children":[2,4,-1,6,8,-1,-1,-1,-1],"split_conditions":[6.5565834E1,2.8244408E1,5.3836595E-2,4.6235135E-1,3.3275467E1,-2.213532E-2,3.5187922E-2,3.7004877E-2,3.463656E-3],"split_indices":[0,1,0,6,5,0,0,0,0],"split_type":[0,0,0,0,0,0,0,0,0],"sum_hessian":[6.952435E2,6.1593E2,7.931353E1,2.0538623E2,4.1054376E2,1.6870656E2,3.6679672E1,1.3260066E2,2.7794308E2],"tree_param":{"num_deleted":"0","num_feature":"9","num_nodes":"9","size_leaf_vector":"1"}},{"base_weights":[-2.7222848E-1,2.6410624E-2,-2.4954278E-2],"categories":[],"categories_nodes":[],"categories_segments":[],"categories_sizes":[],"default_left":[0,0,0],"id":7,"left_children":[1,-1,-1],"loss_changes":[9.562637E0,0E0,0E0],"parents":[2147483647,0,0],"right_children":[2,-1,-1],"split_conditions":[1.3938053E1,2.6410624E-2,-2.4954278E-2],"split_indices":[4,0,0],"split_type":[0,0,0],"sum_hessian":[6.70001E2,2.0882269E1,6.4911865E2],"tree_param":{"num_deleted":"0","num_feature":"9","num_nodes":"3","size_leaf_vector":"1"}},{"base_weights":[1.173696E-1,1.7849755E-1,-2.7289402E-2,1.3826773E-1,3.5614006E-2,1.5755417E-2,-1.4192462E-2],"categories":[],"categories_nodes":[],"categories_segments":[],"categories_sizes":[],"default_left":[0,0,0,0,0,0,0],"id":8,"left_children":[1,3,-1,5,-1,-1,-1],"loss_changes":[1.930895E1,5.584137E0,0E0,8.18779E0,0E0,0E0,0E0],"parents":[2147483647,0,0,1,1,3,3],"right_children":[2,4,-1,6,-1,-1,-1],"split_conditions":[6.501953E1,1.1436038E9,-2.7289402E-2,5.6306355E1,3.5614006E-2,1.5755417E-2,-1.4192462E-2],"split_indices":[0,3,0,0,0,0,0],"split_type":[0,0,0,0,0,0,0],"sum_hessian":[6.938821E2,6.1328326E2,8.0598785E1,5.3649805E2,7.6785225E1,4.6678693E2,6.971115E1],"tree_param":{"num_deleted":"0","num_feature":"9","num_nodes":"7","size_leaf_vector":"1"}},{"base_weights":[1.4067891E-1,7.149065E-2,5.074476E-2,-1.0860461E-1,1.5911008E-1,-2.1476034E-2,3.9176915E-2,4.027362E-2,5.789838E-3],"categories":[],"categories_nodes":[],"categories_segments":[],"categories_sizes":[],"default_left":[0,0,0,0,0,0,0,0,0],"id":9,"left_children":[1,3,-1,5,7,-1,-1,-1,-1],"loss_changes":[2.2056507E1,9.962393E0,0E0,1.817827E1,1.1859355E1,0E0,0E0,0E0,0E0],"parents":[2147483647,0,0,1,1,3,3,4,4],"right_children":[2,4,-1,6,8,-1,-1,-1,-1],"split_conditions":[6.5726265E1,2.8244408E1,5.074476E-2,4.6235135E-1,5.311715E8,-2.1476034E-2,3.9176915E-2,4.027362E-2,5.789838E-3],"split_indices":[0,1,0,6,3,0,0,0,0],"split_type":[0,0,0,0,0,0,0,0,0],"sum_hessian":[6.9839343E2,6.147413E2,8.365215E1,2.0057538E2,4.141659E2,1.634963E2,3.707907E1,8.487725E1,3.2928864E2],"tree_param":{"num_deleted":"0","num_feature":"9","num_nodes":"9","size_leaf_vector":"1"}},{"base_weights":[-2.6787183E-1,1.8297488E-2,-2.6555939E-2,-1.8124269E-1,6.953457E-2,2.3949571E-2,-3.1561643E-2],"categories":[],"categories_nodes":[],"categories_segments":[],"categories_sizes":[],"default_left":[0,0,0,0,0,0,0],"id":10,"left_children":[1,3,-1,5,-1,-1,-1],"loss_changes":[8.691158E0,1.6958618E1,0E0,8.414424E0,0E0,0E0,0E0],"parents":[2147483647,0,0,1,1,3,3],"right_children":[2,4,-1,6,-1,-1,-1],"split_conditions":[2.1315565E1,2.2525522E1,-2.6555939E-2,1.3938053E1,6.953457E-2,2.3949571E-2,-3.1561643E-2],"split_indices":[4,0,0,4,0,0,0],"split_type":[0,0,0,0,0,0,0],"sum_hessian":[6.549125E2,9.063125E1,5.6428125E2,7.749331E1,1.3137939E1,2.1519308E1,5.5974003E1],"tree_param":{"num_deleted":"0","num_feature":"9","num_nodes":"7","size_leaf_vector":"1"}},{"base_weights":[1.1091209E-1,1.7468067E-1,-2.3036082E-1,-1.069386E-1,2.1482918E-1,9.651925E-3,3.504845E-2,3.1058246E-2,-2.1352632E-2,-3.5512567E-2,4.478068E-2,2.4081144E-2,-3.576098E-2],"categories":[],"categories_nodes":[],"categories_segments":[],"categories_sizes":[],"default_left":[0,0,0,0,0,0,0,0,0,0,0,0,0],"id":11,"left_children":[1,3,9,7,5,-1,-1,-1,-1,-1,11,-1,-1],"loss_changes":[1.5722833E1,6.976053E0,6.1153297E0,6.246658E0,1.0232521E1,0E0,0E0,0E0,0E0,0E0,6.9760647E0,0E0,0E0],"parents":[2147483647,0,0,1,1,4,4,3,3,2,2,10,10],"right_children":[2,4,10,8,6,-1,-1,-1,-1,-1,12,-1,-1],"split_conditions":[6.2747005E1,-9.7679985E-1,1.0796322E0,-2.3382895E0,3.727979E1,9.651925E-3,3.504845E-2,3.1058246E-2,-2.1352632E-2,-3.5512567E-2,1.3743222E9,2.4081144E-2,-3.576098E-2],"split_indices":[5,6,6,6,1,0,0,0,0,0,3,0,0],"split_type":[0,0,0,0,0,0,0,0,0,0,0,0,0],"sum_hessian":[6.999072E2,5.929739E2,1.0693333E2,7.234377E1,5.206301E2,3.5364835E2,1.6698175E2,1.4131629E1,5.8212147E1,6.0956863E1,4.5976463E1,3.243811E1,1.3538355E1],"tree_param":{"num_deleted":"0","num_feature":"9","num_nodes":"13","size_leaf_vector":"1"}},{"base_weights":[1.3168296E-1,-1.1453683E-1,2.3316269E-1,-1.8190336E-1,6.1082527E-2,1.6145061E-1,4.561848E-2,4.3135148E-2,5.3160014E-3,2.7233153E-3,-2.9920595E-2],"categories":[],"categories_nodes":[],"categories_segments":[],"categories_sizes":[],"default_left":[0,0,0,0,0,0,0,0,0,0,0],"id":12,"left_children":[1,3,5,9,-1,7,-1,-1,-1,-1,-1],"loss_changes":[1.7783867E1,1.2890993E1,1.0271688E1,7.4650607E0,0E0,1.4047917E1,0E0,0E0,0E0,0E0,0E0],"parents":[2147483647,0,0,1,1,2,2,5,5,3,3],"right_children":[2,4,6,10,-1,8,-1,-1,-1,-1,-1],"split_conditions":[2.836299E1,4.2904507E1,6.5726265E1,2.3225597E1,6.1082527E-2,5.292047E8,4.561848E-2,4.3135148E-2,5.3160014E-3,2.7233153E-3,-2.9920595E-2],"split_indices":[1,7,0,0,0,3,0,0,0,0,0],"split_type":[0,0,0,0,0,0,0,0,0,0,0],"sum_hessian":[6.9535693E2,2.0264949E2,4.9270746E2,1.9326358E2,9.385912E0,4.0879358E2,8.391388E1,8.310592E1,3.2568765E2,8.876146E1,1.0450211E2],"tree_param":{"num_deleted":"0","num_feature":"9","num_nodes":"11","size_leaf_vector":"1"}},{"base_weights":[-2.427069E-1,3.405891E-1,-2.600209E-1,-1.8339718E-2,5.831907E-2,-2.7864778E-1,1.2387856E-1,5.170484E-2,-2.8679814E-2,-1.5277273E-2,-3.129516E-2],"categories":[],"categories_nodes":[],"categories_segments":[],"categories_sizes":[],"default_left":[0,0,0,0,0,0,0,0,0,0,0],"id":13,"left_children":[1,3,5,-1,-1,9,7,-1,-1,-1,-1],"loss_changes":[7.3948975E0,5.5461197E0,4.9082794E0,0E0,0E0,5.0094147E0,9.615769E0,0E0,0E0,0E0,0E0],"parents":[2147483647,0,0,1,1,2,2,6,6,5,5],"right_children":[2,4,6,-1,-1,10,8,-1,-1,-1,-1],"split_conditions":[1.5019633E1,1.3553741E1,2.0545824E0,-1.8339718E-2,5.831907E-2,2.3943537E-1,3.337179E1,5.170484E-2,-2.8679814E-2,-1.5277273E-2,-3.129516E-2],"split_indices":[0,7,6,0,0,6,7,0,0,0,0],"split_type":[0,0,0,0,0,0,0,0,0,0,0],"sum_hessian":[6.548471E2,1.4613977E1,6.4023315E2,6.766281E0,7.8476963E0,6.126778E2,2.7555367E1,1.2194336E1,1.5361031E1,3.054138E2,3.0726398E2],"tree_param":{"num_deleted":"0","num_feature":"9","num_nodes":"11","size_leaf_vector":"1"}},{"base_weights":[1.0539474E-1,1.6314434E-1,-2.6647588E-2,1.3832322E-1,5.350506E-1,1.6621737E-2,-1.4146305E-2,5.8054756E-2,-2.126414E-2],"categories":[],"categories_nodes":[],"categories_segments":[],"categories_sizes":[],"default_left":[0,0,0,0,0,0,0,0,0],"id":14,"left_children":[1,3,-1,5,7,-1,-1,-1,-1],"loss_changes":[1.7505304E1,5.183733E0,0E0,1.0800755E1,5.6532297E0,0E0,0E0,0E0,0E0],"parents":[2147483647,0,0,1,1,3,3,4,4],"right_children":[2,4,-1,6,8,-1,-1,-1,-1],"split_conditions":[6.501953E1,5.797806E1,-2.6647588E-2,5.5957516E1,2.9965754E1,1.6621737E-2,-1.4146305E-2,5.8054756E-2,-2.126414E-2],"split_indices":[0,4,0,0,7,0,0,0,0],"split_type":[0,0,0,0,0,0,0,0,0],"sum_hessian":[6.971668E2,6.1713995E2,8.0026825E1,5.887161E2,2.8423838E1,4.972847E2,9.143144E1,2.4716791E1,3.7070453E0],"tree_param":{"num_deleted":"0","num_feature":"9","num_nodes":"9","size_leaf_vector":"1"}},{"base_weights":[1.0902617E-1,4.875057E-2,4.3690834E-2,-1.19306915E-1,1.2576732E-1,3.547708E-2,2.1365758E-3,-3.2888237E-2,7.313156E-3],"categories":[],"categories_nodes":[],"categories_segments":[],"categories_sizes":[],"default_left":[0,0,0,0,0,0,0,0,0],"id":15,"left_children":[1,3,-1,7,5,-1,-1,-1,-1],"loss_changes":[1.7386944E1,8.319308E0,0E0,1.1498838E1,1.2828886E1,0E0,0E0,0E0,0E0],"parents":[2147483647,0,0,1,1,4,4,3,3],"right_children":[2,4,-1,8,6,-1,-1,-1,-1],"split_conditions":[6.5726265E1,3.0187277E1,4.3690834E-2,1.7509172E1,5.608661E8,3.547708E-2,2.1365758E-3,-3.2888237E-2,7.313156E-3],"split_indices":[0,2,0,7,3,0,0,0,0],"split_type":[0,0,0,0,0,0,0,0,0],"sum_hessian":[7.095094E2,6.256494E2,8.386002E1,1.9524869E2,4.304007E2,1.0356319E2,3.2683752E2,8.1562096E1,1.1368659E2],"tree_param":{"num_deleted":"0","num_feature":"9","num_nodes":"9","size_leaf_vector":"1"}},{"base_weights":[-2.4274276E-1,2.135962E-2,-2.619185E-1,-2.8480735E-1,1.3146126E-1,4.375257E-2,-2.7878089E-2,-1.6916335E-2,-3.307186E-2],"categories":[],"categories_nodes":[],"categories_segments":[],"categories_sizes":[],"default_left":[0,0,0,0,0,0,0,0,0],"id":16,"left_children":[1,-1,3,7,5,-1,-1,-1,-1],"loss_changes":[6.6738358E0,0E0,5.950077E0,4.737297E0,8.427596E0,0E0,0E0,0E0,0E0],"parents":[2147483647,0,0,2,2,4,4,3,3],"right_children":[2,-1,4,8,6,-1,-1,-1,-1],"split_conditions":[1.3938053E1,2.135962E-2,1.9461868E0,5.3403168E1,3.337179E1,4.375257E-2,-2.7878089E-2,-1.6916335E-2,-3.307186E-2],"split_indices":[4,0,6,0,7,0,0,0,0],"split_type":[0,0,0,0,0,0,0,0,0],"sum_hessian":[6.402598E2,2.0294783E1,6.19965E2,5.879419E2,3.2023132E1,1.6918564E1,1.5104568E1,3.381271E2,2.4981477E2],"tree_param":{"num_deleted":"0","num_feature":"9","num_nodes":"9","size_leaf_vector":"1"}},{"base_weights":[8.831146E-2,1.2765034E-1,-3.3463925E-2,-1.01464026E-1,1.6246547E-1,3.38461E-2,-1.9909885E-2,7.1931416E-3,2.4432844E-2],"categories":[],"categories_nodes":[],"categories_segments":[],"categories_sizes":[],"default_left":[0,0,0,0,0,0,0,0,0],"id":17,"left_children":[1,3,-1,5,7,-1,-1,-1,-1],"loss_changes":[1.3765898E1,5.3641167E0,0E0,6.85981E0,5.3986855E0,0E0,0E0,0E0,0E0],"parents":[2147483647,0,0,1,1,3,3,4,4],"right_children":[2,4,-1,6,8,-1,-1,-1,-1],"split_conditions":[6.773538E1,-9.7679985E-1,-3.3463925E-2,-2.32621E0,3.6410347E1,3.38461E-2,-1.9909885E-2,7.1931416E-3,2.4432844E-2],"split_indices":[0,6,0,6,0,0,0,0,0],"split_type":[0,0,0,0,0,0,0,0,0],"sum_hessian":[6.951177E2,6.4818677E2,4.6930893E1,8.3502235E1,5.646845E2,1.4254016E1,6.924822E1,3.5765622E2,2.0702832E2],"tree_param":{"num_deleted":"0","num_feature":"9","num_nodes":"9","size_leaf_vector":"1"}},{"base_weights":[1.2378688E-1,5.7767825E-3,3.2088175E-1,8.599373E-2,-3.4479058E-1,-6.4693685E-3,2.5673077E-2,4.6837732E-1,7.305256E-2,-2.0275148E-2,3.10137E-2,-2.3879645E-2,4.3526746E-2,-3.7382852E-2,2.6711307E-2],"categories":[],"categories_nodes":[],"categories_segments":[],"categories_sizes":[],"default_left":[0,0,0,0,0,0,0,0,0,0,0,0,0,0,0],"id":18,"left_children":[1,3,7,5,13,-1,-1,11,9,-1,-1,-1,-1,-1,-1],"loss_changes":[1.6732697E1,1.3126835E1,9.580696E0,1.3552685E1,6.637787E0,0E0,0E0,6.8506393E0,1.0756732E1,0E0,0E0,0E0,0E0,0E0,0E0],"parents":[2147483647,0,0,1,1,3,3,2,2,8,8,7,7,4,4],"right_children":[2,4,8,6,14,-1,-1,12,10,-1,-1,-1,-1,-1,-1],"split_conditions":[5.4281105E1,3.640054E1,9.4119114E-1,2.8494585E1,5.827158E1,-6.4693685E-3,2.5673077E-2,8.373594E8,1.2313773E9,-2.0275148E-2,3.10137E-2,-2.3879645E-2,4.3526746E-2,-3.7382852E-2,2.6711307E-2],"split_indices":[5,0,6,5,2,0,0,3,3,0,0,0,0,0,0],"split_type":[0,0,0,0,0,0,0,0,0,0,0,0,0,0,0],"sum_hessian":[7.121131E2,4.5051926E2,2.6159384E2,3.7149243E2,7.902684E1,2.1545505E2,1.5603738E2,1.5957399E2,1.02019844E2,5.00817E1,5.193815E1,6.748926E0,1.5282507E2,7.124238E1,7.7844577E0],"tree_param":{"num_deleted":"0","num_feature":"9","num_nodes":"15","size_leaf_vector":"1"}},{"base_weights":[-2.146774E-1,2.3943996E-2,-2.1287777E-2,-1.6770218E-1,6.423442E-2,1.8888475E-2,-2.7850436E-2],"categories":[],"categories_nodes":[],"categories_segments":[],"categories_sizes":[],"default_left":[0,0,0,0,0,0,0],"id":19,"left_children":[1,3,-1,5,-1,-1,-1],"loss_changes":[5.610096E0,1.3943394E1,0E0,5.57463E0,0E0,0E0,0E0],"parents":[2147483647,0,0,1,1,3,3],"right_children":[2,4,-1,6,-1,-1,-1],"split_conditions":[2.1196983E1,2.1088129E1,-2.1287777E-2,1.3938053E1,6.423442E-2,1.8888475E-2,-2.7850436E-2],"split_indices":[4,0,0,4,0,0,0],"split_type":[0,0,0,0,0,0,0],"sum_hessian":[6.2912494E2,8.401093E1,5.45114E2,7.146851E1,1.2542417E1,1.9971634E1,5.149688E1],"tree_param":{"num_deleted":"0","num_feature":"9","num_nodes":"7","size_leaf_vector":"1"}},{"base_weights":[8.848383E-2,1.1418288E-1,-4.0400483E-2,-1.6570398E-1,1.3332359E-2,2.6634596E-2,-2.3440257E-2],"categories":[],"categories_nodes":[],"categories_segments":[],"categories_sizes":[],"default_left":[0,0,0,0,0,0,0],"id":20,"left_children":[1,3,-1,5,-1,-1,-1],"loss_changes":[1.0903176E1,8.616789E0,0E0,5.8496666E0,0E0,0E0,0E0],"parents":[2147483647,0,0,1,1,3,3],"right_children":[2,4,-1,6,-1,-1,-1],"split_conditions":[1.3930321E9,-9.7679985E-1,-4.0400483E-2,-2.3382895E0,1.3332359E-2,2.6634596E-2,-2.3440257E-2],"split_indices":[3,6,0,6,0,0,0],"split_type":[0,0,0,0,0,0,0],"sum_hessian":[7.128418E2,6.8789355E2,2.4948236E1,8.894645E1,5.989471E2,1.3973781E1,7.497267E1],"tree_param":{"num_deleted":"0","num_feature":"9","num_nodes":"7","size_leaf_vector":"1"}},{"base_weights":[1.1189807E-1,-1.1015135E-2,3.1858197E-1,6.431615E-2,-3.4204045E-1,-1.0121964E-2,2.3493137E-2,-3.7193567E-2,2.589707E-2,2.0411642E-1,4.3387838E-2,2.7512617E-2,-2.626712E-2],"categories":[],"categories_nodes":[],"categories_segments":[],"categories_sizes":[],"default_left":[0,0,0,0,0,0,0,0,0,0,0,0,0],"id":21,"left_children":[1,3,9,5,7,-1,-1,-1,-1,11,-1,-1,-1],"loss_changes":[1.8081104E1,1.1477667E1,5.048931E0,1.4977656E1,6.419734E0,0E0,0E0,0E0,0E0,1.195291E1,0E0,0E0,0E0],"parents":[2147483647,0,0,1,1,3,3,4,4,2,2,9,9],"right_children":[2,4,10,6,8,-1,-1,-1,-1,12,-1,-1,-1],"split_conditions":[5.4281105E1,3.640054E1,6.544338E1,2.8244408E1,5.827158E1,-1.0121964E-2,2.3493137E-2,-3.7193567E-2,2.589707E-2,5.797806E1,4.3387838E-2,2.7512617E-2,-2.626712E-2],"split_indices":[5,0,0,1,2,0,0,0,0,4,0,0,0],"split_type":[0,0,0,0,0,0,0,0,0,0,0,0,0],"sum_hessian":[7.027214E2,4.4536493E2,2.573564E2,3.6800085E2,7.7364075E1,1.994053E2,1.6859557E2,6.950986E1,7.854219E0,1.719419E2,8.5414536E1,1.4163174E2,3.031014E1],"tree_param":{"num_deleted":"0","num_feature":"9","num_nodes":"13","size_leaf_vector":"1"}},{"base_weights":[-2.0967704E-1,2.295572E-2,-1.9402377E-2],"categories":[],"categories_nodes":[],"categories_segments":[],"categories_sizes":[],"default_left":[0,0,0],"id":22,"left_children":[1,-1,-1],"loss_changes":[6.452467E0,0E0,0E0],"parents":[2147483647,0,0],"right_children":[2,-1,-1],"split_conditions":[1.3938053E1,2.295572E-2,-1.9402377E-2],"split_indices":[4,0,0],"split_type":[0,0,0],"sum_hessian":[6.334235E2,2.051307E1,6.129104E2],"tree_param":{"num_deleted":"0","num_feature":"9","num_nodes":"3","size_leaf_vector":"1"}},{"base_weights":[8.484286E-2,1.0396436E-2,-3.451565E-2],"categories":[],"categories_nodes":[],"categories_segments":[],"categories_sizes":[],"default_left":[0,0,0],"id":23,"left_children":[1,-1,-1],"loss_changes":[1.3610802E1,0E0,0E0],"parents":[2147483647,0,0],"right_children":[2,-1,-1],"split_conditions":[6.773538E1,1.0396436E-2,-3.451565E-2],"split_indices":[0,0,0],"split_type":[0,0,0],"sum_hessian":[7.009588E2,6.5640485E2,4.4553955E1],"tree_param":{"num_deleted":"0","num_feature":"9","num_nodes":"3","size_leaf_vector":"1"}},{"base_weights":[9.7559795E-2,1.5499604E-4,2.572693E-1,8.715488E-2,-3.193283E-1,-6.9054496E-3,2.4396136E-2,4.3644962E-1,7.9702824E-2,-1.6510151E-2,2.6479872E-2,-2.619773E-2,4.122269E-2,-3.3283696E-2,2.7809637E-2],"categories":[],"categories_nodes":[],"categories_segments":[],"categories_sizes":[],"default_left":[0,0,0,0,0,0,0,0,0,0,0,0,0,0,0],"id":24,"left_children":[1,3,7,5,13,-1,-1,11,9,-1,-1,-1,-1,-1,-1],"loss_changes":[1.1260063E1,1.2937975E1,8.44891E0,1.2576298E1,5.7656326E0,0E0,0E0,6.2266083E0,9.907795E0,0E0,0E0,0E0,0E0,0E0,0E0],"parents":[2147483647,0,0,1,1,3,3,2,2,8,8,7,7,4,4],"right_children":[2,4,8,6,14,-1,-1,12,10,-1,-1,-1,-1,-1,-1],"split_conditions":[5.4281105E1,3.5011673E1,5.823198E-1,2.8244408E1,5.8830387E1,-6.9054496E-3,2.4396136E-2,8.297732E8,1.2313773E9,-1.6510151E-2,2.6479872E-2,-2.619773E-2,4.122269E-2,-3.3283696E-2,2.7809637E-2],"split_indices":[5,0,6,1,2,0,0,3,3,0,0,0,0,0,0],"split_type":[0,0,0,0,0,0,0,0,0,0,0,0,0,0,0],"sum_hessian":[7.1591925E2,4.4962677E2,2.6629248E2,3.5792032E2,9.170645E1,1.9708563E2,1.6083469E2,1.2679563E2,1.3949686E2,6.4605286E1,7.489158E1,5.40669E0,1.2138894E2,8.515286E1,6.5535955E0],"tree_param":{"num_deleted":"0","num_feature":"9","num_nodes":"15","size_leaf_vector":"1"}},{"base_weights":[-2.1218972E-1,3.7200894E-2,-2.5349483E-1,-1.5449055E-1,6.480251E-2,8.409482E-3,-4.0013544E-2,-2.376735E-2,1.4847934E-1,-2.723974E-2,3.9105806E-2],"categories":[],"categories_nodes":[],"categories_segments":[],"categories_sizes":[],"default_left":[0,0,0,0,0,0,0,0,0,0,0],"id":25,"left_children":[1,3,7,5,-1,-1,-1,-1,9,-1,-1],"loss_changes":[6.610737E0,1.4475615E1,6.2580338E0,7.0983167E0,0E0,0E0,0E0,0E0,6.9963684E0,0E0,0E0],"parents":[2147483647,0,0,1,1,3,3,2,2,8,8],"right_children":[2,4,8,6,-1,-1,-1,-1,10,-1,-1],"split_conditions":[2.1315565E1,2.26211E1,1.951861E0,2.5119799E1,6.480251E-2,8.409482E-3,-4.0013544E-2,-2.376735E-2,5.1825302E1,-2.723974E-2,3.9105806E-2],"split_indices":[4,0,6,8,0,0,0,0,0,0,0],"split_type":[0,0,0,0,0,0,0,0,0,0,0],"sum_hessian":[6.265761E2,8.9142075E1,5.37434E2,7.54943E1,1.3647775E1,4.500615E1,3.048815E1,5.058006E2,3.1633429E1,1.2562522E1,1.9070908E1],"tree_param":{"num_deleted":"0","num_feature":"9","num_nodes":"11","size_leaf_vector":"1"}},{"base_weights":[7.086188E-2,9.339202E-2,-3.6369808E-2,-1.5109879E-1,1.1136784E-2,2.9695466E-2,-2.2864642E-2],"categories":[],"categories_nodes":[],"categories_segments":[],"categories_sizes":[],"default_left":[0,0,0,0,0,0,0],"id":26,"left_children":[1,3,-1,5,-1,-1,-1],"loss_changes":[8.3780775E0,6.5872817E0,0E0,6.5146604E0,0E0,0E0,0E0],"parents":[2147483647,0,0,1,1,3,3],"right_children":[2,4,-1,6,-1,-1,-1],"split_conditions":[1.3930321E9,-9.7679985E-1,-3.6369808E-2,-2.32621E0,1.1136784E-2,2.9695466E-2,-2.2864642E-2],"split_indices":[3,6,0,6,0,0,0],"split_type":[0,0,0,0,0,0,0],"sum_hessian":[7.073965E2,6.830686E2,2.4327902E1,8.88421E1,5.942265E2,1.4051379E1,7.479072E1],"tree_param":{"num_deleted":"0","num_feature":"9","num_nodes":"7","size_leaf_vector":"1"}},{"base_weights":[1.0525197E-1,-8.723116E-2,1.8218775E-1,-1.7672088E-2,3.7154892E-1,2.6399863E-1,-3.682236E-2,-2.2000147E-2,2.3682104E-2,5.4324247E-2,-1.1265396E-2,1.4106107E-2,3.907594E-2],"categories":[],"categories_nodes":[],"categories_segments":[],"categories_sizes":[],"default_left":[0,0,0,0,0,0,0,0,0,0,0,0,0],"id":27,"left_children":[1,3,5,-1,9,11,7,-1,-1,-1,-1,-1,-1],"loss_changes":[1.0796049E1,1.2368058E1,9.346342E0,0E0,7.0712237E0,6.6530304E0,1.0984081E1,0E0,0E0,0E0,0E0,0E0,0E0],"parents":[2147483647,0,0,1,1,2,2,6,6,4,4,5,5],"right_children":[2,4,6,-1,10,12,8,-1,-1,-1,-1,-1,-1],"split_conditions":[2.836299E1,4.6235135E-1,9.0647626E-1,-1.7672088E-2,2.3192556E1,5.876057E1,1.2342377E9,-2.2000147E-2,2.3682104E-2,5.4324247E-2,-1.1265396E-2,1.4106107E-2,3.907594E-2],"split_indices":[1,6,6,0,0,0,3,0,0,0,0,0,0],"split_type":[0,0,0,0,0,0,0,0,0,0,0,0,0],"sum_hessian":[7.1260516E2,2.0318994E2,5.0941525E2,1.6410043E2,3.90895E1,3.6969104E2,1.397242E2,8.280876E1,5.691544E1,2.4075342E1,1.5014157E1,2.571715E2,1.1251954E2],"tree_param":{"num_deleted":"0","num_feature":"9","num_nodes":"13","size_leaf_vector":"1"}},{"base_weights":[-1.920184E-1,2.386115E-2,-1.7620297E-2],"categories":[],"categories_nodes":[],"categories_segments":[],"categories_sizes":[],"default_left":[0,0,0],"id":28,"left_children":[1,-1,-1],"loss_changes":[5.1108093E0,0E0,0E0],"parents":[2147483647,0,0],"right_children":[2,-1,-1],"split_conditions":[1.3784838E1,2.386115E-2,-1.7620297E-2],"split_indices":[4,0,0],"split_type":[0,0,0],"sum_hessian":[6.066956E2,1.5480173E1,5.912154E2],"tree_param":{"num_deleted":"0","num_feature":"9","num_nodes":"3","size_leaf_vector":"1"}},{"base_weights":[6.369122E-2,9.576706E-2,-3.118593E-2,-1.3521291E-2,1.2290085E-1,6.8167776E-2,7.1449317E-3],"categories":[],"categories_nodes":[],"categories_segments":[],"categories_sizes":[],"default_left":[0,0,0,0,0,0,0],"id":29,"left_children":[1,3,-1,-1,5,-1,-1],"loss_changes":[1.0139105E1,4.790594E0,0E0,0E0,1.5478417E1,0E0,0E0],"parents":[2147483647,0,0,1,1,4,4],"right_children":[2,4,-1,-1,6,-1,-1],"split_conditions":[6.773538E1,1.7664375E1,-3.118593E-2,-1.3521291E-2,2.3989523E1,6.8167776E-2,7.1449317E-3],"split_indices":[0,0,0,0,2,0,0],"split_type":[0,0,0,0,0,0,0],"sum_hessian":[7.039791E2,6.6103815E2,4.2941017E1,5.9777786E1,6.012604E2,2.3768936E1,5.774914E2],"tree_param":{"num_deleted":"0","num_feature":"9","num_nodes":"7","size_leaf_vector":"1"}},{"base_weights":[1.0182284E-1,1.860555E-3,2.6459703E-1,8.450515E-2,-3.216863E-1,-6.4879847E-3,2.4464244E-2,4.9808168E-1,1.5124682E-1,5.3718705E-2,4.4357646E-3,-3.37687E-2,2.6401406E-2,1.1842868E-2,5.727909E-2],"categories":[],"categories_nodes":[],"categories_segments":[],"categories_sizes":[],"default_left":[0,0,0,0,0,0,0,0,0,0,0,0,0,0,0],"id":30,"left_children":[1,3,7,5,11,-1,-1,13,9,-1,-1,-1,-1,-1,-1],"loss_changes":[1.1644697E1,1.2288204E1,6.6103153E0,1.2214756E1,5.5380993E0,0E0,0E0,4.707262E0,9.032948E0,0E0,0E0,0E0,0E0,0E0,0E0],"parents":[2147483647,0,0,1,1,3,3,2,2,8,8,4,4,7,7],"right_children":[2,4,8,6,12,-1,-1,14,10,-1,-1,-1,-1,-1,-1],"split_conditions":[5.4271935E1,3.5011673E1,-5.97532E-1,2.836299E1,5.8830387E1,-6.4879847E-3,2.4464244E-2,-1.8751036E0,1.3375985E1,5.3718705E-2,4.4357646E-3,-3.37687E-2,2.6401406E-2,1.1842868E-2,5.727909E-2],"split_indices":[5,0,6,1,2,0,0,6,7,0,0,0,0,0,0],"split_type":[0,0,0,0,0,0,0,0,0,0,0,0,0,0,0],"sum_hessian":[7.079798E2,4.4358127E2,2.643985E2,3.579909E2,8.559036E1,2.0291476E2,1.5507614E2,7.762224E1,1.8677628E2,2.4464165E1,1.623121E2,7.894079E1,6.6495733E0,3.0458086E1,4.716415E1],"tree_param":{"num_deleted":"0","num_feature":"9","num_nodes":"15","size_leaf_vector":"1"}},{"base_weights":[-1.8433906E-1,2.2348607E-2,-1.726925E-2],"categories":[],"categories_nodes":[],"categories_segments":[],"categories_sizes":[],"default_left":[0,0,0],"id":31,"left_children":[1,-1,-1],"loss_changes":[5.8230476E0,0E0,0E0],"parents":[2147483647,0,0],"right_children":[2,-1,-1],"split_conditions":[1.3938053E1,2.2348607E-2,-1.726925E-2],"split_indices":[4,0,0],"split_type":[0,0,0],"sum_hessian":[6.09779E2,2.1286482E1,5.884925E2],"tree_param":{"num_deleted":"0","num_feature":"9","num_nodes":"3","size_leaf_vector":"1"}},{"base_weights":[7.930306E-2,9.2618875E-3,-2.8541854E-2],"categories":[],"categories_nodes":[],"categories_segments":[],"categories_sizes":[],"default_left":[0,0,0],"id":32,"left_children":[1,-1,-1],"loss_changes":[9.2435E0,0E0,0E0],"parents":[2147483647,0,0],"right_children":[2,-1,-1],"split_conditions":[6.773538E1,9.2618875E-3,-2.8541854E-2],"split_indices":[0,0,0],"split_type":[0,0,0],"sum_hessian":[7.0857587E2,6.6635394E2,4.2221916E1],"tree_param":{"num_deleted":"0","num_feature":"9","num_nodes":"3","size_leaf_vector":"1"}},{"base_weights":[8.027877E-2,-5.5278083E-3,2.2680007E-1,3.034555E-1,-1.9981515E-2,-4.490347E-2,4.095796E-2,-3.2444842E-2,2.9062307E-2,1.3266073E-3,-2.71917E-2],"categories":[],"categories_nodes":[],"categories_segments":[],"categories_sizes":[],"default_left":[0,0,0,0,0,0,0,0,0,0,0],"id":33,"left_children":[1,5,3,7,-1,9,-1,-1,-1,-1,-1],"loss_changes":[8.993223E0,8.996908E0,9.932598E0,7.289627E0,0E0,7.252825E0,0E0,0E0,0E0,0E0,0E0],"parents":[2147483647,0,0,2,2,1,1,3,3,5,5],"right_children":[2,6,4,8,-1,10,-1,-1,-1,-1,-1],"split_conditions":[5.482905E1,4.2904507E1,1.8040756E0,5.6512875E1,-1.9981515E-2,3.640054E1,4.095796E-2,-3.2444842E-2,2.9062307E-2,1.3266073E-3,-2.71917E-2],"split_indices":[0,7,6,2,0,0,0,0,0,0,0],"split_type":[0,0,0,0,0,0,0,0,0,0,0],"sum_hessian":[7.065973E2,4.504336E2,2.5616373E2,2.2209164E2,3.4072075E1,4.2352225E2,2.691136E1,8.361453E0,2.137302E2,3.5345135E2,7.0070885E1],"tree_param":{"num_deleted":"0","num_feature":"9","num_nodes":"11","size_leaf_vector":"1"}},{"base_weights":[-1.7616928E-1,3.8916737E-2,-1.793549E-2,-1.4373584E-1,6.077835E-2,6.8747737E-3,-3.7168536E-2],"categories":[],"categories_nodes":[],"categories_segments":[],"categories_sizes":[],"default_left":[0,0,0,0,0,0,0],"id":34,"left_children":[1,3,-1,5,-1,-1,-1],"loss_changes":[4.6576996E0,1.22039175E1,0E0,5.5222487E0,0E0,0E0,0E0],"parents":[2147483647,0,0,1,1,3,3],"right_children":[2,4,-1,6,-1,-1,-1],"split_conditions":[2.1315565E1,2.2525522E1,-1.793549E-2,2.5119799E1,6.077835E-2,6.8747737E-3,-3.7168536E-2],"split_indices":[4,0,0,8,0,0,0],"split_type":[0,0,0,0,0,0,0],"sum_hessian":[5.9300055E2,8.396557E1,5.09035E2,7.107444E1,1.2891129E1,4.3587097E1,2.7487345E1],"tree_param":{"num_deleted":"0","num_feature":"9","num_nodes":"7","size_leaf_vector":"1"}},{"base_weights":[6.0695473E-2,7.5783795E-3,-2.9446257E-2],"categories":[],"categories_nodes":[],"categories_segments":[],"categories_sizes":[],"default_left":[0,0,0],"id":35,"left_children":[1,-1,-1],"loss_changes":[8.797601E0,0E0,0E0],"parents":[2147483647,0,0],"right_children":[2,-1,-1],"split_conditions":[6.773538E1,7.5783795E-3,-2.9446257E-2],"split_indices":[0,0,0],"split_type":[0,0,0],"sum_hessian":[7.20485E2,6.7885614E2,4.162881E1],"tree_param":{"num_deleted":"0","num_feature":"9","num_nodes":"3","size_leaf_vector":"1"}},{"base_weights":[7.809415E-2,-8.99927E-2,1.4486292E-1,-1.779303E-2,3.517236E-1,2.2804765E-1,-4.9594223E-2,-1.79807E-2,2.2297626E-2,4.982867E-2,-1.00006405E-2,1.1846181E-2,3.4667406E-2],"categories":[],"categories_nodes":[],"categories_segments":[],"categories_sizes":[],"default_left":[0,0,0,0,0,0,0,0,0,0,0,0,0],"id":36,"left_children":[1,3,5,-1,9,11,7,-1,-1,-1,-1,-1,-1],"loss_changes":[8.1110935E0,1.1598863E1,8.39923E0,0E0,5.8086905E0,5.3192787E0,8.603073E0,0E0,0E0,0E0,0E0,0E0,0E0],"parents":[2147483647,0,0,1,1,2,2,6,6,4,4,5,5],"right_children":[2,4,6,-1,10,12,8,-1,-1,-1,-1,-1,-1],"split_conditions":[2.8362194E1,4.6235135E-1,8.275256E-1,-1.779303E-2,2.3192556E1,5.876057E1,1.2679237E9,-1.79807E-2,2.2297626E-2,4.982867E-2,-1.00006405E-2,1.1846181E-2,3.4667406E-2],"split_indices":[1,6,6,0,0,0,3,0,0,0,0,0,0],"split_type":[0,0,0,0,0,0,0,0,0,0,0,0,0],"sum_hessian":[7.0560126E2,1.9981679E2,5.057845E2,1.6038957E2,3.9427208E1,3.5328757E2,1.5249695E2,1.0200385E2,5.049309E1,2.4899605E1,1.4527603E1,2.4702007E2,1.0626749E2],"tree_param":{"num_deleted":"0","num_feature":"9","num_nodes":"13","size_leaf_vector":"1"}},{"base_weights":[-1.525948E-1],"categories":[],"categories_nodes":[],"categories_segments":[],"categories_sizes":[],"default_left":[0],"id":37,"left_children":[-1],"loss_changes":[0E0],"parents":[2147483647],"right_children":[-1],"split_conditions":[-1.2927984E-2],"split_indices":[0],"split_type":[0],"sum_hessian":[5.900619E2],"tree_param":{"num_deleted":"0","num_feature":"9","num_nodes":"1","size_leaf_vector":"1"}},{"base_weights":[5.7845972E-2,7.432367E-3,-3.0639023E-2],"categories":[],"categories_nodes":[],"categories_segments":[],"categories_sizes":[],"default_left":[0,0,0],"id":38,"left_children":[1,-1,-1],"loss_changes":[9.26494E0,0E0,0E0],"parents":[2147483647,0,0],"right_children":[2,-1,-1],"split_conditions":[6.7677414E1,7.432367E-3,-3.0639023E-2],"split_indices":[0,0,0],"split_type":[0,0,0],"sum_hessian":[7.1115295E2,6.6971216E2,4.14408E1],"tree_param":{"num_deleted":"0","num_feature":"9","num_nodes":"3","size_leaf_vector":"1"}},{"base_weights":[8.7811224E-2,1.06716E-2,2.1203598E-1,8.827291E-2,-3.2850167E-1,4.023298E-3,6.3100204E-2,-3.490695E-2,2.483506E-2,5.178989E-2,1.5649542E-1,3.3435047E-2,2.805483E-4],"categories":[],"categories_nodes":[],"categories_segments":[],"categories_sizes":[],"default_left":[0,0,0,0,0,0,0,0,0,0,0,0,0],"id":39,"left_children":[1,3,9,5,7,-1,-1,-1,-1,-1,11,-1,-1],"loss_changes":[6.781713E0,1.1970931E1,5.2607517E0,9.60744E0,5.356264E0,0E0,0E0,0E0,0E0,0E0,9.070221E0,0E0,0E0],"parents":[2147483647,0,0,1,1,3,3,4,4,2,2,10,10],"right_children":[2,4,10,6,8,-1,-1,-1,-1,-1,12,-1,-1],"split_conditions":[5.4313385E1,3.640054E1,1.3082724E1,4.2904507E1,5.8830387E1,4.023298E-3,6.3100204E-2,-3.490695E-2,2.483506E-2,5.178989E-2,-3.8721252E-2,3.3435047E-2,2.805483E-4],"split_indices":[5,0,7,7,2,0,0,0,0,0,6,0,0],"split_type":[0,0,0,0,0,0,0,0,0,0,0,0,0],"sum_hessian":[7.0165857E2,4.3817062E2,2.6348795E2,3.6135416E2,7.681649E1,3.482166E2,1.3137519E1,7.007292E1,6.743568E0,2.2497702E1,2.4099025E2,8.944488E1,1.5154538E2],"tree_param":{"num_deleted":"0","num_feature":"9","num_nodes":"13","size_leaf_vector":"1"}},{"base_weights":[-1.5582594E-1],"categories":[],"categories_nodes":[],"categories_segments":[],"categories_sizes":[],"default_left":[0],"id":40,"left_children":[-1],"loss_changes":[0E0],"parents":[2147483647],"right_children":[-1],"split_conditions":[-1.3201729E-2],"split_indices":[0],"split_type":[0],"sum_hessian":[5.8458295E2],"tree_param":{"num_deleted":"0","num_feature":"9","num_nodes":"1","size_leaf_vector":"1"}},{"base_weights":[4.2413253E-2,5.6949565E-3,-2.7053013E-2],"categories":[],"categories_nodes":[],"categories_segments":[],"categories_sizes":[],"default_left":[0,0,0],"id":41,"left_children":[1,-1,-1],"loss_changes":[6.531801E0,0E0,0E0],"parents":[2147483647,0,0],"right_children":[2,-1,-1],"split_conditions":[6.773538E1,5.6949565E-3,-2.7053013E-2],"split_indices":[0,0,0],"split_type":[0,0,0],"sum_hessian":[7.010376E2,6.620825E2,3.895507E1],"tree_param":{"num_deleted":"0","num_feature":"9","num_nodes":"3","size_leaf_vector":"1"}},{"base_weights":[6.4781494E-2,-1.0370636E-1,1.2545738E-1,1.4408572E-1,-2.9235225E-2,-5.683043E-3,4.8853472E-2,4.6879742E-2,9.412988E-2,4.469242E-3,3.0298948E-2],"categories":[],"categories_nodes":[],"categories_segments":[],"categories_sizes":[],"default_left":[0,0,0,0,0,0,0,0,0,0,0],"id":42,"left_children":[1,3,7,5,-1,-1,-1,-1,9,-1,-1],"loss_changes":[7.4279537E0,1.1999582E1,6.6968565E0,9.562507E0,0E0,0E0,0E0,0E0,5.342824E0,0E0,0E0],"parents":[2147483647,0,0,1,1,3,3,2,2,8,8],"right_children":[2,4,8,6,-1,-1,-1,-1,10,-1,-1],"split_conditions":[3.0187277E1,2.3225597E1,3.0515936E1,4.4776034E-1,-2.9235225E-2,-5.683043E-3,4.8853472E-2,4.6879742E-2,6.763824E1,4.469242E-3,3.0298948E-2],"split_indices":[2,0,2,6,0,0,0,0,0,0,0],"split_type":[0,0,0,0,0,0,0,0,0,0,0],"sum_hessian":[7.085799E2,1.8612361E2,5.224563E2,9.3415215E1,9.2708405E1,6.726837E1,2.6146837E1,2.6637547E1,4.9581873E2,4.3674435E2,5.907437E1],"tree_param":{"num_deleted":"0","num_feature":"9","num_nodes":"11","size_leaf_vector":"1"}},{"base_weights":[-1.411165E-1],"categories":[],"categories_nodes":[],"categories_segments":[],"categories_sizes":[],"default_left":[0],"id":43,"left_children":[-1],"loss_changes":[0E0],"parents":[2147483647],"right_children":[-1],"split_conditions":[-1.195553E-2],"split_indices":[0],"split_type":[0],"sum_hessian":[5.828861E2],"tree_param":{"num_deleted":"0","num_feature":"9","num_nodes":"1","size_leaf_vector":"1"}},{"base_weights":[4.6769362E-2,1.0313093E-1,-1.0234328E-1,1.1309352E-2,3.5277507E-1,5.889353E-2,4.9283626E-3,7.402485E-3,-2.3721166E-2,-2.6170215E-1,5.8305338E-2,1.647376E-2,-3.2586526E-2,2.7602902E-2,-3.0688355E-2],"categories":[],"categories_nodes":[],"categories_segments":[],"categories_sizes":[],"default_left":[0,0,0,0,0,0,0,0,0,0,0,0,0,0,0],"id":44,"left_children":[1,3,9,7,5,-1,-1,-1,-1,13,11,-1,-1,-1,-1],"loss_changes":[6.0865974E0,1.19409275E1,5.238554E0,8.836153E0,1.3819372E1,0E0,0E0,0E0,0E0,6.947033E0,6.986047E0,0E0,0E0,0E0,0E0],"parents":[2147483647,0,0,1,1,4,4,3,3,2,2,10,10,9,9],"right_children":[2,4,10,8,6,-1,-1,-1,-1,14,12,-1,-1,-1,-1],"split_conditions":[5.5957516E1,3.6410347E1,5.8298594E-1,3.3177242E1,7.606923E1,5.889353E-2,4.9283626E-3,7.402485E-3,-2.3721166E-2,-2.32621E0,1.3743222E9,1.647376E-2,-3.2586526E-2,2.7602902E-2,-3.0688355E-2],"split_indices":[0,0,6,2,8,0,0,0,0,6,3,0,0,0,0],"split_type":[0,0,0,0,0,0,0,0,0,0,0,0,0,0,0],"sum_hessian":[7.063621E2,5.1438E2,1.9198213E2,3.821146E2,1.322654E2,5.6192245E1,7.607315E1,3.0739255E2,7.472203E1,9.387688E1,9.810525E1,7.843984E1,1.9665411E1,1.1122283E1,8.275459E1],"tree_param":{"num_deleted":"0","num_feature":"9","num_nodes":"15","size_leaf_vector":"1"}},{"base_weights":[5.150558E-2,-1.5294611E-1,9.893715E-2,9.1703594E-2,-2.693908E-2,-8.303857E-3,5.0991908E-2,1.2793174E-1,-1.5442703E-2,8.932417E-3,5.608768E-2],"categories":[],"categories_nodes":[],"categories_segments":[],"categories_sizes":[],"default_left":[0,0,0,0,0,0,0,0,0,0,0],"id":45,"left_children":[1,3,7,5,-1,-1,-1,9,-1,-1,-1],"loss_changes":[7.0445538E0,5.7855043E0,4.9498677E0,6.426345E0,0E0,0E0,0E0,5.869154E0,0E0,0E0,0E0],"parents":[2147483647,0,0,1,1,3,3,2,2,7,7],"right_children":[2,4,8,6,-1,-1,-1,10,-1,-1,-1],"split_conditions":[3.453024E8,1.7664375E1,1.8040756E0,1.664159E8,-2.693908E-2,-8.303857E-3,5.0991908E-2,4.269434E1,-1.5442703E-2,8.932417E-3,5.608768E-2],"split_indices":[3,0,6,3,0,0,0,7,0,0,0],"split_type":[0,0,0,0,0,0,0,0,0,0,0],"sum_hessian":[7.061521E2,1.2965547E2,5.7649664E2,5.3645824E1,7.600965E1,4.3768738E1,9.877088E0,5.265269E2,4.9969753E1,5.143452E2,1.2181658E1],"tree_param":{"num_deleted":"0","num_feature":"9","num_nodes":"11","size_leaf_vector":"1"}},{"base_weights":[-1.3499619E-1],"categories":[],"categories_nodes":[],"categories_segments":[],"categories_sizes":[],"default_left":[0],"id":46,"left_children":[-1],"loss_changes":[0E0],"parents":[2147483647],"right_children":[-1],"split_conditions":[-1.1437012E-2],"split_indices":[0],"split_type":[0],"sum_hessian":[5.7907043E2],"tree_param":{"num_deleted":"0","num_feature":"9","num_nodes":"1","size_leaf_vector":"1"}},{"base_weights":[4.3449666E-2,5.2128104E-3,-3.2839406E-2],"categories":[],"categories_nodes":[],"categories_segments":[],"categories_sizes":[],"default_left":[0,0,0],"id":47,"left_children":[1,-1,-1],"loss_changes":[5.715223E0,0E0,0E0],"parents":[2147483647,0,0],"right_children":[2,-1,-1],"split_conditions":[1.3930321E9,5.2128104E-3,-3.2839406E-2],"split_indices":[3,0,0],"split_type":[0,0,0],"sum_hessian":[7.0117615E2,6.79469E2,2.1707151E1],"tree_param":{"num_deleted":"0","num_feature":"9","num_nodes":"3","size_leaf_vector":"1"}},{"base_weights":[7.050233E-2,4.8310474E-2,4.4508886E-1,-1.3045348E-1,1.1844554E-1,3.4232467E-2,4.375463E-3,7.9701105E-3,-2.6624136E-2,6.2479652E-2,-9.134619E-3,-3.3438597E-2,4.4320673E-2],"categories":[],"categories_nodes":[],"categories_segments":[],"categories_sizes":[],"default_left":[0,0,0,0,0,0,0,0,0,0,0,0,0],"id":48,"left_children":[1,3,9,7,5,-1,-1,-1,-1,-1,11,-1,-1],"loss_changes":[5.7515917E0,8.665945E0,5.216963E0,8.31401E0,9.251555E0,0E0,0E0,0E0,0E0,0E0,6.3658023E0,0E0,0E0],"parents":[2147483647,0,0,1,1,4,4,3,3,2,2,10,10],"right_children":[2,4,10,8,6,-1,-1,-1,-1,-1,12,-1,-1],"split_conditions":[4.2904507E1,2.836299E1,1.1381181E9,2.3225597E1,5.292047E8,3.4232467E-2,4.375463E-3,7.9701105E-3,-2.6624136E-2,6.2479652E-2,4.801345E1,-3.3438597E-2,4.4320673E-2],"split_indices":[7,1,3,0,3,0,0,0,0,0,0,0,0],"split_type":[0,0,0,0,0,0,0,0,0,0,0,0,0],"sum_hessian":[7.04471E2,6.7351245E2,3.095856E1,1.8786325E2,4.856492E2,8.447367E1,4.011755E2,8.63037E1,1.01559555E2,1.5829626E1,1.5128936E1,9.961078E0,5.167857E0],"tree_param":{"num_deleted":"0","num_feature":"9","num_nodes":"13","size_leaf_vector":"1"}},{"base_weights":[-1.2350271E-1,-9.500018E-2,-3.771582E-2,-1.20393395E-1,4.658788E-2,-1.4339831E-3,-2.2535998E-2],"categories":[],"categories_nodes":[],"categories_segments":[],"categories_sizes":[],"default_left":[0,0,0,0,0,0,0],"id":49,"left_children":[1,3,-1,5,-1,-1,-1],"loss_changes":[5.001607E0,9.445286E0,0E0,7.958464E0,0E0,0E0,0E0],"parents":[2147483647,0,0,1,1,3,3],"right_children":[2,4,-1,6,-1,-1,-1],"split_conditions":[3.9438194E1,2.0634634E0,-3.771582E-2,5.3403168E1,4.658788E-2,-1.4339831E-3,-2.2535998E-2],"split_indices":[7,6,0,0,0,0,0],"split_type":[0,0,0,0,0,0,0],"sum_hessian":[5.741404E2,5.3683374E2,3.7306637E1,5.226947E2,1.4139042E1,3.1073425E2,2.1196043E2],"tree_param":{"num_deleted":"0","num_feature":"9","num_nodes":"7","size_leaf_vector":"1"}},{"base_weights":[5.4697905E-2,6.145231E-3,-3.2269116E-2],"categories":[],"categories_nodes":[],"categories_segments":[],"categories_sizes":[],"default_left":[0,0,0],"id":50,"left_children":[1,-1,-1],"loss_changes":[5.7833166E0,0E0,0E0],"parents":[2147483647,0,0],"right_children":[2,-1,-1],"split_conditions":[1.3930321E9,6.145231E-3,-3.2269116E-2],"split_indices":[3,0,0],"split_type":[0,0,0],"sum_hessian":[7.082745E2,6.867543E2,2.1520178E1],"tree_param":{"num_deleted":"0","num_feature":"9","num_nodes":"3","size_leaf_vector":"1"}},{"base_weights":[6.334319E-2,-1.0310637E-1,1.248268E-1,1.2304593E-1,-2.8403722E-2,-3.1768936E-3,5.560355E-2,3.582065E-1,6.2524706E-2,-1.1887258E-2,1.53283E-2,1.8876885E-3,5.4243848E-2],"categories":[],"categories_nodes":[],"categories_segments":[],"categories_sizes":[],"default_left":[0,0,0,0,0,0,0,0,0,0,0,0,0],"id":51,"left_children":[1,3,7,5,-1,-1,-1,11,9,-1,-1,-1,-1],"loss_changes":[7.3261395E0,1.0551725E1,7.3699503E0,9.1368885E0,0E0,0E0,0E0,1.0091327E1,1.0271038E1,0E0,0E0,0E0,0E0],"parents":[2147483647,0,0,1,1,3,3,2,2,8,8,7,7],"right_children":[2,4,8,6,-1,-1,-1,12,10,-1,-1,-1,-1],"split_conditions":[3.0218409E1,2.3225597E1,5.311715E8,2.4237051E1,-2.8403722E-2,-3.1768936E-3,5.560355E-2,3.986023E8,5.4281105E1,-1.1887258E-2,1.53283E-2,1.8876885E-3,5.4243848E-2],"split_indices":[2,0,3,2,0,0,0,3,5,0,0,0,0],"split_type":[0,0,0,0,0,0,0,0,0,0,0,0,0],"sum_hessian":[6.979857E2,1.8683067E2,5.1115506E2,9.652452E1,9.030615E1,7.984916E1,1.6675356E1,9.9776505E1,4.1137857E2,1.5108597E2,2.602926E2,4.9440662E1,5.0335846E1],"tree_param":{"num_deleted":"0","num_feature":"9","num_nodes":"13","size_leaf_vector":"1"}},{"base_weights":[-1.2668656E-1],"categories":[],"categories_nodes":[],"categories_segments":[],"categories_sizes":[],"default_left":[0],"id":52,"left_children":[-1],"loss_changes":[0E0],"parents":[2147483647],"right_children":[-1],"split_conditions":[-1.0733012E-2],"split_indices":[0],"split_type":[0],"sum_hessian":[5.670716E2],"tree_param":{"num_deleted":"0","num_feature":"9","num_nodes":"1","size_leaf_vector":"1"}},{"base_weights":[5.38181E-2,6.3516246E-3,-2.3300879E-2],"categories":[],"categories_nodes":[],"categories_segments":[],"categories_sizes":[],"default_left":[0,0,0],"id":53,"left_children":[1,-1,-1],"loss_changes":[5.158431E0,0E0,0E0],"parents":[2147483647,0,0],"right_children":[2,-1,-1],"split_conditions":[6.773538E1,6.3516246E-3,-2.3300879E-2],"split_indices":[0,0,0],"split_type":[0,0,0],"sum_hessian":[7.1016785E2,6.729934E2,3.7174465E1],"tree_param":{"num_deleted":"0","num_feature":"9","num_nodes":"3","size_leaf_vector":"1"}},{"base_weights":[6.1050337E-2,3.8580813E-2,3.823023E-2,-1.24293216E-1,1.0390342E-1,6.8726395E-3,-2.5007863E-2,3.256845E-2,4.5271423E-3],"categories":[],"categories_nodes":[],"categories_segments":[],"categories_sizes":[],"default_left":[0,0,0,0,0,0,0,0,0],"id":54,"left_children":[1,3,-1,5,7,-1,-1,-1,-1],"loss_changes":[6.1137133E0,7.367696E0,0E0,7.1780224E0,6.798472E0,0E0,0E0,0E0,0E0],"parents":[2147483647,0,0,1,1,3,3,4,4],"right_children":[2,4,-1,6,8,-1,-1,-1,-1],"split_conditions":[4.2904507E1,2.8129757E1,3.823023E-2,2.3225597E1,2.9783968E1,6.8726395E-3,-2.5007863E-2,3.256845E-2,4.5271423E-3],"split_indices":[7,0,0,0,1,0,0,0,0],"split_type":[0,0,0,0,0,0,0,0,0],"sum_hessian":[7.05122E2,6.749589E2,3.0163076E1,1.911636E2,4.8379532E2,8.8700775E1,1.0246282E2,6.577549E1,4.180198E2],"tree_param":{"num_deleted":"0","num_feature":"9","num_nodes":"9","size_leaf_vector":"1"}},{"base_weights":[-1.1619525E-1],"categories":[],"categories_nodes":[],"categories_segments":[],"categories_sizes":[],"default_left":[0],"id":55,"left_children":[-1],"loss_changes":[0E0],"parents":[2147483647],"right_children":[-1],"split_conditions":[-9.844177E-3],"split_indices":[0],"split_type":[0],"sum_hessian":[5.639347E2],"tree_param":{"num_deleted":"0","num_feature":"9","num_nodes":"1","size_leaf_vector":"1"}},{"base_weights":[3.380387E-2,4.3294197E-3,-3.3932883E-2],"categories":[],"categories_nodes":[],"categories_segments":[],"categories_sizes":[],"default_left":[0,0,0],"id":56,"left_children":[1,-1,-1],"loss_changes":[5.568433E0,0E0,0E0],"parents":[2147483647,0,0],"right_children":[2,-1,-1],"split_conditions":[1.3930321E9,4.3294197E-3,-3.3932883E-2],"split_indices":[3,0,0],"split_type":[0,0,0],"sum_hessian":[7.116656E2,6.911289E2,2.0536716E1],"tree_param":{"num_deleted":"0","num_feature":"9","num_nodes":"3","size_leaf_vector":"1"}},{"base_weights":[4.8990704E-2,-2.8713357E-2,1.650528E-1,4.48094E-2,-3.4329116E-1,-8.377391E-3,1.7542314E-2,1.8926835E-2,-1.8082347E-2,-4.0595215E-2,8.103438E-3],"categories":[],"categories_nodes":[],"categories_segments":[],"categories_sizes":[],"default_left":[0,0,0,0,0,0,0,0,0,0,0],"id":57,"left_children":[1,3,7,5,9,-1,-1,-1,-1,-1,-1],"loss_changes":[6.56032E0,1.029774E1,6.809054E0,8.639767E0,5.3885183E0,0E0,0E0,0E0,0E0,0E0,0E0],"parents":[2147483647,0,0,1,1,3,3,2,2,4,4],"right_children":[2,4,8,6,10,-1,-1,-1,-1,-1,-1],"split_conditions":[5.428974E1,3.460672E1,1.8040756E0,3.0218409E1,7.895922E1,-8.377391E-3,1.7542314E-2,1.8926835E-2,-1.8082347E-2,-4.0595215E-2,8.103438E-3],"split_indices":[0,0,6,2,8,0,0,0,0,0,0],"split_type":[0,0,0,0,0,0,0,0,0,0,0],"sum_hessian":[7.153447E2,4.3204767E2,2.8329706E2,3.557051E2,7.634256E1,1.9028172E2,1.6542339E2,2.4826874E2,3.502832E1,5.774278E1,1.859978E1],"tree_param":{"num_deleted":"0","num_feature":"9","num_nodes":"11","size_leaf_vector":"1"}},{"base_weights":[-1.02882564E-1],"categories":[],"categories_nodes":[],"categories_segments":[],"categories_sizes":[],"default_left":[0],"id":58,"left_children":[-1],"loss_changes":[0E0],"parents":[2147483647],"right_children":[-1],"split_conditions":[-8.716313E-3],"split_indices":[0],"split_type":[0],"sum_hessian":[5.5089136E2],"tree_param":{"num_deleted":"0","num_feature":"9","num_nodes":"1","size_leaf_vector":"1"}},{"base_weights":[3.635554E-2,4.836772E-3,-2.4436506E-2],"categories":[],"categories_nodes":[],"categories_segments":[],"categories_sizes":[],"default_left":[0,0,0],"id":59,"left_children":[1,-1,-1],"loss_changes":[4.9735847E0,0E0,0E0],"parents":[2147483647,0,0],"right_children":[2,-1,-1],"split_conditions":[6.773538E1,4.836772E-3,-2.4436506E-2],"split_indices":[0,0,0],"split_type":[0,0,0],"sum_hessian":[7.112318E2,6.7468774E2,3.6544044E1],"tree_param":{"num_deleted":"0","num_feature":"9","num_nodes":"3","size_leaf_vector":"1"}},{"base_weights":[5.4935608E-2,-1.1521258E-2,1.41211115E-2,5.2649684E-2,-2.3854762E-2,1.2665492E-3,5.5502255E-2],"categories":[],"categories_nodes":[],"categories_segments":[],"categories_sizes":[],"default_left":[0,0,0,0,0,0,0],"id":60,"left_children":[1,3,-1,5,-1,-1,-1],"loss_changes":[5.322981E0,8.012655E0,0E0,8.435186E0,0E0,0E0,0E0],"parents":[2147483647,0,0,1,1,3,3],"right_children":[2,4,-1,6,-1,-1,-1],"split_conditions":[5.449951E1,3.7107666E1,1.41211115E-2,4.269434E1,-2.3854762E-2,1.2665492E-3,5.5502255E-2],"split_indices":[5,1,0,7,0,0,0],"split_type":[0,0,0,0,0,0,0],"sum_hessian":[7.068287E2,4.4768115E2,2.5914752E2,3.66877E2,8.080412E1,3.5291095E2,1.3966089E1],"tree_param":{"num_deleted":"0","num_feature":"9","num_nodes":"7","size_leaf_vector":"1"}},{"base_weights":[-1.0999708E-1],"categories":[],"categories_nodes":[],"categories_segments":[],"categories_sizes":[],"default_left":[0],"id":61,"left_children":[-1],"loss_changes":[0E0],"parents":[2147483647],"right_children":[-1],"split_conditions":[-9.319062E-3],"split_indices":[0],"split_type":[0],"sum_hessian":[5.578533E2],"tree_param":{"num_deleted":"0","num_feature":"9","num_nodes":"1","size_leaf_vector":"1"}},{"base_weights":[4.0551096E-2],"categories":[],"categories_nodes":[],"categories_segments":[],"categories_sizes":[],"default_left":[0],"id":62,"left_children":[-1],"loss_changes":[0E0],"parents":[2147483647],"right_children":[-1],"split_conditions":[3.4355293E-3],"split_indices":[0],"split_type":[0],"sum_hessian":[7.102174E2],"tree_param":{"num_deleted":"0","num_feature":"9","num_nodes":"1","size_leaf_vector":"1"}},{"base_weights":[5.2803397E-2,3.194682E-2,3.567592E-2,-1.2320793E-1,9.0449244E-2,7.124131E-3,-2.573917E-2,1.5700798E-2,-5.0600218E-3],"categories":[],"categories_nodes":[],"categories_segments":[],"categories_sizes":[],"default_left":[0,0,0,0,0,0,0,0,0],"id":63,"left_children":[1,3,-1,5,7,-1,-1,-1,-1],"loss_changes":[5.3779173E0,6.299659E0,0E0,7.3428574E0,7.2329383E0,0E0,0E0,0E0,0E0],"parents":[2147483647,0,0,1,1,3,3,4,4],"right_children":[2,4,-1,6,8,-1,-1,-1,-1],"split_conditions":[4.2904507E1,2.8288118E1,3.567592E-2,2.3225597E1,5.635638E-1,7.124131E-3,-2.573917E-2,1.5700798E-2,-5.0600218E-3],"split_indices":[7,1,0,0,6,0,0,0,0],"split_type":[0,0,0,0,0,0,0,0,0],"sum_hessian":[7.060795E2,6.7638416E2,2.9695375E1,1.8280457E2,4.9357962E2,8.7082855E1,9.572171E1,3.0134738E2,1.9223222E2],"tree_param":{"num_deleted":"0","num_feature":"9","num_nodes":"9","size_leaf_vector":"1"}},{"base_weights":[-1.09526224E-1,-8.237E-2,-3.7012506E-2,-1.0698243E-1,4.4949684E-2,-5.0741055E-5,-2.1812456E-2],"categories":[],"categories_nodes":[],"categories_segments":[],"categories_sizes":[],"default_left":[0,0,0,0,0,0,0],"id":64,"left_children":[1,3,-1,5,-1,-1,-1],"loss_changes":[4.677553E0,8.373372E0,0E0,8.188198E0,0E0,0E0,0E0],"parents":[2147483647,0,0,1,1,3,3],"right_children":[2,4,-1,6,-1,-1,-1],"split_conditions":[3.948507E1,2.0545824E0,-3.7012506E-2,5.3403168E1,4.4949684E-2,-5.0741055E-5,-2.1812456E-2],"split_indices":[7,6,0,0,0,0,0],"split_type":[0,0,0,0,0,0,0],"sum_hessian":[5.5033295E2,5.1733057E2,3.3002373E1,5.0364508E2,1.3685462E1,2.9971262E2,2.0393246E2],"tree_param":{"num_deleted":"0","num_feature":"9","num_nodes":"7","size_leaf_vector":"1"}},{"base_weights":[2.926455E-2,3.8682672E-3,-3.0281695E-2],"categories":[],"categories_nodes":[],"categories_segments":[],"categories_sizes":[],"default_left":[0,0,0],"id":65,"left_children":[1,-1,-1],"loss_changes":[4.739264E0,0E0,0E0],"parents":[2147483647,0,0],"right_children":[2,-1,-1],"split_conditions":[1.3831077E9,3.8682672E-3,-3.0281695E-2],"split_indices":[3,0,0],"split_type":[0,0,0],"sum_hessian":[7.192601E2,6.967081E2,2.2551928E1],"tree_param":{"num_deleted":"0","num_feature":"9","num_nodes":"3","size_leaf_vector":"1"}},{"base_weights":[4.4155568E-2,-2.2688245E-2,1.523033E-1,5.3959746E-2,-2.6368525E-2,-6.410148E-3,1.7869487E-2,3.620545E-1,5.3459402E-2,1.5728808E-3,4.7003612E-2,-9.923689E-4,3.5170346E-2],"categories":[],"categories_nodes":[],"categories_segments":[],"categories_sizes":[],"default_left":[0,0,0,0,0,0,0,0,0,0,0,0,0],"id":66,"left_children":[1,3,7,5,-1,-1,-1,9,11,-1,-1,-1,-1],"loss_changes":[5.2243695E0,1.0111976E1,5.5613546E0,7.5168767E0,0E0,0E0,0E0,5.6728144E0,4.6736727E0,0E0,0E0,0E0,0E0],"parents":[2147483647,0,0,1,1,3,3,2,2,7,7,8,8],"right_children":[2,4,8,6,-1,-1,-1,10,12,-1,-1,-1,-1],"split_conditions":[5.4313385E1,3.5011673E1,-5.97532E-1,2.836299E1,-2.6368525E-2,-6.410148E-3,1.7869487E-2,-1.8925691E0,6.827064E1,1.5728808E-3,4.7003612E-2,-9.923689E-4,3.5170346E-2],"split_indices":[5,0,6,1,0,0,0,6,4,0,0,0,0],"split_type":[0,0,0,0,0,0,0,0,0,0,0,0,0],"sum_hessian":[7.109867E2,4.4326965E2,2.6771707E2,3.553242E2,8.794546E1,1.9685797E2,1.5846623E2,7.899424E1,1.8872282E2,3.1515896E1,4.747834E1,1.6640169E2,2.2321138E1],"tree_param":{"num_deleted":"0","num_feature":"9","num_nodes":"13","size_leaf_vector":"1"}},{"base_weights":[-9.2686154E-2,1.2881383E-1,-1.1315769E-2,-6.192479E-2,6.377019E-2,2.7051702E-2,-2.1629982E-2],"categories":[],"categories_nodes":[],"categories_segments":[],"categories_sizes":[],"default_left":[0,0,0,0,0,0,0],"id":67,"left_children":[1,3,-1,5,-1,-1,-1],"loss_changes":[5.1319275E0,1.1078192E1,0E0,6.266292E0,0E0,0E0,0E0],"parents":[2147483647,0,0,1,1,3,3],"right_children":[2,4,-1,6,-1,-1,-1],"split_conditions":[2.1315565E1,2.2525522E1,-1.1315769E-2,1.3938053E1,6.377019E-2,2.7051702E-2,-2.1629982E-2],"split_indices":[4,0,0,4,0,0,0],"split_type":[0,0,0,0,0,0,0],"sum_hessian":[5.437985E2,8.206947E1,4.6172906E2,6.831782E1,1.3751661E1,2.1256193E1,4.7061623E1],"tree_param":{"num_deleted":"0","num_feature":"9","num_nodes":"7","size_leaf_vector":"1"}},{"base_weights":[1.9077871E-2],"categories":[],"categories_nodes":[],"categories_segments":[],"categories_sizes":[],"default_left":[0],"id":68,"left_children":[-1],"loss_changes":[0E0],"parents":[2147483647],"right_children":[-1],"split_conditions":[1.6162962E-3],"split_indices":[0],"split_type":[0],"sum_hessian":[7.1255695E2],"tree_param":{"num_deleted":"0","num_feature":"9","num_nodes":"1","size_leaf_vector":"1"}},{"base_weights":[4.9453482E-2],"categories":[],"categories_nodes":[],"categories_segments":[],"categories_sizes":[],"default_left":[0],"id":69,"left_children":[-1],"loss_changes":[0E0],"parents":[2147483647],"right_children":[-1],"split_conditions":[4.1897483E-3],"split_indices":[0],"split_type":[0],"sum_hessian":[7.0475586E2],"tree_param":{"num_deleted":"0","num_feature":"9","num_nodes":"1","size_leaf_vector":"1"}},{"base_weights":[-9.803628E-2],"categories":[],"categories_nodes":[],"categories_segments":[],"categories_sizes":[],"default_left":[0],"id":70,"left_children":[-1],"loss_changes":[0E0],"parents":[2147483647],"right_children":[-1],"split_conditions":[-8.305732E-3],"split_indices":[0],"split_type":[0],"sum_hessian":[5.380417E2],"tree_param":{"num_deleted":"0","num_feature":"9","num_nodes":"1","size_leaf_vector":"1"}},{"base_weights":[3.2314528E-2,4.047763E-3,-3.2358684E-2],"categories":[],"categories_nodes":[],"categories_segments":[],"categories_sizes":[],"default_left":[0,0,0],"id":71,"left_children":[1,-1,-1],"loss_changes":[4.7528133E0,0E0,0E0],"parents":[2147483647,0,0],"right_children":[2,-1,-1],"split_conditions":[1.3930321E9,4.047763E-3,-3.2358684E-2],"split_indices":[3,0,0],"split_type":[0,0,0],"sum_hessian":[7.1148486E2,6.9263837E2,1.884651E1],"tree_param":{"num_deleted":"0","num_feature":"9","num_nodes":"3","size_leaf_vector":"1"}},{"base_weights":[5.252182E-2],"categories":[],"categories_nodes":[],"categories_segments":[],"categories_sizes":[],"default_left":[0],"id":72,"left_children":[-1],"loss_changes":[0E0],"parents":[2147483647],"right_children":[-1],"split_conditions":[4.449701E-3],"split_indices":[0],"split_type":[0],"sum_hessian":[6.990202E2],"tree_param":{"num_deleted":"0","num_feature":"9","num_nodes":"1","size_leaf_vector":"1"}},{"base_weights":[-8.7273516E-2,1.305812E-1,-1.0709716E-2,3.2841092E-1,-3.2667357E-2,5.1407116E-3,6.51498E-2],"categories":[],"categories_nodes":[],"categories_segments":[],"categories_sizes":[],"default_left":[0,0,0,0,0,0,0],"id":73,"left_children":[1,3,-1,5,-1,-1,-1],"loss_changes":[4.799379E0,9.915859E0,0E0,7.5780334E0,0E0,0E0,0E0],"parents":[2147483647,0,0,1,1,3,3],"right_children":[2,4,-1,6,-1,-1,-1],"split_conditions":[2.1315565E1,3.3827302E-1,-1.0709716E-2,1.9730991E1,-3.2667357E-2,5.1407116E-3,6.51498E-2],"split_indices":[4,6,0,2,0,0,0],"split_type":[0,0,0,0,0,0,0],"sum_hessian":[5.3962787E2,7.936252E1,4.6026535E2,5.9456367E1,1.9906155E1,4.2588318E1,1.686805E1],"tree_param":{"num_deleted":"0","num_feature":"9","num_nodes":"7","size_leaf_vector":"1"}},{"base_weights":[1.0156972E-2],"categories":[],"categories_nodes":[],"categories_segments":[],"categories_sizes":[],"default_left":[0],"id":74,"left_children":[-1],"loss_changes":[0E0],"parents":[2147483647],"right_children":[-1],"split_conditions":[8.605088E-4],"split_indices":[0],"split_type":[0],"sum_hessian":[7.0630835E2],"tree_param":{"num_deleted":"0","num_feature":"9","num_nodes":"1","size_leaf_vector":"1"}},{"base_weights":[2.8683262E-2],"categories":[],"categories_nodes":[],"categories_segments":[],"categories_sizes":[],"default_left":[0],"id":75,"left_children":[-1],"loss_changes":[0E0],"parents":[2147483647],"right_children":[-1],"split_conditions":[2.4300746E-3],"split_indices":[0],"split_type":[0],"sum_hessian":[7.132229E2],"tree_param":{"num_deleted":"0","num_feature":"9","num_nodes":"1","size_leaf_vector":"1"}},{"base_weights":[-9.3781255E-2],"categories":[],"categories_nodes":[],"categories_segments":[],"categories_sizes":[],"default_left":[0],"id":76,"left_children":[-1],"loss_changes":[0E0],"parents":[2147483647],"right_children":[-1],"split_conditions":[-7.945241E-3],"split_indices":[0],"split_type":[0],"sum_hessian":[5.331079E2],"tree_param":{"num_deleted":"0","num_feature":"9","num_nodes":"1","size_leaf_vector":"1"}},{"base_weights":[2.256285E-2],"categories":[],"categories_nodes":[],"categories_segments":[],"categories_sizes":[],"default_left":[0],"id":77,"left_children":[-1],"loss_changes":[0E0],"parents":[2147483647],"right_children":[-1],"split_conditions":[1.9115473E-3],"split_indices":[0],"split_type":[0],"sum_hessian":[7.128574E2],"tree_param":{"num_deleted":"0","num_feature":"9","num_nodes":"1","size_leaf_vector":"1"}},{"base_weights":[3.0854588E-2,-1.5323011E-3,2.1495791E-2,-2.4534596E-2,3.269848E-2,2.6208656E-3,-1.51955625E-2],"categories":[],"categories_nodes":[],"categories_segments":[],"categories_sizes":[],"default_left":[0,0,0,0,0,0,0],"id":78,"left_children":[1,3,-1,5,-1,-1,-1],"loss_changes":[5.162924E0,5.7082496E0,0E0,5.231663E0,0E0,0E0,0E0],"parents":[2147483647,0,0,1,1,3,3],"right_children":[2,4,-1,6,-1,-1,-1],"split_conditions":[6.5726265E1,4.2904507E1,2.1495791E-2,6.7043805E-1,3.269848E-2,2.6208656E-3,-1.51955625E-2],"split_indices":[0,7,0,6,0,0,0],"split_type":[0,0,0,0,0,0,0],"sum_hessian":[7.069279E2,6.2410126E2,8.282667E1,5.961328E2,2.7968433E1,4.435562E2,1.5257664E2],"tree_param":{"num_deleted":"0","num_feature":"9","num_nodes":"7","size_leaf_vector":"1"}},{"base_weights":[-7.574014E-2],"categories":[],"categories_nodes":[],"categories_segments":[],"categories_sizes":[],"default_left":[0],"id":79,"left_children":[-1],"loss_changes":[0E0],"parents":[2147483647],"right_children":[-1],"split_conditions":[-6.4167804E-3],"split_indices":[0],"split_type":[0],"sum_hessian":[5.330016E2],"tree_param":{"num_deleted":"0","num_feature":"9","num_nodes":"1","size_leaf_vector":"1"}},{"base_weights":[3.0190628E-2],"categories":[],"categories_nodes":[],"categories_segments":[],"categories_sizes":[],"default_left":[0],"id":80,"left_children":[-1],"loss_changes":[0E0],"parents":[2147483647],"right_children":[-1],"split_conditions":[2.5577801E-3],"split_indices":[0],"split_type":[0],"sum_hessian":[7.0554004E2],"tree_param":{"num_deleted":"0","num_feature":"9","num_nodes":"1","size_leaf_vector":"1"}},{"base_weights":[3.7580468E-2,1.7543435E-3,3.888911E-2],"categories":[],"categories_nodes":[],"categories_segments":[],"categories_sizes":[],"default_left":[0,0,0],"id":81,"left_children":[1,-1,-1],"loss_changes":[4.982704E0,0E0,0E0],"parents":[2147483647,0,0],"right_children":[2,-1,-1],"split_conditions":[6.84853E1,1.7543435E-3,3.888911E-2],"split_indices":[4,0,0],"split_type":[0,0,0],"sum_hessian":[7.033647E2,6.8427893E2,1.9085743E1],"tree_param":{"num_deleted":"0","num_feature":"9","num_nodes":"3","size_leaf_vector":"1"}},{"base_weights":[-6.334123E-2,3.5621513E-2,-6.9036474E-3],"categories":[],"categories_nodes":[],"categories_segments":[],"categories_sizes":[],"default_left":[0,0,0],"id":82,"left_children":[1,-1,-1],"loss_changes":[5.0632515E0,0E0,0E0],"parents":[2147483647,0,0],"right_children":[2,-1,-1],"split_conditions":[1.5019633E1,3.5621513E-2,-6.9036474E-3],"split_indices":[0,0,0],"split_type":[0,0,0],"sum_hessian":[5.3792633E2,1.3097557E1,5.2482874E2],"tree_param":{"num_deleted":"0","num_feature":"9","num_nodes":"3","size_leaf_vector":"1"}},{"base_weights":[2.249683E-2],"categories":[],"categories_nodes":[],"categories_segments":[],"categories_sizes":[],"default_left":[0],"id":83,"left_children":[-1],"loss_changes":[0E0],"parents":[2147483647],"right_children":[-1],"split_conditions":[1.905954E-3],"split_indices":[0],"split_type":[0],"sum_hessian":[7.167427E2],"tree_param":{"num_deleted":"0","num_feature":"9","num_nodes":"1","size_leaf_vector":"1"}},{"base_weights":[2.5969341E-2],"categories":[],"categories_nodes":[],"categories_segments":[],"categories_sizes":[],"default_left":[0],"id":84,"left_children":[-1],"loss_changes":[0E0],"parents":[2147483647],"right_children":[-1],"split_conditions":[2.2001485E-3],"split_indices":[0],"split_type":[0],"sum_hessian":[7.0239923E2],"tree_param":{"num_deleted":"0","num_feature":"9","num_nodes":"1","size_leaf_vector":"1"}},{"base_weights":[-5.346234E-2,-2.6418403E-2,-3.4345847E-2,-5.3819973E-2,4.8898272E-2,3.5480456E-3,-1.6281432E-2],"categories":[],"categories_nodes":[],"categories_segments":[],"categories_sizes":[],"default_left":[0,0,0,0,0,0,0],"id":85,"left_children":[1,3,-1,5,-1,-1,-1],"loss_changes":[4.9530325E0,8.515902E0,0E0,6.4927416E0,0E0,0E0,0E0],"parents":[2147483647,0,0,1,1,3,3],"right_children":[2,4,-1,6,-1,-1,-1],"split_conditions":[3.948507E1,2.0545824E0,-3.4345847E-2,5.3403168E1,4.8898272E-2,3.5480456E-3,-1.6281432E-2],"split_indices":[7,6,0,0,0,0,0],"split_type":[0,0,0,0,0,0,0],"sum_hessian":[5.213945E2,4.9209607E2,2.9298403E1,4.776276E2,1.4468478E1,2.856035E2,1.9202411E2],"tree_param":{"num_deleted":"0","num_feature":"9","num_nodes":"7","size_leaf_vector":"1"}},{"base_weights":[2.1057805E-2],"categories":[],"categories_nodes":[],"categories_segments":[],"categories_sizes":[],"default_left":[0],"id":86,"left_children":[-1],"loss_changes":[0E0],"parents":[2147483647],"right_children":[-1],"split_conditions":[1.7840383E-3],"split_indices":[0],"split_type":[0],"sum_hessian":[7.089856E2],"tree_param":{"num_deleted":"0","num_feature":"9","num_nodes":"1","size_leaf_vector":"1"}},{"base_weights":[2.7537355E-2,8.01678E-3,3.1907327E-2,-1.3476825E-1,6.4807974E-2,2.8903032E-2,-8.102349E-5,-1.5069128E-3,-3.4775905E-2],"categories":[],"categories_nodes":[],"categories_segments":[],"categories_sizes":[],"default_left":[0,0,0,0,0,0,0,0,0],"id":87,"left_children":[1,3,-1,7,5,-1,-1,-1,-1],"loss_changes":[4.884371E0,5.6663785E0,0E0,6.360059E0,9.0746765E0,0E0,0E0,0E0,0E0],"parents":[2147483647,0,0,1,1,4,4,3,3],"right_children":[2,4,-1,8,6,-1,-1,-1,-1],"split_conditions":[4.2904507E1,2.836299E1,3.1907327E-2,2.7194387E1,5.292047E8,2.8903032E-2,-8.102349E-5,-1.5069128E-3,-3.4775905E-2],"split_indices":[7,1,0,0,3,0,0,0,0],"split_type":[0,0,0,0,0,0,0,0,0],"sum_hessian":[7.123835E2,6.8233057E2,3.0052954E1,1.9106801E2,4.9126254E2,8.805971E1,4.0320282E2,1.4006943E2,5.0998596E1],"tree_param":{"num_deleted":"0","num_feature":"9","num_nodes":"9","size_leaf_vector":"1"}},{"base_weights":[-6.934517E-2],"categories":[],"categories_nodes":[],"categories_segments":[],"categories_sizes":[],"default_left":[0],"id":88,"left_children":[-1],"loss_changes":[0E0],"parents":[2147483647],"right_children":[-1],"split_conditions":[-5.874992E-3],"split_indices":[0],"split_type":[0],"sum_hessian":[5.241287E2],"tree_param":{"num_deleted":"0","num_feature":"9","num_nodes":"1","size_leaf_vector":"1"}},{"base_weights":[1.695739E-2],"categories":[],"categories_nodes":[],"categories_segments":[],"categories_sizes":[],"default_left":[0],"id":89,"left_children":[-1],"loss_changes":[0E0],"parents":[2147483647],"right_children":[-1],"split_conditions":[1.4366469E-3],"split_indices":[0],"split_type":[0],"sum_hessian":[7.111011E2],"tree_param":{"num_deleted":"0","num_feature":"9","num_nodes":"1","size_leaf_vector":"1"}},{"base_weights":[2.3125228E-2],"categories":[],"categories_nodes":[],"categories_segments":[],"categories_sizes":[],"default_left":[0],"id":90,"left_children":[-1],"loss_changes":[0E0],"parents":[2147483647],"right_children":[-1],"split_conditions":[1.9591923E-3],"split_indices":[0],"split_type":[0],"sum_hessian":[7.0741437E2],"tree_param":{"num_deleted":"0","num_feature":"9","num_nodes":"1","size_leaf_vector":"1"}},{"base_weights":[-6.2018767E-2],"categories":[],"categories_nodes":[],"categories_segments":[],"categories_sizes":[],"default_left":[0],"id":91,"left_children":[-1],"loss_changes":[0E0],"parents":[2147483647],"right_children":[-1],"split_conditions":[-5.254292E-3],"split_indices":[0],"split_type":[0],"sum_hessian":[5.2521106E2],"tree_param":{"num_deleted":"0","num_feature":"9","num_nodes":"1","size_leaf_vector":"1"}},{"base_weights":[2.7776798E-2],"categories":[],"categories_nodes":[],"categories_segments":[],"categories_sizes":[],"default_left":[0],"id":92,"left_children":[-1],"loss_changes":[0E0],"parents":[2147483647],"right_children":[-1],"split_conditions":[2.353278E-3],"split_indices":[0],"split_type":[0],"sum_hessian":[7.009693E2],"tree_param":{"num_deleted":"0","num_feature":"9","num_nodes":"1","size_leaf_vector":"1"}},{"base_weights":[2.0356966E-2],"categories":[],"categories_nodes":[],"categories_segments":[],"categories_sizes":[],"default_left":[0],"id":93,"left_children":[-1],"loss_changes":[0E0],"parents":[2147483647],"right_children":[-1],"split_conditions":[1.7246625E-3],"split_indices":[0],"split_type":[0],"sum_hessian":[7.003623E2],"tree_param":{"num_deleted":"0","num_feature":"9","num_nodes":"1","size_leaf_vector":"1"}},{"base_weights":[-5.7166908E-2],"categories":[],"categories_nodes":[],"categories_segments":[],"categories_sizes":[],"default_left":[0],"id":94,"left_children":[-1],"loss_changes":[0E0],"parents":[2147483647],"right_children":[-1],"split_conditions":[-4.8432373E-3],"split_indices":[0],"split_type":[0],"sum_hessian":[5.2332776E2],"tree_param":{"num_deleted":"0","num_feature":"9","num_nodes":"1","size_leaf_vector":"1"}},{"base_weights":[2.438737E-2],"categories":[],"categories_nodes":[],"categories_segments":[],"categories_sizes":[],"default_left":[0],"id":95,"left_children":[-1],"loss_changes":[0E0],"parents":[2147483647],"right_children":[-1],"split_conditions":[2.0661224E-3],"split_indices":[0],"split_type":[0],"sum_hessian":[7.085534E2],"tree_param":{"num_deleted":"0","num_feature":"9","num_nodes":"1","size_leaf_vector":"1"}},{"base_weights":[3.0643107E-2,-3.350821E-2,1.3668795E-1,3.7205376E-2,-2.650188E-2,-7.6200254E-3,1.5686208E-2,4.3028675E-2,8.3116174E-2,-1.6349353E-2,1.3771982E-2],"categories":[],"categories_nodes":[],"categories_segments":[],"categories_sizes":[],"default_left":[0,0,0,0,0,0,0,0,0,0,0],"id":96,"left_children":[1,3,7,5,-1,-1,-1,-1,9,-1,-1],"loss_changes":[4.9457393E0,9.098802E0,5.105841E0,7.110156E0,0E0,0E0,0E0,0E0,5.699825E0,0E0,0E0],"parents":[2147483647,0,0,1,1,3,3,2,2,8,8],"right_children":[2,4,8,6,-1,-1,-1,-1,10,-1,-1],"split_conditions":[5.4281105E1,3.5011673E1,1.3375985E1,2.8244408E1,-2.650188E-2,-7.6200254E-3,1.5686208E-2,4.3028675E-2,1.8475992E1,-1.6349353E-2,1.3771982E-2],"split_indices":[5,0,7,1,0,0,0,0,7,0,0],"split_type":[0,0,0,0,0,0,0,0,0,0,0],"sum_hessian":[7.1374774E2,4.4809323E2,2.656545E2,3.630444E2,8.50488E1,1.9691573E2,1.6612868E2,2.5032076E1,2.4062242E2,5.123482E1,1.893876E2],"tree_param":{"num_deleted":"0","num_feature":"9","num_nodes":"11","size_leaf_vector":"1"}},{"base_weights":[-6.110723E-2],"categories":[],"categories_nodes":[],"categories_segments":[],"categories_sizes":[],"default_left":[0],"id":97,"left_children":[-1],"loss_changes":[0E0],"parents":[2147483647],"right_children":[-1],"split_conditions":[-5.1770657E-3],"split_indices":[0],"split_type":[0],"sum_hessian":[5.1917505E2],"tree_param":{"num_deleted":"0","num_feature":"9","num_nodes":"1","size_leaf_vector":"1"}},{"base_weights":[1.5221183E-2],"categories":[],"categories_nodes":[],"categories_segments":[],"categories_sizes":[],"default_left":[0],"id":98,"left_children":[-1],"loss_changes":[0E0],"parents":[2147483647],"right_children":[-1],"split_conditions":[1.2895538E-3],"split_indices":[0],"split_type":[0],"sum_hessian":[7.046854E2],"tree_param":{"num_deleted":"0","num_feature":"9","num_nodes":"1","size_leaf_vector":"1"}},{"base_weights":[3.125938E-2],"categories":[],"categories_nodes":[],"categories_segments":[],"categories_sizes":[],"default_left":[0],"id":99,"left_children":[-1],"loss_changes":[0E0],"parents":[2147483647],"right_children":[-1],"split_conditions":[2.6483259E-3],"split_indices":[0],"split_type":[0],"sum_hessian":[7.0244904E2],"tree_param":{"num_deleted":"0","num_feature":"9","num_nodes":"1","size_leaf_vector":"1"}},{"base_weights":[-5.0840303E-2],"categories":[],"categories_nodes":[],"categories_segments":[],"categories_sizes":[],"default_left":[0],"id":100,"left_children":[-1],"loss_changes":[0E0],"parents":[2147483647],"right_children":[-1],"split_conditions":[-4.307241E-3],"split_indices":[0],"split_type":[0],"sum_hessian":[5.160206E2],"tree_param":{"num_deleted":"0","num_feature":"9","num_nodes":"1","size_leaf_vector":"1"}},{"base_weights":[1.872666E-2],"categories":[],"categories_nodes":[],"categories_segments":[],"categories_sizes":[],"default_left":[0],"id":101,"left_children":[-1],"loss_changes":[0E0],"parents":[2147483647],"right_children":[-1],"split_conditions":[1.5865413E-3],"split_indices":[0],"split_type":[0],"sum_hessian":[7.0913763E2],"tree_param":{"num_deleted":"0","num_feature":"9","num_nodes":"1","size_leaf_vector":"1"}},{"base_weights":[2.6468828E-2],"categories":[],"categories_nodes":[],"categories_segments":[],"categories_sizes":[],"default_left":[0],"id":102,"left_children":[-1],"loss_changes":[0E0],"parents":[2147483647],"right_children":[-1],"split_conditions":[2.2424655E-3],"split_indices":[0],"split_type":[0],"sum_hessian":[6.9854266E2],"tree_param":{"num_deleted":"0","num_feature":"9","num_nodes":"1","size_leaf_vector":"1"}},{"base_weights":[-4.864856E-2],"categories":[],"categories_nodes":[],"categories_segments":[],"categories_sizes":[],"default_left":[0],"id":103,"left_children":[-1],"loss_changes":[0E0],"parents":[2147483647],"right_children":[-1],"split_conditions":[-4.1215545E-3],"split_indices":[0],"split_type":[0],"sum_hessian":[5.1191232E2],"tree_param":{"num_deleted":"0","num_feature":"9","num_nodes":"1","size_leaf_vector":"1"}},{"base_weights":[1.4773014E-2],"categories":[],"categories_nodes":[],"categories_segments":[],"categories_sizes":[],"default_left":[0],"id":104,"left_children":[-1],"loss_changes":[0E0],"parents":[2147483647],"right_children":[-1],"split_conditions":[1.2515845E-3],"split_indices":[0],"split_type":[0],"sum_hessian":[7.002508E2],"tree_param":{"num_deleted":"0","num_feature":"9","num_nodes":"1","size_leaf_vector":"1"}},{"base_weights":[2.0752052E-2],"categories":[],"categories_nodes":[],"categories_segments":[],"categories_sizes":[],"default_left":[0],"id":105,"left_children":[-1],"loss_changes":[0E0],"parents":[2147483647],"right_children":[-1],"split_conditions":[1.7581346E-3],"split_indices":[0],"split_type":[0],"sum_hessian":[7.082299E2],"tree_param":{"num_deleted":"0","num_feature":"9","num_nodes":"1","size_leaf_vector":"1"}},{"base_weights":[-4.4627164E-2],"categories":[],"categories_nodes":[],"categories_segments":[],"categories_sizes":[],"default_left":[0],"id":106,"left_children":[-1],"loss_changes":[0E0],"parents":[2147483647],"right_children":[-1],"split_conditions":[-3.780858E-3],"split_indices":[0],"split_type":[0],"sum_hessian":[5.1036316E2],"tree_param":{"num_deleted":"0","num_feature":"9","num_nodes":"1","size_leaf_vector":"1"}},{"base_weights":[1.3348691E-2],"categories":[],"categories_nodes":[],"categories_segments":[],"categories_sizes":[],"default_left":[0],"id":107,"left_children":[-1],"loss_changes":[0E0],"parents":[2147483647],"right_children":[-1],"split_conditions":[1.1309144E-3],"split_indices":[0],"split_type":[0],"sum_hessian":[7.1212805E2],"tree_param":{"num_deleted":"0","num_feature":"9","num_nodes":"1","size_leaf_vector":"1"}},{"base_weights":[2.594723E-2,-1.347548E-2,7.122981E-2,2.6164657E-1,2.7850522E-2,-4.0839105E-3,5.259532E-2,-3.1928387E-2,5.7091736E-3],"categories":[],"categories_nodes":[],"categories_segments":[],"categories_sizes":[],"default_left":[0,0,0,0,0,0,0,0,0],"id":108,"left_children":[1,-1,3,5,7,-1,-1,-1,-1],"loss_changes":[6.1295533E0,0E0,4.771669E0,1.2204399E1,7.962602E0,0E0,0E0,0E0,0E0],"parents":[2147483647,0,0,2,2,3,3,4,4],"right_children":[2,-1,4,6,8,-1,-1,-1,-1],"split_conditions":[3.479955E8,-1.347548E-2,4.513177E8,1.925839E1,2.8253475E1,-4.0839105E-3,5.259532E-2,-3.1928387E-2,5.7091736E-3],"split_indices":[3,0,3,7,0,0,0,0,0],"split_type":[0,0,0,0,0,0,0,0,0],"sum_hessian":[7.130384E2,1.3629488E2,5.767435E2,9.961568E1,4.7712784E2,5.716042E1,4.2455257E1,3.644851E1,4.4067935E2],"tree_param":{"num_deleted":"0","num_feature":"9","num_nodes":"9","size_leaf_vector":"1"}},{"base_weights":[-4.4788517E-2],"categories":[],"categories_nodes":[],"categories_segments":[],"categories_sizes":[],"default_left":[0],"id":109,"left_children":[-1],"loss_changes":[0E0],"parents":[2147483647],"right_children":[-1],"split_conditions":[-3.7945278E-3],"split_indices":[0],"split_type":[0],"sum_hessian":[5.127018E2],"tree_param":{"num_deleted":"0","num_feature":"9","num_nodes":"1","size_leaf_vector":"1"}},{"base_weights":[8.173784E-3],"categories":[],"categories_nodes":[],"categories_segments":[],"categories_sizes":[],"default_left":[0],"id":110,"left_children":[-1],"loss_changes":[0E0],"parents":[2147483647],"right_children":[-1],"split_conditions":[6.924912E-4],"split_indices":[0],"split_type":[0],"sum_hessian":[7.0926135E2],"tree_param":{"num_deleted":"0","num_feature":"9","num_nodes":"1","size_leaf_vector":"1"}},{"base_weights":[1.4470491E-2,-5.9751585E-2,1.2221627E-1,1.061416E-2,-3.8874242E-1,-2.2039482E-2,6.6153393E-3,-4.0022157E-2,3.167603E-2,4.3384407E-2,7.197036E-2,2.352118E-2,-4.1185906E-3],"categories":[],"categories_nodes":[],"categories_segments":[],"categories_sizes":[],"default_left":[0,0,0,0,0,0,0,0,0,0,0,0,0],"id":111,"left_children":[1,3,9,5,7,-1,-1,-1,-1,-1,11,-1,-1],"loss_changes":[5.7472315E0,9.907609E0,5.4434557E0,6.7211704E0,6.207649E0,0E0,0E0,0E0,0E0,0E0,6.7673926E0,0E0,0E0],"parents":[2147483647,0,0,1,1,3,3,4,4,2,2,10,10],"right_children":[2,4,10,6,8,-1,-1,-1,-1,-1,12,-1,-1],"split_conditions":[5.4151886E1,3.4919563E1,1.3375985E1,-2.0349401E-1,3.015701E0,-2.2039482E-2,6.6153393E-3,-4.0022157E-2,3.167603E-2,4.3384407E-2,-7.38987E-1,2.352118E-2,-4.1185906E-3],"split_indices":[0,0,7,6,6,0,0,0,0,0,6,0,0],"split_type":[0,0,0,0,0,0,0,0,0,0,0,0,0],"sum_hessian":[7.035085E2,4.1864618E2,2.8486227E2,3.5119623E2,6.744994E1,6.554457E1,2.8565167E2,6.349893E1,3.9510148E0,2.4209265E1,2.60653E2,9.252775E1,1.6812527E2],"tree_param":{"num_deleted":"0","num_feature":"9","num_nodes":"13","size_leaf_vector":"1"}},{"base_weights":[-5.338579E-2],"categories":[],"categories_nodes":[],"categories_segments":[],"categories_sizes":[],"default_left":[0],"id":112,"left_children":[-1],"loss_changes":[0E0],"parents":[2147483647],"right_children":[-1],"split_conditions":[-4.5228973E-3],"split_indices":[0],"split_type":[0],"sum_hessian":[5.1027704E2],"tree_param":{"num_deleted":"0","num_feature":"9","num_nodes":"1","size_leaf_vector":"1"}},{"base_weights":[1.379842E-2],"categories":[],"categories_nodes":[],"categories_segments":[],"categories_sizes":[],"default_left":[0],"id":113,"left_children":[-1],"loss_changes":[0E0],"parents":[2147483647],"right_children":[-1],"split_conditions":[1.169016E-3],"split_indices":[0],"split_type":[0],"sum_hessian":[7.141912E2],"tree_param":{"num_deleted":"0","num_feature":"9","num_nodes":"1","size_leaf_vector":"1"}},{"base_weights":[1.4660526E-2,-4.2524887E-4,3.1341285E-2],"categories":[],"categories_nodes":[],"categories_segments":[],"categories_sizes":[],"default_left":[0,0,0],"id":114,"left_children":[1,-1,-1],"loss_changes":[4.989062E0,0E0,0E0],"parents":[2147483647,0,0],"right_children":[2,-1,-1],"split_conditions":[4.2904507E1,-4.2524887E-4,3.1341285E-2],"split_indices":[7,0,0],"split_type":[0,0,0],"sum_hessian":[7.035319E2,6.740052E2,2.9526709E1],"tree_param":{"num_deleted":"0","num_feature":"9","num_nodes":"3","size_leaf_vector":"1"}},{"base_weights":[-3.4487683E-2],"categories":[],"categories_nodes":[],"categories_segments":[],"categories_sizes":[],"default_left":[0],"id":115,"left_children":[-1],"loss_changes":[0E0],"parents":[2147483647],"right_children":[-1],"split_conditions":[-2.921831E-3],"split_indices":[0],"split_type":[0],"sum_hessian":[5.0946307E2],"tree_param":{"num_deleted":"0","num_feature":"9","num_nodes":"1","size_leaf_vector":"1"}},{"base_weights":[7.5869416E-3],"categories":[],"categories_nodes":[],"categories_segments":[],"categories_sizes":[],"default_left":[0],"id":116,"left_children":[-1],"loss_changes":[0E0],"parents":[2147483647],"right_children":[-1],"split_conditions":[6.427733E-4],"split_indices":[0],"split_type":[0],"sum_hessian":[7.089287E2],"tree_param":{"num_deleted":"0","num_feature":"9","num_nodes":"1","size_leaf_vector":"1"}},{"base_weights":[1.3602379E-2,-4.9636107E-2,1.21249825E-1,4.4276556E-3,-2.3606407E-2,-2.4997217E-3,4.8434272E-2,3.5673145E-2,5.8070496E-2,2.4063272E-2,-5.0025485E-3],"categories":[],"categories_nodes":[],"categories_segments":[],"categories_sizes":[],"default_left":[0,0,0,0,0,0,0,0,0,0,0],"id":117,"left_children":[1,3,7,5,-1,-1,-1,-1,9,-1,-1],"loss_changes":[4.9303126E0,5.6732097E0,4.877631E0,7.407239E0,0E0,0E0,0E0,0E0,6.227963E0,0E0,0E0],"parents":[2147483647,0,0,1,1,3,3,2,2,8,8],"right_children":[2,4,8,6,-1,-1,-1,-1,10,-1,-1],"split_conditions":[5.449951E1,3.7221703E1,5.5724697E1,4.2904507E1,-2.3606407E-2,-2.4997217E-3,4.8434272E-2,3.5673145E-2,-3.8721252E-2,2.4063272E-2,-5.0025485E-3],"split_indices":[5,1,1,7,0,0,0,0,6,0,0],"split_type":[0,0,0,0,0,0,0,0,0,0,0],"sum_hessian":[7.0932666E2,4.495199E2,2.5980673E2,3.6994806E2,7.957185E1,3.561523E2,1.3795747E1,3.740961E1,2.2239713E2,7.2067345E1,1.5032977E2],"tree_param":{"num_deleted":"0","num_feature":"9","num_nodes":"11","size_leaf_vector":"1"}},{"base_weights":[-4.7163766E-2],"categories":[],"categories_nodes":[],"categories_segments":[],"categories_sizes":[],"default_left":[0],"id":118,"left_children":[-1],"loss_changes":[0E0],"parents":[2147483647],"right_children":[-1],"split_conditions":[-3.9957613E-3],"split_indices":[0],"split_type":[0],"sum_hessian":[5.0505E2],"tree_param":{"num_deleted":"0","num_feature":"9","num_nodes":"1","size_leaf_vector":"1"}},{"base_weights":[1.390603E-2],"categories":[],"categories_nodes":[],"categories_segments":[],"categories_sizes":[],"default_left":[0],"id":119,"left_children":[-1],"loss_changes":[0E0],"parents":[2147483647],"right_children":[-1],"split_conditions":[1.1781327E-3],"split_indices":[0],"split_type":[0],"sum_hessian":[7.146825E2],"tree_param":{"num_deleted":"0","num_feature":"9","num_nodes":"1","size_leaf_vector":"1"}},{"base_weights":[1.3376423E-2],"categories":[],"categories_nodes":[],"categories_segments":[],"categories_sizes":[],"default_left":[0],"id":120,"left_children":[-1],"loss_changes":[0E0],"parents":[2147483647],"right_children":[-1],"split_conditions":[1.1332639E-3],"split_indices":[0],"split_type":[0],"sum_hessian":[7.088368E2],"tree_param":{"num_deleted":"0","num_feature":"9","num_nodes":"1","size_leaf_vector":"1"}},{"base_weights":[-2.9013138E-2],"categories":[],"categories_nodes":[],"categories_segments":[],"categories_sizes":[],"default_left":[0],"id":121,"left_children":[-1],"loss_changes":[0E0],"parents":[2147483647],"right_children":[-1],"split_conditions":[-2.458022E-3],"split_indices":[0],"split_type":[0],"sum_hessian":[5.076162E2],"tree_param":{"num_deleted":"0","num_feature":"9","num_nodes":"1","size_leaf_vector":"1"}},{"base_weights":[5.6491476E-3],"categories":[],"categories_nodes":[],"categories_segments":[],"categories_sizes":[],"default_left":[0],"id":122,"left_children":[-1],"loss_changes":[0E0],"parents":[2147483647],"right_children":[-1],"split_conditions":[4.7860143E-4],"split_indices":[0],"split_type":[0],"sum_hessian":[7.1074225E2],"tree_param":{"num_deleted":"0","num_feature":"9","num_nodes":"1","size_leaf_vector":"1"}},{"base_weights":[1.0480865E-2],"categories":[],"categories_nodes":[],"categories_segments":[],"categories_sizes":[],"default_left":[0],"id":123,"left_children":[-1],"loss_changes":[0E0],"parents":[2147483647],"right_children":[-1],"split_conditions":[8.8794937E-4],"split_indices":[0],"split_type":[0],"sum_hessian":[7.077778E2],"tree_param":{"num_deleted":"0","num_feature":"9","num_nodes":"1","size_leaf_vector":"1"}},{"base_weights":[-2.144733E-2],"categories":[],"categories_nodes":[],"categories_segments":[],"categories_sizes":[],"default_left":[0],"id":124,"left_children":[-1],"loss_changes":[0E0],"parents":[2147483647],"right_children":[-1],"split_conditions":[-1.8170393E-3],"split_indices":[0],"split_type":[0],"sum_hessian":[5.0627893E2],"tree_param":{"num_deleted":"0","num_feature":"9","num_nodes":"1","size_leaf_vector":"1"}},{"base_weights":[6.6714425E-4],"categories":[],"categories_nodes":[],"categories_segments":[],"categories_sizes":[],"default_left":[0],"id":125,"left_children":[-1],"loss_changes":[0E0],"parents":[2147483647],"right_children":[-1],"split_conditions":[5.6521127E-5],"split_indices":[0],"split_type":[0],"sum_hessian":[6.9646063E2],"tree_param":{"num_deleted":"0","num_feature":"9","num_nodes":"1","size_leaf_vector":"1"}},{"base_weights":[2.8157497E-2,-1.4300446E-1,6.9727205E-2,1.16574414E-1,-2.723554E-2,-5.6679724E-3,4.7877096E-2,2.6450232E-1,2.594725E-2,-4.248638E-3,5.1580746E-2,-3.0674793E-2,5.3795543E-3],"categories":[],"categories_nodes":[],"categories_segments":[],"categories_sizes":[],"default_left":[0,0,0,0,0,0,0,0,0,0,0,0,0],"id":126,"left_children":[1,3,7,5,-1,-1,-1,9,11,-1,-1,-1,-1],"loss_changes":[5.121805E0,6.83315E0,4.8536816E0,5.508543E0,0E0,0E0,0E0,1.15928335E1,7.1571417E0,0E0,0E0,0E0,0E0],"parents":[2147483647,0,0,1,1,3,3,2,2,7,7,8,8],"right_children":[2,4,8,6,-1,-1,-1,10,12,-1,-1,-1,-1],"split_conditions":[3.479955E8,1.7664375E1,4.513177E8,1.535155E8,-2.723554E-2,-5.6679724E-3,4.7877096E-2,1.925839E1,2.8253475E1,-4.248638E-3,5.1580746E-2,-3.0674793E-2,5.3795543E-3],"split_indices":[3,0,3,3,0,0,0,7,0,0,0,0,0],"split_type":[0,0,0,0,0,0,0,0,0,0,0,0,0],"sum_hessian":[7.00824E2,1.3317015E2,5.676538E2,5.5375034E1,7.779512E1,4.408241E1,1.1292623E1,9.684743E1,4.708064E2,5.4140434E1,4.2706993E1,3.5501514E1,4.353049E2],"tree_param":{"num_deleted":"0","num_feature":"9","num_nodes":"13","size_leaf_vector":"1"}},{"base_weights":[-2.9351665E-2],"categories":[],"categories_nodes":[],"categories_segments":[],"categories_sizes":[],"default_left":[0],"id":127,"left_children":[-1],"loss_changes":[0E0],"parents":[2147483647],"right_children":[-1],"split_conditions":[-2.4867023E-3],"split_indices":[0],"split_type":[0],"sum_hessian":[5.0881088E2],"tree_param":{"num_deleted":"0","num_feature":"9","num_nodes":"1","size_leaf_vector":"1"}},{"base_weights":[7.593326E-3],"categories":[],"categories_nodes":[],"categories_segments":[],"categories_sizes":[],"default_left":[0],"id":128,"left_children":[-1],"loss_changes":[0E0],"parents":[2147483647],"right_children":[-1],"split_conditions":[6.4331415E-4],"split_indices":[0],"split_type":[0],"sum_hessian":[7.0662305E2],"tree_param":{"num_deleted":"0","num_feature":"9","num_nodes":"1","size_leaf_vector":"1"}},{"base_weights":[1.4543042E-2],"categories":[],"categories_nodes":[],"categories_segments":[],"categories_sizes":[],"default_left":[0],"id":129,"left_children":[-1],"loss_changes":[0E0],"parents":[2147483647],"right_children":[-1],"split_conditions":[1.232101E-3],"split_indices":[0],"split_type":[0],"sum_hessian":[7.051005E2],"tree_param":{"num_deleted":"0","num_feature":"9","num_nodes":"1","size_leaf_vector":"1"}},{"base_weights":[-1.7958956E-2,9.743966E-3,-3.2696467E-2,-1.8481437E-2,5.160048E-2,3.3663572E-3,-1.7267572E-2],"categories":[],"categories_nodes":[],"categories_segments":[],"categories_sizes":[],"default_left":[0,0,0,0,0,0,0],"id":130,"left_children":[1,3,-1,5,-1,-1,-1],"loss_changes":[5.2210755E0,8.231273E0,0E0,5.106754E0,0E0,0E0,0E0],"parents":[2147483647,0,0,1,1,3,3],"right_children":[2,4,-1,6,-1,-1,-1],"split_conditions":[3.948507E1,2.0541897E0,-3.2696467E-2,8.151116E1,5.160048E-2,3.3663572E-3,-1.7267572E-2],"split_indices":[7,6,0,8,0,0,0],"split_type":[0,0,0,0,0,0,0],"sum_hessian":[5.0133032E2,4.7340115E2,2.7929184E1,4.5944006E2,1.3961098E1,3.5435522E2,1.0508482E2],"tree_param":{"num_deleted":"0","num_feature":"9","num_nodes":"7","size_leaf_vector":"1"}},{"base_weights":[1.4449108E-2],"categories":[],"categories_nodes":[],"categories_segments":[],"categories_sizes":[],"default_left":[0],"id":131,"left_children":[-1],"loss_changes":[0E0],"parents":[2147483647],"right_children":[-1],"split_conditions":[1.2241428E-3],"split_indices":[0],"split_type":[0],"sum_hessian":[7.081637E2],"tree_param":{"num_deleted":"0","num_feature":"9","num_nodes":"1","size_leaf_vector":"1"}},{"base_weights":[1.1531588E-2],"categories":[],"categories_nodes":[],"categories_segments":[],"categories_sizes":[],"default_left":[0],"id":132,"left_children":[-1],"loss_changes":[0E0],"parents":[2147483647],"right_children":[-1],"split_conditions":[9.769676E-4],"split_indices":[0],"split_type":[0],"sum_hessian":[7.001265E2],"tree_param":{"num_deleted":"0","num_feature":"9","num_nodes":"1","size_leaf_vector":"1"}},{"base_weights":[-2.9757237E-2],"categories":[],"categories_nodes":[],"categories_segments":[],"categories_sizes":[],"default_left":[0],"id":133,"left_children":[-1],"loss_changes":[0E0],"parents":[2147483647],"right_children":[-1],"split_conditions":[-2.5210627E-3],"split_indices":[0],"split_type":[0],"sum_hessian":[5.0109094E2],"tree_param":{"num_deleted":"0","num_feature":"9","num_nodes":"1","size_leaf_vector":"1"}},{"base_weights":[-3.1061869E-3],"categories":[],"categories_nodes":[],"categories_segments":[],"categories_sizes":[],"default_left":[0],"id":134,"left_children":[-1],"loss_changes":[0E0],"parents":[2147483647],"right_children":[-1],"split_conditions":[-2.6315925E-4],"split_indices":[0],"split_type":[0],"sum_hessian":[7.118619E2],"tree_param":{"num_deleted":"0","num_feature":"9","num_nodes":"1","size_leaf_vector":"1"}},{"base_weights":[1.6933704E-2],"categories":[],"categories_nodes":[],"categories_segments":[],"categories_sizes":[],"default_left":[0],"id":135,"left_children":[-1],"loss_changes":[0E0],"parents":[2147483647],"right_children":[-1],"split_conditions":[1.4346403E-3],"split_indices":[0],"split_type":[0],"sum_hessian":[7.050695E2],"tree_param":{"num_deleted":"0","num_feature":"9","num_nodes":"1","size_leaf_vector":"1"}},{"base_weights":[-2.9322915E-2],"categories":[],"categories_nodes":[],"categories_segments":[],"categories_sizes":[],"default_left":[0],"id":136,"left_children":[-1],"loss_changes":[0E0],"parents":[2147483647],"right_children":[-1],"split_conditions":[-2.4842666E-3],"split_indices":[0],"split_type":[0],"sum_hessian":[5.028751E2],"tree_param":{"num_deleted":"0","num_feature":"9","num_nodes":"1","size_leaf_vector":"1"}},{"base_weights":[3.0079063E-3],"categories":[],"categories_nodes":[],"categories_segments":[],"categories_sizes":[],"default_left":[0],"id":137,"left_children":[-1],"loss_changes":[0E0],"parents":[2147483647],"right_children":[-1],"split_conditions":[2.5483282E-4],"split_indices":[0],"split_type":[0],"sum_hessian":[7.2271356E2],"tree_param":{"num_deleted":"0","num_feature":"9","num_nodes":"1","size_leaf_vector":"1"}},{"base_weights":[8.625408E-3],"categories":[],"categories_nodes":[],"categories_segments":[],"categories_sizes":[],"default_left":[0],"id":138,"left_children":[-1],"loss_changes":[0E0],"parents":[2147483647],"right_children":[-1],"split_conditions":[7.307532E-4],"split_indices":[0],"split_type":[0],"sum_hessian":[7.0508044E2],"tree_param":{"num_deleted":"0","num_feature":"9","num_nodes":"1","size_leaf_vector":"1"}},{"base_weights":[-2.6570782E-2],"categories":[],"categories_nodes":[],"categories_segments":[],"categories_sizes":[],"default_left":[0],"id":139,"left_children":[-1],"loss_changes":[0E0],"parents":[2147483647],"right_children":[-1],"split_conditions":[-2.2511033E-3],"split_indices":[0],"split_type":[0],"sum_hessian":[4.9901285E2],"tree_param":{"num_deleted":"0","num_feature":"9","num_nodes":"1","size_leaf_vector":"1"}},{"base_weights":[1.1155221E-2],"categories":[],"categories_nodes":[],"categories_segments":[],"categories_sizes":[],"default_left":[0],"id":140,"left_children":[-1],"loss_changes":[0E0],"parents":[2147483647],"right_children":[-1],"split_conditions":[9.4508147E-4],"split_indices":[0],"split_type":[0],"sum_hessian":[7.122071E2],"tree_param":{"num_deleted":"0","num_feature":"9","num_nodes":"1","size_leaf_vector":"1"}},{"base_weights":[6.232447E-3],"categories":[],"categories_nodes":[],"categories_segments":[],"categories_sizes":[],"default_left":[0],"id":141,"left_children":[-1],"loss_changes":[0E0],"parents":[2147483647],"right_children":[-1],"split_conditions":[5.2801915E-4],"split_indices":[0],"split_type":[0],"sum_hessian":[7.0453217E2],"tree_param":{"num_deleted":"0","num_feature":"9","num_nodes":"1","size_leaf_vector":"1"}},{"base_weights":[-3.463442E-2,1.8278092E-1,-7.706065E-2,8.0491835E-3,6.031955E-2,1.8937256E-2,-3.0080117E-2,-2.7879063E-2,-3.2409012E-2,2.4566766E-2,-6.630629E-3],"categories":[],"categories_nodes":[],"categories_segments":[],"categories_sizes":[],"default_left":[0,0,0,0,0,0,0,0,0,0,0],"id":142,"left_children":[1,3,7,5,-1,-1,-1,-1,9,-1,-1],"loss_changes":[4.7456694E0,7.7567654E0,4.708356E0,6.218387E0,0E0,0E0,0E0,0E0,5.6584544E0,0E0,0E0],"parents":[2147483647,0,0,1,1,3,3,2,2,8,8],"right_children":[2,4,8,6,-1,-1,-1,-1,10,-1,-1],"split_conditions":[2.1315565E1,2.26211E1,2.723609E1,2.5119799E1,6.031955E-2,1.8937256E-2,-3.0080117E-2,-2.7879063E-2,2.8205208E1,2.4566766E-2,-6.630629E-3],"split_indices":[4,0,0,8,0,0,0,0,0,0,0],"split_type":[0,0,0,0,0,0,0,0,0,0,0],"sum_hessian":[4.9446985E2,7.645684E1,4.18013E2,6.3523952E1,1.2932887E1,4.1776978E1,2.1746975E1,5.5322647E1,3.6269034E2,3.9913277E1,3.2277707E2],"tree_param":{"num_deleted":"0","num_feature":"9","num_nodes":"11","size_leaf_vector":"1"}},{"base_weights":[1.0432921E-2],"categories":[],"categories_nodes":[],"categories_segments":[],"categories_sizes":[],"default_left":[0],"id":143,"left_children":[-1],"loss_changes":[0E0],"parents":[2147483647],"right_children":[-1],"split_conditions":[8.838875E-4],"split_indices":[0],"split_type":[0],"sum_hessian":[7.135378E2],"tree_param":{"num_deleted":"0","num_feature":"9","num_nodes":"1","size_leaf_vector":"1"}},{"base_weights":[-6.856618E-4,-1.996374E-2,3.0519962E-2,-1.6479817E-1,3.6978837E-2,3.4565344E-2,3.0688512E-5,-4.473942E-3,-3.527721E-2],"categories":[],"categories_nodes":[],"categories_segments":[],"categories_sizes":[],"default_left":[0,0,0,0,0,0,0,0,0],"id":144,"left_children":[1,3,-1,7,5,-1,-1,-1,-1],"loss_changes":[5.006717E0,5.6796465E0,0E0,5.2961E0,6.7450852E0,0E0,0E0,0E0,0E0],"parents":[2147483647,0,0,1,1,4,4,3,3],"right_children":[2,4,-1,8,6,-1,-1,-1,-1],"split_conditions":[4.2904507E1,2.836299E1,3.0519962E-2,2.7194387E1,2.9035137E1,3.4565344E-2,3.0688512E-5,-4.473942E-3,-3.527721E-2],"split_indices":[7,1,0,0,5,0,0,0,0],"split_type":[0,0,0,0,0,0,0,0,0],"sum_hessian":[7.0346173E2,6.748967E2,2.8565031E1,1.8622595E2,4.8867075E2,3.6679874E1,4.5199088E2,1.3549709E2,5.0728863E1],"tree_param":{"num_deleted":"0","num_feature":"9","num_nodes":"9","size_leaf_vector":"1"}},{"base_weights":[-1.31009985E-2],"categories":[],"categories_nodes":[],"categories_segments":[],"categories_sizes":[],"default_left":[0],"id":145,"left_children":[-1],"loss_changes":[0E0],"parents":[2147483647],"right_children":[-1],"split_conditions":[-1.1099296E-3],"split_indices":[0],"split_type":[0],"sum_hessian":[4.9635593E2],"tree_param":{"num_deleted":"0","num_feature":"9","num_nodes":"1","size_leaf_vector":"1"}},{"base_weights":[2.1030065E-3],"categories":[],"categories_nodes":[],"categories_segments":[],"categories_sizes":[],"default_left":[0],"id":146,"left_children":[-1],"loss_changes":[0E0],"parents":[2147483647],"right_children":[-1],"split_conditions":[1.781688E-4],"split_indices":[0],"split_type":[0],"sum_hessian":[7.1249835E2],"tree_param":{"num_deleted":"0","num_feature":"9","num_nodes":"1","size_leaf_vector":"1"}},{"base_weights":[-6.4583467E-3],"categories":[],"categories_nodes":[],"categories_segments":[],"categories_sizes":[],"default_left":[0],"id":147,"left_children":[-1],"loss_changes":[0E0],"parents":[2147483647],"right_children":[-1],"split_conditions":[-5.471576E-4],"split_indices":[0],"split_type":[0],"sum_hessian":[6.991655E2],"tree_param":{"num_deleted":"0","num_feature":"9","num_nodes":"1","size_leaf_vector":"1"}},{"base_weights":[-3.6884394E-2],"categories":[],"categories_nodes":[],"categories_segments":[],"categories_sizes":[],"default_left":[0],"id":148,"left_children":[-1],"loss_changes":[0E0],"parents":[2147483647],"right_children":[-1],"split_conditions":[-3.1248827E-3],"split_indices":[0],"split_type":[0],"sum_hessian":[4.9666852E2],"tree_param":{"num_deleted":"0","num_feature":"9","num_nodes":"1","size_leaf_vector":"1"}},{"base_weights":[5.7397084E-3],"categories":[],"categories_nodes":[],"categories_segments":[],"categories_sizes":[],"default_left":[0],"id":149,"left_children":[-1],"loss_changes":[0E0],"parents":[2147483647],"right_children":[-1],"split_conditions":[4.8627384E-4],"split_indices":[0],"split_type":[0],"sum_hessian":[7.1112274E2],"tree_param":{"num_deleted":"0","num_feature":"9","num_nodes":"1","size_leaf_vector":"1"}},{"base_weights":[1.6707437E-2],"categories":[],"categories_nodes":[],"categories_segments":[],"categories_sizes":[],"default_left":[0],"id":150,"left_children":[-1],"loss_changes":[0E0],"parents":[2147483647],"right_children":[-1],"split_conditions":[1.4154707E-3],"split_indices":[0],"split_type":[0],"sum_hessian":[7.056886E2],"tree_param":{"num_deleted":"0","num_feature":"9","num_nodes":"1","size_leaf_vector":"1"}},{"base_weights":[-2.7102634E-2],"categories":[],"categories_nodes":[],"categories_segments":[],"categories_sizes":[],"default_left":[0],"id":151,"left_children":[-1],"loss_changes":[0E0],"parents":[2147483647],"right_children":[-1],"split_conditions":[-2.2961623E-3],"split_indices":[0],"split_type":[0],"sum_hessian":[4.9656995E2],"tree_param":{"num_deleted":"0","num_feature":"9","num_nodes":"1","size_leaf_vector":"1"}},{"base_weights":[1.3859434E-3],"categories":[],"categories_nodes":[],"categories_segments":[],"categories_sizes":[],"default_left":[0],"id":152,"left_children":[-1],"loss_changes":[0E0],"parents":[2147483647],"right_children":[-1],"split_conditions":[1.1741851E-4],"split_indices":[0],"split_type":[0],"sum_hessian":[7.1590955E2],"tree_param":{"num_deleted":"0","num_feature":"9","num_nodes":"1","size_leaf_vector":"1"}},{"base_weights":[7.4403675E-4],"categories":[],"categories_nodes":[],"categories_segments":[],"categories_sizes":[],"default_left":[0],"id":153,"left_children":[-1],"loss_changes":[0E0],"parents":[2147483647],"right_children":[-1],"split_conditions":[6.3035535E-5],"split_indices":[0],"split_type":[0],"sum_hessian":[6.979472E2],"tree_param":{"num_deleted":"0","num_feature":"9","num_nodes":"1","size_leaf_vector":"1"}},{"base_weights":[-4.8522544E-3],"categories":[],"categories_nodes":[],"categories_segments":[],"categories_sizes":[],"default_left":[0],"id":154,"left_children":[-1],"loss_changes":[0E0],"parents":[2147483647],"right_children":[-1],"split_conditions":[-4.1108785E-4],"split_indices":[0],"split_type":[0],"sum_hessian":[4.9177084E2],"tree_param":{"num_deleted":"0","num_feature":"9","num_nodes":"1","size_leaf_vector":"1"}},{"base_weights":[4.569695E-3],"categories":[],"categories_nodes":[],"categories_segments":[],"categories_sizes":[],"default_left":[0],"id":155,"left_children":[-1],"loss_changes":[0E0],"parents":[2147483647],"right_children":[-1],"split_conditions":[3.871491E-4],"split_indices":[0],"split_type":[0],"sum_hessian":[7.1717755E2],"tree_param":{"num_deleted":"0","num_feature":"9","num_nodes":"1","size_leaf_vector":"1"}},{"base_weights":[6.982274E-3],"categories":[],"categories_nodes":[],"categories_segments":[],"categories_sizes":[],"default_left":[0],"id":156,"left_children":[-1],"loss_changes":[0E0],"parents":[2147483647],"right_children":[-1],"split_conditions":[5.915452E-4],"split_indices":[0],"split_type":[0],"sum_hessian":[6.9935785E2],"tree_param":{"num_deleted":"0","num_feature":"9","num_nodes":"1","size_leaf_vector":"1"}},{"base_weights":[-1.5269821E-2],"categories":[],"categories_nodes":[],"categories_segments":[],"categories_sizes":[],"default_left":[0],"id":157,"left_children":[-1],"loss_changes":[0E0],"parents":[2147483647],"right_children":[-1],"split_conditions":[-1.2936745E-3],"split_indices":[0],"split_type":[0],"sum_hessian":[4.952339E2],"tree_param":{"num_deleted":"0","num_feature":"9","num_nodes":"1","size_leaf_vector":"1"}},{"base_weights":[1.5049246E-2],"categories":[],"categories_nodes":[],"categories_segments":[],"categories_sizes":[],"default_left":[0],"id":158,"left_children":[-1],"loss_changes":[0E0],"parents":[2147483647],"right_children":[-1],"split_conditions":[1.2749871E-3],"split_indices":[0],"split_type":[0],"sum_hessian":[7.106434E2],"tree_param":{"num_deleted":"0","num_feature":"9","num_nodes":"1","size_leaf_vector":"1"}},{"base_weights":[1.3531784E-2,-1.5154042E-3,2.0664716E-2],"categories":[],"categories_nodes":[],"categories_segments":[],"categories_sizes":[],"default_left":[0,0,0],"id":159,"left_children":[1,-1,-1],"loss_changes":[5.1951265E0,0E0,0E0],"parents":[2147483647,0,0],"right_children":[2,-1,-1],"split_conditions":[6.5726265E1,-1.5154042E-3,2.0664716E-2],"split_indices":[0,0,0],"split_type":[0,0,0],"sum_hessian":[7.050239E2,6.268431E2,7.8180855E1],"tree_param":{"num_deleted":"0","num_feature":"9","num_nodes":"3","size_leaf_vector":"1"}},{"base_weights":[-6.0697347E-3],"categories":[],"categories_nodes":[],"categories_segments":[],"categories_sizes":[],"default_left":[0],"id":160,"left_children":[-1],"loss_changes":[0E0],"parents":[2147483647],"right_children":[-1],"split_conditions":[-5.14234E-4],"split_indices":[0],"split_type":[0],"sum_hessian":[4.9291342E2],"tree_param":{"num_deleted":"0","num_feature":"9","num_nodes":"1","size_leaf_vector":"1"}},{"base_weights":[2.5922337E-3],"categories":[],"categories_nodes":[],"categories_segments":[],"categories_sizes":[],"default_left":[0],"id":161,"left_children":[-1],"loss_changes":[0E0],"parents":[2147483647],"right_children":[-1],"split_conditions":[2.1961663E-4],"split_indices":[0],"split_type":[0],"sum_hessian":[7.0377826E2],"tree_param":{"num_deleted":"0","num_feature":"9","num_nodes":"1","size_leaf_vector":"1"}},{"base_weights":[8.833541E-3],"categories":[],"categories_nodes":[],"categories_segments":[],"categories_sizes":[],"default_left":[0],"id":162,"left_children":[-1],"loss_changes":[0E0],