{"learner":{"attributes":{"best_iteration":"567","best_score":"0.3362086669601981"},"feature_names":["Close","High","Low","Open","Volume","RSI","EMA_short","EMA_long","MACD","MACD_signal","MACD_hist","BB_upper","BB_middle","BB_lower","ADX","ATR","OBV","MFI","wavelet_cA","wavelet_cD"],"feature_types":["float","float","float","float","float","float","float","float","float","float","float","float","float","float","float","float","float","float","float","float"],"gradient_booster":{"model":{"gbtree_model_param":{"num_parallel_tree":"1","num_trees":"1704"},"iteration_indptr":[0,3,6,9,12,15,18,21,24,27,30,33,36,39,42,45,48,51,54,57,60,63,66,69,72,75,78,81,84,87,90,93,96,99,102,105,108,111,114,117,120,123,126,129,132,135,138,141,144,147,150,153,156,159,162,165,168,171,174,177,180,183,186,189,192,195,198,201,204,207,210,213,216,219,222,225,228,231,234,237,240,243,246,249,252,255,258,261,264,267,270,273,276,279,282,285,288,291,294,297,300,303,306,309,312,315,318,321,324,327,330,333,336,339,342,345,348,351,354,357,360,363,366,369,372,375,378,381,384,387,390,393,396,399,402,405,408,411,414,417,420,423,426,429,432,435,438,441,444,447,450,453,456,459,462,465,468,471,474,477,480,483,486,489,492,495,498,501,504,507,510,513,516,519,522,525,528,531,534,537,540,543,546,549,552,555,558,561,564,567,570,573,576,579,582,585,588,591,594,597,600,603,606,609,612,615,618,621,624,627,630,633,636,639,642,645,648,651,654,657,660,663,666,669,672,675,678,681,684,687,690,693,696,699,702,705,708,711,714,717,720,723,726,729,732,735,738,741,744,747,750,753,756,759,762,765,768,771,774,777,780,783,786,789,792,795,798,801,804,807,810,813,816,819,822,825,828,831,834,837,840,843,846,849,852,855,858,861,864,867,870,873,876,879,882,885,888,891,894,897,900,903,906,909,912,915,918,921,924,927,930,933,936,939,942,945,948,951,954,957,960,963,966,969,972,975,978,981,984,987,990,993,996,999,1002,1005,1008,1011,1014,1017,1020,1023,1026,1029,1032,1035,1038,1041,1044,1047,1050,1053,1056,1059,1062,1065,1068,1071,1074,1077,1080,1083,1086,1089,1092,1095,1098,1101,1104,1107,1110,1113,1116,1119,1122,1125,1128,1131,1134,1137,1140,1143,1146,1149,1152,1155,1158,1161,1164,1167,1170,1173,1176,1179,1182,1185,1188,1191,1194,1197,1200,1203,1206,1209,1212,1215,1218,1221,1224,1227,1230,1233,1236,1239,1242,1245,1248,1251,1254,1257,1260,1263,1266,1269,1272,1275,1278,1281,1284,1287,1290,1293,1296,1299,1302,1305,1308,1311,1314,1317,1320,1323,1326,1329,1332,1335,1338,1341,1344,1347,1350,1353,1356,1359,1362,1365,1368,1371,1374,1377,1380,1383,1386,1389,1392,1395,1398,1401,1404,1407,1410,1413,1416,1419,1422,1425,1428,1431,1434,1437,1440,1443,1446,1449,1452,1455,1458,1461,1464,1467,1470,1473,1476,1479,1482,1485,1488,1491,1494,1497,1500,1503,1506,1509,1512,1515,1518,1521,1524,1527,1530,1533,1536,1539,1542,1545,1548,1551,1554,1557,1560,1563,1566,1569,1572,1575,1578,1581,1584,1587,1590,1593,1596,1599,1602,1605,1608,1611,1614,1617,1620,1623,1626,1629,1632,1635,1638,1641,1644,1647,1650,1653,1656,1659,1662,1665,1668,1671,1674,1677,1680,1683,1686,1689,1692,1695,1698,1701,1704],"tree_info":[0,1,2,0,1,2,0,1,2,0,1,2,0,1,2,0,1,2,0,1,2,0,1,2,0,1,2,0,1,2,0,1,2,0,1,2,0,1,2,0,1,2,0,1,2,0,1,2,0,1,2,0,1,2,0,1,2,0,1,2,0,1,2,0,1,2,0,1,2,0,1,2,0,1,2,0,1,2,0,1,2,0,1,2,0,1,2,0,1,2,0,1,2,0,1,2,0,1,2,0,1,2,0,1,2,0,1,2,0,1,2,0,1,2,0,1,2,0,1,2,0,1,2,0,1,2,0,1,2,0,1,2,0,1,2,0,1,2,0,1,2,0,1,2,0,1,2,0,1,2,0,1,2,0,1,2,0,1,2,0,1,2,0,1,2,0,1,2,0,1,2,0,1,2,0,1,2,0,1,2,0,1,2,0,1,2,0,1,2,0,1,2,0,1,2,0,1,2,0,1,2,0,1,2,0,1,2,0,1,2,0,1,2,0,1,2,0,1,2,0,1,2,0,1,2,0,1,2,0,1,2,0,1,2,0,1,2,0,1,2,0,1,2,0,1,2,0,1,2,0,1,2,0,1,2,0,1,2,0,1,2,0,1,2,0,1,2,0,1,2,0,1,2,0,1,2,0,1,2,0,1,2,0,1,2,0,1,2,0,1,2,0,1,2,0,1,2,0,1,2,0,1,2,0,1,2,0,1,2,0,1,2,0,1,2,0,1,2,0,1,2,0,1,2,0,1,2,0,1,2,0,1,2,0,1,2,0,1,2,0,1,2,0,1,2,0,1,2,0,1,2,0,1,2,0,1,2,0,1,2,0,1,2,0,1,2,0,1,2,0,1,2,0,1,2,0,1,2,0,1,2,0,1,2,0,1,2,0,1,2,0,1,2,0,1,2,0,1,2,0,1,2,0,1,2,0,1,2,0,1,2,0,1,2,0,1,2,0,1,2,0,1,2,0,1,2,0,1,2,0,1,2,0,1,2,0,1,2,0,1,2,0,1,2,0,1,2,0,1,2,0,1,2,0,1,2,0,1,2,0,1,2,0,1,2,0,1,2,0,1,2,0,1,2,0,1,2,0,1,2,0,1,2,0,1,2,0,1,2,0,1,2,0,1,2,0,1,2,0,1,2,0,1,2,0,1,2,0,1,2,0,1,2,0,1,2,0,1,2,0,1,2,0,1,2,0,1,2,0,1,2,0,1,2,0,1,2,0,1,2,0,1,2,0,1,2,0,1,2,0,1,2,0,1,2,0,1,2,0,1,2,0,1,2,0,1,2,0,1,2,0,1,2,0,1,2,0,1,2,0,1,2,0,1,2,0,1,2,0,1,2,0,1,2,0,1,2,0,1,2,0,1,2,0,1,2,0,1,2,0,1,2,0,1,2,0,1,2,0,1,2,0,1,2,0,1,2,0,1,2,0,1,2,0,1,2,0,1,2,0,1,2,0,1,2,0,1,2,0,1,2,0,1,2,0,1,2,0,1,2,0,1,2,0,1,2,0,1,2,0,1,2,0,1,2,0,1,2,0,1,2,0,1,2,0,1,2,0,1,2,0,1,2,0,1,2,0,1,2,0,1,2,0,1,2,0,1,2,0,1,2,0,1,2,0,1,2,0,1,2,0,1,2,0,1,2,0,1,2,0,1,2,0,1,2,0,1,2,0,1,2,0,1,2,0,1,2,0,1,2,0,1,2,0,1,2,0,1,2,0,1,2,0,1,2,0,1,2,0,1,2,0,1,2,0,1,2,0,1,2,0,1,2,0,1,2,0,1,2,0,1,2,0,1,2,0,1,2,0,1,2,0,1,2,0,1,2,0,1,2,0,1,2,0,1,2,0,1,2,0,1,2,0,1,2,0,1,2,0,1,2,0,1,2,0,1,2,0,1,2,0,1,2,0,1,2,0,1,2,0,1,2,0,1,2,0,1,2,0,1,2,0,1,2,0,1,2,0,1,2,0,1,2,0,1,2,0,1,2,0,1,2,0,1,2,0,1,2,0,1,2,0,1,2,0,1,2,0,1,2,0,1,2,0,1,2,0,1,2,0,1,2,0,1,2,0,1,2,0,1,2,0,1,2,0,1,2,0,1,2,0,1,2,0,1,2,0,1,2,0,1,2,0,1,2,0,1,2,0,1,2,0,1,2,0,1,2,0,1,2,0,1,2,0,1,2,0,1,2,0,1,2,0,1,2,0,1,2,0,1,2,0,1,2,0,1,2,0,1,2,0,1,2,0,1,2,0,1,2,0,1,2,0,1,2,0,1,2,0,1,2,0,1,2,0,1,2,0,1,2,0,1,2,0,1,2,0,1,2,0,1,2,0,1,2,0,1,2,0,1,2,0,1,2,0,1,2,0,1,2,0,1,2,0,1,2,0,1,2,0,1,2,0,1,2,0,1,2,0,1,2,0,1,2,0,1,2,0,1,2,0,1,2,0,1,2,0,1,2,0,1,2,0,1,2,0,1,2,0,1,2,0,1,2,0,1,2,0,1,2,0,1,2,0,1,2,0,1,2,0,1,2,0,1,2,0,1,2,0,1,2,0,1,2,0,1,2,0,1,2,0,1,2,0,1,2,0,1,2,0,1,2,0,1,2,0,1,2,0,1,2,0,1,2,0,1,2,0,1,2,0,1,2,0,1,2,0,1,2,0,1,2,0,1,2,0,1,2,0,1,2,0,1,2,0,1,2,0,1,2,0,1,2,0,1,2,0,1,2,0,1,2,0,1,2,0,1,2,0,1,2,0,1,2,0,1,2,0,1,2,0,1,2,0,1,2,0,1,2,0,1,2,0,1,2,0,1,2,0,1,2,0,1,2,0,1,2,0,1,2,0,1,2,0,1,2,0,1,2,0,1,2,0,1,2,0,1,2,0,1,2,0,1,2,0,1,2,0,1,2,0,1,2,0,1,2,0,1,2,0,1,2,0,1,2,0,1,2,0,1,2,0,1,2,0,1,2,0,1,2,0,1,2,0,1,2,0,1,2,0,1,2,0,1,2,0,1,2,0,1,2,0,1,2,0,1,2,0,1,2,0,1,2,0,1,2,0,1,2,0,1,2,0,1,2,0,1,2,0,1,2,0,1,2,0,1,2,0,1,2,0,1,2,0,1,2,0,1,2,0,1,2,0,1,2,0,1,2,0,1,2,0,1,2,0,1,2,0,1,2,0,1,2,0,1,2,0,1,2,0,1,2,0,1,2,0,1,2,0,1,2,0,1,2,0,1,2,0,1,2,0,1,2,0,1,2,0,1,2,0,1,2,0,1,2,0,1,2,0,1,2,0,1,2,0,1,2,0,1,2,0,1,2,0,1,2,0,1,2,0,1,2,0,1,2,0,1,2,0,1,2,0,1,2,0,1,2,0,1,2,0,1,2,0,1,2,0,1,2,0,1,2,0,1,2,0,1,2,0,1,2,0,1,2,0,1,2,0,1,2,0,1,2,0,1,2,0,1,2,0,1,2,0,1,2,0,1,2,0,1,2,0,1,2,0,1,2,0,1,2,0,1,2,0,1,2,0,1,2,0,1,2,0,1,2,0,1,2,0,1,2,0,1,2,0,1,2,0,1,2,0,1,2,0,1,2,0,1,2,0,1,2,0,1,2,0,1,2,0,1,2,0,1,2,0,1,2,0,1,2,0,1,2,0,1,2,0,1,2,0,1,2,0,1,2,0,1,2,0,1,2,0,1,2,0,1,2,0,1,2,0,1,2,0,1,2,0,1,2,0,1,2,0,1,2,0,1,2,0,1,2,0,1,2,0,1,2,0,1,2,0,1,2,0,1,2,0,1,2,0,1,2,0,1,2,0,1,2,0,1,2,0,1,2],"trees":[{"base_weights":[3.060361E-2,-3.536697E-1,1.4697003E-1,-3.9230683E-1,9.605802E-1,-5.4143685E-1,1.8444188E-1,-4.2692378E-1,8.957401E-1,-0E0,2.7668005E-1,2.362713E-1,-1.3578384E-1,1.5719518E-1,1.098319E0,-5.01984E-1,1.7342655E-1,-0E0,2.7361804E-1,2.61959E-1,-6.8054266E-2,8.882515E-1,1.2517111E-1,2.881398E-1,8.436676E-2,-5.478739E-1,-8.0597736E-2,2.489408E-1,-4.3468654E-1,2.881398E-1,2.5600705E-1,4.600385E-1,7.160413E-2,-1.3592535E-1,2.61959E-1,-1.2231345E-1,-3.6145058E-2,-1.2082987E-1,2.2777212E-1,-1.4281765E-1,3.8742684E-2,-8.400087E-3,2.691382E-1,2.846128E-1,6.925071E-2,-3.8303796E-2,2.9128363E-2],"categories":[],"categories_nodes":[],"categories_segments":[],"categories_sizes":[],"default_left":[0,0,0,0,0,0,0,0,0,0,0,0,0,0,0,0,0,0,0,0,0,0,0,0,0,0,0,0,0,0,0,0,0,0,0,0,0,0,0,0,0,0,0,0,0,0,0],"id":0,"left_children":[1,3,5,7,9,11,13,15,17,-1,-1,19,-1,21,23,25,27,-1,-1,-1,-1,29,31,-1,33,35,37,-1,39,-1,41,43,45,-1,-1,-1,-1,-1,-1,-1,-1,-1,-1,-1,-1,-1,-1],"loss_changes":[2.7733532E1,7.3606663E0,1.2289026E1,6.2929096E0,1.814354E0,2.9735322E0,1.119597E1,6.1742954E0,1.6731586E0,0E0,0E0,2.7635465E0,0E0,1.0235668E1,4.9296236E0,2.3293018E0,1.0310389E1,0E0,0E0,0E0,0E0,6.72515E0,7.5283604E0,0E0,3.7724738E0,3.07909E0,8.235942E0,0E0,1.8941593E0,0E0,3.066712E0,5.979723E0,7.534086E0,0E0,0E0,0E0,0E0,0E0,0E0,0E0,0E0,0E0,0E0,0E0,0E0,0E0,0E0],"parents":[2147483647,0,0,1,1,2,2,3,3,4,4,5,5,6,6,7,7,8,8,11,11,13,13,14,14,15,15,16,16,21,21,22,22,24,24,25,25,26,26,28,28,30,30,31,31,32,32],"right_children":[2,4,6,8,10,12,14,16,18,-1,-1,20,-1,22,24,26,28,-1,-1,-1,-1,30,32,-1,34,36,38,-1,40,-1,42,44,46,-1,-1,-1,-1,-1,-1,-1,-1,-1,-1,-1,-1,-1,-1],"split_conditions":[1.2097415E1,7.79684E1,2.2222196E-1,3.7282202E-1,7.58291E-16,-1.0387847E-6,1.688811E1,5.75956E7,1.1256925E1,-0E0,2.7668005E-1,1.7901555E-1,-1.3578384E-1,-3.0511053E-5,3.5396984E-1,4.280947E1,3.2774168E-1,-0E0,2.7361804E-1,2.61959E-1,-6.8054266E-2,2.2208807E1,3.649489E1,2.881398E-1,1.7298317E1,3.68669E7,1.1289847E1,2.489408E-1,1.228135E1,2.881398E-1,5.914287E1,2.7573028E-1,-1.09175384E-1,-1.3592535E-1,2.61959E-1,-1.2231345E-1,-3.6145058E-2,-1.2082987E-1,2.2777212E-1,-1.4281765E-1,3.8742684E-2,-8.400087E-3,2.691382E-1,2.846128E-1,6.925071E-2,-3.8303796E-2,2.9128363E-2],"split_indices":[12,17,15,8,19,19,7,16,0,0,0,8,0,19,15,14,15,0,0,0,0,14,5,0,3,4,13,0,3,0,5,15,8,0,0,0,0,0,0,0,0,0,0,0,0,0,0],"split_type":[0,0,0,0,0,0,0,0,0,0,0,0,0,0,0,0,0,0,0,0,0,0,0,0,0,0,0,0,0,0,0,0,0,0,0,0,0,0,0,0,0,0,0,0,0,0,0],"sum_hessian":[6.1999994E2,1.4399998E2,4.7599997E2,1.3999998E2,3.9999998E0,2.4444443E1,4.5155554E2,1.3644444E2,3.5555553E0,1.3333333E0,2.6666665E0,3.9999998E0,2.0444443E1,4.3866663E2,1.2888888E1,1.2133333E2,1.5111111E1,1.3333333E0,2.222222E0,1.3333333E0,2.6666665E0,1.8222221E1,4.2044443E2,9.333333E0,3.5555553E0,1.0933333E2,1.1999999E1,5.333333E0,9.777777E0,9.333333E0,8.888888E0,5.7777775E1,3.6266666E2,2.222222E0,1.3333333E0,8.977777E1,1.9555553E1,8.444444E0,3.5555553E0,6.666666E0,3.111111E0,7.1111107E0,1.7777777E0,5.333333E0,5.2444443E1,8.133333E1,2.813333E2],"tree_param":{"num_deleted":"0","num_feature":"20","num_nodes":"47","size_leaf_vector":"1"}},{"base_weights":[1.6624738E-1,-2.4846772E-2,3.4446344E-1,-1.1369288E-1,2.3460517E-2,2.9615876E-1,1.1605219E0,4.4657394E-2,-1.43241E-1,3.5171586E-1,-2.3676196E-1,2.5488323E-1,-3.1737804E-2,-1.6155931E-1,1.4229554E-1,2.6390073E-1,9.0131193E-1,-4.4921637E-1,6.157914E-1,2.408087E-1,-3.7086627E-1,7.193488E-1,4.9410682E-2,3.7217295E-1,-2.7871317E-1,1.2943192E0,4.5261893E-1,-5.537256E-1,3.4843913E-1,-1.2956336E-1,1.0128535E0,-4.9565572E-2,1.3283774E-1,-8.341908E-2,1.9100241E-1,2.1955682E-1,-0E0,1.2562759E-3,1.4384942E-1,8.884025E-2,-2.4524499E-2,1.5882403E-1,-7.2853126E-2,2.8015128E-1,-3.1737804E-2,-1.06252864E-1,1.6954906E-1,1.2956335E-1,-1.2538539E-1,2.61959E-1,-1.2956336E-1,2.7668005E-1,6.565213E-2],"categories":[],"categories_nodes":[],"categories_segments":[],"categories_sizes":[],"default_left":[0,0,0,0,0,0,0,0,0,0,0,0,0,0,0,0,0,0,0,0,0,0,0,0,0,0,0,0,0,0,0,0,0,0,0,0,0,0,0,0,0,0,0,0,0,0,0,0,0,0,0,0,0],"id":1,"left_children":[1,3,5,-1,7,9,11,13,-1,15,17,-1,-1,19,21,23,25,27,29,31,33,35,37,39,41,43,45,47,49,-1,51,-1,-1,-1,-1,-1,-1,-1,-1,-1,-1,-1,-1,-1,-1,-1,-1,-1,-1,-1,-1,-1,-1],"loss_changes":[2.1717936E1,8.297063E0,1.2925316E1,0E0,4.5341434E0,9.242863E0,3.5649586E0,5.553912E0,0E0,1.35690155E1,5.3744907E0,0E0,0E0,7.476053E0,1.0015179E1,1.4333944E1,6.7229958E0,2.0072408E0,3.1094294E0,6.6312084E0,4.474869E0,7.5473585E0,4.751894E0,8.380735E0,4.2124557E0,4.260784E0,7.6781063E0,2.3188486E0,2.961969E0,0E0,1.1480465E0,0E0,0E0,0E0,0E0,0E0,0E0,0E0,0E0,0E0,0E0,0E0,0E0,0E0,0E0,0E0,0E0,0E0,0E0,0E0,0E0,0E0,0E0],"parents":[2147483647,0,0,1,1,2,2,4,4,5,5,6,6,7,7,9,9,10,10,13,13,14,14,15,15,16,16,17,17,18,18,19,19,20,20,21,21,22,22,23,23,24,24,25,25,26,26,27,27,28,28,30,30],"right_children":[2,4,6,-1,8,10,12,14,-1,16,18,-1,-1,20,22,24,26,28,30,32,34,36,38,40,42,44,46,48,50,-1,52,-1,-1,-1,-1,-1,-1,-1,-1,-1,-1,-1,-1,-1,-1,-1,-1,-1,-1,-1,-1,-1,-1],"split_conditions":[3.2887673E-1,-1.3578257E-5,4.942661E-1,-1.1369288E-1,1.5922908E1,1.4768939E1,1.0753794E1,1.2620926E1,-1.43241E-1,1.3937592E1,1.7439316E1,2.5488323E-1,-3.1737804E-2,1.1331967E1,1.2559881E1,1.3364027E1,1.5183022E1,1.7573265E1,3.3793798E-1,1.1980092E1,1.28964615E1,3.1618705E-1,1.5896838E1,4.10817E7,-1.6117975E-1,6.2542343E1,1.5482603E1,-5.786028E-1,1.7529129E1,-1.2956336E-1,3.5632518E-1,-4.9565572E-2,1.3283774E-1,-8.341908E-2,1.9100241E-1,2.1955682E-1,-0E0,1.2562759E-3,1.4384942E-1,8.884025E-2,-2.4524499E-2,1.5882403E-1,-7.2853126E-2,2.8015128E-1,-3.1737804E-2,-1.06252864E-1,1.6954906E-1,1.2956335E-1,-1.2538539E-1,2.61959E-1,-1.2956336E-1,2.7668005E-1,6.565213E-2],"split_indices":[15,19,15,0,13,6,6,2,0,6,0,0,0,13,13,7,11,12,15,11,6,15,2,4,10,5,11,9,6,0,15,0,0,0,0,0,0,0,0,0,0,0,0,0,0,0,0,0,0,0,0,0,0],"split_type":[0,0,0,0,0,0,0,0,0,0,0,0,0,0,0,0,0,0,0,0,0,0,0,0,0,0,0,0,0,0,0,0,0,0,0,0,0,0,0,0,0,0,0,0,0,0,0,0,0,0,0,0,0],"sum_hessian":[6.373333E2,3.0755554E2,3.2977777E2,2.4444443E1,2.8311108E2,3.1155554E2,1.8222221E1,2.7555554E2,7.5555553E0,2.822222E2,2.9333332E1,1.6444443E1,1.7777777E0,8.844444E1,1.871111E2,2.4355554E2,3.8666664E1,2.3555553E1,5.7777777E0,3.0222221E1,5.8222218E1,2.5777777E1,1.6133333E2,2.031111E2,4.0444443E1,2.0444443E1,1.8222221E1,2.0888887E1,2.6666665E0,1.3333333E0,4.444444E0,1.4222221E1,1.5999999E1,5.5999996E1,2.222222E0,1.6444443E1,9.333333E0,1.5199998E2,9.333333E0,1.7422221E2,2.8888887E1,3.111111E0,3.7333332E1,1.8666666E1,1.7777777E0,5.333333E0,1.2888888E1,1.3333333E0,1.9555553E1,1.3333333E0,1.3333333E0,2.6666665E0,1.7777777E0],"tree_param":{"num_deleted":"0","num_feature":"20","num_nodes":"53","size_leaf_vector":"1"}},{"base_weights":[-2.043705E-1,5.2745745E-2,-3.2987133E-1,1.015734E0,-0E0,2.489408E-1,-3.506758E-1,2.8624892E-1,2.362713E-1,-3.652688E-1,9.834416E-2,-2.006217E-1,-4.9389303E-1,1.9100241E-1,-1.3348083E-1,7.0449525E-1,-4.41035E-1,2.2315765E-2,5.5052245E-1,-9.814359E-2,-5.852068E-1,-5.596945E-1,-9.668125E-2,-0E0,2.61959E-1,1.6739516E-1,-5.06431E-1,1.4165919E-1,-3.4713772E-1,8.403579E-1,-3.613755E-1,1.8948784E-1,-2.6451483E-1,-6.504755E-1,1.6739516E-1,-5.7425445E-1,1.6739516E-1,9.162116E-1,-4.070177E-1,-4.0127043E-2,-1.2331228E-1,2.4691398E-1,4.9243295E-3,-1.10895574E-1,1.9782217E-1,2.3896605E-1,-0E0,-1.4045726E-1,1.2956335E-1,6.70259E-2,-1.0638532E-1,1.5523648E-1,-6.1234444E-2,1.2956335E-1,-1.3613091E-1,-1.14825025E-1,3.8742684E-2,-5.3309727E-2,2.838747E-1,4.026293E-2,-1.2270243E-1],"categories":[],"categories_nodes":[],"categories_segments":[],"categories_sizes":[],"default_left":[0,0,0,0,0,0,0,0,0,0,0,0,0,0,0,0,0,0,0,0,0,0,0,0,0,0,0,0,0,0,0,0,0,0,0,0,0,0,0,0,0,0,0,0,0,0,0,0,0,0,0,0,0,0,0,0,0,0,0,0,0],"id":2,"left_children":[1,3,5,7,9,-1,11,-1,13,15,17,19,21,-1,-1,23,25,27,29,31,33,35,37,-1,-1,-1,39,41,43,45,47,49,51,53,-1,55,-1,57,59,-1,-1,-1,-1,-1,-1,-1,-1,-1,-1,-1,-1,-1,-1,-1,-1,-1,-1,-1,-1,-1,-1],"loss_changes":[2.0478252E1,1.0572269E1,1.4275581E1,3.704523E0,7.098814E0,0E0,9.01918E0,0E0,2.9263265E0,3.4361181E0,5.3386292E0,8.092845E0,5.60437E0,0E0,0E0,1.2598586E0,3.3862925E0,5.887749E0,5.9641724E0,7.7996907E0,4.1463118E0,3.8714142E0,9.726299E0,0E0,0E0,0E0,1.3728199E0,1.3174283E1,9.850634E0,5.4836655E0,2.0762033E0,6.758094E0,5.385363E0,2.6011486E0,0E0,1.9531097E0,0E0,4.7151456E0,3.2418437E0,0E0,0E0,0E0,0E0,0E0,0E0,0E0,0E0,0E0,0E0,0E0,0E0,0E0,0E0,0E0,0E0,0E0,0E0,0E0,0E0,0E0,0E0],"parents":[2147483647,0,0,1,1,2,2,3,3,4,4,6,6,8,8,9,9,10,10,11,11,12,12,15,15,16,16,17,17,18,18,19,19,20,20,21,21,22,22,26,26,27,27,28,28,29,29,30,30,31,31,32,32,33,33,35,35,37,37,38,38],"right_children":[2,4,6,8,10,-1,12,-1,14,16,18,20,22,-1,-1,24,26,28,30,32,34,36,38,-1,-1,-1,40,42,44,46,48,50,52,54,-1,56,-1,58,60,-1,-1,-1,-1,-1,-1,-1,-1,-1,-1,-1,-1,-1,-1,-1,-1,-1,-1,-1,-1,-1,-1],"split_conditions":[3.0239552E-1,1.150717E1,9.8689165E0,1.1980092E1,-9.496052E-7,2.489408E-1,1.211274E1,2.8624892E-1,3.039493E1,1.31814E1,1.46217785E1,4.1655236E-1,5.2370064E-2,1.9100241E-1,-1.3348083E-1,4.7713512E1,-3.5641788E-5,2.9712399E1,2.7705145E-1,1.2047432E1,5.230503E-5,5.9838683E-5,1.3497922E1,-0E0,2.61959E-1,1.6739516E-1,4.2399136E1,-3.923069E8,1.3985981E1,6.572238E1,6.291211E1,2.544495E1,-1.1265991E-1,-2.3232754E-1,1.6739516E-1,6.676717E1,1.6739516E-1,1.3518531E1,5.479091E1,-4.0127043E-2,-1.2331228E-1,2.4691398E-1,4.9243295E-3,-1.10895574E-1,1.9782217E-1,2.3896605E-1,-0E0,-1.4045726E-1,1.2956335E-1,6.70259E-2,-1.0638532E-1,1.5523648E-1,-6.1234444E-2,1.2956335E-1,-1.3613091E-1,-1.14825025E-1,3.8742684E-2,-5.3309727E-2,2.838747E-1,4.026293E-2,-1.2270243E-1],"split_indices":[15,6,7,11,19,0,13,0,14,14,13,15,10,0,0,5,19,14,15,6,19,19,2,0,0,0,17,16,13,5,5,14,10,10,0,5,0,11,17,0,0,0,0,0,0,0,0,0,0,0,0,0,0,0,0,0,0,0,0,0,0],"split_type":[0,0,0,0,0,0,0,0,0,0,0,0,0,0,0,0,0,0,0,0,0,0,0,0,0,0,0,0,0,0,0,0,0,0,0,0,0,0,0,0,0,0,0,0,0,0,0,0,0,0,0,0,0,0,0,0,0,0,0,0,0],"sum_hessian":[6.3422217E2,2.0799998E2,4.262222E2,1.0666666E1,1.9733333E2,5.333333E0,4.2088885E2,6.666666E0,3.9999998E0,4.1777775E1,1.5555554E2,2.0577777E2,2.151111E2,2.222222E0,1.7777777E0,2.6666665E0,3.9111107E1,1.3333333E2,2.2222221E1,1.6266666E2,4.3111107E1,1.8444443E2,3.0666664E1,1.3333333E0,1.3333333E0,1.7777777E0,3.7333332E1,1.00888885E2,3.2444443E1,1.6888887E1,5.333333E0,5.9555553E1,1.0311111E2,4.1333332E1,1.7777777E0,1.8266666E2,1.7777777E0,7.1111107E0,2.3555553E1,1.1111111E1,2.6222221E1,9.333333E0,9.155555E1,2.7999998E1,4.444444E0,1.1555555E1,5.333333E0,3.9999998E0,1.3333333E0,4.9333332E1,1.0222221E1,4.444444E0,9.8666664E1,1.3333333E0,3.9999996E1,1.7955554E2,3.111111E0,2.222222E0,4.8888884E0,6.222222E0,1.7333332E1],"tree_param":{"num_deleted":"0","num_feature":"20","num_nodes":"61","size_leaf_vector":"1"}},{"base_weights":[3.510386E-2,-3.22856E-1,1.340345E-1,-3.6024675E-1,8.5208017E-1,7.8010666E-1,8.769365E-2,-3.94525E-1,8.38794E-1,-4.2584655E-3,2.4679188E-1,-4.017536E-2,8.3835644E-1,2.789343E-2,4.807567E-1,-4.2361686E-1,1.4060834E-1,2.5470465E-1,-0E0,2.1977721E-1,9.5170915E-1,4.1033402E-1,-3.8737934E-2,9.219231E-1,3.609132E-2,-3.3009338E-1,-6.384535E-1,-1.8259293E-1,2.2927979E-1,2.5620034E-1,7.888606E-1,6.7347014E-1,-2.3624597E-1,1.6969787E-2,-4.2322412E-1,-1.388084E-1,1.1358497E0,-3.3812895E-1,7.263529E-1,-7.541271E-2,1.1588206E-1,-1.3446088E-1,3.7920017E-2,-1.363725E-1,1.2506379E-1,1.1084697E-1,2.4776891E-1,-1.0252974E-1,1.6190448E-1,-1.1726187E-1,2.1843933E-1,-2.3283465E-3,1.5340416E-1,-1.20528586E-1,3.9728455E-2,-6.31319E-2,2.4849351E-1,-9.096716E-2,2.4654937E-1,-1.2579153E-1,1.9216675E-1],"categories":[],"categories_nodes":[],"categories_segments":[],"categories_sizes":[],"default_left":[0,0,0,0,0,0,0,0,0,0,0,0,0,0,0,0,0,0,0,0,0,0,0,0,0,0,0,0,0,0,0,0,0,0,0,0,0,0,0,0,0,0,0,0,0,0,0,0,0,0,0,0,0,0,0,0,0,0,0,0,0],"id":3,"left_children":[1,3,5,7,9,11,13,15,17,-1,-1,-1,19,21,23,25,-1,-1,-1,27,29,31,33,35,37,39,41,43,-1,-1,45,47,49,51,53,-1,55,57,59,-1,-1,-1,-1,-1,-1,-1,-1,-1,-1,-1,-1,-1,-1,-1,-1,-1,-1,-1,-1,-1,-1],"loss_changes":[2.2710623E1,6.1326733E0,1.5017628E1,5.572878E0,1.5791905E0,1.966526E0,1.1013532E1,4.285715E0,1.4933631E0,0E0,0E0,0E0,2.1721516E0,1.039061E1,1.2115502E1,2.517643E0,0E0,0E0,0E0,2.0219615E0,1.3777771E0,1.03255205E1,7.4419274E0,1.096347E1,8.049137E0,4.653758E0,1.633893E0,1.6418588E0,0E0,0E0,1.8576899E0,8.092165E0,8.756851E0,6.7487226E0,5.3684387E0,0E0,5.5547714E0,4.187213E0,3.9657888E0,0E0,0E0,0E0,0E0,0E0,0E0,0E0,0E0,0E0,0E0,0E0,0E0,0E0,0E0,0E0,0E0,0E0,0E0,0E0,0E0,0E0,0E0],"parents":[2147483647,0,0,1,1,2,2,3,3,4,4,5,5,6,6,7,7,8,8,12,12,13,13,14,14,15,15,19,19,20,20,21,21,22,22,23,23,24,24,25,25,26,26,27,27,30,30,31,31,32,32,33,33,34,34,36,36,37,37,38,38],"right_children":[2,4,6,8,10,12,14,16,18,-1,-1,-1,20,22,24,26,-1,-1,-1,28,30,32,34,36,38,40,42,44,-1,-1,46,48,50,52,54,-1,56,58,60,-1,-1,-1,-1,-1,-1,-1,-1,-1,-1,-1,-1,-1,-1,-1,-1,-1,-1,-1,-1,-1,-1],"split_conditions":[1.2097415E1,3.7694046E-1,-2.1725076E-5,1.222832E8,5.75754E1,1.2741835E1,1.6047377E1,7.79684E1,5.6443565E-16,-4.2584655E-3,2.4679188E-1,-4.017536E-2,-1.553021E8,1.3028456E1,3.89412E8,1.2488274E1,1.4060834E-1,2.5470465E-1,-0E0,-1.5231967E-2,1.2955182E1,4.886586E-2,1.973999E8,1.4116182E1,1.7296833E1,5.34395E7,1.3750743E1,2.9712399E1,2.2927979E-1,2.5620034E-1,1.4580862E1,1.1688726E1,1.2917586E1,1.4623872E1,2.3277701E-1,-1.388084E-1,1.6387524E1,7.26308E1,-9.546186E-2,-7.541271E-2,1.1588206E-1,-1.3446088E-1,3.7920017E-2,-1.363725E-1,1.2506379E-1,1.1084697E-1,2.4776891E-1,-1.0252974E-1,1.6190448E-1,-1.1726187E-1,2.1843933E-1,-2.3283465E-3,1.5340416E-1,-1.20528586E-1,3.9728455E-2,-6.31319E-2,2.4849351E-1,-9.096716E-2,2.4654937E-1,-1.2579153E-1,1.9216675E-1],"split_indices":[12,8,19,16,5,11,11,17,19,0,0,0,16,11,16,11,0,0,0,10,6,8,16,3,12,16,11,14,0,0,6,3,11,6,8,0,17,17,10,0,0,0,0,0,0,0,0,0,0,0,0,0,0,0,0,0,0,0,0,0,0],"split_type":[0,0,0,0,0,0,0,0,0,0,0,0,0,0,0,0,0,0,0,0,0,0,0,0,0,0,0,0,0,0,0,0,0,0,0,0,0,0,0,0,0,0,0,0,0,0,0,0,0,0,0,0,0,0,0,0,0,0,0,0,0],"sum_hessian":[6.411027E2,1.387018E2,5.024009E2,1.3453693E2,4.1648684E0,3.3442738E1,4.6895816E2,1.3090758E2,3.629354E0,1.3597019E0,2.8051662E0,1.8253067E0,3.1617432E1,4.0721176E2,6.1746414E1,1.2768166E2,3.225911E0,2.2964172E0,1.3329369E0,4.990325E0,2.6627106E1,6.0359375E1,3.468524E2,3.0894564E1,3.0851852E1,8.927681E1,3.8404858E1,3.575014E0,1.4153111E0,7.940073E0,1.8687035E1,4.29197E1,1.7439676E1,3.0302713E2,4.382524E1,3.5294397E0,2.7365124E1,2.0032671E1,1.08191805E1,8.4270065E1,5.0067444E0,3.627707E1,2.1277883E0,2.2270527E0,1.3479614E0,1.3029933E1,5.657101E0,4.874419E0,3.804528E1,1.3819687E1,3.6199887E0,2.9215518E2,1.0871967E1,3.3497272E1,1.03279705E1,2.3101194E0,2.5055004E1,1.865874E1,1.3739321E0,1.6647857E0,9.154394E0],"tree_param":{"num_deleted":"0","num_feature":"20","num_nodes":"61","size_leaf_vector":"1"}},{"base_weights":[1.3809393E-1,4.3515572E-1,9.809487E-2,-1.4117847E-1,5.175035E-1,-1.2143178E-1,1.1950251E-1,6.038412E-1,-1.0405066E-1,3.9895687E-1,8.025794E-2,4.7643688E-1,2.5178912E-1,5.030559E-1,-8.9939795E-2,-3.2470086E-1,1.565766E-1,7.3111236E-1,-2.2363514E-1,1.2717968E-1,7.4345636E-1,2.6460838E-1,-4.366998E-1,3.9000243E-1,5.276584E-2,4.3212973E-2,2.0766623E-1,-1.218644E-1,4.3468364E-2,-5.3499427E-2,1.1175257E-1,-1.07312195E-1,1.8940876E-1,1.7493393E-1,-9.948438E-2,-1.3825232E-1,8.739443E-2,5.8514725E-2,-1.0180653E-2],"categories":[],"categories_nodes":[],"categories_segments":[],"categories_sizes":[],"default_left":[0,0,0,0,0,0,0,0,0,0,0,0,0,0,0,0,0,0,0,0,0,0,0,0,0,0,0,0,0,0,0,0,0,0,0,0,0,0,0],"id":4,"left_children":[1,3,5,-1,7,-1,9,11,-1,13,15,17,-1,19,-1,21,23,25,27,29,31,-1,33,35,37,-1,-1,-1,-1,-1,-1,-1,-1,-1,-1,-1,-1,-1,-1],"loss_changes":[7.493891E0,7.1922216E0,8.588941E0,0E0,6.398016E0,0E0,5.9231176E0,5.533352E0,0E0,5.989565E0,1.4684059E1,9.821662E0,0E0,5.3414516E0,0E0,1.4233223E1,9.6761055E0,6.7653236E0,2.6592784E0,4.2057633E0,1.0678745E1,0E0,6.9045725E0,7.7977867E0,7.1784096E0,0E0,0E0,0E0,0E0,0E0,0E0,0E0,0E0,0E0,0E0,0E0,0E0,0E0,0E0],"parents":[2147483647,0,0,1,1,2,2,4,4,6,6,7,7,9,9,10,10,11,11,13,13,15,15,16,16,17,17,18,18,19,19,20,20,22,22,23,23,24,24],"right_children":[2,4,6,-1,8,-1,10,12,-1,14,16,18,-1,20,-1,22,24,26,28,30,32,-1,34,36,38,-1,-1,-1,-1,-1,-1,-1,-1,-1,-1,-1,-1,-1,-1],"split_conditions":[1.0706655E1,9.8689165E0,1.1547807E1,-1.4117847E-1,7.4077835E1,-1.2143178E-1,1.13557825E1,2.9600117E-1,-1.0405066E-1,4.361965E1,1.3028456E1,3.183208E-2,2.5178912E-1,1.11266575E1,-8.9939795E-2,1.1294533E1,1.260366E1,3.4104828E-2,1.1606972E1,1.2203783E1,1.2044247E1,2.6460838E-1,-2.4484296E-1,2.1328997E1,-6.348898E-2,4.3212973E-2,2.0766623E-1,-1.218644E-1,4.3468364E-2,-5.3499427E-2,1.1175257E-1,-1.07312195E-1,1.8940876E-1,1.7493393E-1,-9.948438E-2,-1.3825232E-1,8.739443E-2,5.8514725E-2,-1.0180653E-2],"split_indices":[13,7,6,0,17,0,13,9,0,14,11,9,0,13,0,14,13,10,11,3,7,0,8,17,8,0,0,0,0,0,0,0,0,0,0,0,0,0,0],"split_type":[0,0,0,0,0,0,0,0,0,0,0,0,0,0,0,0,0,0,0,0,0,0,0,0,0,0,0,0,0,0,0,0,0,0,0,0,0,0,0],"sum_hessian":[6.320103E2,7.477095E1,5.572393E2,4.8736267E0,6.989732E1,1.5949865E1,5.412895E2,6.466229E1,5.2350307E0,6.642709E1,4.748624E2,5.475489E1,9.907405E0,5.9325195E1,7.1019034E0,7.518372E1,3.9967865E2,4.0167015E1,1.4587875E1,2.3261227E1,3.606397E1,4.589884E0,7.059384E1,1.2284832E2,2.7683035E2,1.5963224E1,2.420379E1,7.6847506E0,6.9031253E0,1.2237449E1,1.1023777E1,5.328253E0,3.0735714E1,3.55249E0,6.704135E1,6.0113864E0,1.1683694E2,8.253905E1,1.9429129E2],"tree_param":{"num_deleted":"0","num_feature":"20","num_nodes":"39","size_leaf_vector":"1"}},{"base_weights":[-1.606363E-1,3.050822E-2,-3.3509994E-1,5.3531206E-1,-5.059906E-2,-1.080254E-1,-4.8809233E-1,1.1214758E-1,8.0251527E-1,2.6401198E-1,-8.0001324E-2,2.0472556E-1,-1.5821122E-1,-5.48675E-1,-8.90934E-2,6.172482E-1,-1.3826141E-1,1.9460711E-1,2.1405938E-1,-3.8124153E-1,4.70151E-2,1.8699937E-2,-5.374081E-1,-3.9997438E-1,-6.4481497E-1,7.658907E-1,-3.1566975E-1,2.446994E-1,1.0722424E-1,2.4183467E-1,-1.3949727E-1,-4.4490868E-1,5.9446305E-1,2.8390896E-1,-2.2522818E-1,-2.4063073E-1,2.5011644E-1,-1.2202564E-1,2.2728826E-1,-4.802684E-1,2.7928975E-1,8.135085E-2,-1.2963365E-1,2.7338022E-1,2.4981298E-1,-4.4557384E-1,2.7798638E-1,2.4448639E-1,-9.5521465E-2,-3.5681825E-2,-1.24209486E-1,2.2073035E-1,-1.2676936E-1,1.08061045E-1,-3.346474E-2,1.7806916E-2,-1.1095307E-1,3.212984E-3,-1.0046862E-1,-1.9954154E-2,9.757866E-2,1.8288602E-1,-1.3221474E-1,-5.8677483E-2,-1.2670398E-1,-1.2714022E-1,2.682408E-1,1.2747055E-1,-1.04549006E-1],"categories":[],"categories_nodes":[],"categories_segments":[],"categories_sizes":[],"default_left":[0,0,0,0,0,0,0,0,0,0,0,0,0,0,0,0,0,0,0,0,0,0,0,0,0,0,0,0,0,0,0,0,0,0,0,0,0,0,0,0,0,0,0,0,0,0,0,0,0,0,0,0,0,0,0,0,0,0,0,0,0,0,0,0,0,0,0,0,0],"id":5,"left_children":[1,3,5,7,9,11,13,15,17,-1,19,-1,21,23,25,27,-1,29,-1,31,33,35,37,39,41,43,45,-1,47,-1,-1,49,51,53,55,57,59,-1,61,63,-1,-1,-1,-1,65,67,-1,-1,-1,-1,-1,-1,-1,-1,-1,-1,-1,-1,-1,-1,-1,-1,-1,-1,-1,-1,-1,-1,-1],"loss_changes":[2.049939E1,1.2022549E1,1.1142868E1,4.56388E0,1.0411E1,7.5238247E0,4.617687E0,6.6579146E0,4.3776226E0,0E0,9.488936E0,0E0,8.353483E0,2.3215637E0,4.966483E0,3.1772087E0,0E0,8.000159E0,0E0,4.602865E0,1.1254069E1,5.102695E0,2.6740818E0,9.751993E0,2.0679855E0,1.6702502E0,4.6517124E0,0E0,3.9891686E0,0E0,0E0,3.4296255E0,3.1419907E0,1.146625E1,8.821203E0,2.8309636E0,3.9679344E0,0E0,2.7493525E0,1.8665543E0,0E0,0E0,0E0,0E0,3.3292902E0,1.9187403E0,0E0,0E0,0E0,0E0,0E0,0E0,0E0,0E0,0E0,0E0,0E0,0E0,0E0,0E0,0E0,0E0,0E0,0E0,0E0,0E0,0E0,0E0,0E0],"parents":[2147483647,0,0,1,1,2,2,3,3,4,4,5,5,6,6,7,7,8,8,10,10,12,12,13,13,14,14,15,15,17,17,19,19,20,20,21,21,22,22,23,23,24,24,25,25,26,26,28,28,31,31,32,32,33,33,34,34,35,35,36,36,38,38,39,39,44,44,45,45],"right_children":[2,4,6,8,10,12,14,16,18,-1,20,-1,22,24,26,28,-1,30,-1,32,34,36,38,40,42,44,46,-1,48,-1,-1,50,52,54,56,58,60,-1,62,64,-1,-1,-1,-1,66,68,-1,-1,-1,-1,-1,-1,-1,-1,-1,-1,-1,-1,-1,-1,-1,-1,-1,-1,-1,-1,-1,-1,-1],"split_conditions":[3.2788077E-1,1.2044247E1,1.1691574E1,1.0740091E1,-2.6994726E-1,9.8689165E0,6.2542343E1,1.0408855E1,3.7801228E1,2.6401198E-1,-6.7111045E-2,2.0472556E-1,4.1655236E-1,1.4116447E1,1.8965614E-1,3.1463894E-1,-1.3826141E-1,1.1179158E1,2.1405938E-1,1.6265967E-5,2.8276968E-1,2.30535E7,5.20673E7,1.3382786E1,-1.984214E8,1.3457955E1,4.18808E7,2.446994E-1,1.0212609E1,2.4183467E-1,-1.3949727E-1,-1.5988542E-1,5.4290497E1,1.6050754E-1,1.39788885E1,1.2186571E1,3.6897218E-1,-1.2202564E-1,1.1299492E1,1.3052753E-2,2.7928975E-1,8.135085E-2,-1.2963365E-1,2.7338022E-1,1.476182E1,4.9830093E1,2.7798638E-1,2.4448639E-1,-9.5521465E-2,-3.5681825E-2,-1.24209486E-1,2.2073035E-1,-1.2676936E-1,1.08061045E-1,-3.346474E-2,1.7806916E-2,-1.1095307E-1,3.212984E-3,-1.0046862E-1,-1.9954154E-2,9.757866E-2,1.8288602E-1,-1.3221474E-1,-5.8677483E-2,-1.2670398E-1,-1.2714022E-1,2.682408E-1,1.2747055E-1,-1.04549006E-1],"split_indices":[15,7,13,13,9,7,5,6,5,0,9,0,15,11,8,15,0,1,0,19,15,4,4,6,16,2,4,0,7,0,0,8,17,9,6,6,15,0,6,9,0,0,0,0,2,17,0,0,0,0,0,0,0,0,0,0,0,0,0,0,0,0,0,0,0,0,0,0,0],"split_type":[0,0,0,0,0,0,0,0,0,0,0,0,0,0,0,0,0,0,0,0,0,0,0,0,0,0,0,0,0,0,0,0,0,0,0,0,0,0,0,0,0,0,0,0,0,0,0,0,0,0,0,0,0,0,0,0,0,0,0,0,0,0,0,0,0,0,0,0,0],"sum_hessian":[6.143347E2,2.9315018E2,3.2118454E2,4.0507107E1,2.5264308E2,1.2944357E2,1.9174098E2,1.5787011E1,2.4720097E1,5.042278E0,2.476008E2,5.249658E0,1.2419392E2,1.6637267E2,2.5368309E1,9.807411E0,5.9795995E0,8.148965E0,1.657113E1,7.340153E1,1.7419928E2,8.473839E1,3.9455524E1,6.5703354E1,1.0066932E2,5.223886E0,2.0144423E1,4.255456E0,5.551955E0,3.7802873E0,4.368678E0,6.899832E1,4.403203E0,9.318574E1,8.1013535E1,3.991294E1,4.482545E1,3.545838E1,3.9971428E0,6.305305E1,2.6503E0,1.6904037E0,9.897892E1,2.2168632E0,3.0070229E0,1.8853832E1,1.2905902E0,1.86059E0,3.6913652E0,2.9246351E1,3.9751972E1,3.0985575E0,1.3046453E0,5.8555527E1,3.463021E1,4.2153896E1,3.885964E1,2.0612352E1,1.9300587E1,1.858339E1,2.6242062E1,2.2507403E0,1.7464026E0,3.0748878E1,3.2304173E1,1.6915529E0,1.3154699E0,1.3386898E0,1.7515142E1],"tree_param":{"num_deleted":"0","num_feature":"20","num_nodes":"69","size_leaf_vector":"1"}},{"base_weights":[3.334425E-2,-2.7350003E-1,1.1280483E-1,2.0247112E-1,-2.9744366E-1,5.2372265E-1,6.4113736E-2,-3.2927167E-1,1.3364363E-1,3.9662468E-1,1.6490725E-1,1.215922E-1,-2.5312695E-1,-3.5697806E-1,1.2264201E-1,-1.4400777E-1,5.3749734E-1,8.285682E-2,7.19796E-1,-5.233015E-1,4.7216427E-2,-4.230274E-1,1.1264754E-1,-6.335938E-2,1.4354356E-1,4.592116E-1,5.513131E-2,2.1987244E-1,4.669136E-2,-5.9203917E-1,9.089244E-2,2.7069995E-1,-3.6866847E-2,-1.7487755E-2,-1.0058479E-1,1.1628798E-1,-1.0989049E-1,1.712642E-1,-1.1084023E-1,2.5456961E-2,2.253645E-1,-2.17063E-2,2.3421017E-2,-1.3534628E-1,9.050341E-2,4.0847175E-2,-1.2684312E-1,-1.3416304E-1,2.558142E-1,-9.809029E-2,5.664171E-2],"categories":[],"categories_nodes":[],"categories_segments":[],"categories_sizes":[],"default_left":[0,0,0,0,0,0,0,0,0,0,0,0,0,0,0,0,0,0,0,0,0,0,0,0,0,0,0,0,0,0,0,0,0,0,0,0,0,0,0,0,0,0,0,0,0,0,0,0,0,0,0],"id":6,"left_children":[1,3,5,-1,7,9,11,13,-1,15,-1,17,19,21,-1,-1,23,25,27,29,31,33,35,37,-1,39,41,-1,43,45,47,-1,49,-1,-1,-1,-1,-1,-1,-1,-1,-1,-1,-1,-1,-1,-1,-1,-1,-1,-1],"loss_changes":[1.5109171E1,4.0258303E0,9.833511E0,0E0,3.938901E0,2.0486345E0,8.031916E0,3.2473364E0,0E0,6.06139E0,0E0,8.617262E0,5.494337E0,3.6785564E0,0E0,0E0,4.002634E0,3.642791E0,6.1515455E0,1.5215645E0,3.6470237E0,3.159872E0,4.8212676E0,4.0479383E0,0E0,5.4288616E0,3.5208418E0,0E0,2.716563E0,1.5036163E0,3.625481E0,0E0,4.6349983E0,0E0,0E0,0E0,0E0,0E0,0E0,0E0,0E0,0E0,0E0,0E0,0E0,0E0,0E0,0E0,0E0,0E0,0E0],"parents":[2147483647,0,0,1,1,2,2,4,4,5,5,6,6,7,7,9,9,11,11,12,12,13,13,16,16,17,17,18,18,19,19,20,20,21,21,22,22,23,23,25,25,26,26,28,28,29,29,30,30,32,32],"right_children":[2,4,6,-1,8,10,12,14,-1,16,-1,18,20,22,-1,-1,24,26,28,30,32,34,36,38,-1,40,42,-1,44,46,48,-1,50,-1,-1,-1,-1,-1,-1,-1,-1,-1,-1,-1,-1,-1,-1,-1,-1,-1,-1],"split_conditions":[1.2097415E1,-4.756182E-5,-1.5583228E-5,2.0247112E-1,7.79684E1,1.3413071E1,6.5174805E1,3.7282202E-1,1.3364363E-1,-1.147384E-1,1.6490725E-1,2.9248872E-1,2.350309E-1,5.75956E7,1.2264201E-1,-1.4400777E-1,1.79365E7,-3.3370432E-1,-1.1006606E-2,9.390486E-2,1.1078431E1,-4.810463E8,1.1707215E-15,1.29318E7,1.4354356E-1,-4.2270783E-1,-1.146083E8,2.1987244E-1,3.4675223E-1,-1.0255608E-2,1.27820015E1,2.7069995E-1,1.315209E1,-1.7487755E-2,-1.0058479E-1,1.1628798E-1,-1.0989049E-1,1.712642E-1,-1.1084023E-1,2.5456961E-2,2.253645E-1,-2.17063E-2,2.3421017E-2,-1.3534628E-1,9.050341E-2,4.0847175E-2,-1.2684312E-1,-1.3416304E-1,2.558142E-1,-9.809029E-2,5.664171E-2],"split_indices":[12,19,19,0,17,13,5,8,0,10,0,9,8,16,0,0,4,8,10,10,13,16,19,4,0,9,16,0,9,10,6,0,7,0,0,0,0,0,0,0,0,0,0,0,0,0,0,0,0,0,0],"split_type":[0,0,0,0,0,0,0,0,0,0,0,0,0,0,0,0,0,0,0,0,0,0,0,0,0,0,0,0,0,0,0,0,0,0,0,0,0,0,0,0,0,0,0,0,0,0,0,0,0,0,0],"sum_hessian":[6.1950446E2,1.273017E2,4.9220276E2,2.161001E0,1.2514069E2,5.195091E1,4.4025186E2,1.21323326E2,3.8173707E0,3.7477715E1,1.4473192E1,3.7285245E2,6.739941E1,1.1801857E2,3.3047562E0,4.0582743E0,3.341944E1,3.5036276E2,2.2489683E1,3.5463787E1,3.1935621E1,1.0351901E2,1.4499552E1,8.262821E0,2.515662E1,2.3835304E1,3.2652747E2,1.3949452E1,8.54023E0,3.1930252E1,3.5335352E0,1.7724426E0,3.016318E1,2.2487885E1,8.103113E1,8.483412E0,6.0161395E0,2.8326216E0,5.4301996E0,1.6312025E1,7.523279E0,9.143382E1,2.3509364E2,3.0250387E0,5.5151916E0,2.0847073E0,2.9845545E1,2.1841347E0,1.3494008E0,1.2440891E1,1.7722288E1],"tree_param":{"num_deleted":"0","num_feature":"20","num_nodes":"51","size_leaf_vector":"1"}},{"base_weights":[1.0516665E-1,-2.5558248E-2,2.57351E-1,4.314562E-3,-1.1624548E-1,1.8707325E-1,5.29544E-1,-1.8079494E-1,9.808084E-2,8.412392E-1,1.4658536E-1,-1.3115326E-1,6.363729E-1,1.0813834E-2,-1.3541067E-1,5.1228106E-1,4.9738055E-3,1.8573171E-1,-1.6464274E-2,3.051594E-1,3.4060376E-3,8.932685E-1,3.5533887E-1,-2.5191772E-1,4.873545E-1,7.290761E-2,9.404789E-1,3.6095756E-1,-9.204734E-2,-2.4216338E-1,4.1352448E-1,-2.3154849E-1,3.531299E-1,1.9789937E-1,2.5276652E-1,7.6348495E-1,-1.2960593E-1,-7.786958E-2,8.625628E-2,1.5836188E-1,-6.695552E-2,-7.793931E-2,2.1368656E-1,3.9604167E-3,2.0727848E-1,1.7905244E-1,2.1747481E-2,-6.814514E-2,1.853148E-2,-1.1263928E-1,1.2431213E-1,3.935925E-2,1.7023954E-1,-5.7200443E-2,1.8743402E-1,8.357821E-2,-1.4957345E-1,-3.400446E-2,2.2630657E-1,1.7805004E-1,-1.2768084E-1,-8.816858E-2,1.7591213E-1],"categories":[],"categories_nodes":[],"categories_segments":[],"categories_sizes":[],"default_left":[0,0,0,0,0,0,0,0,0,0,0,0,0,0,0,0,0,0,0,0,0,0,0,0,0,0,0,0,0,0,0,0,0,0,0,0,0,0,0,0,0,0,0,0,0,0,0,0,0,0,0,0,0,0,0,0,0,0,0,0,0,0,0],"id":7,"left_children":[1,3,5,7,-1,9,11,13,15,17,19,-1,21,23,-1,25,27,-1,-1,29,31,33,35,37,39,41,43,45,47,49,51,53,55,-1,57,59,61,-1,-1,-1,-1,-1,-1,-1,-1,-1,-1,-1,-1,-1,-1,-1,-1,-1,-1,-1,-1,-1,-1,-1,-1,-1,-1],"loss_changes":[1.2710653E1,5.8594317E0,5.6170464E0,5.668946E0,0E0,6.182474E0,7.8137646E0,1.0795635E1,8.35458E0,1.4138718E0,5.0199604E0,0E0,3.9413185E0,1.0040017E1,0E0,7.4509745E0,6.134192E0,0E0,0E0,6.2442102E0,9.591872E0,2.157959E0,5.3362155E0,5.280883E0,7.705858E0,9.62309E0,2.2085056E0,5.242234E0,6.7031126E0,5.167495E0,8.470901E0,5.121847E0,3.9670124E0,0E0,1.8972764E0,3.1568937E0,4.144408E0,0E0,0E0,0E0,0E0,0E0,0E0,0E0,0E0,0E0,0E0,0E0,0E0,0E0,0E0,0E0,0E0,0E0,0E0,0E0,0E0,0E0,0E0,0E0,0E0,0E0,0E0],"parents":[2147483647,0,0,1,1,2,2,3,3,5,5,6,6,7,7,8,8,9,9,10,10,12,12,13,13,15,15,16,16,19,19,20,20,21,21,22,22,23,23,24,24,25,25,26,26,27,27,28,28,29,29,30,30,31,31,32,32,34,34,35,35,36,36],"right_children":[2,4,6,8,-1,10,12,14,16,18,20,-1,22,24,-1,26,28,-1,-1,30,32,34,36,38,40,42,44,46,48,50,52,54,56,-1,58,60,62,-1,-1,-1,-1,-1,-1,-1,-1,-1,-1,-1,-1,-1,-1,-1,-1,-1,-1,-1,-1,-1,-1,-1,-1,-1,-1],"split_conditions":[3.3825895E-1,1.5812878E1,4.1655236E-1,1.2237701E1,-1.1624548E-1,1.3417603E1,9.8689165E0,1.2464195E1,1.2569039E1,2.90946E7,-4.6430007E-2,-1.3115326E-1,3.11826E7,2.9538437E1,-1.3541067E-1,1.8470682E1,-7.173778E-2,1.8573171E-1,-1.6464274E-2,-3.3370432E-1,6.4828186E1,3.7282202E-1,1.16103325E1,6.660078E-2,4.280947E1,1.3030191E1,1.2533624E1,1.7610733E1,5.1167416E1,5.1308445E1,2.3001087E1,1.7439316E1,8.214286E1,1.9789937E-1,1.3154547E1,5.1308445E1,1.9661507E1,-7.786958E-2,8.625628E-2,1.5836188E-1,-6.695552E-2,-7.793931E-2,2.1368656E-1,3.9604167E-3,2.0727848E-1,1.7905244E-1,2.1747481E-2,-6.814514E-2,1.853148E-2,-1.1263928E-1,1.2431213E-1,3.935925E-2,1.7023954E-1,-5.7200443E-2,1.8743402E-1,8.357821E-2,-1.4957345E-1,-3.400446E-2,2.2630657E-1,1.7805004E-1,-1.2768084E-1,-8.816858E-2,1.7591213E-1],"split_indices":[15,13,15,13,0,14,7,7,13,4,8,0,4,14,0,14,8,0,0,8,17,8,1,10,14,12,7,14,17,14,14,0,17,0,0,14,18,0,0,0,0,0,0,0,0,0,0,0,0,0,0,0,0,0,0,0,0,0,0,0,0,0,0],"split_type":[0,0,0,0,0,0,0,0,0,0,0,0,0,0,0,0,0,0,0,0,0,0,0,0,0,0,0,0,0,0,0,0,0,0,0,0,0,0,0,0,0,0,0,0,0,0,0,0,0,0,0,0,0,0,0,0,0,0,0,0,0,0,0],"sum_hessian":[6.3847156E2,3.4343863E2,2.9503296E2,3.2642316E2,1.7015463E1,2.3474254E2,6.029042E1,1.09632126E2,2.1679103E2,1.3487619E1,2.2125491E2,4.8469663E0,5.544345E1,7.986914E1,2.9762987E1,3.9628662E1,1.7716237E2,1.2075444E1,1.4121753E0,1.04836464E2,1.1641846E2,2.8764435E1,2.6679018E1,5.1498444E1,2.8370697E1,1.96657E1,1.9962961E1,3.790785E1,1.3925452E2,1.7264673E1,8.757179E1,6.962749E1,4.679097E1,2.4128635E1,4.635798E0,1.4466305E1,1.2212713E1,4.2578693E1,8.919751E0,2.0436874E1,7.9338217E0,1.3494424E1,6.1712766E0,2.3561697E0,1.760679E1,1.160427E1,2.6303581E1,5.8652378E1,8.060214E1,1.2556694E1,4.707979E0,6.0038063E1,2.7533726E1,6.633765E1,3.28984E0,4.3959396E1,2.831572E0,3.2128925E0,1.4229053E0,1.31567955E1,1.3095095E0,9.382474E0,2.8302395E0],"tree_param":{"num_deleted":"0","num_feature":"20","num_nodes":"63","size_leaf_vector":"1"}},{"base_weights":[-1.5567629E-1,4.431904E-3,-3.10556E-1,4.6182424E-1,-6.719887E-2,-2.9834634E-2,-4.2196208E-1,1.3471492E-1,7.5015074E-1,1.9697633E-1,-9.0524584E-2,-3.4263718E-1,1.8910146E-1,-4.9705604E-1,-1.2483227E-1,4.5103803E-1,-1.3380454E-1,2.0818397E-1,1.9528225E-1,-3.494118E-1,2.3389155E-2,-5.378451E-1,2.5423282E-1,5.996228E-1,-4.968384E-1,6.048252E-1,-5.166E-1,5.8741516E-1,-3.2410896E-1,1.6154484E-1,-1.8924348E-1,2.103302E-1,-1.3319069E-1,-4.4450298E-1,9.558942E-2,2.3169419E-1,-2.6520035E-1,-1.3032754E-1,1.9138771E-1,6.940066E-1,-2.3682813E-1,8.9288473E-1,-9.925459E-2,-1.23368956E-1,5.690456E-2,-1.2412256E-1,3.013102E-1,7.0042476E-2,-5.259402E-1,-1.2192203E-1,8.400415E-1,2.9429036E-1,-4.7922486E-1,2.0851533E-1,-1.4192358E-1,-3.689157E-2,-1.3165195E-1,1.8544514E-1,-1.3519421E-1,6.685872E-2,-8.494451E-2,3.0089492E-2,-8.826012E-2,2.185692E-1,-1.3045052E-1,1.6374525E-2,2.4173373E-1,1.0124092E-1,-1.2538776E-1,2.0144562E-1,-6.2157597E-2,-8.871995E-2,2.5356552E-1,-1.3506033E-1,-9.289883E-2,2.2665972E-1,5.0228618E-2,-5.4473236E-2,3.0370864E-1,1.4326392E-1,-1.0594815E-1],"categories":[],"categories_nodes":[],"categories_segments":[],"categories_sizes":[],"default_left":[0,0,0,0,0,0,0,0,0,0,0,0,0,0,0,0,0,0,0,0,0,0,0,0,0,0,0,0,0,0,0,0,0,0,0,0,0,0,0,0,0,0,0,0,0,0,0,0,0,0,0,0,0,0,0,0,0,0,0,0,0,0,0,0,0,0,0,0,0,0,0,0,0,0,0,0,0,0,0,0,0],"id":8,"left_children":[1,3,5,7,9,11,13,15,17,-1,19,21,23,25,27,29,-1,31,-1,33,35,37,39,41,43,45,47,49,51,-1,53,-1,-1,55,57,59,61,-1,63,65,67,69,71,-1,-1,-1,-1,-1,73,-1,75,77,79,-1,-1,-1,-1,-1,-1,-1,-1,-1,-1,-1,-1,-1,-1,-1,-1,-1,-1,-1,-1,-1,-1,-1,-1,-1,-1,-1,-1],"loss_changes":[1.4919005E1,9.702991E0,9.550327E0,3.7492218E0,6.4117994E0,5.975394E0,4.860199E0,4.965053E0,2.820405E0,0E0,7.396142E0,4.2130613E0,1.4482192E1,3.8017006E0,6.3220077E0,3.3616714E0,0E0,5.4549265E0,0E0,3.2555237E0,1.0470687E1,2.5914707E0,1.9609257E0,6.620677E0,2.0793414E0,3.7514062E0,1.4332542E0,3.057872E0,3.3622305E0,0E0,3.6185195E0,0E0,0E0,3.671445E0,9.224686E0,7.482097E0,5.729025E0,0E0,3.4468496E0,1.5388725E0,1.3656359E0,3.868309E0,4.8341436E0,0E0,0E0,0E0,0E0,0E0,1.3431168E0,0E0,1.445507E0,5.1754713E0,2.1921577E0,0E0,0E0,0E0,0E0,0E0,0E0,0E0,0E0,0E0,0E0,0E0,0E0,0E0,0E0,0E0,0E0,0E0,0E0,0E0,0E0,0E0,0E0,0E0,0E0,0E0,0E0,0E0,0E0],"parents":[2147483647,0,0,1,1,2,2,3,3,4,4,5,5,6,6,7,7,8,8,10,10,11,11,12,12,13,13,14,14,15,15,17,17,19,19,20,20,21,21,22,22,23,23,24,24,25,25,26,26,27,27,28,28,30,30,33,33,34,34,35,35,36,36,38,38,39,39,40,40,41,41,42,42,48,48,50,50,51,51,52,52],"right_children":[2,4,6,8,10,12,14,16,18,-1,20,22,24,26,28,30,-1,32,-1,34,36,38,40,42,44,46,48,50,52,-1,54,-1,-1,56,58,60,62,-1,64,66,68,70,72,-1,-1,-1,-1,-1,74,-1,76,78,80,-1,-1,-1,-1,-1,-1,-1,-1,-1,-1,-1,-1,-1,-1,-1,-1,-1,-1,-1,-1,-1,-1,-1,-1,-1,-1,-1,-1],"split_conditions":[3.2788077E-1,1.2044247E1,1.2141641E1,1.0769994E1,-2.6994726E-1,4.921636E1,6.0474834E1,1.1418349E1,3.7801228E1,1.9697633E-1,-6.98067E-2,1.2777582E1,2.350309E-1,1.2055997E1,1.8965614E-1,3.177572E-1,-1.3380454E-1,1.1547807E1,1.9528225E-1,1.4136714E1,2.8627497E-1,-6.7157865E-2,4.1655236E-1,1.1956171E1,1.0990743E1,1.2130597E1,1.1105714E1,-1.2593476E-2,3.4480456E-1,1.6154484E-1,1.0212609E1,2.103302E-1,-1.3319069E-1,1.2443053E1,1.4745371E1,2.1787779E-1,1.3044593E1,-1.3032754E-1,1.0073786E1,1.2178844E1,9.454464E0,6.595486E1,1.2195505E1,-1.23368956E-1,5.690456E-2,-1.2412256E-1,3.013102E-1,7.0042476E-2,-2.1449687E-1,-1.2192203E-1,1.3457955E1,7.2219604E1,1.1767397E1,2.0851533E-1,-1.4192358E-1,-3.689157E-2,-1.3165195E-1,1.8544514E-1,-1.3519421E-1,6.685872E-2,-8.494451E-2,3.0089492E-2,-8.826012E-2,2.185692E-1,-1.3045052E-1,1.6374525E-2,2.4173373E-1,1.0124092E-1,-1.2538776E-1,2.0144562E-1,-6.2157597E-2,-8.871995E-2,2.5356552E-1,-1.3506033E-1,-9.289883E-2,2.2665972E-1,5.0228618E-2,-5.4473236E-2,3.0370864E-1,1.4326392E-1,-1.0594815E-1],"split_indices":[15,7,6,13,9,5,5,6,5,0,9,11,8,7,8,15,0,6,0,7,15,8,15,2,13,2,2,9,15,0,7,0,0,3,3,8,12,0,0,7,1,17,7,0,0,0,0,0,8,0,2,5,7,0,0,0,0,0,0,0,0,0,0,0,0,0,0,0,0,0,0,0,0,0,0,0,0,0,0,0,0],"split_type":[0,0,0,0,0,0,0,0,0,0,0,0,0,0,0,0,0,0,0,0,0,0,0,0,0,0,0,0,0,0,0,0,0,0,0,0,0,0,0,0,0,0,0,0,0,0,0,0,0,0,0,0,0,0,0,0,0,0,0,0,0,0,0,0,0,0,0,0,0,0,0,0,0,0,0,0,0,0,0,0,0],"sum_hessian":[6.0121936E2,2.956197E2,3.055997E2,3.9963284E1,2.5565642E2,8.692863E1,2.1867107E2,1.8854748E1,2.1108536E1,5.279296E0,2.5037712E2,3.5798893E1,5.112973E1,1.7442178E2,4.4249287E1,1.3670013E1,5.1847343E0,6.7669063E0,1.4341629E1,7.647345E1,1.7390367E2,2.7013823E1,8.78507E0,3.2017147E1,1.9112585E1,2.9466689E0,1.7147511E2,9.589861E0,3.4659424E1,8.606767E0,5.0632467E0,3.42174E0,3.3451662E0,6.3048916E1,1.3424535E1,1.0106015E2,7.284351E1,2.297694E1,4.0368834E0,4.626604E0,4.1584663E0,2.2547163E1,9.469983E0,1.6368256E1,2.7443285E0,1.2786366E0,1.6680323E0,1.7304131E0,1.697447E2,1.6038783E0,7.9859824E0,6.8972E0,2.7762224E1,1.4626764E0,3.6005702E0,2.9997675E1,3.3051243E1,6.441035E0,6.9834995E0,8.6763E1,1.42971525E1,2.2415342E1,5.0428173E1,1.9325346E0,2.1043484E0,2.2756917E0,2.350912E0,1.4197439E0,2.7387223E0,2.0267792E1,2.2793722E0,7.640287E0,1.8296962E0,3.902926E1,1.3071545E2,5.0385118E0,2.9474707E0,4.8057365E0,2.0914636E0,1.2844846E0,2.647774E1],"tree_param":{"num_deleted":"0","num_feature":"20","num_nodes":"81","size_leaf_vector":"1"}},{"base_weights":[3.1466585E-2,-2.839977E-1,7.917253E-2,-4.3578714E-1,1.6737754E-2,-1.07561216E-1,1.07238874E-1,-5.4563093E-1,-4.1794106E-2,-2.2615398E-1,6.908244E-1,1.21209905E-1,7.838787E-2,-1.1461216E-1,7.0316084E-2,-1.24270305E-1,3.175517E-1,5.6812335E-2,-1.2822099E-1,1.8739401E-1,-1.1675932E-1,1.1103621E-1,-2.3301329E-1,-1.1927829E-1,1.7567958E-1,-1.2373092E-1,3.702594E-1,7.6040715E-2,4.3728068E-1,-9.671725E-2,9.4065055E-2,-1.19229354E-1,1.2908123E-1,9.251128E-2,7.7770087E-3,1.5694888E-1,3.1885866E-2,2.4312852E-1,-5.497449E-3],"categories":[],"categories_nodes":[],"categories_segments":[],"categories_sizes":[],"default_left":[0,0,0,0,0,0,0,0,0,0,0,0,0,0,0,0,0,0,0,0,0,0,0,0,0,0,0,0,0,0,0,0,0,0,0,0,0,0,0],"id":9,"left_children":[1,3,5,7,9,-1,11,13,15,17,19,-1,21,-1,-1,-1,23,25,-1,-1,-1,27,29,-1,-1,-1,31,33,35,-1,37,-1,-1,-1,-1,-1,-1,-1,-1],"loss_changes":[9.241589E0,3.6914387E0,9.433143E0,2.3059902E0,4.4758735E0,0E0,7.5470977E0,1.5976248E0,2.575933E0,2.4578462E0,2.5979993E0,0E0,4.922254E0,0E0,0E0,0E0,4.126931E0,2.6648426E0,0E0,0E0,0E0,4.9881077E0,3.952751E0,0E0,0E0,0E0,2.4790692E0,5.69046E0,4.213518E0,0E0,2.9158702E0,0E0,0E0,0E0,0E0,0E0,0E0,0E0,0E0],"parents":[2147483647,0,0,1,1,2,2,3,3,4,4,6,6,7,7,8,8,9,9,10,10,12,12,16,16,17,17,21,21,22,22,26,26,27,27,28,28,30,30],"right_children":[2,4,6,8,10,-1,12,14,16,18,20,-1,22,-1,-1,-1,24,26,-1,-1,-1,28,30,-1,-1,-1,32,34,36,-1,38,-1,-1,-1,-1,-1,-1,-1,-1],"split_conditions":[1.1935471E1,3.02275E7,2.1981452E-1,9.390486E-2,6.429182E1,-1.07561216E-1,-2.7544937E-5,1.259289E1,-3.845918E8,7.2489757E-16,1.2125634E1,1.21209905E-1,1.7122247E-5,-1.1461216E-1,7.0316084E-2,-1.24270305E-1,-4.1592342E-1,3.54914E7,-1.2822099E-1,1.8739401E-1,-1.1675932E-1,2.5785133E-1,1.3369184E1,-1.1927829E-1,1.7567958E-1,-1.2373092E-1,1.0065946E1,3.107356E1,-3.2274474E-3,-9.671725E-2,1.358081E1,-1.19229354E-1,1.2908123E-1,9.251128E-2,7.7770087E-3,1.5694888E-1,3.1885866E-2,2.4312852E-1,-5.497449E-3],"split_indices":[7,4,15,10,17,0,19,2,16,19,0,0,19,0,0,0,8,4,0,0,0,9,7,0,0,0,1,5,10,0,6,0,0,0,0,0,0,0,0],"split_type":[0,0,0,0,0,0,0,0,0,0,0,0,0,0,0,0,0,0,0,0,0,0,0,0,0,0,0,0,0,0,0,0,0,0,0,0,0,0,0],"sum_hessian":[6.1401587E2,8.050574E1,5.3351013E2,5.350681E1,2.699893E1,2.2612707E1,5.1089743E2,4.175638E1,1.1750429E1,1.9893356E1,7.1055737E0,2.6990595E1,4.8390683E2,4.001042E1,1.7459569E0,4.408147E0,7.3422823E0,1.2046033E1,7.8473244E0,5.9235554E0,1.1820183E0,4.3813162E2,4.5775196E1,2.8123798E0,4.5299025E0,3.6950824E0,8.35095E0,3.959044E2,4.2227234E1,2.540412E1,2.0371077E1,1.8565578E0,6.4943924E0,3.2862484E1,3.630419E2,1.792022E1,2.4307014E1,1.8474193E0,1.8523657E1],"tree_param":{"num_deleted":"0","num_feature":"20","num_nodes":"39","size_leaf_vector":"1"}},{"base_weights":[1.0292336E-1,-3.4217842E-2,2.2634858E-1,-1.1236081E-1,1.3915214E-1,2.4952003E-1,-1.0379239E-1,-4.6106714E-1,-1.41705945E-2,2.5758496E-1,-2.3369424E-1,2.0056507E-1,5.1276773E-1,3.515398E-2,-5.980424E-1,6.906897E-2,-3.7611645E-1,-2.9341552E-1,3.6799127E-1,-1.3853696E-1,2.2112562E-1,2.64922E-1,-2.0089006E-1,1.9682287E-1,3.7099946E-1,4.467265E-1,-1.3136587E-1,-1.369729E-1,-2.2554497E-1,-5.602825E-2,6.685764E-1,-1.384042E-1,3.0733907E-1,1.05638936E-1,-1.3244312E-1,6.0227334E-1,2.3241142E-2,6.835266E-1,-3.7810993E-1,-2.9873928E-1,3.0433148E-1,-1.4388198E-1,3.918941E-2,1.0609604E-1,6.882515E-1,-1.2873729E-1,1.947857E-1,1.2975943E-1,-1.01483725E-1,-4.9620666E-2,3.8414486E-2,1.9471231E-1,-1.3854364E-1,2.485015E-1,-3.3883873E-2,-1.2986039E-1,1.0747687E-1,-3.371922E-2,1.5257105E-1,1.3493451E-1,-7.760096E-2,-1.42912E-1,2.100057E-1,-1.4472169E-1,1.06537245E-1,5.5748656E-2,-9.189532E-2,7.4989684E-2,1.16981575E-2,-8.681098E-2,6.310803E-2,5.5134024E-2,-1.359536E-1,2.0379478E-1,8.555726E-2],"categories":[],"categories_nodes":[],"categories_segments":[],"categories_sizes":[],"default_left":[0,0,0,0,0,0,0,0,0,0,0,0,0,0,0,0,0,0,0,0,0,0,0,0,0,0,0,0,0,0,0,0,0,0,0,0,0,0,0,0,0,0,0,0,0,0,0,0,0,0,0,0,0,0,0,0,0,0,0,0,0,0,0,0,0,0,0,0,0,0,0,0,0,0,0],"id":10,"left_children":[1,3,5,7,9,11,-1,13,15,17,19,21,23,25,27,29,31,33,35,-1,37,39,41,-1,43,45,-1,-1,47,49,51,-1,53,55,-1,57,59,61,63,65,67,-1,69,71,73,-1,-1,-1,-1,-1,-1,-1,-1,-1,-1,-1,-1,-1,-1,-1,-1,-1,-1,-1,-1,-1,-1,-1,-1,-1,-1,-1,-1,-1,-1],"loss_changes":[1.0866248E1,4.119847E0,5.94433E0,7.1689043E0,4.1784716E0,4.196085E0,0E0,3.1431274E0,4.945829E0,4.3830147E0,4.963334E0,7.160388E0,3.5143604E0,2.966961E0,1.3466082E0,1.001251E1,7.0164742E0,1.8687366E0,4.821521E0,0E0,3.2952404E0,5.314577E0,4.9427056E0,0E0,3.3430762E0,4.035413E0,0E0,0E0,2.1632032E0,5.531004E0,1.0533961E1,0E0,4.75314E0,2.1047156E0,0E0,4.9690523E0,6.9003386E0,3.830574E0,1.7985837E0,1.5915781E0,4.3304787E0,0E0,3.6623914E0,3.136912E0,1.5196075E0,0E0,0E0,0E0,0E0,0E0,0E0,0E0,0E0,0E0,0E0,0E0,0E0,0E0,0E0,0E0,0E0,0E0,0E0,0E0,0E0,0E0,0E0,0E0,0E0,0E0,0E0,0E0,0E0,0E0,0E0],"parents":[2147483647,0,0,1,1,2,2,3,3,4,4,5,5,7,7,8,8,9,9,10,10,11,11,12,12,13,13,14,14,15,15,16,16,17,17,18,18,20,20,21,21,22,22,24,24,25,25,28,28,29,29,30,30,32,32,33,33,35,35,36,36,37,37,38,38,39,39,40,40,42,42,43,43,44,44],"right_children":[2,4,6,8,10,12,-1,14,16,18,20,22,24,26,28,30,32,34,36,-1,38,40,42,-1,44,46,-1,-1,48,50,52,-1,54,56,-1,58,60,62,64,66,68,-1,70,72,74,-1,-1,-1,-1,-1,-1,-1,-1,-1,-1,-1,-1,-1,-1,-1,-1,-1,-1,-1,-1,-1,-1,-1,-1,-1,-1,-1,-1,-1,-1],"split_conditions":[3.3021525E-1,3.359533E-2,3.7358472E-1,1.7275568E1,1.7718577E-1,2.7782857E-1,-1.0379239E-1,4.072573E1,1.5079442E1,4.570519E1,2.8098808E1,1.5429406E-1,2.4681791E1,-2.43172E7,3.1854543E-1,1.3535934E1,-6.895831E-3,5.7076823E-2,2.9238304E-1,-1.3853696E-1,7.518079E1,-2.7544937E-5,2.0070982E1,1.9682287E-1,1.41166725E1,1.2818689E1,-1.3136587E-1,-1.369729E-1,4.452565E1,2.6243462E1,4.280947E1,-1.384042E-1,8.52156E-3,2.4443267E-1,-1.3244312E-1,-4.304332E8,-1.188456E8,2.1028766E-1,1.4628056E-15,1.1447412E1,6.26446E7,-1.4388198E-1,-2.0278012E-2,6.956269E-2,1.3205972E1,-1.2873729E-1,1.947857E-1,1.2975943E-1,-1.01483725E-1,-4.9620666E-2,3.8414486E-2,1.9471231E-1,-1.3854364E-1,2.485015E-1,-3.3883873E-2,-1.2986039E-1,1.0747687E-1,-3.371922E-2,1.5257105E-1,1.3493451E-1,-7.760096E-2,-1.42912E-1,2.100057E-1,-1.4472169E-1,1.06537245E-1,5.5748656E-2,-9.189532E-2,7.4989684E-2,1.16981575E-2,-8.681098E-2,6.310803E-2,5.5134024E-2,-1.359536E-1,2.0379478E-1,8.555726E-2],"split_indices":[15,10,9,14,8,8,0,5,1,17,14,8,14,16,15,13,10,10,15,0,17,19,14,0,1,6,0,0,17,14,14,0,10,15,0,16,16,8,19,6,16,0,10,10,7,0,0,0,0,0,0,0,0,0,0,0,0,0,0,0,0,0,0,0,0,0,0,0,0,0,0,0,0,0,0],"split_type":[0,0,0,0,0,0,0,0,0,0,0,0,0,0,0,0,0,0,0,0,0,0,0,0,0,0,0,0,0,0,0,0,0,0,0,0,0,0,0,0,0,0,0,0,0,0,0,0,0,0,0,0,0,0,0,0,0,0,0,0,0,0,0,0,0,0,0,0,0,0,0,0,0,0,0],"sum_hessian":[6.4151013E2,3.0383728E2,3.3767285E2,2.0955704E2,9.428023E1,3.277734E2,9.899448E0,4.5879913E1,1.6367712E2,7.16289E1,2.2651327E1,2.766562E2,5.111723E1,9.913938E0,3.5965977E1,1.3311852E2,3.055862E1,1.1885161E1,5.974374E1,1.1056687E1,1.1594641E1,2.3852068E2,3.8135494E1,1.115459E1,3.996264E1,6.3208013E0,3.5931358E0,2.8016687E1,7.9492908E0,1.1021355E2,2.2904959E1,2.057467E1,9.983949E0,5.856932E0,6.028229E0,3.5470795E1,2.4272943E1,6.5534234E0,5.041217E0,1.549038E1,2.230303E2,1.1737156E1,2.6398336E1,2.1918003E1,1.8044636E1,2.0787382E0,4.2420635E0,1.9118612E0,6.0374293E0,6.1838955E1,4.8374596E1,1.8541365E1,4.363593E0,3.2574122E0,6.7265363E0,2.0997972E0,3.7571347E0,6.631291E0,2.8839504E1,9.365368E0,1.4907577E1,1.3821048E0,5.171319E0,3.6560133E0,1.3852035E0,3.4701302E0,1.202025E1,1.681066E2,5.492371E1,9.706993E0,1.6691343E1,1.8068134E1,3.8498697E0,7.2364125E0,1.0808223E1],"tree_param":{"num_deleted":"0","num_feature":"20","num_nodes":"75","size_leaf_vector":"1"}},{"base_weights":[-1.2442685E-1,-2.6281288E-1,-3.1933114E-2,2.1616073E-2,-3.296128E-1,6.850806E-2,-3.8404825E-1,-3.1225225E-1,7.1778435E-1,-6.295139E-1,-2.4273498E-1,4.7671902E-1,-1.7171875E-2,-4.716013E-1,2.669421E-1,-4.4865143E-1,1.1821015E-1,-1.2629476E-1,1.6709322E-1,1.1744607E-1,-1.3145797E-1,-3.1298912E-1,1.4024138E-1,7.11526E-1,-2.8202E-1,-1.1630086E-1,2.9105094E-1,-2.7457896E-1,-1.249736E-1,2.268714E-1,-8.7772116E-2,7.9064995E-2,-5.348593E-1,-2.434717E-1,-1.21858515E-1,-2.329372E-1,6.1439276E-1,7.9740214E-1,-1.3189527E-1,1.6675502E-1,-1.2111166E-1,-3.2874387E-2,-1.3100752E-1,4.6901006E-1,-1.7497417E-1,-4.7819504E-1,4.2775026E-1,5.8355574E-2,-1.1805972E-1,-6.631303E-2,2.697482E-2,1.6496716E-1,-6.971329E-2,1.6482288E-1,-1.20707E-1,1.9829239E-1,8.933102E-2,-2.2323085E-2,1.2731192E-1,2.0713247E-1,4.9038474E-2,9.994642E-2,-8.984032E-2,7.400832E-2,-1.0639241E-1,1.9825849E-1,-1.1995215E-1],"categories":[],"categories_nodes":[],"categories_segments":[],"categories_sizes":[],"default_left":[0,0,0,0,0,0,0,0,0,0,0,0,0,0,0,0,0,0,0,0,0,0,0,0,0,0,0,0,0,0,0,0,0,0,0,0,0,0,0,0,0,0,0,0,0,0,0,0,0,0,0,0,0,0,0,0,0,0,0,0,0,0,0,0,0,0,0],"id":11,"left_children":[1,3,5,7,9,11,13,15,17,19,21,23,25,27,29,31,-1,-1,-1,-1,-1,33,35,37,39,41,43,45,-1,-1,-1,-1,47,49,-1,51,53,55,-1,-1,-1,57,-1,59,61,63,65,-1,-1,-1,-1,-1,-1,-1,-1,-1,-1,-1,-1,-1,-1,-1,-1,-1,-1,-1,-1],"loss_changes":[7.4330626E0,4.4300995E0,1.2342116E1,1.0346738E1,4.8726845E0,9.502103E0,4.4368734E0,3.7954302E0,2.7959743E0,2.321783E0,3.9515047E0,8.433216E0,6.856792E0,2.2215633E0,6.0133286E0,1.9656024E0,0E0,0E0,0E0,0E0,0E0,2.6375437E0,4.055481E0,4.372324E0,4.3773446E0,7.8423357E0,4.5453787E0,4.5766954E0,0E0,0E0,0E0,0E0,1.421072E0,3.7323227E0,0E0,1.7443585E0,2.93205E0,2.423235E0,0E0,0E0,0E0,8.243912E0,0E0,5.0360518E0,2.99856E0,1.4436326E0,4.5012145E0,0E0,0E0,0E0,0E0,0E0,0E0,0E0,0E0,0E0,0E0,0E0,0E0,0E0,0E0,0E0,0E0,0E0,0E0,0E0,0E0],"parents":[2147483647,0,0,1,1,2,2,3,3,4,4,5,5,6,6,7,7,8,8,9,9,10,10,11,11,12,12,13,13,14,14,15,15,21,21,22,22,23,23,24,24,25,25,26,26,27,27,32,32,33,33,35,35,36,36,37,37,41,41,43,43,44,44,45,45,46,46],"right_children":[2,4,6,8,10,12,14,16,18,20,22,24,26,28,30,32,-1,-1,-1,-1,-1,34,36,38,40,42,44,46,-1,-1,-1,-1,48,50,-1,52,54,56,-1,-1,-1,58,-1,60,62,64,66,-1,-1,-1,-1,-1,-1,-1,-1,-1,-1,-1,-1,-1,-1,-1,-1,-1,-1,-1,-1],"split_conditions":[-5.606619E-2,1.11266575E1,2.350309E-1,1.0744861E1,1.6172832E1,-2.927148E8,4.5888504E-1,-1.0154383E-1,-2.5800368E-1,1.1656949E1,1.0855591E-5,7.707485E-2,2.220986E8,2.7925295E1,1.3272796E1,-5.407871E8,1.1821015E-1,-1.2629476E-1,1.6709322E-1,1.1744607E-1,-1.3145797E-1,9.92716E7,-1.7286332E-1,2.8187296E1,1.0473599E1,1.3450617E1,6.380406E1,2.6960537E1,-1.249736E-1,2.268714E-1,-8.7772116E-2,7.9064995E-2,-1.7131828E-1,2.4439E7,-1.21858515E-1,1.7810116E1,1.189359E8,2.72951E7,-1.3189527E-1,1.6675502E-1,-1.2111166E-1,1.3171098E1,-1.3100752E-1,1.5068926E1,1.4078478E1,1.940504E1,1.3744763E1,5.8355574E-2,-1.1805972E-1,-6.631303E-2,2.697482E-2,1.6496716E-1,-6.971329E-2,1.6482288E-1,-1.20707E-1,1.9829239E-1,8.933102E-2,-2.2323085E-2,1.2731192E-1,2.0713247E-1,4.9038474E-2,9.994642E-2,-8.984032E-2,7.400832E-2,-1.0639241E-1,1.9825849E-1,-1.1995215E-1],"split_indices":[8,13,8,13,14,16,8,8,9,3,19,10,16,14,7,16,0,0,0,0,0,16,8,14,3,13,17,14,0,0,0,0,10,16,0,14,16,4,0,0,0,13,0,7,3,14,3,0,0,0,0,0,0,0,0,0,0,0,0,0,0,0,0,0,0,0,0],"split_type":[0,0,0,0,0,0,0,0,0,0,0,0,0,0,0,0,0,0,0,0,0,0,0,0,0,0,0,0,0,0,0,0,0,0,0,0,0,0,0,0,0,0,0,0,0,0,0,0,0,0,0,0,0,0,0,0,0,0,0,0,0,0,0,0,0,0,0],"sum_hessian":[5.811591E2,2.3262332E2,3.4853577E2,4.4199764E1,1.8842357E2,2.7122275E2,7.731302E1,2.9905298E1,1.4294467E1,4.20691E1,1.4635446E2,4.6982563E1,2.2424019E2,6.821112E1,9.101898E0,2.6118235E1,3.7870634E0,1.2483904E0,1.3046077E1,1.3588643E0,4.0710236E1,1.2373753E2,2.2616934E1,3.590734E1,1.107522E1,1.6979076E2,5.4449444E1,3.1651264E1,3.655986E1,4.021306E0,5.080592E0,2.3252769E0,2.379296E1,1.0139045E2,2.2347078E1,1.2671192E1,9.945742E0,3.3884834E1,2.0225077E0,2.476237E0,8.598984E0,1.4774872E2,2.204203E1,3.9435406E1,1.501404E1,2.4596188E1,7.055077E0,1.7739192E0,2.201904E1,8.105815E1,2.0332302E1,1.2047118E0,1.146648E1,8.436719E0,1.5090233E0,2.0442429E1,1.3442406E1,1.321804E2,1.556831E1,1.04433365E1,2.8992067E1,4.3486075E0,1.0665433E1,1.7006608E0,2.2895527E1,4.5272117E0,2.5278654E0],"tree_param":{"num_deleted":"0","num_feature":"20","num_nodes":"67","size_leaf_vector":"1"}},{"base_weights":[-2.371934E-3,4.227001E-1,-2.9593216E-2,3.303281E-1,1.7390493E-1,-4.9261388E-1,-6.0342494E-3,4.1781086E-1,-1.4615658E-1,3.5166023E-3,-1.129343E-1,-4.0709052E-2,3.0721137E-1,-1.2744956E-1,9.212459E-2,-1.56043405E-2,-4.79996E-1,6.0991526E-1,7.299044E-3,3.3392474E-1,-5.1604137E-2,-5.746116E-1,2.0668896E-1,-1.4162412E-1,8.4050643E-1,-3.949727E-1,5.8894944E-1,1.4611891E-1,7.863939E-3,1.03126444E-1,-1.408195E-2,-1.2600867E-1,1.1822073E-1,-1.28334E-1,1.8794459E-1,-1.4407529E-1,1.4709415E-2,1.566521E-1,-1.2357177E-1],"categories":[],"categories_nodes":[],"categories_segments":[],"categories_sizes":[],"default_left":[0,0,0,0,0,0,0,0,0,0,0,0,0,0,0,0,0,0,0,0,0,0,0,0,0,0,0,0,0,0,0,0,0,0,0,0,0,0,0],"id":12,"left_children":[1,3,5,7,-1,9,11,13,-1,-1,-1,15,17,-1,-1,19,21,23,25,27,29,31,-1,-1,33,35,37,-1,-1,-1,-1,-1,-1,-1,-1,-1,-1,-1,-1],"loss_changes":[7.186505E0,1.5468822E0,6.3639092E0,3.0074227E0,0E0,1.2484279E0,6.0385556E0,1.7247992E0,0E0,0E0,0E0,5.5140305E0,5.0155063E0,0E0,0E0,5.9627347E0,4.010772E0,8.5651245E0,6.5902057E0,5.3599825E0,5.104607E0,2.185276E0,0E0,0E0,4.3923836E0,2.700527E0,3.0771837E0,0E0,0E0,0E0,0E0,0E0,0E0,0E0,0E0,0E0,0E0,0E0,0E0],"parents":[2147483647,0,0,1,1,2,2,3,3,5,5,6,6,7,7,11,11,12,12,15,15,16,16,17,17,18,18,19,19,20,20,21,21,24,24,25,25,26,26],"right_children":[2,4,6,8,-1,10,12,14,-1,-1,-1,16,18,-1,-1,20,22,24,26,28,30,32,-1,-1,34,36,38,-1,-1,-1,-1,-1,-1,-1,-1,-1,-1,-1,-1],"split_conditions":[-2.7544937E-5,1.4502423E1,2.2222196E-1,3.0780816E-1,1.7390493E-1,-1.7123367E-6,1.60865E1,-1.963349E-1,-1.4615658E-1,3.5166023E-3,-1.129343E-1,1.46711035E1,1.594862E1,-1.2744956E-1,9.212459E-2,2.646546E-1,2.3277701E-1,1.6387524E1,1.688811E1,5.1023666E1,3.107356E1,2.66408E7,2.0668896E-1,-1.4162412E-1,1.4116182E1,5.402936E1,3.640579E-1,1.4611891E-1,7.863939E-3,1.03126444E-1,-1.408195E-2,-1.2600867E-1,1.1822073E-1,-1.28334E-1,1.8794459E-1,-1.4407529E-1,1.4709415E-2,1.566521E-1,-1.2357177E-1],"split_indices":[19,1,15,9,0,19,11,10,0,0,0,7,3,0,0,15,8,17,7,5,5,4,0,0,3,17,15,0,0,0,0,0,0,0,0,0,0,0,0],"split_type":[0,0,0,0,0,0,0,0,0,0,0,0,0,0,0,0,0,0,0,0,0,0,0,0,0,0,0,0,0,0,0,0,0,0,0,0,0,0,0],"sum_hessian":[6.215102E2,3.723425E1,5.8427594E2,3.1333569E1,5.900681E0,2.8108444E1,5.5616754E2,2.908169E1,2.2518773E0,4.0162635E0,2.409218E1,5.0091083E2,5.5256714E1,1.2989116E0,2.778278E1,4.7401694E2,2.6893871E1,2.7391884E1,2.7864828E1,4.4097477E1,4.2991946E2,2.5432348E1,1.4615233E0,3.9759016E0,2.3415981E1,1.6477606E1,1.1387222E1,1.8172657E1,2.5924822E1,1.4527546E1,4.153919E2,2.4075144E1,1.3572035E0,1.7007475E0,2.1715235E1,9.511455E0,6.9661517E0,9.75221E0,1.6350124E0],"tree_param":{"num_deleted":"0","num_feature":"20","num_nodes":"39","size_leaf_vector":"1"}},{"base_weights":[8.285558E-2,-4.0576447E-2,1.8739228E-1,-2.6703653E-1,9.363291E-3,-2.0630318E-1,2.2288942E-1,-4.8610857E-1,3.3662033E-1,4.1344706E-2,-4.1973594E-1,-4.690231E-1,7.994657E-1,2.4246293E-1,-4.6285933E-1,-7.172668E-2,-1.10900424E-1,8.121451E-1,-1.05789654E-1,-1.2323497E-1,1.1989873E-1,1.9348538E-1,-5.6832093E-1,2.5974324E-1,-1.2144943E-1,2.128133E-1,-2.118965E-2,1.6895065E-1,5.100484E-1,-1.3176127E-1,1.3214967E-1,-1.4159393E-1,1.0174433E-1,2.3277152E-1,-1.7943244E-2,4.5087394E-1,-2.456477E-1,7.9910046E-1,3.3840545E-2,6.348826E-2,-1.3447325E-1,1.686521E-1,-4.8565876E-2,2.3784637E-1,-3.9841455E-1,7.0282954E-1,1.3701595E-1,-1.24041736E-1,1.4352007E-1,1.3203059E-1,-1.3199456E-1,-7.848441E-2,9.100556E-3,2.676724E-1,1.06342E-1,-5.305372E-2,2.1188233E-2,5.8182646E-2,-9.928659E-3,-1.2923224E-1,5.3135093E-2,1.4916867E-1,4.1855726E-2,-1.4693318E-1,5.565115E-2],"categories":[],"categories_nodes":[],"categories_segments":[],"categories_sizes":[],"default_left":[0,0,0,0,0,0,0,0,0,0,0,0,0,0,0,0,0,0,0,0,0,0,0,0,0,0,0,0,0,0,0,0,0,0,0,0,0,0,0,0,0,0,0,0,0,0,0,0,0,0,0,0,0,0,0,0,0,0,0,0,0,0,0,0,0],"id":13,"left_children":[1,3,5,7,9,11,13,15,17,19,21,23,25,27,29,31,-1,33,-1,35,37,-1,39,41,-1,-1,-1,43,45,-1,-1,-1,-1,-1,47,49,51,53,55,-1,-1,-1,-1,57,59,61,63,-1,-1,-1,-1,-1,-1,-1,-1,-1,-1,-1,-1,-1,-1,-1,-1,-1,-1],"loss_changes":[8.263872E0,3.3258073E0,4.8521814E0,7.051482E0,3.2958534E0,7.629465E0,4.281621E0,1.30301E0,5.999834E0,2.898834E0,3.5607207E0,2.5764203E0,1.6129956E0,6.0603333E0,2.1995907E0,2.6281147E0,0E0,2.9547524E0,0E0,5.0977325E0,8.853069E0,0E0,1.6683321E0,1.2831967E0,0E0,0E0,0E0,9.509869E0,4.7548065E0,0E0,0E0,0E0,0E0,0E0,1.4747516E0,3.2960675E0,2.7389169E0,2.3323631E0,3.0774379E0,0E0,0E0,0E0,0E0,3.7663832E0,4.6822076E0,1.2595844E0,3.0317073E0,0E0,0E0,0E0,0E0,0E0,0E0,0E0,0E0,0E0,0E0,0E0,0E0,0E0,0E0,0E0,0E0,0E0,0E0],"parents":[2147483647,0,0,1,1,2,2,3,3,4,4,5,5,6,6,7,7,8,8,9,9,10,10,11,11,12,12,13,13,14,14,15,15,17,17,19,19,20,20,22,22,23,23,27,27,28,28,34,34,35,35,36,36,37,37,38,38,43,43,44,44,45,45,46,46],"right_children":[2,4,6,8,10,12,14,16,18,20,22,24,26,28,30,32,-1,34,-1,36,38,-1,40,42,-1,-1,-1,44,46,-1,-1,-1,-1,-1,48,50,52,54,56,-1,-1,-1,-1,58,60,62,64,-1,-1,-1,-1,-1,-1,-1,-1,-1,-1,-1,-1,-1,-1,-1,-1,-1,-1],"split_conditions":[3.2857275E-1,1.633048E1,3.1664375E1,3.8050022E-2,3.2136628E-1,4.049427E-3,3.8735938E-1,3.9181908E1,6.300755E1,1.2707852E1,1.0251805E1,3.369916E-1,1.3698305E1,1.4523326E1,4.0191433E-1,1.2925969E1,-1.10900424E-1,1.3856948E1,-1.05789654E-1,-2.3158133E-1,1.2734107E1,1.9348538E-1,1.7000635E1,3.939504E1,-1.2144943E-1,2.128133E-1,-2.118965E-2,1.3325057E1,1.4508132E1,-1.3176127E-1,1.3214967E-1,-1.4159393E-1,1.0174433E-1,2.3277152E-1,1.4162507E1,4.4156303E1,4.61939E-2,-2.4884807E-2,1.3216522E1,6.348826E-2,-1.3447325E-1,1.686521E-1,-4.8565876E-2,6.1603714E1,3.932442E-1,2.9600117E-1,1.3652964E1,-1.24041736E-1,1.4352007E-1,1.3203059E-1,-1.3199456E-1,-7.848441E-2,9.100556E-3,2.676724E-1,1.06342E-1,-5.305372E-2,2.1188233E-2,5.8182646E-2,-9.928659E-3,-1.2923224E-1,5.3135093E-2,1.4916867E-1,4.1855726E-2,-1.4693318E-1,5.565115E-2],"split_indices":[15,14,5,10,15,10,9,17,17,2,7,15,3,11,15,6,0,3,0,9,7,0,14,14,0,0,0,7,6,0,0,0,0,0,1,14,10,10,7,0,0,0,0,5,15,9,13,0,0,0,0,0,0,0,0,0,0,0,0,0,0,0,0,0,0],"split_type":[0,0,0,0,0,0,0,0,0,0,0,0,0,0,0,0,0,0,0,0,0,0,0,0,0,0,0,0,0,0,0,0,0,0,0,0,0,0,0,0,0,0,0,0,0,0,0,0,0,0,0,0,0,0,0,0,0,0,0,0,0,0,0,0,0],"sum_hessian":[6.3998364E2,2.9341507E2,3.465686E2,5.298E1,2.4043507E2,2.8557264E1,3.1801132E2,3.891903E1,1.406097E1,2.2392375E2,1.6511312E1,2.2719597E1,5.837668E0,3.0930563E2,8.70568E0,6.496855E0,3.2422176E1,9.144724E0,4.916246E0,7.223342E1,1.5169032E2,1.4833312E0,1.5027982E1,3.896471E0,1.8823126E1,4.42031E0,1.4173582E0,2.4288939E2,6.641625E1,7.4059906E0,1.2996898E0,3.092588E0,3.404267E0,6.2501154E0,2.8946087E0,1.2597306E1,5.963612E1,1.689836E1,1.3479198E2,1.7321754E0,1.3295807E1,1.7551271E0,2.141344E0,2.1669589E2,2.6193493E1,4.3666737E1,2.2749514E1,1.6183838E0,1.276225E0,1.0562531E1,2.0347745E0,3.887742E1,2.0758698E1,4.991523E0,1.1906836E1,2.6339087E1,1.0845288E2,1.7943944E2,3.7256466E1,1.8832666E1,7.3608265E0,3.871539E1,4.9513464E0,3.1409879E0,1.9608526E1],"tree_param":{"num_deleted":"0","num_feature":"20","num_nodes":"65","size_leaf_vector":"1"}},{"base_weights":[-1.2085739E-1,6.1651343E-3,-2.4963316E-1,3.8904223E-1,-5.981351E-2,-4.027096E-1,-8.428871E-2,1.05720796E-1,5.4356956E-1,1.7032985E-1,-8.160269E-2,-1.7862466E-1,-4.8772913E-1,1.4271535E-1,-3.4829593E-1,-1.4628571E-1,1.584471E-1,1.563358E-1,1.2888451E-1,-2.8533742E-1,1.0110502E-2,-4.0627024E-1,2.6903936E-1,-5.1128244E-1,2.1709885E-1,7.0166194E-1,-8.557957E-2,4.6370226E-1,-4.113588E-1,1.5448603E-1,-5.8893982E-2,1.0308468E-1,-7.067873E-2,-1.21735916E-1,-1.09361775E-1,1.839625E-1,-2.1121763E-1,-1.1875615E-1,2.4820873E-1,2.3211873E-1,7.6760575E-3,6.331323E-2,-1.0327285E-1,-1.1637365E-1,1.7292549E-1,7.870055E-1,-1.18729435E-1,-3.2866943E-1,5.941859E-1,1.5911962E-1,-1.0990832E-1,-9.818038E-2,1.817852E-1,-1.22469574E-1,3.15966E-2,1.1167857E-1,1.2319167E-3,-1.089852E-3,-1.0196483E-1,1.6181213E-1,-1.3024642E-1,-5.6237306E-2,1.3082285E-1,8.2367145E-2,1.8793894E-1,7.345122E-2,-8.35258E-2,-1.2927711E-1,1.6170633E-1,1.725658E-1,-1.17840946E-1],"categories":[],"categories_nodes":[],"categories_segments":[],"categories_sizes":[],"default_left":[0,0,0,0,0,0,0,0,0,0,0,0,0,0,0,0,0,0,0,0,0,0,0,0,0,0,0,0,0,0,0,0,0,0,0,0,0,0,0,0,0,0,0,0,0,0,0,0,0,0,0,0,0,0,0,0,0,0,0,0,0,0,0,0,0,0,0,0,0,0,0],"id":14,"left_children":[1,3,5,7,9,11,13,15,17,-1,19,21,23,25,27,29,-1,31,-1,33,35,37,39,41,43,45,47,49,51,-1,-1,-1,-1,-1,53,55,57,-1,59,-1,61,-1,-1,-1,-1,63,-1,65,67,-1,-1,-1,69,-1,-1,-1,-1,-1,-1,-1,-1,-1,-1,-1,-1,-1,-1,-1,-1,-1,-1],"loss_changes":[9.228908E0,7.182721E0,7.073944E0,1.8080521E0,4.912458E0,2.7422676E0,8.095871E0,2.6940672E0,1.1825252E0,0E0,4.4324493E0,4.122095E0,1.7686367E0,9.284278E0,3.2238102E0,1.6434482E0,0E0,1.2736757E0,0E0,4.3523483E0,6.2927723E0,3.5656576E0,3.2479165E0,1.5162144E0,1.9674649E0,2.4290762E0,8.554787E0,1.7070841E0,3.1643372E0,0E0,0E0,0E0,0E0,0E0,6.8486323E0,6.302025E0,4.5843773E0,0E0,3.4730787E0,0E0,2.144068E0,0E0,0E0,0E0,0E0,1.1853828E0,0E0,2.685204E0,4.0830317E0,0E0,0E0,0E0,4.389249E0,0E0,0E0,0E0,0E0,0E0,0E0,0E0,0E0,0E0,0E0,0E0,0E0,0E0,0E0,0E0,0E0,0E0,0E0],"parents":[2147483647,0,0,1,1,2,2,3,3,4,4,5,5,6,6,7,7,8,8,10,10,11,11,12,12,13,13,14,14,15,15,17,17,19,19,20,20,21,21,22,22,23,23,24,24,25,25,26,26,27,27,28,28,34,34,35,35,36,36,38,38,40,40,45,45,47,47,48,48,52,52],"right_children":[2,4,6,8,10,12,14,16,18,-1,20,22,24,26,28,30,-1,32,-1,34,36,38,40,42,44,46,48,50,52,-1,-1,-1,-1,-1,54,56,58,-1,60,-1,62,-1,-1,-1,-1,64,-1,66,68,-1,-1,-1,70,-1,-1,-1,-1,-1,-1,-1,-1,-1,-1,-1,-1,-1,-1,-1,-1,-1,-1],"split_conditions":[3.2788077E-1,1.2044247E1,5.003668E1,1.90321E7,-2.6994726E-1,1.1602437E1,2.0225759E-1,8.4215574E-2,-1.9738254E-6,1.7032985E-1,-5.606619E-2,1.1080681E1,6.300755E1,1.1956171E1,1.953392E1,2.9457468E1,1.584471E-1,2.66408E7,1.2888451E-1,1.7610733E1,2.8276968E-1,-1.1794656E-1,1.1105714E1,1.2539978E1,1.2458152E1,6.730965E1,5.9916008E1,6.429182E1,3.411323E1,1.5448603E-1,-5.8893982E-2,1.0308468E-1,-7.067873E-2,-1.21735916E-1,-2.429606E8,5.002072E1,1.39788885E1,-1.1875615E-1,1.105245E1,2.3211873E-1,5.6502E6,6.331323E-2,-1.0327285E-1,-1.1637365E-1,1.7292549E-1,1.01581545E1,-1.18729435E-1,-1.349598E8,1.1905391E1,1.5911962E-1,-1.0990832E-1,-9.818038E-2,1.4102008E1,-1.22469574E-1,3.15966E-2,1.1167857E-1,1.2319167E-3,-1.089852E-3,-1.0196483E-1,1.6181213E-1,-1.3024642E-1,-5.6237306E-2,1.3082285E-1,8.2367145E-2,1.8793894E-1,7.345122E-2,-8.35258E-2,-1.2927711E-1,1.6170633E-1,1.725658E-1,-1.17840946E-1],"split_indices":[15,7,5,4,9,2,8,9,19,0,8,0,17,2,14,5,0,4,0,14,15,8,2,14,6,17,5,17,14,0,0,0,0,0,16,17,6,0,6,0,16,0,0,0,0,6,0,16,12,0,0,0,6,0,0,0,0,0,0,0,0,0,0,0,0,0,0,0,0,0,0],"split_type":[0,0,0,0,0,0,0,0,0,0,0,0,0,0,0,0,0,0,0,0,0,0,0,0,0,0,0,0,0,0,0,0,0,0,0,0,0,0,0,0,0,0,0,0,0,0,0,0,0,0,0,0,0,0,0,0,0,0,0,0,0,0,0,0,0,0,0,0,0,0,0],"sum_hessian":[5.6372925E2,2.837809E2,2.7994833E2,4.1659348E1,2.4212157E2,1.451941E2,1.3475423E2,1.4835771E1,2.6823574E1,5.3828506E0,2.3673872E2,4.0126026E1,1.05068085E2,7.244621E1,6.2308018E1,1.0991791E1,3.8439806E0,6.3155727E0,2.0508003E1,7.3468056E1,1.6327066E2,2.6639994E1,1.34860325E1,1.0173762E2,3.330469E0,2.0950792E1,5.149542E1,4.400934E0,5.7907085E1,1.4598646E0,9.531926E0,3.7011838E0,2.6143887E0,2.4991278E1,4.847678E1,9.151038E1,7.176028E1,2.0395267E1,6.244725E0,2.855601E0,1.0630431E1,2.0085263E0,9.972909E1,1.4951097E0,1.8353591E0,1.9737457E1,1.2133334E0,3.8008137E1,1.3487281E1,3.316838E0,1.0840964E0,5.0230732E1,7.6763525E0,1.6625736E1,3.1851042E1,2.8612345E1,6.2898037E1,4.3317226E1,2.8443052E1,3.8439658E0,2.4007592E0,7.382423E0,3.2480085E0,6.5953746E0,1.3142083E1,4.6054344E0,3.3402702E1,2.0610015E0,1.1426279E1,4.0584016E0,3.6179512E0],"tree_param":{"num_deleted":"0","num_feature":"20","num_nodes":"71","size_leaf_vector":"1"}},{"base_weights":[1.6766486E-3,-1.9210306E-1,7.4132405E-2,-2.3243956E-1,6.068401E-1,5.031039E-1,3.0473003E-2,-4.7206886E-2,-3.3622453E-1,8.7057835E-1,-1.2578122E-1,1.08991906E-1,1.7887649E-1,4.358363E-1,-6.5061105E-3,-2.737399E-1,3.9054608E-1,-4.567973E-1,-6.46171E-2,2.2200084E-1,-2.204015E-2,5.331378E-1,-2.6168758E-1,6.2163025E-1,-1.9071749E-1,-2.4413314E-1,8.346458E-2,-8.202415E-2,6.039379E-2,-1.492569E-1,6.3239026E-1,1.9942783E-1,-4.8984486E-1,1.2509942E-1,-1.2940718E-1,-1.2348862E-1,1.7508179E-1,1.6637997E-1,-1.3276072E-1,6.969665E-1,-5.7972074E-2,-1.3024026E-1,3.4072876E-1,9.346434E-2,-4.545465E-1,-4.1679248E-1,1.592989E-1,1.751591E-1,-4.1649304E-2,3.7494488E-2,2.1025054E-1,-1.0222122E-1,3.598388E-2,6.548958E-2,-9.855675E-2,1.8841114E-2,1.5433946E-1,-1.243508E-1,1.7594838E-1,2.2702178E-1,-1.9714447E-2,-9.7058006E-2,2.4624944E-1,-9.515814E-2,1.4502521E-1,7.335353E-2,-1.2366613E-2],"categories":[],"categories_nodes":[],"categories_segments":[],"categories_sizes":[],"default_left":[0,0,0,0,0,0,0,0,0,0,0,0,0,0,0,0,0,0,0,0,0,0,0,0,0,0,0,0,0,0,0,0,0,0,0,0,0,0,0,0,0,0,0,0,0,0,0,0,0,0,0,0,0,0,0,0,0,0,0,0,0,0,0,0,0,0,0],"id":15,"left_children":[1,3,5,7,9,11,13,15,17,19,-1,21,-1,23,25,27,29,31,33,-1,-1,35,37,39,41,43,45,-1,47,-1,49,-1,51,53,-1,-1,-1,-1,-1,55,-1,-1,57,59,61,63,65,-1,-1,-1,-1,-1,-1,-1,-1,-1,-1,-1,-1,-1,-1,-1,-1,-1,-1,-1,-1],"loss_changes":[8.424608E0,5.273473E0,8.16964E0,2.979825E0,2.6775181E0,6.5207176E0,5.957172E0,5.5753646E0,3.2461796E0,1.7581992E0,0E0,3.2969074E0,0E0,3.893158E0,7.781887E0,1.8230402E0,5.415312E0,3.424489E0,3.5216599E0,0E0,0E0,4.2254868E0,5.279065E0,1.8148928E0,1.9824871E0,7.1162043E0,1.0013478E1,0E0,2.6435022E0,0E0,3.0595489E0,0E0,1.546545E0,3.1315355E0,0E0,0E0,0E0,0E0,0E0,1.3029308E0,0E0,0E0,2.113675E0,8.032997E0,4.5562105E0,2.881514E0,1.1047827E1,0E0,0E0,0E0,0E0,0E0,0E0,0E0,0E0,0E0,0E0,0E0,0E0,0E0,0E0,0E0,0E0,0E0,0E0,0E0,0E0],"parents":[2147483647,0,0,1,1,2,2,3,3,4,4,5,5,6,6,7,7,8,8,9,9,11,11,13,13,14,14,15,15,16,16,17,17,18,18,21,21,22,22,23,23,24,24,25,25,26,26,28,28,30,30,32,32,33,33,39,39,42,42,43,43,44,44,45,45,46,46],"right_children":[2,4,6,8,10,12,14,16,18,20,-1,22,-1,24,26,28,30,32,34,-1,-1,36,38,40,42,44,46,-1,48,-1,50,-1,52,54,-1,-1,-1,-1,-1,56,-1,-1,58,60,62,64,66,-1,-1,-1,-1,-1,-1,-1,-1,-1,-1,-1,-1,-1,-1,-1,-1,-1,-1,-1,-1],"split_conditions":[1.2364914E1,1.3131256E1,1.3028456E1,4.6726482E1,1.863221E1,1.2474309E1,-3.3370432E-1,1.1610331E1,6.077341E1,1.2276111E1,-1.2578122E-1,1.2572875E1,1.7887649E-1,4.049427E-3,1.3220766E1,-2.0388553E-1,-8.6440794E-2,-4.756182E-5,1.1557408E1,2.2200084E-1,-2.204015E-2,1.1688726E1,2.6757106E-1,1.8834695E-5,3.5325465E-1,-1.0997695E-1,-1.0275155E-1,-8.202415E-2,3.0361295E-1,-1.492569E-1,1.1358515E1,1.9942783E-1,1.3372263E1,1.9340196E-5,-1.2940718E-1,-1.2348862E-1,1.7508179E-1,1.6637997E-1,-1.3276072E-1,1.1456665E1,-5.7972074E-2,-1.3024026E-1,2.6399711E-2,2.764321E-1,1.3438286E1,1.5327246E1,5.6909836E1,1.751591E-1,-4.1649304E-2,3.7494488E-2,2.1025054E-1,-1.0222122E-1,3.598388E-2,6.548958E-2,-9.855675E-2,1.8841114E-2,1.5433946E-1,-1.243508E-1,1.7594838E-1,2.2702178E-1,-1.9714447E-2,-9.7058006E-2,2.4624944E-1,-9.515814E-2,1.4502521E-1,7.335353E-2,-1.2366613E-2],"split_indices":[7,1,11,5,18,1,8,3,5,7,0,7,0,10,3,8,10,19,13,0,0,3,15,19,15,9,9,0,15,0,13,0,11,19,0,0,0,0,0,1,0,0,10,15,7,1,5,0,0,0,0,0,0,0,0,0,0,0,0,0,0,0,0,0,0,0,0],"split_type":[0,0,0,0,0,0,0,0,0,0,0,0,0,0,0,0,0,0,0,0,0,0,0,0,0,0,0,0,0,0,0,0,0,0,0,0,0,0,0,0,0,0,0,0,0,0,0,0,0,0,0,0,0,0,0,0,0,0,0,0,0,0,0,0,0,0,0],"sum_hessian":[5.9991785E2,1.6312302E2,4.367948E2,1.5540445E2,7.7185793E0,4.0165848E1,3.9662897E2,5.595319E1,9.9451256E1,6.424267E0,1.2943122E0,2.066502E1,1.950083E1,3.3077972E1,3.63551E2,3.693942E1,1.9013771E1,6.875419E1,3.0697062E1,5.05599E0,1.3682766E0,9.635376E0,1.1029643E1,2.5539825E1,7.5381465E0,9.9843346E1,2.6370764E2,2.5713926E1,1.12254925E1,3.2241895E0,1.5789582E1,1.3968884E0,6.73573E1,2.3361418E1,7.3356447E0,2.2508395E0,7.384537E0,2.956373E0,8.073271E0,2.3656864E1,1.882963E0,3.978222E0,3.5599244E0,3.8326935E1,6.1516415E1,3.459229E1,2.2911534E2,2.7067912E0,8.518702E0,8.053842E0,7.7357407E0,6.422607E1,3.1312394E0,1.758991E1,5.771507E0,3.249596E0,2.0407267E1,1.2759161E0,2.2840085E0,5.806184E0,3.2520752E1,6.0143303E1,1.3731096E0,3.2706364E1,1.8859265E0,1.16212746E2,1.129026E2],"tree_param":{"num_deleted":"0","num_feature":"20","num_nodes":"67","size_leaf_vector":"1"}},{"base_weights":[7.798368E-2,-1.092102E-2,1.804199E-1,1.0247449E-2,-1.2847823E-1,6.392849E-1,1.5213946E-1,-1.5286385E-1,8.366758E-2,1.5698554E-1,1.5473048E-1,2.8044632E-1,3.6454014E-2,3.36987E-1,-2.4829403E-1,3.771988E-1,3.186687E-3,1.740782E-1,-2.3980503E-1,-1.8894832E-1,3.8409853E-1,-1.4433393E-1,2.8506607E-1,1.4891163E-1,-9.397023E-2,-4.2850748E-1,6.156075E-2,-1.7186613E-1,5.587176E-1,5.344631E-1,-5.5820674E-2,-1.7024024E-1,8.786426E-2,-1.05644986E-1,2.1427989E-1,6.578678E-1,2.1742149E-1,-1.1248092E-1,-5.4018237E-2,6.3629115E-1,1.2510468E-1,3.25208E-2,-1.4343098E-1,-2.7956275E-2,-1.0231783E-1,2.5163925E-1,-7.944235E-3,8.7588444E-2,-1.1848304E-1,1.3992299E-1,-2.7006743E-2,3.6381673E-2,1.9783698E-1,-5.0353017E-2,1.06580835E-2,1.3171023E-1,-9.254873E-2,1.41075E-1,1.4337672E-2,4.383473E-3,1.3178632E-1,-2.0216059E-2,1.4333737E-1,1.504986E-1,-1.3226204E-1,2.393059E-3,1.7096101E-1],"categories":[],"categories_nodes":[],"categories_segments":[],"categories_sizes":[],"default_left":[0,0,0,0,0,0,0,0,0,0,0,0,0,0,0,0,0,0,0,0,0,0,0,0,0,0,0,0,0,0,0,0,0,0,0,0,0,0,0,0,0,0,0,0,0,0,0,0,0,0,0,0,0,0,0,0,0,0,0,0,0,0,0,0,0,0,0],"id":16,"left_children":[1,3,5,7,-1,9,11,13,15,-1,17,19,21,23,25,27,29,-1,31,33,35,37,39,-1,41,43,45,47,49,51,53,-1,-1,-1,55,57,59,-1,61,63,65,-1,-1,-1,-1,-1,-1,-1,-1,-1,-1,-1,-1,-1,-1,-1,-1,-1,-1,-1,-1,-1,-1,-1,-1,-1,-1],"loss_changes":[5.7288513E0,4.623601E0,3.7611923E0,3.9044771E0,0E0,1.3068371E0,4.0806646E0,4.7385416E0,5.306903E0,0E0,1.3476816E0,6.3638973E0,6.5310445E0,3.0527692E0,4.7456226E0,4.841397E0,5.556403E0,0E0,1.3778821E0,3.3816364E0,4.8426447E0,3.2585852E0,3.4103947E0,0E0,1.4151024E0,1.435483E0,3.9544616E0,3.3036337E0,4.027648E0,2.8998976E0,3.5561266E0,0E0,0E0,0E0,3.5642915E0,1.495718E0,5.9355745E0,0E0,2.715479E0,3.439456E0,3.5576286E0,0E0,0E0,0E0,0E0,0E0,0E0,0E0,0E0,0E0,0E0,0E0,0E0,0E0,0E0,0E0,0E0,0E0,0E0,0E0,0E0,0E0,0E0,0E0,0E0,0E0,0E0],"parents":[2147483647,0,0,1,1,2,2,3,3,5,5,6,6,7,7,8,8,10,10,11,11,12,12,13,13,14,14,15,15,16,16,18,18,19,19,20,20,21,21,22,22,24,24,25,25,26,26,27,27,28,28,29,29,30,30,34,34,35,35,36,36,38,38,39,39,40,40],"right_children":[2,4,6,8,-1,10,12,14,16,-1,18,20,22,24,26,28,30,-1,32,34,36,38,40,-1,42,44,46,48,50,52,54,-1,-1,-1,56,58,60,-1,62,64,66,-1,-1,-1,-1,-1,-1,-1,-1,-1,-1,-1,-1,-1,-1,-1,-1,-1,-1,-1,-1,-1,-1,-1,-1,-1,-1],"split_conditions":[3.3825895E-1,1.6345863E1,1.3417603E1,1.3157758E1,-1.2847823E-1,2.41361E7,-6.348898E-2,-2.3158133E-1,-8.4765196E-2,1.5698554E-1,4.908486E1,3.242969E1,2.7332678E-1,3.4271046E1,5.974507E1,1.3016927E1,1.2734107E1,1.740782E-1,9.222856E-4,-8.063479E-2,-1.379818E8,1.2095976E1,2.5935665E1,1.4891163E-1,3.2078812E-1,1.225295E1,1.3712293E1,-1.3870376E-1,3.939504E1,1.2533624E1,-3.7723389E-3,-1.7024024E-1,8.786426E-2,-1.05644986E-1,1.4032645E1,4.9089466E1,1.448495E1,-1.1248092E-1,4.2913386E-1,4.2355636E-1,3.553789E8,3.25208E-2,-1.4343098E-1,-2.7956275E-2,-1.0231783E-1,2.5163925E-1,-7.944235E-3,8.7588444E-2,-1.1848304E-1,1.3992299E-1,-2.7006743E-2,3.6381673E-2,1.9783698E-1,-5.0353017E-2,1.06580835E-2,1.3171023E-1,-9.254873E-2,1.41075E-1,1.4337672E-2,4.383473E-3,1.3178632E-1,-2.0216059E-2,1.4333737E-1,1.504986E-1,-1.3226204E-1,2.393059E-3,1.7096101E-1],"split_indices":[15,12,14,11,0,4,8,9,8,0,17,5,8,17,17,12,7,0,10,10,16,11,14,0,15,11,14,9,14,7,10,0,0,0,1,5,11,0,15,8,16,0,0,0,0,0,0,0,0,0,0,0,0,0,0,0,0,0,0,0,0,0,0,0,0,0,0],"split_type":[0,0,0,0,0,0,0,0,0,0,0,0,0,0,0,0,0,0,0,0,0,0,0,0,0,0,0,0,0,0,0,0,0,0,0,0,0,0,0,0,0,0,0,0,0,0,0,0,0,0,0,0,0,0,0,0,0,0,0,0,0,0,0,0,0,0,0],"sum_hessian":[6.2848517E2,3.364217E2,2.9206345E2,3.2586484E2,1.0556856E1,1.6733414E1,2.7533005E2,1.0101141E2,2.2485342E2,1.2389967E1,4.3434477E0,1.3036029E2,1.4496974E2,1.6374823E1,8.463659E1,4.8214783E1,1.7663864E2,1.4716426E0,2.871805E0,2.3521006E1,1.0683929E2,8.3918564E1,6.105119E1,8.210188E0,8.164635E0,5.352236E1,3.111423E1,1.1951906E1,3.626288E1,1.7579536E1,1.5905911E2,1.4954057E0,1.3763994E0,1.2561426E1,1.095958E1,4.0224136E1,6.661515E1,1.43496275E1,6.956893E1,1.8930193E1,4.2120995E1,5.8548183E0,2.3098166E0,1.3550779E1,3.9971584E1,2.2828517E0,2.8831377E1,4.9028883E0,7.049018E0,2.9594107E1,6.668771E0,1.0314976E1,7.264561E0,5.6210907E1,1.02848206E2,6.588493E0,4.371087E0,3.6166553E1,4.057583E0,4.684062E1,1.977453E1,6.559906E1,3.9698734E0,1.7242575E1,1.6876194E0,3.676353E1,5.3574643E0],"tree_param":{"num_deleted":"0","num_feature":"20","num_nodes":"67","size_leaf_vector":"1"}},{"base_weights":[-1.0686744E-1,9.483876E-3,-2.2689867E-1,-5.270481E-2,3.238121E-1,-6.290214E-2,-3.7280473E-1,2.4957217E-1,-9.608663E-2,3.6986455E-1,-1.2931687E-1,-1.2722101E-2,-1.06773786E-1,3.8787332E-1,-4.1460642E-1,3.4277806E-1,-1.2002976E-1,-2.8870183E-1,-8.8681625E-3,2.7576122E-1,1.4413305E-1,-7.2412774E-2,5.4126334E-1,-1.5484273E-1,3.7400952E-1,-1.0167953E-1,-2.734971E-1,1.129051E-1,1.5032685E-1,1.2855621E-2,-5.247633E-1,6.202274E-2,-8.910992E-2,5.522409E-1,1.06689714E-1,1.1644387E-2,-3.946112E-1,7.180467E-1,-1.1398873E-1,2.0700529E-1,-1.21161416E-1,-3.5866112E-1,2.4167024E-1,7.387721E-2,-1.3587262E-1,-1.10972315E-1,8.648315E-2,-1.2250915E-1,-5.541533E-3,4.256874E-2,-2.5916707E-2,1.4131036E-1,-1.23091064E-1,-1.3187373E-1,6.4083174E-2,-4.281497E-2,3.531222E-2,1.4587414E-1,-1.1620128E-1,2.3251237E-1,1.8086187E-3,-8.333077E-2,3.3110317E-2,3.045067E-1,-2.5726317E-3],"categories":[],"categories_nodes":[],"categories_segments":[],"categories_sizes":[],"default_left":[0,0,0,0,0,0,0,0,0,0,0,0,0,0,0,0,0,0,0,0,0,0,0,0,0,0,0,0,0,0,0,0,0,0,0,0,0,0,0,0,0,0,0,0,0,0,0,0,0,0,0,0,0,0,0,0,0,0,0,0,0,0,0,0,0],"id":17,"left_children":[1,3,5,7,9,11,13,15,17,19,-1,21,-1,23,25,27,-1,29,31,33,-1,35,37,39,-1,-1,41,43,-1,45,47,49,-1,51,53,55,57,59,-1,-1,-1,61,63,-1,-1,-1,-1,-1,-1,-1,-1,-1,-1,-1,-1,-1,-1,-1,-1,-1,-1,-1,-1,-1,-1],"loss_changes":[7.6008472E0,5.4077835E0,6.395507E0,3.0249305E0,2.1034694E0,3.0537965E0,4.5266743E0,2.3539324E0,3.3848E0,1.465702E0,0E0,3.7864516E0,0E0,6.2323613E0,1.9721317E0,2.5422547E0,0E0,4.485343E0,4.426594E0,1.6198554E0,0E0,2.8160105E0,2.2762008E0,3.2494276E0,0E0,0E0,2.5599542E0,3.7304342E0,0E0,6.950655E0,1.7788525E0,3.6563046E0,0E0,2.750114E0,3.8371167E0,3.218262E0,4.9771986E0,3.2210422E0,0E0,0E0,0E0,1.806921E0,2.81539E0,0E0,0E0,0E0,0E0,0E0,0E0,0E0,0E0,0E0,0E0,0E0,0E0,0E0,0E0,0E0,0E0,0E0,0E0,0E0,0E0,0E0,0E0],"parents":[2147483647,0,0,1,1,2,2,3,3,4,4,5,5,6,6,7,7,8,8,9,9,11,11,13,13,14,14,15,15,17,17,18,18,19,19,21,21,22,22,23,23,26,26,27,27,29,29,30,30,31,31,33,33,34,34,35,35,36,36,37,37,41,41,42,42],"right_children":[2,4,6,8,10,12,14,16,18,20,-1,22,-1,24,26,28,-1,30,32,34,-1,36,38,40,-1,-1,42,44,-1,46,48,50,-1,52,54,56,58,60,-1,-1,-1,62,64,-1,-1,-1,-1,-1,-1,-1,-1,-1,-1,-1,-1,-1,-1,-1,-1,-1,-1,-1,-1,-1,-1],"split_conditions":[3.2788077E-1,7.179289E-6,1.1858934E1,1.2044247E1,7.79684E1,1.4153723E-1,1.2870108E1,8.321696E-2,-5.606619E-2,3.059846E-1,-1.2931687E-1,1.2839227E1,-1.06773786E-1,1.2432229E1,-1.55388815E-2,1.638985E1,-1.2002976E-1,-1.5988542E-1,2.1787779E-1,2.610437E-1,1.4413305E-1,1.23313E1,1.3091471E1,1.2113032E1,3.7400952E-1,-1.0167953E-1,1.8834695E-5,1.1547807E1,1.5032685E-1,-2.429606E8,2.86166E7,2.8276968E-1,-8.910992E-2,6.496551E1,1.4019E7,1.1132904E1,-1.3324182E-1,7.617618E1,-1.1398873E-1,2.0700529E-1,-1.21161416E-1,1.5846906E1,-1.502049E8,7.387721E-2,-1.3587262E-1,-1.10972315E-1,8.648315E-2,-1.2250915E-1,-5.541533E-3,4.256874E-2,-2.5916707E-2,1.4131036E-1,-1.23091064E-1,-1.3187373E-1,6.4083174E-2,-4.281497E-2,3.531222E-2,1.4587414E-1,-1.1620128E-1,2.3251237E-1,1.8086187E-3,-8.333077E-2,3.3110317E-2,3.045067E-1,-2.5726317E-3],"split_indices":[15,19,13,7,17,10,11,10,8,15,0,0,0,6,10,18,0,8,8,15,0,7,7,7,0,0,19,6,0,16,4,15,0,17,4,12,10,17,0,0,0,0,16,0,0,0,0,0,0,0,0,0,0,0,0,0,0,0,0,0,0,0,0,0,0],"split_type":[0,0,0,0,0,0,0,0,0,0,0,0,0,0,0,0,0,0,0,0,0,0,0,0,0,0,0,0,0,0,0,0,0,0,0,0,0,0,0,0,0,0,0,0,0,0,0,0,0,0,0,0,0,0,0,0,0,0,0,0,0,0,0,0,0],"sum_hessian":[5.437507E2,2.7608362E2,2.6766702E2,2.3052512E2,4.5558514E1,1.2618563E2,1.4148138E2,2.8785473E1,2.0173964E2,4.363086E1,1.9276571E0,1.144991E2,1.1686534E1,7.2820163E0,1.3419937E2,2.6082531E1,2.7029405E0,6.2699547E1,1.390401E2,3.499165E1,8.639208E0,1.0350827E2,1.0990831E1,5.456329E0,1.8256875E0,7.633035E1,5.7869015E1,1.7102713E1,8.979819E0,2.7549667E1,3.514988E1,1.2008579E2,1.8954302E1,1.310811E1,2.1883541E1,8.214748E1,2.1360794E1,9.558917E0,1.4319142E0,1.4487591E0,4.00757E0,4.973224E1,8.136773E0,1.2953702E1,4.14901E0,1.1675544E1,1.5874124E1,2.9067938E1,6.0819407E0,6.673614E1,5.334966E1,1.15136175E1,1.594493E0,4.743952E0,1.713959E1,3.4666775E1,4.7480698E1,3.1155353E0,1.824526E1,5.659883E0,3.899034E0,4.4120346E1,5.6118927E0,1.2147803E0,6.921993E0],"tree_param":{"num_deleted":"0","num_feature":"20","num_nodes":"65","size_leaf_vector":"1"}},{"base_weights":[4.5687994E-3,-2.1607973E-1,5.5393063E-2,-2.4810791E-1,1.4936268E-1,3.7155133E-1,1.9172274E-2,-1.7718112E-1,-1.21069E-1,-6.828326E-2,8.828107E-2,-8.00696E-3,2.6638877E-1,-2.4507074E-1,2.1218745E-1,-1.3908996E-1,1.1853111E-1,2.454628E-1,-4.288349E-2,6.483774E-1,-9.773613E-3,-4.0997902E-1,-9.170259E-2,-9.565954E-2,1.1194318E-1,-1.3078855E-1,3.5056522E-1,1.423318E-1,-1.1697669E-1,-3.4269452E-2,1.4451307E-1,-1.3063197E-1,2.037573E-1,1.1520088E-1,-8.807533E-2,2.2969982E-3,-1.1986464E-1,1.7368604E-1,2.7241081E-2,-2.100865E-2,8.708509E-2,-7.421282E-2,-6.6567874E-3,2.3038827E-3,-1.393729E-1],"categories":[],"categories_nodes":[],"categories_segments":[],"categories_sizes":[],"default_left":[0,0,0,0,0,0,0,0,0,0,0,0,0,0,0,0,0,0,0,0,0,0,0,0,0,0,0,0,0,0,0,0,0,0,0,0,0,0,0,0,0,0,0,0,0],"id":18,"left_children":[1,3,5,7,-1,9,11,13,-1,15,-1,17,19,21,23,-1,-1,25,27,29,31,33,35,-1,-1,-1,37,39,41,-1,-1,43,-1,-1,-1,-1,-1,-1,-1,-1,-1,-1,-1,-1,-1],"loss_changes":[6.6238403E0,3.489008E0,5.4918933E0,2.7938585E0,0E0,1.7574382E0,2.9033127E0,2.394174E0,0E0,3.4138677E0,0E0,3.4322057E0,4.529116E0,1.9308E0,3.4448473E0,0E0,0E0,4.541752E0,4.6919823E0,1.3872199E0,3.1745489E0,1.5496836E0,2.1814668E0,0E0,0E0,0E0,4.761958E0,7.4202566E0,5.314637E0,0E0,0E0,1.8861809E0,0E0,0E0,0E0,0E0,0E0,0E0,0E0,0E0,0E0,0E0,0E0,0E0,0E0],"parents":[2147483647,0,0,1,1,2,2,3,3,5,5,6,6,7,7,9,9,11,11,12,12,13,13,14,14,17,17,18,18,19,19,20,20,21,21,22,22,26,26,27,27,28,28,31,31],"right_children":[2,4,6,8,-1,10,12,14,-1,16,-1,18,20,22,24,-1,-1,26,28,30,32,34,36,-1,-1,-1,38,40,42,-1,-1,44,-1,-1,-1,-1,-1,-1,-1,-1,-1,-1,-1,-1,-1],"split_conditions":[1.2097415E1,7.79684E1,-1.5583228E-5,8.3111745E-6,1.4936268E-1,-1.1265991E-1,2.6451728E-1,5.75956E7,-1.21069E-1,1.2707852E1,8.828107E-2,-1.9834992E-1,6.1355225E1,2.3410917E1,-8.814395E-2,-1.3908996E-1,1.1853111E-1,1.8654451E1,1.6508888E1,1.1906884E1,5.037867E1,3.4477665E1,-2.004495E8,-9.565954E-2,1.1194318E-1,-1.3078855E-1,2.4517475E1,-3.63255E7,-1.14972085E-1,-3.4269452E-2,1.4451307E-1,7.5221596E1,2.037573E-1,1.1520088E-1,-8.807533E-2,2.2969982E-3,-1.1986464E-1,1.7368604E-1,2.7241081E-2,-2.100865E-2,8.708509E-2,-7.421282E-2,-6.6567874E-3,2.3038827E-3,-1.393729E-1],"split_indices":[12,17,19,19,0,10,9,16,0,2,0,9,5,14,9,0,0,14,14,13,14,5,16,0,0,0,14,16,8,0,0,5,0,0,0,0,0,0,0,0,0,0,0,0,0],"split_type":[0,0,0,0,0,0,0,0,0,0,0,0,0,0,0,0,0,0,0,0,0,0,0,0,0,0,0,0,0,0,0,0,0,0,0,0,0,0,0,0,0,0,0,0,0],"sum_hessian":[5.9067346E2,1.10418816E2,4.8025467E2,1.0705093E2,3.3678951E0,4.91693E1,4.3108536E2,9.01239E1,1.6927023E1,7.5650597E0,4.160424E1,3.8843155E2,4.265381E1,7.683466E1,1.3289235E1,3.8845427E0,3.6805172E0,4.6804398E1,3.4162717E2,1.7849947E1,2.4803862E1,3.6842785E1,3.9991882E1,4.4756145E0,8.813621E0,4.72235E0,4.2082047E1,9.749459E1,2.4413257E2,1.7485268E0,1.610142E1,2.2379839E1,2.4240212E0,1.3548783E0,3.5487907E1,3.345809E1,6.5337896E0,1.16904335E1,3.0391613E1,5.348431E1,4.4010284E1,5.8323853E1,1.858087E2,1.8067844E1,4.3119955E0],"tree_param":{"num_deleted":"0","num_feature":"20","num_nodes":"45","size_leaf_vector":"1"}},{"base_weights":[7.004004E-2,4.057745E-2,3.60478E-1,1.0118243E-1,-4.388476E-2,-1.1611067E-1,4.0940166E-1,-3.328413E-2,2.0873524E-1,-2.1736647E-1,6.508507E-2,-3.1623223E-1,4.7213784E-1,1.9614798E-1,-2.1778524E-1,4.2423296E-1,8.948658E-2,-3.5659885E-1,1.5557131E-1,2.6562068E-1,-6.549506E-2,1.0743674E-1,-1.3639437E-1,6.5291995E-1,2.5398585E-1,2.7725714E-1,-4.3842235E-1,-1.12264276E-1,-4.005822E-2,-4.5002326E-1,5.287839E-1,-1.053112E-1,1.8517159E-1,1.82316E-1,-3.9840078E-1,1.8976632E-1,-5.0466143E-2,-1.05507195E-1,3.8957983E-1,-1.8104585E-1,3.100114E-1,-4.568902E-2,1.3715488E-1,-4.6304274E-1,4.8153052E-1,9.7948834E-2,9.484425E-3,-1.2804724E-1,7.263936E-2,-7.645824E-2,4.3283105E-2,-1.3823009E-1,9.3185075E-2,-5.4402067E-3,1.355167E-1,4.607606E-2,-1.1912952E-1,-1.1771382E-1,-4.9383923E-2,-1.16031215E-1,4.509189E-2,9.947729E-2,-3.214548E-2,1.984813E-3,-1.1067835E-1,-7.860513E-2,1.3409844E-1,-1.5316352E-1,9.258182E-2,1.4130108E-1,1.9939208E-2],"categories":[],"categories_nodes":[],"categories_segments":[],"categories_sizes":[],"default_left":[0,0,0,0,0,0,0,0,0,0,0,0,0,0,0,0,0,0,0,0,0,0,0,0,0,0,0,0,0,0,0,0,0,0,0,0,0,0,0,0,0,0,0,0,0,0,0,0,0,0,0,0,0,0,0,0,0,0,0,0,0,0,0,0,0,0,0,0,0,0,0],"id":19,"left_children":[1,3,5,7,9,-1,11,13,15,17,19,21,23,25,27,29,31,33,35,37,39,-1,-1,41,43,45,47,-1,49,51,53,-1,55,-1,57,-1,59,-1,61,63,65,-1,-1,67,69,-1,-1,-1,-1,-1,-1,-1,-1,-1,-1,-1,-1,-1,-1,-1,-1,-1,-1,-1,-1,-1,-1,-1,-1,-1,-1],"loss_changes":[5.2350817E0,2.8520079E0,2.6644254E0,4.6959133E0,4.401752E0,0E0,2.4706202E0,6.1099343E0,4.617729E0,4.676718E0,3.7480779E0,1.492248E0,1.910862E0,3.32277E0,5.061935E0,5.897976E0,7.004724E0,3.5733452E0,4.142204E0,5.664113E0,3.7619019E0,0E0,0E0,1.2118645E0,3.7415316E0,2.914133E0,1.3273611E0,0E0,4.947183E0,1.702883E0,5.2886257E0,0E0,4.0912056E0,0E0,1.8499975E0,0E0,3.0336058E0,0E0,3.2721004E0,4.904314E0,5.5137076E0,0E0,0E0,1.7226056E0,1.5646868E0,0E0,0E0,0E0,0E0,0E0,0E0,0E0,0E0,0E0,0E0,0E0,0E0,0E0,0E0,0E0,0E0,0E0,0E0,0E0,0E0,0E0,0E0,0E0,0E0,0E0,0E0],"parents":[2147483647,0,0,1,1,2,2,3,3,4,4,6,6,7,7,8,8,9,9,10,10,11,11,12,12,13,13,14,14,15,15,16,16,17,17,18,18,19,19,20,20,23,23,24,24,25,25,26,26,28,28,29,29,30,30,32,32,34,34,36,36,38,38,39,39,40,40,43,43,44,44],"right_children":[2,4,6,8,10,-1,12,14,16,18,20,22,24,26,28,30,32,34,36,38,40,-1,-1,42,44,46,48,-1,50,52,54,-1,56,-1,58,-1,60,-1,62,64,66,-1,-1,68,70,-1,-1,-1,-1,-1,-1,-1,-1,-1,-1,-1,-1,-1,-1,-1,-1,-1,-1,-1,-1,-1,-1,-1,-1,-1,-1],"split_conditions":[4.1846785E-1,6.374707E-2,9.8689165E0,1.2237701E1,2.2896269E1,-1.1611067E-1,3.242969E1,1.2682749E1,1.2784481E1,3.5325465E-1,1.3320085E1,8.976252E0,2.4276828E-2,4.280947E1,3.3825895E-1,-2.5461406E-1,1.3114121E1,1.2361421E1,3.5949475E-1,1.2430521E1,1.5896838E1,1.0743674E-1,-1.3639437E-1,1.696512E1,2.4768773E-1,-1.355482E-1,1.1807387E1,-1.12264276E-1,1.2384046E1,-2.2173952E-1,1.3880844E1,-1.053112E-1,1.4809597E1,1.82316E-1,1.8170084E1,1.8976632E-1,4.8097244E1,-1.05507195E-1,3.3009043E-1,1.5747723E1,6.1882587E1,-4.568902E-2,1.3715488E-1,1.3925699E1,3.632347E-1,9.7948834E-2,9.484425E-3,-1.2804724E-1,7.263936E-2,-7.645824E-2,4.3283105E-2,-1.3823009E-1,9.3185075E-2,-5.4402067E-3,1.355167E-1,4.607606E-2,-1.1912952E-1,-1.1771382E-1,-4.9383923E-2,-1.16031215E-1,4.509189E-2,9.947729E-2,-3.214548E-2,1.984813E-3,-1.1067835E-1,-7.860513E-2,1.3409844E-1,-1.5316352E-1,9.258182E-2,1.4130108E-1,1.9939208E-2],"split_indices":[15,9,7,13,14,0,5,11,13,15,6,0,8,14,15,8,2,14,15,11,2,0,0,14,8,9,6,0,7,9,14,0,13,0,14,0,17,0,9,11,5,0,0,1,8,0,0,0,0,0,0,0,0,0,0,0,0,0,0,0,0,0,0,0,0,0,0,0,0,0,0],"split_type":[0,0,0,0,0,0,0,0,0,0,0,0,0,0,0,0,0,0,0,0,0,0,0,0,0,0,0,0,0,0,0,0,0,0,0,0,0,0,0,0,0,0,0,0,0,0,0,0,0,0,0,0,0,0,0,0,0,0,0,0,0,0,0,0,0,0,0,0,0,0,0],"sum_hessian":[6.128885E2,5.5665564E2,5.6232872E1,3.242317E2,2.3242392E2,2.6420403E0,5.359083E1,1.4404291E2,1.801888E2,8.969046E1,1.4273346E2,4.1918464E0,4.9398987E1,6.41481E1,7.9894806E1,6.3996536E1,1.1619226E2,6.535459E1,2.4335867E1,5.6295685E1,8.6437775E1,1.2467928E0,2.9450538E0,2.6804953E1,2.2594034E1,5.6978817E1,7.1692863E0,2.6408745E1,5.348606E1,6.763836E0,5.72327E1,1.5231974E1,1.0096028E2,1.940175E0,6.3414413E1,4.8204694E0,1.9515398E1,7.41888E0,4.8876804E1,6.619783E1,2.0239944E1,1.3612173E0,2.5443737E1,5.384809E0,1.7209225E1,2.8636866E1,2.8341951E1,5.6961317E0,1.4731544E0,2.2833305E1,3.0652756E1,5.3369555E0,1.4268806E0,1.3087326E1,4.4145374E1,9.502326E1,5.937025E0,2.6136812E1,3.7277603E1,6.6275663E0,1.2887832E1,4.023317E1,8.643635E0,4.431007E1,2.188776E1,6.9756417E0,1.3264302E1,4.0445905E0,1.3402187E0,1.0395796E1,6.813429E0],"tree_param":{"num_deleted":"0","num_feature":"20","num_nodes":"71","size_leaf_vector":"1"}},{"base_weights":[-9.987126E-2,1.4154354E-2,-2.2237186E-1,-4.3789532E-2,2.802805E-1,-8.7919146E-2,-3.9398047E-1,3.5988507E-1,-7.7436954E-2,3.9357156E-1,-5.5207472E-2,-4.6877018E-1,-4.615554E-3,2.4372351E-1,-8.716349E-2,7.3236126E-1,-4.286284E-1,7.7642426E-2,-2.0397505E-1,2.6047775E-1,1.8476754E-1,4.0214422E-1,-1.0613694E-1,6.265709E-2,-1.0330373E-1,1.6116093E-1,-2.4436031E-1,6.5054375E-1,-1.1371611E-1,3.84662E-1,2.0431024E-1,-1.4301036E-1,7.985668E-2,-3.0893425E-2,6.0816E-1,-2.4017344E-1,5.531022E-1,3.535381E-1,-1.18711635E-1,1.3244782E-1,2.4506916E-1,8.969454E-2,2.018326E-1,-3.055488E-1,1.7630042E-1,-4.1252352E-2,1.1387926E0,-1.7410943E-2,1.630604E-1,2.8181244E-2,-8.474923E-2,1.91223E-1,-1.182786E-1,1.5027535E-1,-5.1555745E-2,-1.22311935E-1,1.8598512E-1,1.427625E-1,2.262768E-2,-1.1773089E-1,1.0777873E-1,5.3066336E-2,-9.278157E-2,-6.903685E-2,2.029619E-1,3.3762537E-2,2.957338E-1],"categories":[],"categories_nodes":[],"categories_segments":[],"categories_sizes":[],"default_left":[0,0,0,0,0,0,0,0,0,0,0,0,0,0,0,0,0,0,0,0,0,0,0,0,0,0,0,0,0,0,0,0,0,0,0,0,0,0,0,0,0,0,0,0,0,0,0,0,0,0,0,0,0,0,0,0,0,0,0,0,0,0,0,0,0,0,0],"id":20,"left_children":[1,3,5,7,9,11,13,15,17,19,21,23,25,27,-1,29,31,33,35,37,-1,39,-1,-1,-1,41,43,45,-1,47,-1,-1,-1,49,51,53,55,57,-1,59,-1,61,-1,63,-1,-1,65,-1,-1,-1,-1,-1,-1,-1,-1,-1,-1,-1,-1,-1,-1,-1,-1,-1,-1,-1,-1],"loss_changes":[7.3653855E0,4.21589E0,5.8484077E0,3.0432441E0,1.8685181E0,4.518297E0,3.7393646E0,5.110565E0,4.0694246E0,2.6312666E0,2.8069458E0,1.2429228E0,4.669921E0,2.9160445E0,0E0,1.1962218E0,1.4726678E0,5.375312E0,3.141048E0,2.4274628E0,0E0,1.4347159E0,0E0,0E0,0E0,4.288193E0,3.3999271E0,2.4895933E0,0E0,1.2721887E0,0E0,0E0,0E0,5.4785595E0,7.228044E0,2.6384306E0,2.5515428E0,2.3887997E0,0E0,1.6166841E0,0E0,6.6243653E0,0E0,2.9860258E0,0E0,0E0,1.2803626E0,0E0,0E0,0E0,0E0,0E0,0E0,0E0,0E0,0E0,0E0,0E0,0E0,0E0,0E0,0E0,0E0,0E0,0E0,0E0,0E0],"parents":[2147483647,0,0,1,1,2,2,3,3,4,4,5,5,6,6,7,7,8,8,9,9,10,10,11,11,12,12,13,13,15,15,16,16,17,17,18,18,19,19,21,21,25,25,26,26,27,27,29,29,33,33,34,34,35,35,36,36,37,37,39,39,41,41,43,43,46,46],"right_children":[2,4,6,8,10,12,14,16,18,20,22,24,26,28,-1,30,32,34,36,38,-1,40,-1,-1,-1,42,44,46,-1,48,-1,-1,-1,50,52,54,56,58,-1,60,-1,62,-1,64,-1,-1,66,-1,-1,-1,-1,-1,-1,-1,-1,-1,-1,-1,-1,-1,-1,-1,-1,-1,-1,-1,-1],"split_conditions":[3.2788077E-1,5.9213644E-6,1.294331E1,2.1461289E-1,6.300755E1,1.633048E1,-1.682053E8,1.8630716E-1,-7.90338E7,1.693682E8,1.2582309E1,-1.3105145E-1,2.2896269E1,1.253045E1,-8.716349E-2,6.993104E-16,1.4468061E1,1.3253837E1,3.6618E7,1.4098085E1,1.8476754E-1,2.350309E-1,-1.0613694E-1,6.265709E-2,-1.0330373E-1,1.3052804E1,1.3074415E1,-8.687162E-7,-1.1371611E-1,4.4156303E1,2.0431024E-1,-1.4301036E-1,7.985668E-2,1.2787443E1,1.4833215E1,-3.79331E-1,2.897538E-1,2.0189323E1,-1.18711635E-1,7.338494E1,2.4506916E-1,1.2994613E1,2.018326E-1,5.1308445E1,1.7630042E-1,-4.1252352E-2,1.2852896E1,-1.7410943E-2,1.630604E-1,2.8181244E-2,-8.474923E-2,1.91223E-1,-1.182786E-1,1.5027535E-1,-5.1555745E-2,-1.22311935E-1,1.8598512E-1,1.427625E-1,2.262768E-2,-1.1773089E-1,1.0777873E-1,5.3066336E-2,-9.278157E-2,-6.903685E-2,2.029619E-1,3.3762537E-2,2.957338E-1],"split_indices":[15,19,7,15,17,14,16,8,16,16,13,9,14,13,0,19,0,7,4,12,0,8,0,0,0,0,12,19,0,14,0,0,0,3,11,9,15,14,0,17,0,11,0,14,0,0,12,0,0,0,0,0,0,0,0,0,0,0,0,0,0,0,0,0,0,0,0],"split_type":[0,0,0,0,0,0,0,0,0,0,0,0,0,0,0,0,0,0,0,0,0,0,0,0,0,0,0,0,0,0,0,0,0,0,0,0,0,0,0,0,0,0,0,0,0,0,0,0,0,0,0,0,0,0,0,0,0,0,0,0,0,0,0,0,0,0,0],"sum_hessian":[5.268037E2,2.7281436E2,2.5398936E2,2.2406635E2,4.8748016E1,1.4260207E2,1.1138729E2,1.7084837E1,2.069815E2,3.6471233E1,1.2276783E1,2.5429419E1,1.1717265E2,8.37218E0,1.03015114E2,1.1628858E1,5.4559793E0,9.2950874E1,1.1403063E2,2.958995E1,6.881284E0,6.329045E0,5.9477386E0,1.7313042E0,2.3698114E1,6.924738E1,4.7925266E1,5.646866E0,2.7253146E0,5.697795E0,5.9310627E0,4.0362434E0,1.419736E0,7.724169E1,1.5709185E1,1.08946655E2,5.083976E0,2.6823795E1,2.7661552E0,4.951737E0,1.3773077E0,6.417053E1,5.076856E0,4.5614662E1,2.3106015E0,2.055539E0,3.5913267E0,2.8084364E0,2.8893588E0,5.3865894E1,2.33758E1,1.2066792E1,3.642394E0,2.3853679E0,1.0656129E2,1.2515991E0,3.8323767E0,1.0216684E1,1.6607111E1,1.7575166E0,3.1942205E0,4.8614384E1,1.5556147E1,4.4161392E1,1.4532723E0,1.0789951E0,2.5123315E0],"tree_param":{"num_deleted":"0","num_feature":"20","num_nodes":"67","size_leaf_vector":"1"}},{"base_weights":[8.862464E-3,3.8562763E-1,-1.3519093E-2,3.2841063E-1,2.1310979E-1,-6.049742E-2,1.4565992E-2,-7.053655E-2,4.0081292E-1,8.730781E-2,-9.646794E-2,5.9596443E-1,1.3016E-1,5.3336035E-2,4.8635107E-1,-5.277065E-1,-3.8744126E-2,1.4727804E-1,-3.1154742E-2,-2.2743984E-1,1.6834441E-1,2.872764E-1,-2.8723827E-2,1.4761756E-1,1.5335454E-1,2.7703607E-1,-1.314274E-1,2.9615864E-2,-2.6101246E-1,-1.3758191E-1,1.488174E-1,1.3209105E-1,-9.724069E-2,1.7993817E-2,1.17088854E-1,5.677435E-2,-2.571678E-2,-3.2860108E-2,1.6700874E-1,-1.1235793E-1,1.3647573E-1,-1.3099262E-3,1.8764721E-1,-1.0141477E-1,3.5607275E-2],"categories":[],"categories_nodes":[],"categories_segments":[],"categories_sizes":[],"default_left":[0,0,0,0,0,0,0,0,0,0,0,0,0,0,0,0,0,0,0,0,0,0,0,0,0,0,0,0,0,0,0,0,0,0,0,0,0,0,0,0,0,0,0,0,0],"id":21,"left_children":[1,3,5,7,-1,-1,9,-1,11,13,15,17,19,21,23,25,27,-1,29,31,-1,33,35,-1,37,39,-1,41,43,-1,-1,-1,-1,-1,-1,-1,-1,-1,-1,-1,-1,-1,-1,-1,-1],"loss_changes":[4.878596E0,1.2283359E0,4.5428863E0,1.5310733E0,0E0,0E0,4.0237727E0,0E0,1.4238892E0,4.066717E0,4.891194E0,1.5923214E0,3.1114855E0,5.337695E0,2.077774E0,2.747373E0,2.6502025E0,0E0,1.839399E0,1.9927454E0,0E0,4.3760843E0,6.7640963E0,0E0,2.4610186E0,1.3630586E0,0E0,4.524477E0,4.716731E0,0E0,0E0,0E0,0E0,0E0,0E0,0E0,0E0,0E0,0E0,0E0,0E0,0E0,0E0,0E0,0E0],"parents":[2147483647,0,0,1,1,2,2,3,3,6,6,8,8,9,9,10,10,11,11,12,12,13,13,14,14,15,15,16,16,18,18,19,19,21,21,22,22,24,24,25,25,27,27,28,28],"right_children":[2,4,6,8,-1,-1,10,-1,12,14,16,18,20,22,24,26,28,-1,30,32,-1,34,36,-1,38,40,-1,42,44,-1,-1,-1,-1,-1,-1,-1,-1,-1,-1,-1,-1,-1,-1,-1,-1],"split_conditions":[-2.7544937E-5,9.924874E-2,1.13594675E1,1.0167859E1,2.1310979E-1,-6.049742E-2,1.5842192E-2,-7.053655E-2,2.3001087E1,2.9600117E-1,1.4455627E1,-3.0511053E-5,-3.3554137E-5,1.6791222E1,6.2070705E1,2.2629807E-2,1.706295E8,1.4727804E-1,-2.944437E-5,2.014648E1,1.6834441E-1,1.271E6,3.649489E1,1.4761756E-1,3.2037205E1,2.552617E-1,-1.314274E-1,1.4580862E1,2.0846948E-1,-1.3758191E-1,1.488174E-1,1.3209105E-1,-9.724069E-2,1.7993817E-2,1.17088854E-1,5.677435E-2,-2.571678E-2,-3.2860108E-2,1.6700874E-1,-1.1235793E-1,1.3647573E-1,-1.3099262E-3,1.8764721E-1,-1.0141477E-1,3.5607275E-2],"split_indices":[19,10,3,0,0,0,10,0,14,9,14,19,19,14,17,10,16,0,19,17,0,16,5,0,14,15,0,6,9,0,0,0,0,0,0,0,0,0,0,0,0,0,0,0,0],"split_type":[0,0,0,0,0,0,0,0,0,0,0,0,0,0,0,0,0,0,0,0,0,0,0,0,0,0,0,0,0,0,0,0,0,0,0,0,0,0,0,0,0,0,0,0,0],"sum_hessian":[5.7736694E2,3.229947E1,5.4506744E2,3.0096817E1,2.2026498E0,4.714473E1,4.9792273E2,2.7779865E0,2.731883E1,3.009705E2,1.9695224E2,1.5728433E1,1.1590398E1,2.775558E2,2.341472E1,2.3070818E1,1.7388142E2,1.2565863E1,3.16257E0,7.8317337E0,3.7586644E0,7.2052055E1,2.0550372E2,1.2807097E1,1.0607624E1,3.4842875E0,1.9586529E1,1.3300244E2,4.0878986E1,1.7336807E0,1.4288893E0,1.7365203E0,6.0952134E0,4.4494118E1,2.7557934E1,4.9976486E1,1.5552724E2,7.3270655E0,3.2805586E0,1.1194555E0,2.3648322E0,1.2812242E2,4.8800178E0,2.5847118E1,1.5031869E1],"tree_param":{"num_deleted":"0","num_feature":"20","num_nodes":"45","size_leaf_vector":"1"}},{"base_weights":[7.726812E-2,9.618333E-2,-2.551763E-1,7.421177E-2,3.4494337E-1,1.03180386E-1,-3.5160846E-1,1.0362455E-2,1.4756493E-1,-1.14389054E-1,4.0924805E-1,-9.670966E-2,-1.16469786E-1,1.4787291E-1,-1.0423556E-1,2.349662E-1,-7.71371E-2,3.3568928E-1,1.7437503E-1,-4.427267E-1,1.8835363E-1,2.2470649E-1,-3.485658E-1,-2.525086E-1,4.7321185E-3,1.939976E-1,1.6402422E-1,-3.1428578E-1,1.5899141E-1,4.9608454E-1,-2.0033811E-1,8.6682975E-2,-1.3304856E-1,-8.712835E-2,5.696022E-1,1.0179802E-2,6.634273E-2,-1.0668773E-1,7.630427E-2,-3.068862E-2,-1.0917402E-1,-1.2609249E-2,1.0262117E-1,-6.2015023E-2,4.601866E-2,-1.8122992E-2,-1.0632741E-1,-2.9651692E-2,1.1199458E-1,1.103915E-1,-6.419442E-2,-9.527827E-2,9.608901E-2,-4.1033875E-2,2.070815E-1],"categories":[],"categories_nodes":[],"categories_segments":[],"categories_sizes":[],"default_left":[0,0,0,0,0,0,0,0,0,0,0,0,0,0,0,0,0,0,0,0,0,0,0,0,0,0,0,0,0,0,0,0,0,0,0,0,0,0,0,0,0,0,0,0,0,0,0,0,0,0,0,0,0,0,0],"id":22,"left_children":[1,3,5,7,9,-1,11,13,15,-1,17,19,-1,21,23,25,27,29,-1,31,33,35,37,39,41,43,-1,45,47,49,51,-1,-1,-1,53,-1,-1,-1,-1,-1,-1,-1,-1,-1,-1,-1,-1,-1,-1,-1,-1,-1,-1,-1,-1],"loss_changes":[3.7062151E0,3.0361896E0,2.4180305E0,2.398126E0,2.7322555E0,0E0,1.7448723E0,4.3283157E0,4.689369E0,0E0,1.43717E0,1.4074595E0,0E0,4.772757E0,2.4242501E0,4.211747E0,3.7521698E0,3.2027626E0,0E0,1.4101154E0,1.9237639E0,2.1377797E0,2.4826257E0,1.8284392E0,3.1299877E0,3.438768E0,0E0,1.6831384E0,4.34038E0,1.659648E0,1.7446867E0,0E0,0E0,0E0,1.944029E0,0E0,0E0,0E0,0E0,0E0,0E0,0E0,0E0,0E0,0E0,0E0,0E0,0E0,0E0,0E0,0E0,0E0,0E0,0E0,0E0],"parents":[2147483647,0,0,1,1,2,2,3,3,4,4,6,6,7,7,8,8,10,10,11,11,13,13,14,14,15,15,16,16,17,17,19,19,20,20,21,21,22,22,23,23,24,24,25,25,27,27,28,28,29,29,30,30,34,34],"right_children":[2,4,6,8,10,-1,12,14,16,-1,18,20,-1,22,24,26,28,30,-1,32,34,36,38,40,42,44,-1,46,48,50,52,-1,-1,-1,54,-1,-1,-1,-1,-1,-1,-1,-1,-1,-1,-1,-1,-1,-1,-1,-1,-1,-1,-1,-1],"split_conditions":[4.47196E7,4.1655236E-1,9.838598E0,2.2896269E1,9.8689165E0,1.03180386E-1,4.7713512E1,1.80486E7,1.5079727E1,-1.14389054E-1,1.4062757E1,3.5728207E1,-1.16469786E-1,1.2548244E-1,3.325644E-1,1.4866928E1,6.207016E1,1.3228423E1,1.7437503E-1,-3.669238E8,1.2994613E1,4.320342E1,2.0026523E-1,8.228134E-2,1.4456479E1,1.1980092E1,1.6402422E-1,1.4939682E1,1.5896838E1,6.1603714E1,1.4017367E1,8.6682975E-2,-1.3304856E-1,-8.712835E-2,-1.51969325E-5,1.0179802E-2,6.634273E-2,-1.0668773E-1,7.630427E-2,-3.068862E-2,-1.0917402E-1,-1.2609249E-2,1.0262117E-1,-6.2015023E-2,4.601866E-2,-1.8122992E-2,-1.0632741E-1,-2.9651692E-2,1.1199458E-1,1.103915E-1,-6.419442E-2,-9.527827E-2,9.608901E-2,-4.1033875E-2,2.070815E-1],"split_indices":[4,15,3,14,7,0,5,4,11,0,0,5,0,9,15,11,5,11,0,16,11,17,9,9,11,11,0,3,2,5,1,0,0,0,19,0,0,0,0,0,0,0,0,0,0,0,0,0,0,0,0,0,0,0,0],"split_type":[0,0,0,0,0,0,0,0,0,0,0,0,0,0,0,0,0,0,0,0,0,0,0,0,0,0,0,0,0,0,0,0,0,0,0,0,0,0,0,0,0,0,0,0,0,0,0,0,0,0,0,0,0,0,0],"sum_hessian":[5.892321E2,5.5766754E2,3.1564627E1,5.126576E2,4.5009926E1,3.3653836E0,2.8199244E1,2.7432687E2,2.3833072E2,2.81327E0,4.2196655E1,1.3952121E1,1.4247123E1,1.2476371E2,1.4956317E2,1.7165257E2,6.667815E1,3.6872242E1,5.324415E0,6.3007207E0,7.6514E0,1.0814665E2,1.6617054E1,6.335925E1,8.620392E1,1.6097197E2,1.0680596E1,3.328898E1,3.3389164E1,2.8418936E1,8.453305E0,1.2907209E0,5.0099998E0,2.841871E0,4.8095293E0,4.3395752E1,6.47509E1,1.3163149E1,3.4539063E0,4.853723E1,1.4822018E1,7.615295E1,1.0050976E1,1.2002384E1,1.4896959E2,1.711089E1,1.6178087E1,1.9101627E1,1.4287538E1,2.6286488E1,2.1324475E0,6.0244293E0,2.4288762E0,1.8721167E0,2.9374125E0],"tree_param":{"num_deleted":"0","num_feature":"20","num_nodes":"55","size_leaf_vector":"1"}},{"base_weights":[-8.673058E-2,4.657995E-2,-1.6296487E-1,1.21669516E-1,8.409571E-3,-9.148056E-2,-3.2700038E-1,-9.594446E-2,3.9441723E-2,-1.1795243E-1,5.7343316E-1,-3.9767015E-1,9.873967E-2,6.860965E-2,-9.719128E-2,-9.0244986E-2,-1.231689E-1,-1.08624145E-1,1.8166497E-1,2.2158985E-1,-4.1863805E-1,3.7720606E-1,-1.1359272E-1,4.0905324E-1,1.5337754E-2,-1.1329239E-1,5.502718E-1,-9.5395334E-2,-5.4400377E-2,-1.2872043E-1,6.530899E-1,1.1923012E-1,-9.2020534E-2,-1.0604441E-1,2.2742826E-2,-1.1709853E-2,-9.3362994E-2,-1.14870526E-1,2.4637361E-1,1.8321109E-1,-8.197694E-2,2.028059E-1,-4.1736305E-2],"categories":[],"categories_nodes":[],"categories_segments":[],"categories_sizes":[],"default_left":[0,0,0,0,0,0,0,0,0,0,0,0,0,0,0,0,0,0,0,0,0,0,0,0,0,0,0,0,0,0,0,0,0,0,0,0,0,0,0,0,0,0,0],"id":23,"left_children":[1,3,5,-1,7,9,11,-1,13,15,17,19,21,23,-1,25,-1,-1,-1,-1,27,29,-1,31,33,35,37,-1,39,-1,41,-1,-1,-1,-1,-1,-1,-1,-1,-1,-1,-1,-1],"loss_changes":[5.1838956E0,4.0657806E0,3.7909517E0,0E0,2.6927328E0,3.9820437E0,2.9701576E0,0E0,2.5663495E0,3.0693064E0,3.5689166E0,2.7634726E0,2.6919055E0,2.8158596E0,0E0,3.0518746E0,0E0,0E0,0E0,0E0,2.1039228E0,2.9456577E0,0E0,3.770622E0,7.6162434E0,3.8700678E0,5.9274426E0,0E0,4.98099E0,0E0,2.7395992E0,0E0,0E0,0E0,0E0,0E0,0E0,0E0,0E0,0E0,0E0,0E0,0E0],"parents":[2147483647,0,0,1,1,2,2,4,4,5,5,6,6,8,8,9,9,10,10,11,11,12,12,13,13,15,15,20,20,21,21,23,23,24,24,25,25,26,26,28,28,30,30],"right_children":[2,4,6,-1,8,10,12,-1,14,16,18,20,22,24,-1,26,-1,-1,-1,-1,28,30,-1,32,34,36,38,-1,40,-1,42,-1,-1,-1,-1,-1,-1,-1,-1,-1,-1,-1,-1],"split_conditions":[3.0239552E-1,1.1547807E1,1.4264872E1,1.21669516E-1,1.1828172E1,1.3094554E1,6.695502E1,-9.594446E-2,2.6757896E-1,1.2630025E1,1.4875928E1,-1.984214E8,1.10142455E-1,1.2061312E1,-9.719128E-2,1.2508861E1,-1.231689E-1,-1.08624145E-1,1.8166497E-1,2.2158985E-1,3.779923E8,3.077854E-1,-1.1359272E-1,6.660078E-2,1.2569039E1,1.2921074E1,5.4927647E1,-9.5395334E-2,1.6674955E1,-1.2872043E-1,3.752962E-1,1.1923012E-1,-9.2020534E-2,-1.0604441E-1,2.2742826E-2,-1.1709853E-2,-9.3362994E-2,-1.14870526E-1,2.4637361E-1,1.8321109E-1,-8.197694E-2,2.028059E-1,-4.1736305E-2],"split_indices":[15,6,11,0,0,13,5,0,8,13,14,16,10,13,0,13,0,0,0,0,16,15,0,10,13,7,17,0,3,0,15,0,0,0,0,0,0,0,0,0,0,0,0],"split_type":[0,0,0,0,0,0,0,0,0,0,0,0,0,0,0,0,0,0,0,0,0,0,0,0,0,0,0,0,0,0,0,0,0,0,0,0,0,0,0,0,0,0,0],"sum_hessian":[5.0959082E2,1.853117E2,3.2427908E2,1.1340268E1,1.7397145E2,2.2609958E2,9.817951E1,1.0009855E1,1.639616E2,2.1758583E2,8.513748E0,8.4253624E1,1.3925893E1,1.556707E2,8.290896E0,2.0662727E2,1.095856E1,2.0097885E0,6.50396E0,1.0219246E0,8.32317E1,9.948545E0,3.9773467E0,2.0880566E1,1.3479013E2,1.995955E2,7.0317645E0,6.97588E1,1.34729E1,2.0339937E0,7.914552E0,1.7047533E1,3.8330328E0,2.0540104E1,1.1425002E2,1.7432599E2,2.5269518E1,2.7015982E0,4.3301663E0,3.549438E0,9.923462E0,5.4767513E0,2.4378006E0],"tree_param":{"num_deleted":"0","num_feature":"20","num_nodes":"43","size_leaf_vector":"1"}},{"base_weights":[1.2189817E-2,-4.4699526E-1,3.0395392E-2,3.9292967E-1,-1.11632176E-1,-5.053487E-2,1.4897607E-1,-9.927401E-2,1.8501484E-1,1.8269184E-1,-9.4049014E-2,4.260946E-1,5.0205275E-2,5.6643385E-1,-1.0510135E-1,-5.6955114E-2,-5.134377E-1,6.048765E-1,1.0899527E-2,-2.4236345E-1,1.5659632E-1,7.6569986E-1,-1.3253863E-1,-2.9787397E-1,8.319408E-1,-9.0004936E-2,8.567082E-1,1.3191804E-1,-1.1588949E-1,-1.178108E-1,