{"learner":{"attributes":{"best_iteration":"999","best_score":"0.1305243732482195","scikit_learn":"{\"_estimator_type\": \"classifier\"}"},"feature_names":["Close","High","Low","Open","Volume","RSI","EMA_short","EMA_long","MACD","MACD_signal","MACD_hist","BB_upper","BB_middle","BB_lower","ADX","wavelet_cA","wavelet_cD"],"feature_types":["float","float","float","float","float","float","float","float","float","float","float","float","float","float","float","float","float"],"gradient_booster":{"model":{"gbtree_model_param":{"num_parallel_tree":"1","num_trees":"1000"},"iteration_indptr":[0,1,2,3,4,5,6,7,8,9,10,11,12,13,14,15,16,17,18,19,20,21,22,23,24,25,26,27,28,29,30,31,32,33,34,35,36,37,38,39,40,41,42,43,44,45,46,47,48,49,50,51,52,53,54,55,56,57,58,59,60,61,62,63,64,65,66,67,68,69,70,71,72,73,74,75,76,77,78,79,80,81,82,83,84,85,86,87,88,89,90,91,92,93,94,95,96,97,98,99,100,101,102,103,104,105,106,107,108,109,110,111,112,113,114,115,116,117,118,119,120,121,122,123,124,125,126,127,128,129,130,131,132,133,134,135,136,137,138,139,140,141,142,143,144,145,146,147,148,149,150,151,152,153,154,155,156,157,158,159,160,161,162,163,164,165,166,167,168,169,170,171,172,173,174,175,176,177,178,179,180,181,182,183,184,185,186,187,188,189,190,191,192,193,194,195,196,197,198,199,200,201,202,203,204,205,206,207,208,209,210,211,212,213,214,215,216,217,218,219,220,221,222,223,224,225,226,227,228,229,230,231,232,233,234,235,236,237,238,239,240,241,242,243,244,245,246,247,248,249,250,251,252,253,254,255,256,257,258,259,260,261,262,263,264,265,266,267,268,269,270,271,272,273,274,275,276,277,278,279,280,281,282,283,284,285,286,287,288,289,290,291,292,293,294,295,296,297,298,299,300,301,302,303,304,305,306,307,308,309,310,311,312,313,314,315,316,317,318,319,320,321,322,323,324,325,326,327,328,329,330,331,332,333,334,335,336,337,338,339,340,341,342,343,344,345,346,347,348,349,350,351,352,353,354,355,356,357,358,359,360,361,362,363,364,365,366,367,368,369,370,371,372,373,374,375,376,377,378,379,380,381,382,383,384,385,386,387,388,389,390,391,392,393,394,395,396,397,398,399,400,401,402,403,404,405,406,407,408,409,410,411,412,413,414,415,416,417,418,419,420,421,422,423,424,425,426,427,428,429,430,431,432,433,434,435,436,437,438,439,440,441,442,443,444,445,446,447,448,449,450,451,452,453,454,455,456,457,458,459,460,461,462,463,464,465,466,467,468,469,470,471,472,473,474,475,476,477,478,479,480,481,482,483,484,485,486,487,488,489,490,491,492,493,494,495,496,497,498,499,500,501,502,503,504,505,506,507,508,509,510,511,512,513,514,515,516,517,518,519,520,521,522,523,524,525,526,527,528,529,530,531,532,533,534,535,536,537,538,539,540,541,542,543,544,545,546,547,548,549,550,551,552,553,554,555,556,557,558,559,560,561,562,563,564,565,566,567,568,569,570,571,572,573,574,575,576,577,578,579,580,581,582,583,584,585,586,587,588,589,590,591,592,593,594,595,596,597,598,599,600,601,602,603,604,605,606,607,608,609,610,611,612,613,614,615,616,617,618,619,620,621,622,623,624,625,626,627,628,629,630,631,632,633,634,635,636,637,638,639,640,641,642,643,644,645,646,647,648,649,650,651,652,653,654,655,656,657,658,659,660,661,662,663,664,665,666,667,668,669,670,671,672,673,674,675,676,677,678,679,680,681,682,683,684,685,686,687,688,689,690,691,692,693,694,695,696,697,698,699,700,701,702,703,704,705,706,707,708,709,710,711,712,713,714,715,716,717,718,719,720,721,722,723,724,725,726,727,728,729,730,731,732,733,734,735,736,737,738,739,740,741,742,743,744,745,746,747,748,749,750,751,752,753,754,755,756,757,758,759,760,761,762,763,764,765,766,767,768,769,770,771,772,773,774,775,776,777,778,779,780,781,782,783,784,785,786,787,788,789,790,791,792,793,794,795,796,797,798,799,800,801,802,803,804,805,806,807,808,809,810,811,812,813,814,815,816,817,818,819,820,821,822,823,824,825,826,827,828,829,830,831,832,833,834,835,836,837,838,839,840,841,842,843,844,845,846,847,848,849,850,851,852,853,854,855,856,857,858,859,860,861,862,863,864,865,866,867,868,869,870,871,872,873,874,875,876,877,878,879,880,881,882,883,884,885,886,887,888,889,890,891,892,893,894,895,896,897,898,899,900,901,902,903,904,905,906,907,908,909,910,911,912,913,914,915,916,917,918,919,920,921,922,923,924,925,926,927,928,929,930,931,932,933,934,935,936,937,938,939,940,941,942,943,944,945,946,947,948,949,950,951,952,953,954,955,956,957,958,959,960,961,962,963,964,965,966,967,968,969,970,971,972,973,974,975,976,977,978,979,980,981,982,983,984,985,986,987,988,989,990,991,992,993,994,995,996,997,998,999,1000],"tree_info":[0,0,0,0,0,0,0,0,0,0,0,0,0,0,0,0,0,0,0,0,0,0,0,0,0,0,0,0,0,0,0,0,0,0,0,0,0,0,0,0,0,0,0,0,0,0,0,0,0,0,0,0,0,0,0,0,0,0,0,0,0,0,0,0,0,0,0,0,0,0,0,0,0,0,0,0,0,0,0,0,0,0,0,0,0,0,0,0,0,0,0,0,0,0,0,0,0,0,0,0,0,0,0,0,0,0,0,0,0,0,0,0,0,0,0,0,0,0,0,0,0,0,0,0,0,0,0,0,0,0,0,0,0,0,0,0,0,0,0,0,0,0,0,0,0,0,0,0,0,0,0,0,0,0,0,0,0,0,0,0,0,0,0,0,0,0,0,0,0,0,0,0,0,0,0,0,0,0,0,0,0,0,0,0,0,0,0,0,0,0,0,0,0,0,0,0,0,0,0,0,0,0,0,0,0,0,0,0,0,0,0,0,0,0,0,0,0,0,0,0,0,0,0,0,0,0,0,0,0,0,0,0,0,0,0,0,0,0,0,0,0,0,0,0,0,0,0,0,0,0,0,0,0,0,0,0,0,0,0,0,0,0,0,0,0,0,0,0,0,0,0,0,0,0,0,0,0,0,0,0,0,0,0,0,0,0,0,0,0,0,0,0,0,0,0,0,0,0,0,0,0,0,0,0,0,0,0,0,0,0,0,0,0,0,0,0,0,0,0,0,0,0,0,0,0,0,0,0,0,0,0,0,0,0,0,0,0,0,0,0,0,0,0,0,0,0,0,0,0,0,0,0,0,0,0,0,0,0,0,0,0,0,0,0,0,0,0,0,0,0,0,0,0,0,0,0,0,0,0,0,0,0,0,0,0,0,0,0,0,0,0,0,0,0,0,0,0,0,0,0,0,0,0,0,0,0,0,0,0,0,0,0,0,0,0,0,0,0,0,0,0,0,0,0,0,0,0,0,0,0,0,0,0,0,0,0,0,0,0,0,0,0,0,0,0,0,0,0,0,0,0,0,0,0,0,0,0,0,0,0,0,0,0,0,0,0,0,0,0,0,0,0,0,0,0,0,0,0,0,0,0,0,0,0,0,0,0,0,0,0,0,0,0,0,0,0,0,0,0,0,0,0,0,0,0,0,0,0,0,0,0,0,0,0,0,0,0,0,0,0,0,0,0,0,0,0,0,0,0,0,0,0,0,0,0,0,0,0,0,0,0,0,0,0,0,0,0,0,0,0,0,0,0,0,0,0,0,0,0,0,0,0,0,0,0,0,0,0,0,0,0,0,0,0,0,0,0,0,0,0,0,0,0,0,0,0,0,0,0,0,0,0,0,0,0,0,0,0,0,0,0,0,0,0,0,0,0,0,0,0,0,0,0,0,0,0,0,0,0,0,0,0,0,0,0,0,0,0,0,0,0,0,0,0,0,0,0,0,0,0,0,0,0,0,0,0,0,0,0,0,0,0,0,0,0,0,0,0,0,0,0,0,0,0,0,0,0,0,0,0,0,0,0,0,0,0,0,0,0,0,0,0,0,0,0,0,0,0,0,0,0,0,0,0,0,0,0,0,0,0,0,0,0,0,0,0,0,0,0,0,0,0,0,0,0,0,0,0,0,0,0,0,0,0,0,0,0,0,0,0,0,0,0,0,0,0,0,0,0,0,0,0,0,0,0,0,0,0,0,0,0,0,0,0,0,0,0,0,0,0,0,0,0,0,0,0,0,0,0,0,0,0,0,0,0,0,0,0,0,0,0,0,0,0,0,0,0,0,0,0,0,0,0,0,0,0,0,0,0,0,0,0,0,0,0,0,0,0,0,0,0,0,0,0,0,0,0,0,0,0,0,0,0,0,0,0,0,0,0,0,0,0,0,0,0,0,0,0,0,0,0,0,0,0,0,0,0,0,0,0,0,0,0,0,0,0,0,0,0,0,0,0,0,0,0,0,0,0,0,0,0,0,0,0,0,0,0,0,0,0,0,0,0,0,0,0,0,0,0,0,0,0,0,0,0,0,0,0,0,0,0,0,0,0,0,0,0,0,0,0,0,0,0,0,0,0,0,0,0,0,0,0,0,0,0,0,0,0,0,0,0,0,0,0,0,0,0,0,0,0,0,0,0,0,0,0,0,0,0,0,0,0,0,0,0,0,0,0,0,0,0,0,0,0,0,0,0,0,0,0,0,0,0,0,0,0,0,0,0,0,0,0,0,0,0,0,0,0,0,0,0,0,0,0,0,0,0,0,0,0],"trees":[{"base_weights":[-2.1095546E-7,4.7527175E-2,-3.7771022E-1,1.2229444E0,2.8463144E-2,-7.7617675E-1,4.170559E-3,1.2957709E-2,7.1095444E-2,-7.5250846E-1,4.8219707E-2,7.1578366E-1,-1.0112598E0,1.710528E-1,-6.450733E-2,3.556576E-2,-1.2544659E0,3.371151E-1,6.4472505E-4,1.9871152E-3,5.742922E-2,1.1204882E-2,-1.1385174E0,-6.1362547E-1,3.7889245E-1,-2.6227891E-2,-7.640054E-2,2.2840848E-2,-4.0213536E-2,-1.8513292E-2,3.6813435E-3,-6.98962E-3,-6.1654456E-2,-6.98962E-3,-4.0524792E-2,4.113048E-2,-7.572443E-3],"categories":[],"categories_nodes":[],"categories_segments":[],"categories_sizes":[],"default_left":[0,0,0,0,0,0,0,0,0,0,0,0,0,0,0,0,0,0,0,0,0,0,0,0,0,0,0,0,0,0,0,0,0,0,0,0,0],"id":0,"left_children":[1,3,5,7,9,11,13,-1,-1,15,17,19,21,23,-1,-1,25,27,29,-1,-1,-1,31,33,35,-1,-1,-1,-1,-1,-1,-1,-1,-1,-1,-1,-1],"loss_changes":[7.621098E0,8.415041E0,7.223405E0,7.8101635E-1,5.7774262E0,8.869873E0,5.668908E0,0E0,0E0,7.6823707E0,5.000636E0,1.0506879E0,3.4745579E0,4.0203013E0,0E0,0E0,6.446562E-1,7.396084E0,8.511151E0,0E0,0E0,0E0,1.5967464E0,3.760041E-1,4.591052E0,0E0,0E0,0E0,0E0,0E0,0E0,0E0,0E0,0E0,0E0,0E0,0E0],"parents":[2147483647,0,0,1,1,2,2,3,3,4,4,5,5,6,6,9,9,10,10,11,11,12,12,13,13,16,16,17,17,18,18,22,22,23,23,24,24],"right_children":[2,4,6,8,10,12,14,-1,-1,16,18,20,22,24,-1,-1,26,28,30,-1,-1,-1,32,34,36,-1,-1,-1,-1,-1,-1,-1,-1,-1,-1,-1,-1],"split_conditions":[1.5916315E1,2.5327143E1,1.5660124E1,1.1014526E1,-5.288575E-1,1.4608511E1,1.7795525E1,1.2957709E-2,7.1095444E-2,9.274155E0,1.20122E7,2.3086559E-2,-5.8671355E-1,5.0102755E-2,-6.450733E-2,3.556576E-2,-6.0908324E-1,1.8869314E1,1.54424E7,1.9871152E-3,5.742922E-2,1.1204882E-2,1.4783907E1,1.663785E1,3.0439453E1,-2.6227891E-2,-7.640054E-2,2.2840848E-2,-4.0213536E-2,-1.8513292E-2,3.6813435E-3,-6.98962E-3,-6.1654456E-2,-6.98962E-3,-4.0524792E-2,4.113048E-2,-7.572443E-3],"split_indices":[11,5,2,0,9,6,0,0,0,0,4,9,8,9,0,0,8,15,4,0,0,0,12,0,14,0,0,0,0,0,0,0,0,0,0,0,0],"split_type":[0,0,0,0,0,0,0,0,0,0,0,0,0,0,0,0,0,0,0,0,0,0,0,0,0,0,0,0,0,0,0,0,0,0,0,0,0],"sum_hessian":[4.2253662E2,3.7608755E2,4.6449062E1,4.9945226E0,3.7109302E2,2.2225626E1,2.4223434E1,1.2486306E0,3.745892E0,8.240962E0,3.6285208E2,2.7469873E0,1.9478638E1,2.2225626E1,1.997809E0,1.997809E0,6.243153E0,5.044468E1,3.1240738E2,1.4983568E0,1.2486306E0,1.7480829E0,1.7730555E1,4.245344E0,1.7980282E1,2.4972613E0,3.745892E0,4.6199333E1,4.245344E0,5.0694405E1,2.6171298E2,1.7480829E0,1.5982472E1,1.7480829E0,2.4972613E0,9.489593E0,8.490688E0],"tree_param":{"num_deleted":"0","num_feature":"17","num_nodes":"37","size_leaf_vector":"1"}},{"base_weights":[-2.2490682E-4,4.5105476E-2,-3.608601E-1,1.1748893E0,2.676932E-2,-7.388078E-1,8.3238125E-4,1.1947218E-2,6.8539836E-2,-7.2343594E-1,4.5715734E-2,6.9557095E-1,-9.658078E-1,1.6187337E-1,-6.2492836E-2,3.436037E-2,-1.2089045E0,6.623405E-2,-6.040706E-1,1.9274544E-3,5.5800285E-2,1.08461E-2,-1.0881224E0,-5.9256E-1,3.6157754E-1,-2.5310714E-2,-7.3621765E-2,1.8309096E-2,8.4096746E-4,-6.20978E-2,2.6471026E-3,-6.7683808E-3,-5.8922626E-2,-6.7683808E-3,-3.9127976E-2,3.4080483E-2,-1.6021505E-2],"categories":[],"categories_nodes":[],"categories_segments":[],"categories_sizes":[],"default_left":[0,0,0,0,0,0,0,0,0,0,0,0,0,0,0,0,0,0,0,0,0,0,0,0,0,0,0,0,0,0,0,0,0,0,0,0,0],"id":1,"left_children":[1,3,5,7,9,11,13,-1,-1,15,17,19,21,23,-1,-1,25,27,29,-1,-1,-1,31,33,35,-1,-1,-1,-1,-1,-1,-1,-1,-1,-1,-1,-1],"loss_changes":[6.939412E0,7.7803793E0,6.4800315E0,7.724409E-1,5.3219123E0,8.219138E0,5.281728E0,0E0,0E0,7.1483912E0,4.8913045E0,9.924259E-1,3.1917038E0,3.7137918E0,0E0,0E0,5.9268475E-1,5.23532E0,4.775168E0,0E0,0E0,0E0,1.4483337E0,3.492942E-1,4.3625813E0,0E0,0E0,0E0,0E0,0E0,0E0,0E0,0E0,0E0,0E0,0E0,0E0],"parents":[2147483647,0,0,1,1,2,2,3,3,4,4,5,5,6,6,9,9,10,10,11,11,12,12,13,13,16,16,17,17,18,18,22,22,23,23,24,24],"right_children":[2,4,6,8,10,12,14,-1,-1,16,18,20,22,24,-1,-1,26,28,30,-1,-1,-1,32,34,36,-1,-1,-1,-1,-1,-1,-1,-1,-1,-1,-1,-1],"split_conditions":[1.5916315E1,2.5327143E1,1.5660124E1,1.3574836E1,-5.288575E-1,1.4608511E1,1.7795525E1,1.1947218E-2,6.8539836E-2,9.274155E0,2.2708452E1,2.3086559E-2,-5.8671355E-1,5.0102755E-2,-6.2492836E-2,3.436037E-2,-6.0908324E-1,1.20122E7,2.8097492E1,1.9274544E-3,5.5800285E-2,1.08461E-2,1.4783907E1,1.663785E1,6.538559E1,-2.5310714E-2,-7.3621765E-2,1.8309096E-2,8.4096746E-4,-6.20978E-2,2.6471026E-3,-6.7683808E-3,-5.8922626E-2,-6.7683808E-3,-3.9127976E-2,3.4080483E-2,-1.6021505E-2],"split_indices":[11,5,2,11,9,6,0,0,0,0,15,9,8,9,0,0,8,4,14,0,0,0,12,0,5,0,0,0,0,0,0,0,0,0,0,0,0],"split_type":[0,0,0,0,0,0,0,0,0,0,0,0,0,0,0,0,0,0,0,0,0,0,0,0,0,0,0,0,0,0,0,0,0,0,0,0,0],"sum_hessian":[4.224921E2,3.7609357E2,4.639851E1,4.9990916E0,3.7109448E2,2.2179537E1,2.4218975E1,1.2494655E0,3.7496262E0,8.225192E0,3.628693E2,2.7484298E0,1.9431107E1,2.2227495E1,1.9914798E0,1.9995302E0,6.225662E0,3.526323E2,1.0237008E1,1.498454E0,1.2499758E0,1.7486767E0,1.768243E1,4.2405496E0,1.7986946E1,2.4946663E0,3.730996E0,4.8970478E1,3.036618E2,4.742381E0,5.4946265E0,1.7476573E0,1.5934773E1,1.7476573E0,2.4928923E0,1.22426605E1,5.7442846E0],"tree_param":{"num_deleted":"0","num_feature":"17","num_nodes":"37","size_leaf_vector":"1"}},{"base_weights":[-4.8722423E-4,1.0236007E0,-1.5166462E-2,6.967918E-2,-1.0618579E-2,-9.501306E-1,4.104442E-3,-3.3097613E-1,-5.942879E-2,3.117652E-2,-5.4209167E-1,-3.742645E-2,1.404E-2,3.1539544E-1,-2.4319073E-2,4.0983643E-2,-7.673935E-1,8.004943E-3,5.9672594E-2,-7.16735E-3,5.0060684E-3,2.1844462E-2,-4.5501575E-2],"categories":[],"categories_nodes":[],"categories_segments":[],"categories_sizes":[],"default_left":[0,0,0,0,0,0,0,0,0,0,0,0,0,0,0,0,0,0,0,0,0,0,0],"id":2,"left_children":[1,3,5,-1,-1,7,9,11,-1,13,15,-1,-1,17,19,-1,21,-1,-1,-1,-1,-1,-1],"loss_changes":[6.3801594E0,3.0385838E0,7.5421906E0,0E0,0E0,8.546567E-1,6.0932E0,1.1646369E0,0E0,6.1980724E0,6.5995693E0,0E0,0E0,8.561201E0,4.8916903E0,0E0,3.3545628E0,0E0,0E0,0E0,0E0,0E0,0E0],"parents":[2147483647,0,0,1,1,2,2,5,5,6,6,7,7,9,9,10,10,13,13,14,14,16,16],"right_children":[2,4,6,-1,-1,8,10,12,-1,14,16,-1,-1,18,20,-1,22,-1,-1,-1,-1,-1,-1],"split_conditions":[8.991932E0,8.762498E0,-5.6568396E-1,6.967918E-2,-1.0618579E-2,1.98502E7,3.72084E-1,1.80274E7,-5.942879E-2,1.1818751E1,1.8016684E1,-3.742645E-2,1.404E-2,1.2786093E1,4.3283703E-4,4.0983643E-2,2.2788347E-1,8.004943E-3,5.9672594E-2,-7.16735E-3,5.0060684E-3,2.1844462E-2,-4.5501575E-2],"split_indices":[2,13,9,0,0,4,8,4,0,3,15,0,0,11,10,0,9,0,0,0,0,0,0],"split_type":[0,0,0,0,0,0,0,0,0,0,0,0,0,0,0,0,0,0,0,0,0,0,0],"sum_hessian":[4.223823E2,4.9975863E0,4.173847E2,3.748092E0,1.2494944E0,7.453636E0,4.0993106E2,2.7363641E0,4.7172723E0,3.9147083E2,1.8460238E1,1.493487E0,1.2428771E0,6.3185425E1,3.282854E2,2.2461283E0,1.621411E1,5.46943E1,8.491121E0,1.6771408E2,1.6057132E2,1.498601E0,1.47155075E1],"tree_param":{"num_deleted":"0","num_feature":"17","num_nodes":"23","size_leaf_vector":"1"}},{"base_weights":[-3.2807447E-4,4.178894E-2,-3.3617952E-1,1.122698E0,2.4272066E-2,-6.9045174E-1,1.6235578E-3,1.193722E-2,6.526204E-2,6.2480908E-2,-3.2675722E-1,6.841217E-1,-9.098638E-1,1.5680212E-1,-6.040713E-2,2.8623942E-1,-2.1886325E-2,-5.6217515E-1,3.5862654E-1,2.0847905E-3,5.4671504E-2,1.0908465E-2,-1.0277337E0,-5.668365E-1,3.479351E-1,2.1655831E-2,-1.37458285E-2,-2.0446973E-2,1.5933028E-3,3.5139468E-2,-3.4395933E-2,4.7992762E-2,-1.5405908E-2,-5.116453E-3,-5.587214E-2,-6.327557E-3,-3.755861E-2,3.2929372E-2,-1.569679E-2],"categories":[],"categories_nodes":[],"categories_segments":[],"categories_sizes":[],"default_left":[0,0,0,0,0,0,0,0,0,0,0,0,0,0,0,0,0,0,0,0,0,0,0,0,0,0,0,0,0,0,0,0,0,0,0,0,0,0,0],"id":3,"left_children":[1,3,5,7,9,11,13,-1,-1,15,17,19,21,23,-1,25,27,29,31,-1,-1,-1,33,35,37,-1,-1,-1,-1,-1,-1,-1,-1,-1,-1,-1,-1,-1,-1],"loss_changes":[6.001893E0,7.111609E0,5.6594114E0,6.5501976E-1,5.01045E0,7.5833893E0,4.9203415E0,0E0,0E0,6.356106E0,6.120262E0,9.398923E-1,2.9276352E0,3.4089055E0,0E0,7.715824E0,5.114296E0,4.888323E0,4.299919E0,0E0,0E0,0E0,1.4284382E0,3.2957733E-1,4.1110334E0,0E0,0E0,0E0,0E0,0E0,0E0,0E0,0E0,0E0,0E0,0E0,0E0,0E0,0E0],"parents":[2147483647,0,0,1,1,2,2,3,3,4,4,5,5,6,6,9,9,10,10,11,11,12,12,13,13,15,15,16,16,17,17,18,18,22,22,23,23,24,24],"right_children":[2,4,6,8,10,12,14,-1,-1,16,18,20,22,24,-1,26,28,30,32,-1,-1,-1,34,36,38,-1,-1,-1,-1,-1,-1,-1,-1,-1,-1,-1,-1,-1,-1],"split_conditions":[1.5916315E1,2.5327143E1,1.5660124E1,1.3574836E1,9.093915E-2,1.4608511E1,1.7795525E1,1.193722E-2,6.526204E-2,1.2276139E1,6.841199E1,2.3086559E-2,-5.8671355E-1,5.0102755E-2,-6.040713E-2,5.157158E-2,1.2984009E1,1.0004606E1,1.3121507E1,2.0847905E-3,5.4671504E-2,1.0908465E-2,1.4783907E1,1.663785E1,3.7362095E1,2.1655831E-2,-1.37458285E-2,-2.0446973E-2,1.5933028E-3,3.5139468E-2,-3.4395933E-2,4.7992762E-2,-1.5405908E-2,-5.116453E-3,-5.587214E-2,-6.327557E-3,-3.755861E-2,3.2929372E-2,-1.569679E-2],"split_indices":[11,5,2,11,10,6,0,0,0,7,5,9,8,9,0,10,11,7,6,0,0,0,12,0,14,0,0,0,0,0,0,0,0,0,0,0,0,0,0],"split_type":[0,0,0,0,0,0,0,0,0,0,0,0,0,0,0,0,0,0,0,0,0,0,0,0,0,0,0,0,0,0,0,0,0,0,0,0,0,0,0],"sum_hessian":[4.2231702E2,3.7603625E2,4.628076E1,4.9905944E0,3.7104565E2,2.2080162E1,2.4200598E1,1.2492164E0,3.7413778E0,3.3536395E2,3.5681694E1,2.7477946E0,1.9332369E1,2.2220701E1,1.9798971E0,9.1170105E1,2.4419385E2,2.6692896E1,8.988799E0,1.4981916E0,1.249603E0,1.7484535E0,1.7583914E1,4.232101E0,1.79886E1,7.243826E1,1.8731848E1,2.8971537E1,2.152223E2,1.9985594E0,2.4694338E1,4.49546E0,4.493339E0,1.7431298E0,1.5840785E1,1.7466817E0,2.485419E0,1.2245892E1,5.742708E0],"tree_param":{"num_deleted":"0","num_feature":"17","num_nodes":"39","size_leaf_vector":"1"}},{"base_weights":[-2.765248E-4,9.769384E-1,-1.42876115E-2,6.695758E-2,-1.1105084E-2,-9.1143805E-1,4.1213324E-3,-3.219403E-1,-5.6891914E-2,2.93806E-2,-5.067996E-1,-3.6227323E-2,1.340431E-2,2.7454478E-1,-2.4894916E-2,3.991348E-2,-7.242466E-1,-2.4924895E-3,3.0130291E-2,1.8592868E-2,-3.0469634E-3,2.1107847E-2,-4.3047916E-2],"categories":[],"categories_nodes":[],"categories_segments":[],"categories_sizes":[],"default_left":[0,0,0,0,0,0,0,0,0,0,0,0,0,0,0,0,0,0,0,0,0,0,0],"id":4,"left_children":[1,3,5,-1,-1,7,9,11,-1,13,15,-1,-1,17,19,-1,21,-1,-1,-1,-1,-1,-1],"loss_changes":[5.807727E0,2.9014306E0,6.9099E0,0E0,0E0,7.5641346E-1,5.3157773E0,1.0800316E0,0E0,5.227496E0,6.084943E0,0E0,0E0,7.606996E0,4.629538E0,0E0,3.0525503E0,0E0,0E0,0E0,0E0,0E0,0E0],"parents":[2147483647,0,0,1,1,2,2,5,5,6,6,7,7,9,9,10,10,13,13,14,14,16,16],"right_children":[2,4,6,-1,-1,8,10,12,-1,14,16,-1,-1,18,20,-1,22,-1,-1,-1,-1,-1,-1],"split_conditions":[8.991932E0,8.762498E0,-5.6568396E-1,6.695758E-2,-1.1105084E-2,1.98502E7,3.72084E-1,1.80274E7,-5.6891914E-2,1.1289299E1,1.8016684E1,-3.6227323E-2,1.340431E-2,1.0722508E1,9.1036E6,3.991348E-2,2.2788347E-1,-2.4924895E-3,3.0130291E-2,1.8592868E-2,-3.0469634E-3,2.1107847E-2,-4.3047916E-2],"split_indices":[2,13,9,0,0,4,8,4,0,13,15,0,0,13,4,0,9,0,0,0,0,0,0],"split_type":[0,0,0,0,0,0,0,0,0,0,0,0,0,0,0,0,0,0,0,0,0,0,0],"sum_hessian":[4.221548E2,4.9957523E0,4.1715903E2,3.7469876E0,1.2487649E0,7.4123297E0,4.097467E2,2.7288878E0,4.683442E0,3.9134177E2,1.8404936E1,1.4865482E0,1.2423396E0,7.01978E1,3.2114395E2,2.2471197E0,1.6157816E1,3.572254E1,3.4475254E1,2.5969734E1,2.9517422E2,1.4990999E0,1.4658716E1],"tree_param":{"num_deleted":"0","num_feature":"17","num_nodes":"23","size_leaf_vector":"1"}},{"base_weights":[-1.7958535E-4,9.388587E-1,-1.362644E-2,6.443927E-2,-1.0796946E-2,-8.79207E-1,4.061375E-3,-3.1226775E-1,-5.4869343E-2,4.049193E-2,-3.2163087E-1,1.3632438E-2,-3.5637822E-2,6.1925896E-2,2.574776E-2,-7.4104536E-1,1.6159179E-2,1.5142949E-2,-1.0717255E-3,1.4321915E-2,-5.2068084E-2,8.769434E-3,-5.8457416E-2],"categories":[],"categories_nodes":[],"categories_segments":[],"categories_sizes":[],"default_left":[0,0,0,0,0,0,0,0,0,0,0,0,0,0,0,0,0,0,0,0,0,0,0],"id":5,"left_children":[1,3,5,-1,-1,7,9,11,-1,13,15,-1,-1,-1,17,19,21,-1,-1,-1,-1,-1,-1],"loss_changes":[5.3546667E0,2.6975107E0,6.404183E0,0E0,0E0,6.934438E-1,4.8858595E0,1.0670385E0,0E0,6.508292E0,5.8812246E0,0E0,0E0,0E0,4.802001E0,6.0075617E0,4.720653E0,0E0,0E0,0E0,0E0,0E0,0E0],"parents":[2147483647,0,0,1,1,2,2,5,5,6,6,7,7,9,9,10,10,14,14,15,15,16,16],"right_children":[2,4,6,-1,-1,8,10,12,-1,14,16,-1,-1,-1,18,20,22,-1,-1,-1,-1,-1,-1],"split_conditions":[8.991932E0,8.762498E0,-5.6568396E-1,6.443927E-2,-1.0796946E-2,1.98502E7,1.607186E1,1.4072453E1,-5.4869343E-2,2.5327143E1,1.5660124E1,1.3632438E-2,-3.5637822E-2,6.1925896E-2,-6.0430378E-2,1.4545193E1,1.7795525E1,1.5142949E-2,-1.0717255E-3,1.4321915E-2,-5.2068084E-2,8.769434E-3,-5.8457416E-2],"split_indices":[2,13,9,0,0,4,11,1,0,5,2,0,0,0,10,3,0,0,0,0,0,0,0],"split_type":[0,0,0,0,0,0,0,0,0,0,0,0,0,0,0,0,0,0,0,0,0,0,0],"sum_hessian":[4.2204794E2,4.9867506E0,4.170612E2,3.7380269E0,1.2487235E0,7.3764467E0,4.0968475E2,2.7254963E0,4.6509504E0,3.692569E2,4.042784E1,1.2374303E0,1.4880658E0,3.480143E0,3.6577676E2,1.7502361E1,2.2925482E1,5.242936E1,3.133474E2,3.9690635E0,1.3533298E1,2.0961613E1,1.9638685E0],"tree_param":{"num_deleted":"0","num_feature":"17","num_nodes":"23","size_leaf_vector":"1"}},{"base_weights":[-2.6023222E-4,9.034582E-1,-1.3170028E-2,6.2118243E-2,-1.0497711E-2,-8.4878963E-1,3.8251767E-3,-3.0288935E-1,-5.2976783E-2,2.726762E-2,-4.72119E-1,-3.489879E-2,1.3481843E-2,2.7956545E-1,-2.2030246E-2,3.876672E-2,-6.816025E-1,5.5619895E-2,6.647847E-3,-4.0054146E-2,-2.5513617E-4,2.0503534E-2,-4.0648904E-2],"categories":[],"categories_nodes":[],"categories_segments":[],"categories_sizes":[],"default_left":[0,0,0,0,0,0,0,0,0,0,0,0,0,0,0,0,0,0,0,0,0,0,0],"id":6,"left_children":[1,3,5,-1,-1,7,9,11,-1,13,15,-1,-1,17,19,-1,21,-1,-1,-1,-1,-1,-1],"loss_changes":[4.9455376E0,2.5136452E0,5.9381723E0,0E0,0E0,6.379485E-1,4.593756E0,1.0300447E0,0E0,4.8848023E0,5.579256E0,0E0,0E0,7.689494E0,4.335327E0,0E0,2.7831283E0,0E0,0E0,0E0,0E0,0E0,0E0],"parents":[2147483647,0,0,1,1,2,2,5,5,6,6,7,7,9,9,10,10,13,13,14,14,16,16],"right_children":[2,4,6,-1,-1,8,10,12,-1,14,16,-1,-1,18,20,-1,22,-1,-1,-1,-1,-1,-1],"split_conditions":[8.991932E0,8.762498E0,-5.6568396E-1,6.2118243E-2,-1.0497711E-2,1.98502E7,3.72084E-1,1.80274E7,-5.2976783E-2,1.1818751E1,1.8016684E1,-3.489879E-2,1.3481843E-2,-8.6096115E-2,1.0837114E1,3.876672E-2,2.2788347E-1,5.5619895E-2,6.647847E-3,-4.0054146E-2,-2.5513617E-4,2.0503534E-2,-4.0648904E-2],"split_indices":[2,13,9,0,0,4,8,4,0,3,15,0,0,10,13,0,9,0,0,0,0,0,0],"split_type":[0,0,0,0,0,0,0,0,0,0,0,0,0,0,0,0,0,0,0,0,0,0,0],"sum_hessian":[4.2187778E2,4.9701805E0,4.169076E2,3.7215705E0,1.2486097E0,7.3346553E0,4.0957294E2,2.7217267E0,4.6129284E0,3.9124503E2,1.8327911E1,1.4807684E0,1.2409582E0,6.3188164E1,3.2805685E2,2.2468667E0,1.6081043E1,8.472316E0,5.4715847E1,5.991399E0,3.2206546E2,1.4995002E0,1.4581544E1],"tree_param":{"num_deleted":"0","num_feature":"17","num_nodes":"23","size_leaf_vector":"1"}},{"base_weights":[-2.086822E-4,3.7093118E-2,-2.993309E-1,1.0524122E0,2.0760799E-2,-6.1432964E-1,-1.5966905E-3,1.0789013E-2,6.140201E-2,-6.4998585E-1,3.734815E-2,6.635404E-1,-8.22131E-1,1.422061E-1,-5.6720953E-2,2.5948111E-2,-1.0494611E0,5.6298852E-2,-5.6385887E-1,1.6790137E-3,5.3438522E-2,1.1987249E-2,-9.362575E-1,-5.5497444E-1,3.266749E-1,-1.768923E-2,-6.695904E-2,1.7007362E-2,4.76499E-4,-5.9818316E-2,4.115065E-3,-1.133935E-3,-5.1480483E-2,-6.3003595E-3,-3.6702972E-2,3.14903E-2,-1.5869861E-2],"categories":[],"categories_nodes":[],"categories_segments":[],"categories_sizes":[],"default_left":[0,0,0,0,0,0,0,0,0,0,0,0,0,0,0,0,0,0,0,0,0,0,0,0,0,0,0,0,0,0,0,0,0,0,0,0,0],"id":7,"left_children":[1,3,5,7,9,11,13,-1,-1,15,17,19,21,23,-1,-1,25,27,29,-1,-1,-1,31,33,35,-1,-1,-1,-1,-1,-1,-1,-1,-1,-1,-1,-1],"loss_changes":[4.727705E0,6.225414E0,4.405092E0,6.084156E-1,4.160821E0,6.606694E0,4.25907E0,0E0,0E0,4.7598357E0,4.1762495E0,9.2038393E-1,2.6578732E0,3.1662445E0,0E0,0E0,9.488802E-1,4.690367E0,4.678665E0,0E0,0E0,0E0,1.5403271E0,3.0902803E-1,3.9060948E0,0E0,0E0,0E0,0E0,0E0,0E0,0E0,0E0,0E0,0E0,0E0,0E0],"parents":[2147483647,0,0,1,1,2,2,3,3,4,4,5,5,6,6,9,9,10,10,11,11,12,12,13,13,16,16,17,17,18,18,22,22,23,23,24,24],"right_children":[2,4,6,8,10,12,14,-1,-1,16,18,20,22,24,-1,-1,26,28,30,-1,-1,-1,32,34,36,-1,-1,-1,-1,-1,-1,-1,-1,-1,-1,-1,-1],"split_conditions":[1.5916315E1,2.5327143E1,1.5660124E1,1.3574836E1,-5.288575E-1,1.4608511E1,1.7795525E1,1.0789013E-2,6.140201E-2,9.274155E0,2.2708452E1,2.3086559E-2,-5.8671355E-1,5.0102755E-2,-5.6720953E-2,2.5948111E-2,-6.0908324E-1,1.20122E7,2.8097492E1,1.6790137E-3,5.3438522E-2,1.1987249E-2,1.4783907E1,1.663785E1,6.538559E1,-1.768923E-2,-6.695904E-2,1.7007362E-2,4.76499E-4,-5.9818316E-2,4.115065E-3,-1.133935E-3,-5.1480483E-2,-6.3003595E-3,-3.6702972E-2,3.14903E-2,-1.5869861E-2],"split_indices":[11,5,2,11,9,6,0,0,0,0,15,9,8,9,0,0,8,4,14,0,0,0,12,0,5,0,0,0,0,0,0,0,0,0,0,0,0],"split_type":[0,0,0,0,0,0,0,0,0,0,0,0,0,0,0,0,0,0,0,0,0,0,0,0,0,0,0,0,0,0,0,0,0,0,0,0,0],"sum_hessian":[4.2171808E2,3.7573798E2,4.5980114E1,4.9441047E0,3.7079385E2,2.1825588E1,2.4154528E1,1.2444746E0,3.6996303E0,8.026797E0,3.6276706E2,2.745996E0,1.9079592E1,2.2209656E1,1.9448715E0,1.9682312E0,6.0585656E0,3.5256033E2,1.0206728E1,1.4988264E0,1.2471696E0,1.7447822E0,1.733481E1,4.226718E0,1.7982937E1,2.4343402E0,3.6242256E0,4.8985558E1,3.0357477E2,4.7275577E0,5.4791703E0,1.7223356E0,1.5612474E1,1.7466161E0,2.4801016E0,1.2242964E1,5.7399735E0],"tree_param":{"num_deleted":"0","num_feature":"17","num_nodes":"37","size_leaf_vector":"1"}},{"base_weights":[-4.3436134E-4,8.5754836E-1,-1.2639445E-2,5.956627E-2,-1.1043163E-2,-8.0259645E-1,3.2510972E-3,-2.900498E-1,-1.0299599E0,2.5228593E-2,-4.447967E-1,-3.134887E-2,8.243232E-3,-1.7040526E-2,-6.0315218E-2,2.5351262E-1,-2.5342302E-2,4.3597367E-2,-6.2627834E-1,-2.8520992E-3,2.8390994E-2,-2.4826854E-2,1.8764082E-4,-5.9074547E-2,-1.6456516E-2],"categories":[],"categories_nodes":[],"categories_segments":[],"categories_sizes":[],"default_left":[0,0,0,0,0,0,0,0,0,0,0,0,0,0,0,0,0,0,0,0,0,0,0,0,0],"id":8,"left_children":[1,3,5,-1,-1,7,9,11,13,15,17,-1,-1,-1,-1,19,21,-1,23,-1,-1,-1,-1,-1,-1],"loss_changes":[4.43461E0,2.4011087E0,5.243527E0,0E0,0E0,6.611419E-1,4.051152E0,7.046703E-1,2.3465395E-1,4.5322757E0,5.1430945E0,0E0,0E0,0E0,0E0,6.98093E0,4.414217E0,0E0,2.4964685E0,0E0,0E0,0E0,0E0,0E0,0E0],"parents":[2147483647,0,0,1,1,2,2,5,5,6,6,7,7,8,8,9,9,10,10,15,15,16,16,18,18],"right_children":[2,4,6,-1,-1,8,10,12,14,16,18,-1,-1,-1,-1,20,22,-1,24,-1,-1,-1,-1,-1,-1],"split_conditions":[8.991932E0,8.762498E0,-5.6568396E-1,5.956627E-2,-1.1043163E-2,-6.0908324E-1,3.72084E-1,9.329031E0,2.4329784E1,1.1289299E1,1.7821154E1,-3.134887E-2,8.243232E-3,-1.7040526E-2,-6.0315218E-2,1.0722508E1,-1.2578668E-1,4.3597367E-2,1.1397454E1,-2.8520992E-3,2.8390994E-2,-2.4826854E-2,1.8764082E-4,-5.9074547E-2,-1.6456516E-2],"split_indices":[2,13,9,0,0,8,8,2,5,13,15,0,0,0,0,13,16,0,13,0,0,0,0,0,0],"split_type":[0,0,0,0,0,0,0,0,0,0,0,0,0,0,0,0,0,0,0,0,0,0,0,0,0],"sum_hessian":[4.2144806E2,4.9396987E0,4.1650836E2,3.6922226E0,1.2474763E0,7.2369E0,4.0927145E2,2.923085E0,4.313815E0,3.9103427E2,1.8237194E1,1.4620222E0,1.4610628E0,1.4764655E0,2.8373494E0,7.018707E1,3.208472E2,1.7482342E0,1.648896E1,3.5716007E1,3.447106E1,1.7725014E1,3.031222E2,4.7108216E0,1.1778138E1],"tree_param":{"num_deleted":"0","num_feature":"17","num_nodes":"25","size_leaf_vector":"1"}},{"base_weights":[-6.1288034E-4,3.4667537E-2,-2.845032E-1,1.0146805E0,1.8968102E-2,-5.8237565E-1,-4.260082E-3,1.0129931E-2,5.937339E-2,5.300596E-2,-2.9517004E-1,6.483658E-1,-7.842493E-1,1.3455571E-1,-5.5180725E-2,2.4922681E-1,-2.0957699E-2,-5.2052164E-1,3.5665214E-1,1.7481195E-3,5.212564E-2,1.1833939E-2,-8.952176E-1,-5.3659576E-1,3.1202188E-1,1.9352587E-2,-1.3857454E-2,-1.9411424E-2,1.5020402E-3,8.543579E-4,-4.2826068E-2,4.6135996E-2,-1.3841997E-2,-5.789503E-4,-4.933615E-2,-6.1071035E-3,-3.549456E-2,3.5828464E-2,-8.402013E-3],"categories":[],"categories_nodes":[],"categories_segments":[],"categories_sizes":[],"default_left":[0,0,0,0,0,0,0,0,0,0,0,0,0,0,0,0,0,0,0,0,0,0,0,0,0,0,0,0,0,0,0,0,0,0,0,0,0,0,0],"id":9,"left_children":[1,3,5,7,9,11,13,-1,-1,15,17,19,21,23,-1,25,27,29,31,-1,-1,-1,33,35,37,-1,-1,-1,-1,-1,-1,-1,-1,-1,-1,-1,-1,-1,-1],"loss_changes":[4.2394757E0,5.773561E0,3.903244E0,5.8972883E-1,3.9889028E0,6.141768E0,3.98122E0,0E0,0E0,4.88327E0,5.5440216E0,8.6835206E-1,2.4698696E0,2.9295695E0,0E0,6.7880955E0,4.60099E0,4.9846544E0,3.828928E0,0E0,0E0,0E0,1.4590578E0,2.8801835E-1,3.8051386E0,0E0,0E0,0E0,0E0,0E0,0E0,0E0,0E0,0E0,0E0,0E0,0E0,0E0,0E0],"parents":[2147483647,0,0,1,1,2,2,3,3,4,4,5,5,6,6,9,9,10,10,11,11,12,12,13,13,15,15,16,16,17,17,18,18,22,22,23,23,24,24],"right_children":[2,4,6,8,10,12,14,-1,-1,16,18,20,22,24,-1,26,28,30,32,-1,-1,-1,34,36,38,-1,-1,-1,-1,-1,-1,-1,-1,-1,-1,-1,-1,-1,-1],"split_conditions":[1.5916315E1,2.5327143E1,1.5660124E1,1.3574836E1,9.093915E-2,1.4608511E1,1.7795525E1,1.0129931E-2,5.937339E-2,1.2276139E1,6.841199E1,2.3086559E-2,-5.8671355E-1,5.0102755E-2,-5.5180725E-2,5.157158E-2,1.2984009E1,1.1811373E1,1.3121507E1,1.7481195E-3,5.212564E-2,1.1833939E-2,1.4783907E1,1.663785E1,3.0439453E1,1.9352587E-2,-1.3857454E-2,-1.9411424E-2,1.5020402E-3,8.543579E-4,-4.2826068E-2,4.6135996E-2,-1.3841997E-2,-5.789503E-4,-4.933615E-2,-6.1071035E-3,-3.549456E-2,3.5828464E-2,-8.402013E-3],"split_indices":[11,5,2,11,10,6,0,0,0,7,5,9,8,9,0,10,11,2,6,0,0,0,12,0,14,0,0,0,0,0,0,0,0,0,0,0,0,0,0],"split_type":[0,0,0,0,0,0,0,0,0,0,0,0,0,0,0,0,0,0,0,0,0,0,0,0,0,0,0,0,0,0,0,0,0,0,0,0,0,0,0],"sum_hessian":[4.2129532E2,3.7550714E2,4.5788197E1,4.917353E0,3.7058978E2,2.1673338E1,2.4114859E1,1.2438629E0,3.67349E0,3.3511075E2,3.5479042E1,2.7423859E0,1.8930952E1,2.2190468E1,1.924392E0,9.108869E1,2.4402205E2,2.6513931E1,8.965108E0,1.4986968E0,1.2436891E0,1.7448814E0,1.7186071E1,4.2173615E0,1.7973106E1,7.23971E1,1.8691587E1,2.8946733E1,2.1507532E2,1.0562612E1,1.5951321E1,4.493396E0,4.4717126E0,1.7184163E0,1.5467655E1,1.7461303E0,2.4712312E0,9.486334E0,8.486772E0],"tree_param":{"num_deleted":"0","num_feature":"17","num_nodes":"39","size_leaf_vector":"1"}},{"base_weights":[-6.0716155E-4,8.192287E-1,-1.2210524E-2,5.7430994E-2,-1.1443166E-2,-7.8481805E-1,3.2406177E-3,-2.8719243E-1,-1.0059965E0,3.4594756E-2,-2.8005606E-1,-3.0699039E-2,7.790488E-3,-1.7114513E-2,-5.865247E-2,3.2154468E-1,-1.6360452E-2,-5.8976166E-2,-7.709148E-1,3.2491904E-2,1.3140498E-3,1.4738205E-2,-3.6647182E-3,-1.647635E-2,2.4080245E-2,-5.87305E-2,4.9413177E-3],"categories":[],"categories_nodes":[],"categories_segments":[],"categories_sizes":[],"default_left":[0,0,0,0,0,0,0,0,0,0,0,0,0,0,0,0,0,0,0,0,0,0,0,0,0,0,0],"id":10,"left_children":[1,3,5,-1,-1,7,9,11,13,15,17,-1,-1,-1,-1,19,21,23,25,-1,-1,-1,-1,-1,-1,-1,-1],"loss_changes":[4.02443E0,2.3011346E0,4.9817004E0,0E0,0E0,6.116228E-1,3.6507618E0,6.6274256E-1,1.8220615E-1,5.414628E0,4.399131E0,0E0,0E0,0E0,0E0,5.39538E0,5.603502E0,4.447073E0,4.5525656E0,0E0,0E0,0E0,0E0,0E0,0E0,0E0,0E0],"parents":[2147483647,0,0,1,1,2,2,5,5,6,6,7,7,8,8,9,9,10,10,15,15,16,16,17,17,18,18],"right_children":[2,4,6,-1,-1,8,10,12,14,16,18,-1,-1,-1,-1,20,22,24,26,-1,-1,-1,-1,-1,-1,-1,-1],"split_conditions":[8.991932E0,8.762498E0,-5.6568396E-1,5.7430994E-2,-1.1443166E-2,-6.0908324E-1,1.607186E1,1.0363848E1,2.4329784E1,-6.0430378E-2,2.2338179E-1,-3.0699039E-2,7.790488E-3,-1.7114513E-2,-5.865247E-2,1.286959E1,1.20122E7,1.3612968E-1,1.5913172E1,3.2491904E-2,1.3140498E-3,1.4738205E-2,-3.6647182E-3,-1.647635E-2,2.4080245E-2,-5.87305E-2,4.9413177E-3],"split_indices":[2,13,9,0,0,8,11,1,5,10,8,0,0,0,0,1,4,8,13,0,0,0,0,0,0,0,0],"split_type":[0,0,0,0,0,0,0,0,0,0,0,0,0,0,0,0,0,0,0,0,0,0,0,0,0,0,0],"sum_hessian":[4.2100027E2,4.9040184E0,4.1609625E2,3.6583636E0,1.2456547E0,7.1819463E0,4.089143E2,2.917154E0,4.2647924E0,3.6895746E2,3.995685E1,1.4566652E0,1.4604888E0,1.4706903E0,2.794102E0,5.4837032E1,3.1412042E2,2.8321264E1,1.1635581E1,2.539753E1,2.9439503E1,4.794421E1,2.661762E2,1.9134981E1,9.186283E0,7.7075505E0,3.928031E0],"tree_param":{"num_deleted":"0","num_feature":"17","num_nodes":"27","size_leaf_vector":"1"}},{"base_weights":[-7.119787E-4,7.908911E-1,-1.1854912E-2,5.5602856E-2,-1.1125597E-2,-7.626142E-1,3.070618E-3,-2.492261E-1,-4.841907E-2,2.3126895E-2,-4.0844053E-1,-3.2545596E-2,1.5251333E-2,2.323825E-1,-2.3242908E-2,3.718078E-2,-6.054715E-1,-3.2650882E-3,2.6706869E-2,-2.3557967E-2,2.2026317E-4,2.1048173E-2,-3.664877E-2],"categories":[],"categories_nodes":[],"categories_segments":[],"categories_sizes":[],"default_left":[0,0,0,0,0,0,0,0,0,0,0,0,0,0,0,0,0,0,0,0,0,0,0],"id":11,"left_children":[1,3,5,-1,-1,7,9,11,-1,13,15,-1,-1,17,19,-1,21,-1,-1,-1,-1,-1,-1],"loss_changes":[3.7295876E0,2.1576858E0,4.673752E0,0E0,0E0,6.1753654E-1,3.3913171E0,1.0162522E0,0E0,3.8057299E0,4.7848997E0,0E0,0E0,6.4249516E0,3.9838343E0,0E0,2.5148973E0,0E0,0E0,0E0,0E0,0E0,0E0],"parents":[2147483647,0,0,1,1,2,2,5,5,6,6,7,7,9,9,10,10,13,13,14,14,16,16],"right_children":[2,4,6,-1,-1,8,10,12,-1,14,16,-1,-1,18,20,-1,22,-1,-1,-1,-1,-1,-1],"split_conditions":[8.991932E0,8.762498E0,-5.6568396E-1,5.5602856E-2,-1.1125597E-2,1.98502E7,3.72084E-1,1.80274E7,-4.841907E-2,1.1289299E1,1.8016684E1,-3.2545596E-2,1.5251333E-2,1.0722508E1,-1.2578668E-1,3.718078E-2,2.2788347E-1,-3.2650882E-3,2.6706869E-2,-2.3557967E-2,2.2026317E-4,2.1048173E-2,-3.664877E-2],"split_indices":[2,13,9,0,0,4,8,4,0,13,15,0,0,13,16,0,9,0,0,0,0,0,0],"split_type":[0,0,0,0,0,0,0,0,0,0,0,0,0,0,0,0,0,0,0,0,0,0,0],"sum_hessian":[4.2075537E2,4.8691626E0,4.158862E2,3.6234694E0,1.2456931E0,7.1303926E0,4.087558E2,2.6728494E0,4.457543E0,3.906596E2,1.809621E1,1.4486024E0,1.2242471E0,7.0136986E1,3.205226E2,2.2377567E0,1.5858455E1,3.5701088E1,3.4435894E1,1.7701807E1,3.028208E2,1.4979612E0,1.4360494E1],"tree_param":{"num_deleted":"0","num_feature":"17","num_nodes":"23","size_leaf_vector":"1"}},{"base_weights":[-6.796678E-4,2.9301275E-2,-2.7397218E-1,2.8935587E-1,-1.757745E-2,-6.19267E-1,1.266062E-2,5.577209E-1,2.6160466E-2,-4.5394483E-1,1.8799681E-2,1.574416E-1,-9.382082E-1,1.5496086E-1,-5.343706E-2,-3.7757616E-2,6.9741493E-1,-6.5544564E-1,2.765683E-1,-6.7142254E-1,4.421753E-1,3.5788965E-1,-4.126794E-2,-3.81019E-2,6.5532196E-1,-6.9688575E-4,-1.027099E0,-4.7101653E-1,3.5323814E-1,4.7648944E-2,1.5405421E-2,1.9796578E-2,-4.6850562E-2,5.606314E-2,-2.6679137E-3,-4.857261E-2,2.267186E-2,5.894816E-2,-2.8621763E-2,2.3166403E-2,-3.2093935E-2,-2.2622475E-2,4.0540888E-4,-3.6707327E-3,6.662517E-2,-1.8811436E-2,-6.1349392E-2,5.1690727E-3,-3.4870405E-2,3.3046447E-2,-1.2849741E-2],"categories":[],"categories_nodes":[],"categories_segments":[],"categories_sizes":[],"default_left":[0,0,0,0,0,0,0,0,0,0,0,0,0,0,0,0,0,0,0,0,0,0,0,0,0,0,0,0,0,0,0,0,0,0,0,0,0,0,0,0,0,0,0,0,0,0,0,0,0,0,0],"id":12,"left_children":[1,3,5,7,9,11,13,15,17,19,21,23,25,27,-1,-1,29,31,33,35,37,39,41,-1,43,-1,45,47,49,-1,-1,-1,-1,-1,-1,-1,-1,-1,-1,-1,-1,-1,-1,-1,-1,-1,-1,-1,-1,-1,-1],"loss_changes":[3.4619107E0,4.64703E0,4.1418085E0,4.097124E0,5.14457E0,4.845979E0,3.8285117E0,5.8038473E0,5.3765373E0,5.156741E0,6.117477E0,3.4187925E0,1.1021042E0,2.8855906E0,0E0,0E0,2.345601E0,2.8798091E0,6.459564E0,7.346904E0,4.766183E0,5.0612283E0,5.1894646E0,0E0,2.4047246E0,0E0,1.1493645E0,8.131515E-1,3.401205E0,0E0,0E0,0E0,0E0,0E0,0E0,0E0,0E0,0E0,0E0,0E0,0E0,0E0,0E0,0E0,0E0,0E0,0E0,0E0,0E0,0E0,0E0],"parents":[2147483647,0,0,1,1,2,2,3,3,4,4,5,5,6,6,7,7,8,8,9,9,10,10,11,11,12,12,13,13,16,16,17,17,18,18,19,19,20,20,21,21,22,22,24,24,26,26,27,27,28,28],"right_children":[2,4,6,8,10,12,14,16,18,20,22,24,26,28,-1,-1,30,32,34,36,38,40,42,-1,44,-1,46,48,50,-1,-1,-1,-1,-1,-1,-1,-1,-1,-1,-1,-1,-1,-1,-1,-1,-1,-1,-1,-1,-1,-1],"split_conditions":[1.607186E1,-6.0430378E-2,1.5660124E1,1.286959E1,-4.6966024E-2,1.4628477E1,1.7795525E1,1.5394927E1,-1.8976901E-1,1.4753629E1,1.20122E7,2.1838036E1,1.4783907E1,7.4851304E-2,-5.343706E-2,-3.7757616E-2,3.890941E1,2.8871944E1,-3.7268255E-2,1.9317913E1,4.9146774E1,1.8869314E1,1.43111E7,-3.81019E-2,1.42438755E1,-6.9688575E-4,1.5092723E1,9.6249E6,3.7362095E1,4.7648944E-2,1.5405421E-2,1.9796578E-2,-4.6850562E-2,5.606314E-2,-2.6679137E-3,-4.857261E-2,2.267186E-2,5.894816E-2,-2.8621763E-2,2.3166403E-2,-3.2093935E-2,-2.2622475E-2,4.0540888E-4,-3.6707327E-3,6.662517E-2,-1.8811436E-2,-6.1349392E-2,5.1690727E-3,-3.4870405E-2,3.3046447E-2,-1.2849741E-2],"split_indices":[11,10,2,1,10,3,0,14,8,11,4,14,12,9,0,0,5,5,9,15,5,15,4,0,3,0,1,4,14,0,0,0,0,0,0,0,0,0,0,0,0,0,0,0,0,0,0,0,0,0,0],"split_type":[0,0,0,0,0,0,0,0,0,0,0,0,0,0,0,0,0,0,0,0,0,0,0,0,0,0,0,0,0,0,0,0,0,0,0,0,0,0,0,0,0,0,0,0,0,0,0,0,0,0,0],"sum_hessian":[4.2053595E2,3.797672E2,4.0768726E1,5.7212833E1,3.2255438E2,1.7965698E1,2.2803028E1,2.7774134E1,2.94387E1,2.3936895E1,2.986175E2,5.3771753E0,1.2588522E1,2.090842E1,1.8946074E0,2.247347E0,2.5526787E1,7.474827E0,2.1963873E1,1.9463968E1,4.472928E0,4.419162E1,2.5442587E2,1.7024838E0,3.6746917E0,1.2059602E0,1.1382562E1,4.6987004E0,1.620972E1,1.4536365E1,1.0990421E1,1.4931536E0,5.9816732E0,5.4954987E0,1.6468374E1,1.5473229E1,3.9907382E0,2.4973915E0,1.9755367E0,4.046105E1,3.7305722E0,2.6401663E1,2.2802422E2,2.1994169E0,1.4752747E0,3.351553E0,8.031009E0,1.4819826E0,3.2167177E0,1.0720944E1,5.4887753E0],"tree_param":{"num_deleted":"0","num_feature":"17","num_nodes":"51","size_leaf_vector":"1"}},{"base_weights":[-8.822235E-4,3.3704603E-1,-2.4393957E-2,-2.1720013E-1,7.964123E-1,-3.8874614E-1,1.5398176E-2,5.2996974E-2,-5.38363E-1,1.3391715E0,9.854573E-2,5.374738E-1,-5.0251967E-1,3.0524498E-1,-5.7474542E-2,3.423655E-2,-7.5991714E-1,8.033447E-2,2.66657E-3,-6.507082E-2,8.1201416E-1,-2.4959002E-2,6.528028E-2,3.443997E-2,-5.950948E-1,5.261494E-1,-1.588806E-1,7.5190765E-1,-7.401542E-2,-5.6920696E-2,8.730704E-3,7.027045E-2,1.4339107E-3,1.2608848E-2,-3.682792E-2,2.9168088E-2,-3.8516905E-2,3.9268132E-2,-1.4628971E-2,5.352617E-2,-1.1622823E-2,-3.416594E-2,-1.271277E-3],"categories":[],"categories_nodes":[],"categories_segments":[],"categories_sizes":[],"default_left":[0,0,0,0,0,0,0,0,0,0,0,0,0,0,0,0,0,0,0,0,0,0,0,0,0,0,0,0,0,0,0,0,0,0,0,0,0,0,0,0,0,0,0],"id":13,"left_children":[1,3,5,7,9,11,13,-1,15,17,19,21,23,25,27,-1,29,-1,-1,-1,31,-1,-1,-1,33,35,37,39,41,-1,-1,-1,-1,-1,-1,-1,-1,-1,-1,-1,-1,-1,-1],"loss_changes":[3.35479E0,7.1660724E0,5.7289968E0,5.998645E0,5.6379566E0,4.369748E0,7.554512E0,0E0,3.5655167E0,2.834546E0,8.7914715E0,4.4254994E0,4.288085E0,7.450007E0,3.884367E0,0E0,3.731759E0,0E0,0E0,0E0,2.6302934E0,0E0,0E0,0E0,4.160903E0,4.077361E0,3.2517214E0,2.0732722E0,8.3068285E0,0E0,0E0,0E0,0E0,0E0,0E0,0E0,0E0,0E0,0E0,0E0,0E0,0E0,0E0],"parents":[2147483647,0,0,1,1,2,2,3,3,4,4,5,5,6,6,8,8,9,9,10,10,11,11,12,12,13,13,14,14,16,16,20,20,24,24,25,25,26,26,27,27,28,28],"right_children":[2,4,6,8,10,12,14,-1,16,18,20,22,24,26,28,-1,30,-1,-1,-1,32,-1,-1,-1,34,36,38,40,42,-1,-1,-1,-1,-1,-1,-1,-1,-1,-1,-1,-1,-1,-1],"split_conditions":[1.3402788E1,-4.0062787E-3,1.5223597E1,-1.1828296E-1,6.1044957E-2,1.09292E7,1.8612453E1,5.2996974E-2,1.0512799E1,6.178459E-2,1.1985857E1,1.4301133E1,1.1938427E1,1.368999E1,8.991932E0,3.423655E-2,1.3798797E1,8.033447E-2,2.66657E-3,-6.507082E-2,1.2539978E1,-2.4959002E-2,6.528028E-2,3.443997E-2,-1.4402683E-1,6.459529E1,9.6249E6,8.762498E0,9.709886E0,-5.6920696E-2,8.730704E-3,7.027045E-2,1.4339107E-3,1.2608848E-2,-3.682792E-2,2.9168088E-2,-3.8516905E-2,3.9268132E-2,-1.4628971E-2,5.352617E-2,-1.1622823E-2,-3.416594E-2,-1.271277E-3],"split_indices":[14,8,14,9,8,4,14,0,0,9,13,14,6,0,2,0,13,0,0,0,14,0,0,0,8,5,4,13,13,0,0,0,0,0,0,0,0,0,0,0,0,0,0],"split_type":[0,0,0,0,0,0,0,0,0,0,0,0,0,0,0,0,0,0,0,0,0,0,0,0,0,0,0,0,0,0,0,0,0,0,0,0,0,0,0,0,0,0,0],"sum_hessian":[4.202021E2,2.6466759E1,3.9373532E2,1.2233573E1,1.4233185E1,3.7903824E1,3.5583148E2,1.9959881E0,1.0237585E1,7.489413E0,6.7437725E0,3.7392066E0,3.4164616E1,7.084823E1,2.8498328E2,1.2494408E0,8.988144E0,5.993041E0,1.4963717E0,1.9984193E0,4.7453527E0,1.7404587E0,1.998748E0,1.9990519E0,3.2165565E1,4.791097E1,2.293726E1,4.8170443E0,2.8016623E2,6.2419224E0,2.7462215E0,2.2481756E0,2.4971774E0,4.4901195E0,2.7675444E1,4.6412872E1,1.4980965E0,2.2403994E0,2.0696861E1,3.5730147E0,1.2440298E0,1.972739E1,2.6043884E2],"tree_param":{"num_deleted":"0","num_feature":"17","num_nodes":"43","size_leaf_vector":"1"}},{"base_weights":[-3.6491483E-4,2.8227165E-2,-2.619997E-1,2.7396718E-1,-1.6031707E-2,-5.94582E-1,1.2732393E-2,5.261802E-1,2.7073652E-2,3.2838304E-3,-8.112286E-1,-5.919271E-2,-1.0497435E0,1.505223E-1,-5.2100565E-2,-3.5748415E-2,6.58383E-1,-6.307147E-1,2.6830408E-1,3.045358E-1,-4.9594805E-2,-1.1562788E0,6.1935666E-3,3.2274136E-1,-6.0175663E-1,-6.4322626E-4,-5.9428275E-2,-4.4750017E-1,3.3943278E-1,4.522222E-2,1.4290355E-2,1.924364E-2,-4.5175355E-2,5.3538647E-2,-2.2838672E-3,1.9298855E-2,-4.1443106E-2,-1.913668E-2,1.0709659E-3,-6.791216E-2,-2.203841E-2,2.9622257E-2,-2.313592E-2,-5.228575E-2,3.3194222E-3,4.8820726E-3,-3.316461E-2,3.171539E-2,-1.2257562E-2],"categories":[],"categories_nodes":[],"categories_segments":[],"categories_sizes":[],"default_left":[0,0,0,0,0,0,0,0,0,0,0,0,0,0,0,0,0,0,0,0,0,0,0,0,0,0,0,0,0,0,0,0,0,0,0,0,0,0,0,0,0,0,0,0,0,0,0,0,0],"id":14,"left_children":[1,3,5,7,9,11,13,15,17,19,21,23,25,27,-1,-1,29,31,33,35,37,39,-1,41,43,-1,-1,45,47,-1,-1,-1,-1,-1,-1,-1,-1,-1,-1,-1,-1,-1,-1,-1,-1,-1,-1,-1,-1],"loss_changes":[3.1569703E0,4.1422586E0,3.8063538E0,3.6048064E0,4.9689536E0,4.526153E0,3.6080487E0,5.1791763E0,4.99677E0,5.059461E0,2.6185322E0,2.2066677E0,1.4409637E0,2.6233816E0,0E0,0E0,2.1666946E0,2.692044E0,5.8343177E0,4.6973968E0,6.401368E0,2.2511005E-1,0E0,1.6194003E0,1.3630738E0,0E0,0E0,7.3330545E-1,3.1193485E0,0E0,0E0,0E0,0E0,0E0,0E0,0E0,0E0,0E0,0E0,0E0,0E0,0E0,0E0,0E0,0E0,0E0,0E0,0E0,0E0],"parents":[2147483647,0,0,1,1,2,2,3,3,4,4,5,5,6,6,7,7,8,8,9,9,10,10,11,11,12,12,13,13,16,16,17,17,18,18,19,19,20,20,21,21,23,23,24,24,27,27,28,28],"right_children":[2,4,6,8,10,12,14,16,18,20,22,24,26,28,-1,-1,30,32,34,36,38,40,-1,42,44,-1,-1,46,48,-1,-1,-1,-1,-1,-1,-1,-1,-1,-1,-1,-1,-1,-1,-1,-1,-1,-1,-1,-1],"split_conditions":[1.607186E1,-6.0430378E-2,1.5660124E1,1.286959E1,2.2708452E1,1.4918755E1,1.7795525E1,1.5394927E1,-1.8976901E-1,1.20122E7,1.42438755E1,-8.341154E-2,1.4783907E1,7.4851304E-2,-5.2100565E-2,-3.5748415E-2,3.890941E1,2.8871944E1,-3.7268255E-2,9.529084E-2,1.54424E7,2.4453165E1,6.1935666E-3,-4.822847E-2,8.567195E-2,-6.4322626E-4,-5.9428275E-2,9.6249E6,3.7362095E1,4.522222E-2,1.4290355E-2,1.924364E-2,-4.5175355E-2,5.3538647E-2,-2.2838672E-3,1.9298855E-2,-4.1443106E-2,-1.913668E-2,1.0709659E-3,-6.791216E-2,-2.203841E-2,2.9622257E-2,-2.313592E-2,-5.228575E-2,3.3194222E-3,4.8820726E-3,-3.316461E-2,3.171539E-2,-1.2257562E-2],"split_indices":[11,10,2,1,15,3,0,14,8,4,3,8,12,9,0,0,5,5,9,10,4,15,0,10,8,0,0,4,14,0,0,0,0,0,0,0,0,0,0,0,0,0,0,0,0,0,0,0,0],"split_type":[0,0,0,0,0,0,0,0,0,0,0,0,0,0,0,0,0,0,0,0,0,0,0,0,0,0,0,0,0,0,0,0,0,0,0,0,0,0,0,0,0,0,0,0,0,0,0,0,0],"sum_hessian":[4.200277E2,3.7945236E2,4.057536E1,5.711893E1,3.2233344E2,1.7828497E1,2.274686E1,2.7695501E1,2.942343E1,3.156618E2,6.6716356E0,8.711516E0,9.116981E0,2.0876837E1,1.8700242E0,2.2417119E0,2.5453789E1,7.4618483E0,2.196158E1,4.642385E1,2.6923795E2,4.700595E0,1.971041E0,5.3503385E0,3.3611782E0,1.2055136E0,7.9114666E0,4.6830716E0,1.6193766E1,1.4469871E1,1.0983919E1,1.4929249E0,5.968923E0,5.4984417E0,1.6463139E1,4.39269E1,2.4969535E0,4.653678E1,2.2270116E2,2.9653046E0,1.7352902E0,4.1656957E0,1.1846429E0,1.679866E0,1.6813122E0,1.4833356E0,3.199736E0,1.0707597E1,5.4861684E0],"tree_param":{"num_deleted":"0","num_feature":"17","num_nodes":"49","size_leaf_vector":"1"}},{"base_weights":[-9.258741E-4,3.254625E-1,-2.3648303E-2,-2.0403971E-1,7.639861E-1,-3.653994E-1,1.3650433E-2,5.1311333E-2,-5.146027E-1,1.2840737E0,9.4586864E-2,5.063312E-1,-4.7250026E-1,2.8701225E-1,-5.514072E-2,3.3251062E-2,-7.2909933E-1,7.694563E-2,2.7902361E-3,-6.281684E-2,7.819544E-1,-2.4661617E-2,6.261482E-2,3.3250287E-2,-5.613244E-1,4.9586165E-1,-1.5206617E-1,7.3466766E-1,-7.056075E-2,-5.4660082E-2,8.407206E-3,6.83384E-2,7.7882485E-4,1.2310912E-2,-3.483341E-2,1.6508222E-2,5.1130105E-2,3.7479732E-2,-1.3988658E-2,5.581559E-3,4.9168043E-2,-3.228345E-2,-1.2149188E-3],"categories":[],"categories_nodes":[],"categories_segments":[],"categories_sizes":[],"default_left":[0,0,0,0,0,0,0,0,0,0,0,0,0,0,0,0,0,0,0,0,0,0,0,0,0,0,0,0,0,0,0,0,0,0,0,0,0,0,0,0,0,0,0],"id":15,"left_children":[1,3,5,7,9,11,13,-1,15,17,19,21,23,25,27,-1,29,-1,-1,-1,31,-1,-1,-1,33,35,37,39,41,-1,-1,-1,-1,-1,-1,-1,-1,-1,-1,-1,-1,-1,-1],"loss_changes":[3.1272588E0,6.528675E0,5.029662E0,5.579972E0,5.1784315E0,3.8640099E0,6.7172084E0,0E0,3.324622E0,2.5708055E0,8.165575E0,4.145124E0,3.9190736E0,6.6604276E0,3.529573E0,0E0,3.4420252E0,0E0,0E0,0E0,2.5528107E0,0E0,0E0,0E0,3.7885733E0,3.9301214E0,2.9631417E0,7.5109506E-1,7.460526E0,0E0,0E0,0E0,0E0,0E0,0E0,0E0,0E0,0E0,0E0,0E0,0E0,0E0,0E0],"parents":[2147483647,0,0,1,1,2,2,3,3,4,4,5,5,6,6,8,8,9,9,10,10,11,11,12,12,13,13,14,14,16,16,20,20,24,24,25,25,26,26,27,27,28,28],"right_children":[2,4,6,8,10,12,14,-1,16,18,20,22,24,26,28,-1,30,-1,-1,-1,32,-1,-1,-1,34,36,38,40,42,-1,-1,-1,-1,-1,-1,-1,-1,-1,-1,-1,-1,-1,-1],"split_conditions":[1.3402788E1,-4.0062787E-3,1.5223597E1,-1.1828296E-1,6.1044957E-2,1.09292E7,1.8612453E1,5.1311333E-2,1.0512799E1,6.178459E-2,1.1985857E1,1.4301133E1,1.1938427E1,1.368999E1,9.1644E0,3.3251062E-2,1.4302641E1,7.694563E-2,2.7902361E-3,-6.281684E-2,5.7815723E1,-2.4661617E-2,6.261482E-2,3.3250287E-2,-1.4402683E-1,1.8985765E1,9.6249E6,2.307466E1,9.709886E0,-5.4660082E-2,8.407206E-3,6.83384E-2,7.7882485E-4,1.2310912E-2,-3.483341E-2,1.6508222E-2,5.1130105E-2,3.7479732E-2,-1.3988658E-2,5.581559E-3,4.9168043E-2,-3.228345E-2,-1.2149188E-3],"split_indices":[14,8,14,9,8,4,14,0,0,9,13,14,6,0,0,0,3,0,0,0,5,0,0,0,8,15,4,14,13,0,0,0,0,0,0,0,0,0,0,0,0,0,0],"split_type":[0,0,0,0,0,0,0,0,0,0,0,0,0,0,0,0,0,0,0,0,0,0,0,0,0,0,0,0,0,0,0,0,0,0,0,0,0,0,0,0,0,0,0],"sum_hessian":[4.1963388E2,2.6445358E1,3.931885E2,1.2222193E1,1.42231655E1,3.7824406E1,3.553641E2,1.998987E0,1.02232065E1,7.487517E0,6.735649E0,3.730772E0,3.409363E1,7.080951E1,2.845546E2,1.2497617E0,8.973445E0,5.9914994E0,1.4960173E0,1.9923048E0,4.7433443E0,1.7391629E0,1.9916091E0,1.9995884E0,3.2094044E1,4.7897533E1,2.2911978E1,4.5559683E0,2.7999863E2,6.2277975E0,2.745647E0,2.2460206E0,2.4973238E0,4.489251E0,2.7604794E1,3.767339E1,1.0224146E1,2.2383945E0,2.0673582E1,1.7131029E0,2.8428655E0,1.9881847E1,2.601168E2],"tree_param":{"num_deleted":"0","num_feature":"17","num_nodes":"43","size_leaf_vector":"1"}},{"base_weights":[-2.0368243E-4,6.704094E-3,-5.0838437E-2,2.071035E-2,-5.079248E-1,-4.460423E-3,4.534965E-1,-1.1177232E0,1.0746331E-1,3.7347418E-1,-3.2532226E-2,-4.2819357E-1,7.2986144E-1,-4.3246523E-3,-6.9185704E-2,9.971687E-1,-8.1547E-1,2.9082188E-2,-2.7419884E-2,8.476738E-4,-1.8178537E-2,1.7735796E-2,-5.440634E-2,-6.0366634E-3,5.3974926E-2,1.3338587E-2,6.270556E-2,-5.283438E-2,-9.372701E-3],"categories":[],"categories_nodes":[],"categories_segments":[],"categories_sizes":[],"default_left":[0,0,0,0,0,0,0,0,0,0,0,0,0,0,0,0,0,0,0,0,0,0,0,0,0,0,0,0,0],"id":16,"left_children":[1,3,-1,5,7,9,11,13,15,17,19,21,23,-1,-1,25,27,-1,-1,-1,-1,-1,-1,-1,-1,-1,-1,-1,-1],"loss_changes":[2.9588654E0,3.0273938E0,0E0,4.4511204E0,4.2962446E0,4.117504E0,5.7847147E0,1.4376097E0,6.110473E0,5.4687395E0,5.9219613E0,3.4806352E0,5.3252773E0,0E0,0E0,3.6631083E-1,3.6493897E-1,0E0,0E0,0E0,0E0,0E0,0E0,0E0,0E0,0E0,0E0,0E0,0E0],"parents":[2147483647,0,0,1,1,3,3,4,4,5,5,6,6,7,7,8,8,9,9,10,10,11,11,12,12,15,15,16,16],"right_children":[2,4,-1,6,8,10,12,14,16,18,20,22,24,-1,-1,26,28,-1,-1,-1,-1,-1,-1,-1,-1,-1,-1,-1,-1],"split_conditions":[1.7795525E1,2.2708452E1,-5.0838437E-2,2.0690556E1,2.8097492E1,9.1036E6,-2.162164E-1,1.2937064E1,2.17611E7,6.686799E1,1.4645426E1,2.14667E7,-7.5900376E-2,-4.3246523E-3,-6.9185704E-2,1.3291634E1,1.235191E1,2.9082188E-2,-2.7419884E-2,8.476738E-4,-1.8178537E-2,1.7735796E-2,-5.440634E-2,-6.0366634E-3,5.3974926E-2,1.3338587E-2,6.270556E-2,-5.283438E-2,-9.372701E-3],"split_indices":[0,15,0,15,14,4,9,0,4,5,6,4,16,0,0,7,13,0,0,0,0,0,0,0,0,0,0,0,0],"split_type":[0,0,0,0,0,0,0,0,0,0,0,0,0,0,0,0,0,0,0,0,0,0,0,0,0,0,0,0,0],"sum_hessian":[4.1938785E2,4.1754395E2,1.8438951E0,4.0741537E2,1.01285515E1,3.8595782E2,2.1457552E1,4.6773734E0,5.451178E0,2.5834887E1,3.6012296E2,4.989648E0,1.6467903E1,1.2308019E0,3.4465716E0,2.7345982E0,2.71658E0,2.1376812E1,4.458075E0,3.1411575E2,4.6007195E1,2.493724E0,2.495924E0,4.9879484E0,1.1479956E1,1.242074E0,1.492524E0,1.469552E0,1.247028E0],"tree_param":{"num_deleted":"0","num_feature":"17","num_nodes":"29","size_leaf_vector":"1"}},{"base_weights":[-4.7424037E-4,3.123011E-1,-2.2228312E-2,-1.9436915E-1,7.3207945E-1,-3.4895822E-1,1.3377562E-2,4.956153E-2,-4.9448434E-1,1.2317381E0,8.917279E-2,4.7515038E-1,-4.4996876E-1,2.7096075E-1,-5.1467244E-2,3.2310233E-2,-7.0259106E-1,7.384177E-2,2.680939E-3,-6.0947873E-2,7.5366235E-1,-2.4419352E-2,6.009795E-2,3.2121085E-2,-5.3554726E-1,4.6802253E-1,-1.4353573E-1,7.01708E-1,-6.6672154E-2,-5.2889306E-2,8.437938E-3,6.625863E-2,4.109665E-4,1.1421341E-2,-3.319119E-2,1.025588E-2,3.871548E-2,-3.993929E-2,1.9030148E-3,5.0900515E-2,-1.2327853E-2,-3.1398978E-2,-1.10271E-3],"categories":[],"categories_nodes":[],"categories_segments":[],"categories_sizes":[],"default_left":[0,0,0,0,0,0,0,0,0,0,0,0,0,0,0,0,0,0,0,0,0,0,0,0,0,0,0,0,0,0,0,0,0,0,0,0,0,0,0,0,0,0,0],"id":17,"left_children":[1,3,5,7,9,11,13,-1,15,17,19,21,23,25,27,-1,29,-1,-1,-1,31,-1,-1,-1,33,35,37,39,41,-1,-1,-1,-1,-1,-1,-1,-1,-1,-1,-1,-1,-1,-1],"loss_changes":[2.8661826E0,5.9684763E0,4.586267E0,5.187663E0,4.7699833E0,3.4384494E0,5.9617014E0,0E0,3.1133046E0,2.366459E0,7.6302567E0,3.8896685E0,3.6180344E0,5.929816E0,3.3142128E0,0E0,3.2589822E0,0E0,0E0,0E0,2.4337468E0,0E0,0E0,0E0,3.3878422E0,3.7773151E0,2.8734612E0,1.970448E0,7.013189E0,0E0,0E0,0E0,0E0,0E0,0E0,0E0,0E0,0E0,0E0,0E0,0E0,0E0,0E0],"parents":[2147483647,0,0,1,1,2,2,3,3,4,4,5,5,6,6,8,8,9,9,10,10,11,11,12,12,13,13,14,14,16,16,20,20,24,24,25,25,26,26,27,27,28,28],"right_children":[2,4,6,8,10,12,14,-1,16,18,20,22,24,26,28,-1,30,-1,-1,-1,32,-1,-1,-1,34,36,38,40,42,-1,-1,-1,-1,-1,-1,-1,-1,-1,-1,-1,-1,-1,-1],"split_conditions":[1.3402788E1,-4.0062787E-3,1.5223597E1,-1.1828296E-1,6.1044957E-2,1.09292E7,1.8612453E1,4.956153E-2,1.0512799E1,6.178459E-2,1.1985857E1,1.4301133E1,1.1938427E1,1.368999E1,8.991932E0,3.2310233E-2,1.3798797E1,7.384177E-2,2.680939E-3,-6.0947873E-2,1.2539978E1,-2.4419352E-2,6.009795E-2,3.2121085E-2,-1.4402683E-1,-1.0139468E-2,1.3463943E1,8.762498E0,9.709886E0,-5.2889306E-2,8.437938E-3,6.625863E-2,4.109665E-4,1.1421341E-2,-3.319119E-2,1.025588E-2,3.871548E-2,-3.993929E-2,1.9030148E-3,5.0900515E-2,-1.2327853E-2,-3.1398978E-2,-1.10271E-3],"split_indices":[14,8,14,9,8,4,14,0,0,9,13,14,6,0,2,0,13,0,0,0,14,0,0,0,8,10,7,13,13,0,0,0,0,0,0,0,0,0,0,0,0,0,0],"split_type":[0,0,0,0,0,0,0,0,0,0,0,0,0,0,0,0,0,0,0,0,0,0,0,0,0,0,0,0,0,0,0,0,0,0,0,0,0,0,0,0,0,0,0],"sum_hessian":[4.192209E2,2.6392937E1,3.9282794E2,1.2202072E1,1.4190865E1,3.7737453E1,3.550905E2,1.9996512E0,1.0202421E1,7.4696565E0,6.7212086E0,3.7159967E0,3.4021458E1,7.077444E1,2.8431607E2,1.2493328E0,8.953089E0,5.9733915E0,1.4962649E0,1.983E0,4.738209E0,1.7388393E0,1.9771574E0,1.998918E0,3.2022537E1,4.788134E1,2.2893099E1,4.732679E0,2.7958337E2,6.208363E0,2.7447252E0,2.2417917E0,2.4964168E0,4.4915504E0,2.7530987E1,2.6663834E1,2.1217506E1,4.230295E0,1.8662804E1,3.4937553E0,1.2389237E0,1.9624659E1,2.5995874E2],"tree_param":{"num_deleted":"0","num_feature":"17","num_nodes":"43","size_leaf_vector":"1"}},{"base_weights":[-1.6346507E-5,6.6726496E-3,-4.9645092E-2,2.0122021E-2,-4.889055E-1,-3.6578418E-3,4.2862698E-1,-1.0805694E0,1.0524875E-1,3.532576E-1,-3.0160509E-2,-4.1240153E-1,6.922124E-1,-4.1765315E-3,-6.6975765E-2,9.676846E-1,-7.932039E-1,2.7602015E-2,-2.6258145E-2,8.380084E-4,-1.7221825E-2,1.7133074E-2,-5.2537706E-2,-6.0975007E-3,5.1360227E-2,1.2996435E-2,6.0800124E-2,-5.1469993E-2,-9.083875E-3],"categories":[],"categories_nodes":[],"categories_segments":[],"categories_sizes":[],"default_left":[0,0,0,0,0,0,0,0,0,0,0,0,0,0,0,0,0,0,0,0,0,0,0,0,0,0,0,0,0],"id":18,"left_children":[1,3,-1,5,7,9,11,13,15,17,19,21,23,-1,-1,25,27,-1,-1,-1,-1,-1,-1,-1,-1,-1,-1,-1,-1],"loss_changes":[2.7952769E0,2.7963784E0,0E0,3.9648268E0,4.0107946E0,3.6669686E0,5.2626214E0,1.345078E0,5.7595596E0,4.9690204E0,5.325231E0,3.244379E0,4.889333E0,0E0,0E0,3.4079838E-1,3.4811497E-1,0E0,0E0,0E0,0E0,0E0,0E0,0E0,0E0,0E0,0E0,0E0,0E0],"parents":[2147483647,0,0,1,1,3,3,4,4,5,5,6,6,7,7,8,8,9,9,10,10,11,11,12,12,15,15,16,16],"right_children":[2,4,-1,6,8,10,12,14,16,18,20,22,24,-1,-1,26,28,-1,-1,-1,-1,-1,-1,-1,-1,-1,-1,-1,-1],"split_conditions":[1.7795525E1,2.2708452E1,-4.9645092E-2,2.0690556E1,2.8097492E1,9.1036E6,-2.162164E-1,1.2937064E1,2.17611E7,6.686799E1,1.4645426E1,2.14667E7,-7.5900376E-2,-4.1765315E-3,-6.6975765E-2,1.3291634E1,1.235191E1,2.7602015E-2,-2.6258145E-2,8.380084E-4,-1.7221825E-2,1.7133074E-2,-5.2537706E-2,-6.0975007E-3,5.1360227E-2,1.2996435E-2,6.0800124E-2,-5.1469993E-2,-9.083875E-3],"split_indices":[0,15,0,15,14,4,9,0,4,5,6,4,16,0,0,7,13,0,0,0,0,0,0,0,0,0,0,0,0],"split_type":[0,0,0,0,0,0,0,0,0,0,0,0,0,0,0,0,0,0,0,0,0,0,0,0,0,0,0,0,0],"sum_hessian":[4.1888867E2,4.1707217E2,1.8165048E0,4.0698648E2,1.0085708E1,3.855348E2,2.145168E1,4.6432505E0,5.442457E0,2.579676E1,3.5973804E2,4.9841247E0,1.6467554E1,1.2299733E0,3.4132774E0,2.7375715E0,2.7048857E0,2.133932E1,4.45744E0,3.1383054E2,4.59075E1,2.4955368E0,2.4885879E0,4.9858766E0,1.1481678E1,1.242618E0,1.4949534E0,1.4583024E0,1.2465832E0],"tree_param":{"num_deleted":"0","num_feature":"17","num_nodes":"29","size_leaf_vector":"1"}},{"base_weights":[-2.9061435E-4,6.973339E-1,-9.506585E-3,5.193194E-3,4.6851717E-2,-7.7392185E-1,1.8713424E-3,3.2415967E-3,-1.0528259E0,2.0518258E-1,-3.7222683E-2,-1.7303413E-2,-6.274491E-2,9.593261E-1,7.700183E-2,-8.2331157E-1,-1.9809641E-2,-4.455078E-3,6.237277E-2,-4.4456557E-3,2.373589E-2,1.07517345E-2,-7.346445E-2,-7.1856417E-3,5.243104E-3],"categories":[],"categories_nodes":[],"categories_segments":[],"categories_sizes":[],"default_left":[0,0,0,0,0,0,0,0,0,0,0,0,0,0,0,0,0,0,0,0,0,0,0,0,0],"id":19,"left_children":[1,3,5,-1,-1,7,9,-1,11,13,15,-1,-1,17,19,21,23,-1,-1,-1,-1,-1,-1,-1,-1],"loss_changes":[2.704855E0,6.829891E-1,3.612565E0,0E0,0E0,1.4932978E0,3.2672188E0,0E0,2.2689533E-1,6.334423E0,4.703485E0,0E0,0E0,2.99407E0,3.852906E0,5.311562E0,5.24179E0,0E0,0E0,0E0,0E0,0E0,0E0,0E0,0E0],"parents":[2147483647,0,0,1,1,2,2,5,5,6,6,8,8,9,9,10,10,13,13,14,14,15,15,16,16],"right_children":[2,4,6,-1,-1,8,10,-1,12,14,16,-1,-1,18,20,22,24,-1,-1,-1,-1,-1,-1,-1,-1],"split_conditions":[9.1644E0,2.307466E1,9.329031E0,5.193194E-3,4.6851717E-2,2.52865E7,1.185005E1,3.2415967E-3,8.708346E0,-8.6096115E-2,1.0837114E1,-1.7303413E-2,-6.274491E-2,1.21421175E1,1.1549378E1,1.182352E1,4.3283703E-4,-4.455078E-3,6.237277E-2,-4.4456557E-3,2.373589E-2,1.07517345E-2,-7.346445E-2,-7.1856417E-3,5.243104E-3],"split_indices":[0,14,2,0,0,4,3,0,13,10,13,0,0,11,3,2,10,0,0,0,0,0,0,0,0],"split_type":[0,0,0,0,0,0,0,0,0,0,0,0,0,0,0,0,0,0,0,0,0,0,0,0,0],"sum_hessian":[4.186773E2,4.485312E0,4.14192E2,1.7027676E0,2.7825444E0,5.0916953E0,4.091003E2,1.4621347E0,3.6295605E0,6.529268E1,3.4380762E2,1.410136E0,2.2194245E0,8.54348E0,5.6749195E1,6.447822E0,3.373598E2,1.9906781E0,6.5528016E0,4.0591927E1,1.615727E1,2.7287455E0,3.7190769E0,1.6912482E2,1.6823499E2],"tree_param":{"num_deleted":"0","num_feature":"17","num_nodes":"25","size_leaf_vector":"1"}},{"base_weights":[-3.0278362E-4,6.1721075E-3,-4.8510995E-2,1.904141E-2,-4.699702E-1,-3.7469964E-3,4.1061598E-1,-1.0448838E0,1.03998184E-1,3.3510303E-1,-2.88954E-2,1.1004258E-1,1.1733197E0,-4.002107E-3,-6.488726E-2,9.3916506E-1,-7.698996E-1,2.6280478E-2,-2.526497E-2,7.6490955E-4,-1.627313E-2,3.151045E-2,-2.3429185E-2,1.7786352E-2,7.3721305E-2,1.2557167E-2,5.9065282E-2,-5.0172485E-2,-8.635804E-3],"categories":[],"categories_nodes":[],"categories_segments":[],"categories_sizes":[],"default_left":[0,0,0,0,0,0,0,0,0,0,0,0,0,0,0,0,0,0,0,0,0,0,0,0,0,0,0,0,0],"id":20,"left_children":[1,3,-1,5,7,9,11,13,15,17,19,21,23,-1,-1,25,27,-1,-1,-1,-1,-1,-1,-1,-1,-1,-1,-1,-1],"loss_changes":[2.640478E0,2.5685127E0,0E0,3.6393921E0,3.7489574E0,3.3011081E0,5.0128765E0,1.2628217E0,5.415934E0,4.5507197E0,4.729599E0,5.469995E0,1.0109682E0,0E0,0E0,3.261149E-1,3.4156585E-1,0E0,0E0,0E0,0E0,0E0,0E0,0E0,0E0,0E0,0E0,0E0,0E0],"parents":[2147483647,0,0,1,1,3,3,4,4,5,5,6,6,7,7,8,8,9,9,10,10,11,11,12,12,15,15,16,16],"right_children":[2,4,-1,6,8,10,12,14,16,18,20,22,24,-1,-1,26,28,-1,-1,-1,-1,-1,-1,-1,-1,-1,-1,-1,-1],"split_conditions":[1.7795525E1,2.2708452E1,-4.8510995E-2,2.0690556E1,2.8097492E1,9.1036E6,4.195376E-2,1.2937064E1,2.17611E7,6.686799E1,1.4645426E1,1.3082403E1,-1.5557323E-1,-4.002107E-3,-6.488726E-2,1.3291634E1,1.235191E1,2.6280478E-2,-2.526497E-2,7.6490955E-4,-1.627313E-2,3.151045E-2,-2.3429185E-2,1.7786352E-2,7.3721305E-2,1.2557167E-2,5.9065282E-2,-5.0172485E-2,-8.635804E-3],"split_indices":[0,15,0,15,14,4,16,0,4,5,6,7,8,0,0,7,13,0,0,0,0,0,0,0,0,0,0,0,0],"split_type":[0,0,0,0,0,0,0,0,0,0,0,0,0,0,0,0,0,0,0,0,0,0,0,0,0,0,0,0,0],"sum_hessian":[4.1849756E2,4.1670935E2,1.7881969E0,4.0667758E2,1.0031781E1,3.852478E2,2.1429777E1,4.601874E0,5.429908E0,2.5764978E1,3.5948282E2,1.619269E1,5.237087E0,1.2289858E0,3.3728878E0,2.7382915E0,2.6916163E0,2.1309103E1,4.4558764E0,3.1368655E2,4.5796257E1,8.480156E0,7.712534E0,1.9967422E0,3.2403448E0,1.2431545E0,1.495137E0,1.4458581E0,1.2457582E0],"tree_param":{"num_deleted":"0","num_feature":"17","num_nodes":"29","size_leaf_vector":"1"}},{"base_weights":[-3.3978504E-4,2.966506E-1,-2.0976206E-2,-1.8808027E-1,6.9904E-1,-3.3352107E-1,1.304491E-2,4.796947E-2,-4.7905257E-1,1.1824039E0,7.8838296E-2,-2.0058534E-1,-1.0289745E0,2.518458E-1,-4.7125947E-2,3.1505536E-2,-6.8200034E-1,7.087466E-2,2.7681177E-3,-5.9376575E-2,7.221499E-1,-2.7805427E-1,4.3981545E-2,-7.214696E-2,1.4970648E-2,4.366979E-1,-1.3665946E-1,-8.824252E-2,2.3601204E-1,-4.6481732E-2,2.143944E-2,6.455384E-2,-5.3061516E-4,-2.8377904E-3,-4.3436E-2,2.456428E-2,-3.8638946E-2,-3.915128E-2,2.1073415E-3,-7.0555223E-4,-2.1548733E-2,3.6511365E-2,-8.557207E-3],"categories":[],"categories_nodes":[],"categories_segments":[],"categories_sizes":[],"default_left":[0,0,0,0,0,0,0,0,0,0,0,0,0,0,0,0,0,0,0,0,0,0,0,0,0,0,0,0,0,0,0,0,0,0,0,0,0,0,0,0,0,0,0],"id":21,"left_children":[1,3,5,7,9,11,13,-1,15,17,19,21,23,25,27,-1,29,-1,-1,-1,31,33,-1,-1,-1,35,37,39,41,-1,-1,-1,-1,-1,-1,-1,-1,-1,-1,-1,-1,-1,-1],"loss_changes":[2.5758286E0,5.457533E0,4.1827435E0,4.8580737E0,4.4431863E0,3.363408E0,5.1177983E0,0E0,2.9454527E0,2.155859E0,7.130058E0,3.0612617E0,3.706335E0,5.207057E0,3.3348873E0,0E0,3.1293712E0,0E0,0E0,0E0,2.4014568E0,4.155257E0,0E0,0E0,0E0,3.6018715E0,2.7917302E0,6.3280163E0,7.44336E0,0E0,0E0,0E0,0E0,0E0,0E0,0E0,0E0,0E0,0E0,0E0,0E0,0E0,0E0],"parents":[2147483647,0,0,1,1,2,2,3,3,4,4,5,5,6,6,8,8,9,9,10,10,11,11,12,12,13,13,14,14,16,16,20,20,21,21,25,25,26,26,27,27,28,28],"right_children":[2,4,6,8,10,12,14,-1,16,18,20,22,24,26,28,-1,30,-1,-1,-1,32,34,-1,-1,-1,36,38,40,42,-1,-1,-1,-1,-1,-1,-1,-1,-1,-1,-1,-1,-1,-1],"split_conditions":[1.3402788E1,-4.0062787E-3,1.5223597E1,-1.1828296E-1,6.1044957E-2,5.1399946E-2,1.8612453E1,4.796947E-2,1.0512799E1,6.178459E-2,1.1985857E1,3.78257E7,2.4353097E-1,1.368999E1,6.721993E1,3.1505536E-2,1.4298371E1,7.087466E-2,2.7681177E-3,-5.9376575E-2,5.7815723E1,2.45731E7,4.3981545E-2,-7.214696E-2,1.4970648E-2,6.459529E1,1.3463943E1,5.157158E-2,2.8395182E1,-4.6481732E-2,2.143944E-2,6.455384E-2,-5.3061516E-4,-2.8377904E-3,-4.3436E-2,2.456428E-2,-3.8638946E-2,-3.915128E-2,2.1073415E-3,-7.0555223E-4,-2.1548733E-2,3.6511365E-2,-8.557207E-3],"split_indices":[14,8,14,9,8,16,14,0,0,9,13,4,16,0,5,0,2,0,0,0,5,4,0,0,0,5,7,10,14,0,0,0,0,0,0,0,0,0,0,0,0,0,0],"split_type":[0,0,0,0,0,0,0,0,0,0,0,0,0,0,0,0,0,0,0,0,0,0,0,0,0,0,0,0,0,0,0,0,0,0,0,0,0,0,0,0,0,0,0],"sum_hessian":[4.182661E2,2.6306034E1,3.9196008E2,1.2173747E1,1.4132286E1,3.76131E1,3.54347E2,1.9978604E0,1.0175887E1,7.4328747E0,6.6994114E0,3.26588E1,4.9542966E0,7.067452E1,2.8367245E2,1.248378E0,8.927509E0,5.9368067E0,1.4960682E0,1.9718416E0,4.7275696E0,3.116627E1,1.4925311E0,3.7114623E0,1.2428343E0,4.78048E1,2.2869728E1,2.4830289E2,3.5369568E1,7.433422E0,1.494087E0,2.232384E0,2.4951856E0,2.3469345E1,7.6969237E0,4.6308544E1,1.4962543E0,4.223398E0,1.864633E1,2.0500284E2,4.3300053E1,1.5618275E1,1.9751293E1],"tree_param":{"num_deleted":"0","num_feature":"17","num_nodes":"43","size_leaf_vector":"1"}},{"base_weights":[-2.5952392E-4,6.735655E-1,-9.4634555E-3,9.8018587E-1,-1.1766843E-2,-6.943822E-1,3.9585684E-3,1.4555277E-2,5.590803E-2,-2.0984672E-1,-9.2405593E-1,2.8296322E-1,-2.04974E-2,-2.6966264E-2,1.0090628E-2,-1.4144296E-2,-5.503547E-2,4.3454337E-1,-4.3548065E-1,-1.1461351E-1,6.324348E-2,5.7408083E-2,1.3619711E-2,3.1444766E-2,-4.445E-2,-1.3239275E-3,-2.427425E-2,1.1132588E-2,-7.163778E-3],"categories":[],"categories_nodes":[],"categories_segments":[],"categories_sizes":[],"default_left":[0,0,0,0,0,0,0,0,0,0,0,0,0,0,0,0,0,0,0,0,0,0,0,0,0,0,0,0,0],"id":22,"left_children":[1,3,5,7,-1,9,11,-1,-1,13,15,17,19,-1,-1,-1,-1,21,23,25,27,-1,-1,-1,-1,-1,-1,-1,-1],"loss_changes":[2.6047895E0,1.8079395E0,3.8115473E0,9.52611E-2,0E0,6.92894E-1,2.7852595E0,0E0,0E0,6.318962E-1,2.6767588E-1,3.7716382E0,2.966314E0,0E0,0E0,0E0,0E0,2.8884344E0,3.5667515E0,5.7769504E0,6.5937066E0,0E0,0E0,0E0,0E0,0E0,0E0,0E0,0E0],"parents":[2147483647,0,0,1,1,2,2,3,3,5,5,6,6,9,9,10,10,11,11,12,12,17,17,18,18,19,19,20,20],"right_children":[2,4,6,8,-1,10,12,-1,-1,14,16,18,20,-1,-1,-1,-1,22,24,26,28,-1,-1,-1,-1,-1,-1,-1,-1],"split_conditions":[8.991932E0,8.762498E0,-5.6568396E-1,3.5205425E1,-1.1766843E-2,-6.0908324E-1,3.3766808E1,1.4555277E-2,5.590803E-2,1.0363848E1,2.4329784E1,1.4721056E1,1.7195388E-3,-2.6966264E-2,1.0090628E-2,-1.4144296E-2,-5.503547E-2,2.5327143E1,2.2372082E1,1.43611145E1,5.157158E-2,5.7408083E-2,1.3619711E-2,3.1444766E-2,-4.445E-2,-1.3239275E-3,-2.427425E-2,1.1132588E-2,-7.163778E-3],"split_indices":[2,13,9,5,0,8,5,0,0,1,5,3,10,0,0,0,0,5,14,0,10,0,0,0,0,0,0,0,0],"split_type":[0,0,0,0,0,0,0,0,0,0,0,0,0,0,0,0,0,0,0,0,0,0,0,0,0,0,0,0,0],"sum_hessian":[4.179749E2,4.659613E0,4.1331528E2,3.4255633E0,1.2340498E0,6.9687576E0,4.0634653E2,1.0902797E0,2.3352835E0,2.8563914E0,4.112366E0,3.1895704E1,3.7445084E2,1.4143035E0,1.4420878E0,1.4501942E0,2.6621723E0,2.6664982E1,5.230724E0,1.761301E2,1.9832072E2,3.8111622E0,2.2853819E1,1.4473056E0,3.7834182E0,1.4317659E2,3.2953503E1,1.1188253E2,8.64382E1],"tree_param":{"num_deleted":"0","num_feature":"17","num_nodes":"29","size_leaf_vector":"1"}},{"base_weights":[-2.2876584E-4,6.0212435E-3,-4.728878E-2,-2.498634E-3,7.118523E-1,7.717926E-3,-6.63595E-1,5.7121556E-2,1.9854711E-1,-1.4835846E-3,9.4092155E-1,-3.0592048E-1,-5.4767948E-2,-1.3298626E-2,2.8758375E-2,1.0585323E-3,-1.5996255E-2,5.7197507E-2,1.7933862E-2,1.8829478E-2,-3.9978866E-2],"categories":[],"categories_nodes":[],"categories_segments":[],"categories_sizes":[],"default_left":[0,0,0,0,0,0,0,0,0,0,0,0,0,0,0,0,0,0,0,0,0],"id":23,"left_children":[1,3,-1,5,7,9,11,-1,13,15,17,19,-1,-1,-1,-1,-1,-1,-1,-1,-1],"loss_changes":[2.480033E0,2.5090685E0,0E0,2.7943127E0,8.730042E-1,3.5019636E0,6.3724375E-1,0E0,7.618629E-1,2.9261718E0,6.0406446E-2,1.9288331E0,0E0,0E0,0E0,0E0,0E0,0E0,0E0,0E0,0E0],"parents":[2147483647,0,0,1,1,3,3,4,4,5,5,6,6,8,8,9,9,10,10,11,11],"right_children":[2,4,-1,6,8,10,12,-1,14,16,18,20,-1,-1,-1,-1,-1,-1,-1,-1,-1],"split_conditions":[1.7795525E1,1.8083923E1,-4.728878E-2,1.6712332E1,1.7439316E1,1.6660112E1,4.55913E1,5.7121556E-2,1.8227922E1,1.607186E1,2.2036856E1,1.37666E7,-5.4767948E-2,-1.3298626E-2,2.8758375E-2,1.0585323E-3,-1.5996255E-2,5.7197507E-2,1.7933862E-2,1.8829478E-2,-3.9978866E-2],"split_indices":[0,11,0,7,0,3,5,0,11,11,14,4,0,0,0,0,0,0,0,0,0],"split_type":[0,0,0,0,0,0,0,0,0,0,0,0,0,0,0,0,0,0,0,0,0],"sum_hessian":[4.1769266E2,4.1593695E2,1.7556872E0,4.1196075E2,3.9761965E0,4.0666452E2,5.2962527E0,1.4958155E0,2.480381E0,4.0368256E2,2.9819527E0,3.8310966E0,1.4651562E0,1.2421354E0,1.2382456E0,3.7774307E2,2.5939482E1,1.495683E0,1.4862698E0,1.707508E0,2.1235888E0],"tree_param":{"num_deleted":"0","num_feature":"17","num_nodes":"21","size_leaf_vector":"1"}},{"base_weights":[-1.9818373E-4,6.678799E-1,-8.946794E-3,4.822431E-3,9.0133244E-1,-7.384458E-1,1.8635045E-3,1.4189805E-2,5.235386E-2,3.6492131E-3,-1.0111616E0,1.9436981E-1,-3.4147136E-2,-1.6591316E-2,-6.0244113E-2,8.840105E-1,7.8625984E-2,-6.818503E-1,-1.941112E-2,6.2902085E-2,-1.8700956E-4,-1.54373115E-2,1.4238009E-2,1.6899994E-2,-7.00989E-2,-1.6524366E-3,3.9127152E-2],"categories":[],"categories_nodes":[],"categories_segments":[],"categories_sizes":[],"default_left":[0,0,0,0,0,0,0,0,0,0,0,0,0,0,0,0,0,0,0,0,0,0,0,0,0,0,0],"id":24,"left_children":[1,3,5,-1,7,9,11,-1,-1,-1,13,15,17,-1,-1,19,21,23,25,-1,-1,-1,-1,-1,-1,-1,-1],"loss_changes":[2.452399E0,6.3658595E-1,3.2673562E0,0E0,3.8614035E-2,1.4126058E0,2.842588E0,0E0,0E0,0E0,2.0495653E-1,5.0882587E0,3.2841985E0,0E0,0E0,3.0557208E0,4.5936985E0,6.096516E0,3.7314675E0,0E0,0E0,0E0,0E0,0E0,0E0,0E0,0E0],"parents":[2147483647,0,0,1,1,2,2,4,4,5,5,6,6,10,10,11,11,12,12,15,15,16,16,17,17,18,18],"right_children":[2,4,6,-1,8,10,12,-1,-1,-1,14,16,18,-1,-1,20,22,24,26,-1,-1,-1,-1,-1,-1,-1,-1],"split_conditions":[9.1644E0,2.307466E1,9.329031E0,4.822431E-3,-7.6320744E-1,2.52865E7,1.1818751E1,1.4189805E-2,5.235386E-2,3.6492131E-3,8.708346E0,-8.6096115E-2,1.0837114E1,-1.6591316E-2,-6.0244113E-2,3.890941E1,4.1780994E1,1.182352E1,1.559973E-1,6.2902085E-2,-1.8700956E-4,-1.54373115E-2,1.4238009E-2,1.6899994E-2,-7.00989E-2,-1.6524366E-3,3.9127152E-2],"split_indices":[0,14,2,0,9,4,3,0,0,0,13,10,13,0,0,5,5,2,10,0,0,0,0,0,0,0,0],"split_type":[0,0,0,0,0,0,0,0,0,0,0,0,0,0,0,0,0,0,0,0,0,0,0,0,0,0,0],"sum_hessian":[4.1756738E2,4.423589E0,4.131438E2,1.6929146E0,2.7306745E0,5.050014E0,4.0809378E2,1.0841644E0,1.6465101E0,1.4545553E0,3.5954587E0,6.3616108E1,3.4447766E2,1.399752E0,2.1957066E0,8.188518E0,5.542759E1,6.6558776E0,3.378218E2,5.4677205E0,2.7207973E0,1.9077991E1,3.63496E1,2.974296E0,3.6815815E0,3.3311578E2,4.706003E0],"tree_param":{"num_deleted":"0","num_feature":"17","num_nodes":"27","size_leaf_vector":"1"}},{"base_weights":[-8.1242135E-5,6.4738756E-1,-8.831269E-3,9.462077E-1,-1.1434844E-2,-6.7147875E-1,4.063179E-3,1.4010637E-2,5.400346E-2,-1.7208175E-1,-4.432507E-2,2.7328485E-1,-1.9456664E-2,1.76051E-2,-2.8768769E-2,6.460576E-2,1.6539364E-1,-2.0702511E-1,1.9308252E-2,-4.875947E-2,1.4971129E-2,3.992477E-3,-2.4251362E-2,2.700573E-2,-5.15473E-4],"categories":[],"categories_nodes":[],"categories_segments":[],"categories_sizes":[],"default_left":[0,0,0,0,0,0,0,0,0,0,0,0,0,0,0,0,0,0,0,0,0,0,0,0,0],"id":25,"left_children":[1,3,5,7,-1,9,11,-1,-1,13,-1,15,17,-1,-1,-1,19,21,23,-1,-1,-1,-1,-1,-1],"loss_changes":[2.3760922E0,1.6804311E0,3.538473E0,8.646679E-2,0E0,6.9625163E-1,2.581831E0,0E0,0E0,9.678461E-1,0E0,3.387168E0,2.731684E0,0E0,0E0,0E0,4.9955597E0,5.1697364E0,4.8151875E0,0E0,0E0,0E0,0E0,0E0,0E0],"parents":[2147483647,0,0,1,1,2,2,3,3,5,5,6,6,9,9,11,11,12,12,16,16,17,17,18,18],"right_children":[2,4,6,8,-1,10,12,-1,-1,14,-1,16,18,-1,-1,-1,20,22,24,-1,-1,-1,-1,-1,-1],"split_conditions":[8.991932E0,8.762498E0,-5.6568396E-1,3.5205425E1,-1.1434844E-2,1.98502E7,3.3766808E1,1.4010637E-2,5.400346E-2,1.4072453E1,-4.432507E-2,1.1844097E1,4.165025E1,1.76051E-2,-2.8768769E-2,6.460576E-2,1.2149562E1,-5.2220955E-2,4.3138664E1,-4.875947E-2,1.4971129E-2,3.992477E-3,-2.4251362E-2,2.700573E-2,-5.15473E-4],"split_indices":[2,13,9,5,0,4,5,0,0,1,0,7,5,0,0,0,7,10,5,0,0,0,0,0,0],"split_type":[0,0,0,0,0,0,0,0,0,0,0,0,0,0,0,0,0,0,0,0,0,0,0,0,0],"sum_hessian":[4.1739722E2,4.59237E0,4.1280487E2,3.3646822E0,1.2276877E0,6.9045405E0,4.0590033E2,1.0807883E0,2.283894E0,2.6199403E0,4.2846003E0,3.175821E1,3.7414212E2,1.1944194E0,1.4255209E0,1.9900289E0,2.9768179E1,6.3337227E1,3.108049E2,2.4702706E0,2.7297909E1,3.1521982E1,3.1815243E1,1.5796608E1,2.9500827E2],"tree_param":{"num_deleted":"0","num_feature":"17","num_nodes":"25","size_leaf_vector":"1"}},{"base_weights":[1.231744E-5,1.2336085E-2,-4.586503E-1,-9.534199E-3,3.8976046E-1,-1.0165029E0,9.697555E-2,3.0833772E-1,-3.3195097E-2,9.682051E-2,1.1354756E0,-3.889645E-3,-6.322726E-2,9.025687E-1,-7.4824613E-1,5.0383013E-1,-5.160644E-1,1.23909E-2,-3.3055887E-1,5.9173465E-1,-4.5258424E-1,1.766963E-2,7.107438E-2,1.1297007E-2,5.7465386E-2,-8.248261E-3,-4.8953008E-2,-7.6085925E-3,4.0534552E-2,-4.259808E-2,2.1015165E-2,-1.2275763E-3,2.122452E-2,-9.057687E-3,-3.8454525E-2,-1.5659845E-2,4.802229E-2,3.6005832E-2,-4.8518118E-2],"categories":[],"categories_nodes":[],"categories_segments":[],"categories_sizes":[],"default_left":[0,0,0,0,0,0,0,0,0,0,0,0,0,0,0,0,0,0,0,0,0,0,0,0,0,0,0,0,0,0,0,0,0,0,0,0,0,0,0],"id":26,"left_children":[1,3,5,7,9,11,13,15,17,19,21,-1,-1,23,25,27,29,31,33,35,37,-1,-1,-1,-1,-1,-1,-1,-1,-1,-1,-1,-1,-1,-1,-1,-1,-1,-1],"loss_changes":[2.3698957E0,3.373955E0,3.4989717E0,2.9202366E0,4.780553E0,1.1965394E0,5.039359E0,4.595611E0,4.897787E0,4.9354987E0,8.89163E-1,0E0,0E0,3.638451E-1,3.3316922E-1,4.602572E0,2.1352973E0,4.7905245E0,3.0070572E0,3.4586976E0,5.982602E0,0E0,0E0,0E0,0E0,0E0,0E0,0E0,0E0,0E0,0E0,0E0,0E0,0E0,0E0,0E0,0E0,0E0,0E0],"parents":[2147483647,0,0,1,1,2,2,3,3,4,4,5,5,6,6,7,7,8,8,9,9,10,10,13,13,14,14,15,15,16,16,17,17,18,18,19,19,20,20],"right_children":[2,4,6,8,10,12,14,16,18,20,22,-1,-1,24,26,28,30,32,34,36,38,-1,-1,-1,-1,-1,-1,-1,-1,-1,-1,-1,-1,-1,-1,-1,-1,-1,-1],"split_conditions":[2.2708452E1,2.0690556E1,2.8097492E1,9.1036E6,4.195376E-2,1.2937064E1,2.17611E7,6.686799E1,1.4645426E1,1.3082403E1,-1.5557323E-1,-3.889645E-3,-6.322726E-2,1.3291634E1,1.3074941E1,1.3331896E1,2.2955035E-1,6.721993E1,2.2744815E-1,1.93145E7,-6.517678E-2,1.766963E-2,7.107438E-2,1.1297007E-2,5.7465386E-2,-8.248261E-3,-4.8953008E-2,-7.6085925E-3,4.0534552E-2,-4.259808E-2,2.1015165E-2,-1.2275763E-3,2.122452E-2,-9.057687E-3,-3.8454525E-2,-1.5659845E-2,4.802229E-2,3.6005832E-2,-4.8518118E-2],"split_indices":[15,15,14,4,16,0,4,5,6,7,8,0,0,7,0,2,8,5,8,4,10,0,0,0,0,0,0,0,0,0,0,0,0,0,0,0,0,0,0],"split_type":[0,0,0,0,0,0,0,0,0,0,0,0,0,0,0,0,0,0,0,0,0,0,0,0,0,0,0,0,0,0,0,0,0,0,0,0,0,0,0],"sum_hessian":[4.1726767E2,4.0729715E2,9.970529E0,3.8590988E2,2.1387247E1,4.561387E0,5.4091415E0,2.5901749E1,3.6000815E2,1.6166414E1,5.2208314E0,1.2279325E0,3.3334546E0,2.7347567E0,2.674385E0,2.1251245E1,4.650503E0,3.1298563E2,4.7022503E1,8.46444E0,7.7019744E0,1.9966617E0,3.2241697E0,1.2426798E0,1.4920768E0,1.244406E0,1.429979E0,6.933351E0,1.4317895E1,3.489043E0,1.1614602E0,2.8809955E2,2.4886099E1,3.6127254E1,1.089525E1,2.4939864E0,5.970454E0,2.2393506E0,5.462624E0],"tree_param":{"num_deleted":"0","num_feature":"17","num_nodes":"39","size_leaf_vector":"1"}},{"base_weights":[9.351071E-5,2.4136433E-2,-2.3886909E-1,2.0471323E-1,-3.3161752E-2,-7.384608E-1,-2.7754721E-3,3.2369682E-1,-2.530531E-1,-1.322453E-1,1.1931828E-1,1.00209475E-1,-1.079917E0,1.1974263E-1,-5.6974925E-2,2.1199045E-1,1.1324229E0,9.19836E-1,-6.641079E-1,-8.6021505E-2,-8.3190674E-1,2.1379124E-1,-3.1628036E-1,-5.3919017E-2,4.4459086E-2,1.0183103E-2,-6.55164E-2,-4.8997615E-2,2.3363322E-1,-1.8404874E-3,3.1212602E-2,7.838392E-3,6.374299E-2,6.5228276E-2,-1.1139509E-2,-1.4027469E-2,-6.0139228E-2,8.663864E-4,-1.9275894E-2,-5.586849E-3,-6.2645964E-2,-7.763552E-3,1.6406873E-2,6.0002245E-2,-2.4787908E-2,2.3281885E-2,-1.3605537E-2],"categories":[],"categories_nodes":[],"categories_segments":[],"categories_sizes":[],"default_left":[0,0,0,0,0,0,0,0,0,0,0,0,0,0,0,0,0,0,0,0,0,0,0,0,0,0,0,0,0,0,0,0,0,0,0,0,0,0,0,0,0,0,0,0,0,0,0],"id":27,"left_children":[1,3,5,7,9,11,13,15,17,19,21,23,25,27,-1,29,31,33,35,37,39,41,43,-1,-1,-1,-1,-1,45,-1,-1,-1,-1,-1,-1,-1,-1,-1,-1,-1,-1,-1,-1,-1,-1,-1,-1],"loss_changes":[2.4071789E0,3.9455078E0,4.5156093E0,5.083813E0,4.394743E0,3.6270533E0,3.8986046E0,6.384333E0,1.0015444E1,5.625441E0,4.787161E0,5.115797E0,2.8746023E0,3.3964176E0,0E0,6.757627E0,1.0048552E0,2.700327E0,2.766961E0,5.155756E0,3.1349473E0,4.0533476E0,6.2673492E0,0E0,0E0,0E0,0E0,0E0,2.910391E0,0E0,0E0,0E0,0E0,0E0,0E0,0E0,0E0,0E0,0E0,0E0,0E0,0E0,0E0,0E0,0E0,0E0,0E0],"parents":[2147483647,0,0,1,1,2,2,3,3,4,4,5,5,6,6,7,7,8,8,9,9,10,10,11,11,12,12,13,13,15,15,16,16,17,17,18,18,19,19,20,20,21,21,22,22,28,28],"right_children":[2,4,6,8,10,12,14,16,18,20,22,24,26,28,-1,30,32,34,36,38,40,42,44,-1,-1,-1,-1,-1,46,-1,-1,-1,-1,-1,-1,-1,-1,-1,-1,-1,-1,-1,-1,-1,-1,-1,-1],"split_conditions":[9.093915E-2,1.2276139E1,1.0404716E-1,5.157158E-2,2.562961E-3,1.79001E7,1.0217666E-1,4.136249E-2,1.8919895E1,2.2744815E-1,1.8680662E1,1.15177E7,8.762498E0,1.016842E1,-5.6974925E-2,1.1928141E1,-1.2578668E-1,1.269772E1,1.0427792E-1,-1.8693784E-2,3.0439453E1,1.2515309E1,1.2438754E1,-5.3919017E-2,4.4459086E-2,1.0183103E-2,-6.55164E-2,-4.8997615E-2,1.3971533E1,-1.8404874E-3,3.1212602E-2,7.838392E-3,6.374299E-2,6.5228276E-2,-1.1139509E-2,-1.4027469E-2,-6.0139228E-2,8.663864E-4,-1.9275894E-2,-5.586849E-3,-6.2645964E-2,-7.763552E-3,1.6406873E-2,6.0002245E-2,-2.4787908E-2,2.3281885E-2,-1.3605537E-2],"split_indices":[10,7,10,10,10,4,16,10,14,8,15,4,13,11,0,12,16,11,8,10,14,13,6,0,0,0,0,0,2,0,0,0,0,0,0,0,0,0,0,0,0,0,0,0,0,0,0],"split_type":[0,0,0,0,0,0,0,0,0,0,0,0,0,0,0,0,0,0,0,0,0,0,0,0,0,0,0,0,0,0,0,0,0,0,0,0,0,0,0,0,0,0,0,0,0,0,0],"sum_hessian":[4.1697446E2,3.7967313E2,3.7301342E1,9.083413E1,2.88839E2,1.1287763E1,2.6013578E1,7.232749E1,1.8506638E1,1.7515417E2,1.13684814E2,3.47041E0,7.8173523E0,2.4290195E1,1.7233824E0,6.465857E1,7.668923E0,4.48151E0,1.4025127E1,1.6535294E2,9.801252E0,9.384158E1,1.9843231E1,1.2445092E0,2.225901E0,1.2073742E0,6.6099777E0,1.565908E0,2.2724289E1,4.089133E1,2.3767239E1,1.2445676E0,6.424355E0,3.2466254E0,1.234885E0,9.080368E0,4.9447594E0,1.2363241E2,4.1720524E1,4.0827823E0,5.7184696E0,2.2112783E1,7.1728806E1,1.4983181E0,1.8344912E1,1.5632399E1,7.0918894E0],"tree_param":{"num_deleted":"0","num_feature":"17","num_nodes":"47","size_leaf_vector":"1"}},{"base_weights":[-2.2083605E-4,1.5670866E-2,-3.408593E-1,1.9017906E-1,-2.7471578E-2,-1.0978338E0,-1.3005172E-2,3.4882215E-1,-2.1744904E-1,-4.493709E-1,-1.588102E-3,-1.9818984E-2,-6.524077E-2,4.002314E-1,-4.8836194E-2,2.29803E-1,1.0950323E0,-3.2344022E-1,3.888331E-2,-1.0746589E0,2.0462973E-1,-1.3070789E-1,7.5214684E-2,6.732532E-1,-3.69242E-1,1.8543772E-2,-1.6200928E-2,-1.14845885E-2,7.627141E-2,4.09147E-2,-2.1367418E-2,1.1021822E-3,-7.2783016E-2,6.802911E-2,-1.2879818E-2,-2.4437057E-3,-5.909574E-2,-4.576199E-3,1.3177268E-2,4.6697628E-2,-1.5124342E-2,-4.5867648E-2,1.6881479E-2],"categories":[],"categories_nodes":[],"categories_segments":[],"categories_sizes":[],"default_left":[0,0,0,0,0,0,0,0,0,0,0,0,0,0,0,0,0,0,0,0,0,0,0,0,0,0,0,0,0,0,0,0,0,0,0,0,0,0,0,0,0,0,0],"id":28,"left_children":[1,3,5,7,9,11,13,15,17,19,21,-1,-1,23,-1,25,27,29,-1,31,33,35,37,39,41,-1,-1,-1,-1,-1,-1,-1,-1,-1,-1,-1,-1,-1,-1,-1,-1,-1,-1],"loss_changes":[2.266275E0,3.0167108E0,4.616819E0,5.2113323E0,3.5110822E0,2.9984713E-1,5.9794397E0,4.8595376E0,2.6630824E0,7.8201666E0,3.024538E0,0E0,0E0,2.4609456E0,0E0,4.096848E0,4.712537E0,2.8848739E0,0E0,4.068969E0,5.653062E0,9.72735E0,6.0298443E0,2.3498354E0,1.6284926E0,0E0,0E0,0E0,0E0,0E0,0E0,0E0,0E0,0E0,0E0,0E0,0E0,0E0,0E0,0E0,0E0,0E0,0E0],"parents":[2147483647,0,0,1,1,2,2,3,3,4,4,5,5,6,6,7,7,8,8,9,9,10,10,13,13,15,15,16,16,17,17,19,19,20,20,21,21,22,22,23,23,24,24],"right_children":[2,4,6,8,10,12,14,16,18,20,22,-1,-1,24,-1,26,28,30,-1,32,34,36,38,40,42,-1,-1,-1,-1,-1,-1,-1,-1,-1,-1,-1,-1,-1,-1,-1,-1,-1,-1],"split_conditions":[3.72084E-1,1.1289299E1,1.3895145E1,3.52118E7,-1.2578668E-1,3.9309675E-1,1.47990265E1,1.118792E1,2.7560505E-1,1.3328764E1,-6.2792964E-2,-1.9818984E-2,-6.524077E-2,1.8680662E1,-4.8836194E-2,1.1852837E1,1.81624E7,8.976252E0,3.888331E-2,1.8919895E1,1.292175E1,-4.0455952E-2,9.222856E-4,1.5590976E1,6.1576027E-2,1.8543772E-2,-1.6200928E-2,-1.14845885E-2,7.627141E-2,4.09147E-2,-2.1367418E-2,1.1021822E-3,-7.2783016E-2,6.802911E-2,-1.2879818E-2,-2.4437057E-3,-5.909574E-2,-4.576199E-3,1.3177268E-2,4.6697628E-2,-1.5124342E-2,-4.5867648E-2,1.6881479E-2],"split_indices":[8,13,3,4,16,8,6,13,8,11,9,0,0,15,0,2,4,0,0,14,6,8,10,3,16,0,0,0,0,0,0,0,0,0,0,0,0,0,0,0,0,0,0],"split_type":[0,0,0,0,0,0,0,0,0,0,0,0,0,0,0,0,0,0,0,0,0,0,0,0,0,0,0,0,0,0,0,0,0,0,0,0,0,0,0,0,0,0,0],"sum_hessian":[4.1666077E2,3.990003E2,1.7660444E1,7.841379E1,3.2058652E2,4.6275234E0,1.3032921E1,5.654971E1,2.1864082E1,1.7585325E1,3.030012E2,1.7185298E0,2.9089935E0,9.530851E0,3.5020688E0,4.9898888E1,6.6508207E0,2.036947E1,1.4946104E0,8.661185E0,8.924141E0,1.1274836E2,1.9025284E2,7.1270905E0,2.4037614E0,4.003204E1,9.866846E0,1.745288E0,4.905533E0,1.125658E0,1.9243813E1,2.4760585E0,6.1851263E0,1.9939791E0,6.9301615E0,1.0557603E2,7.172331E0,1.0118377E2,8.906908E1,5.658162E0,1.4689283E0,1.186207E0,1.2175543E0],"tree_param":{"num_deleted":"0","num_feature":"17","num_nodes":"43","size_leaf_vector":"1"}},{"base_weights":[-3.9904055E-4,2.768993E-1,-1.963434E-2,-1.7483334E-1,6.5322965E-1,-3.17686E-1,1.285188E-2,4.6820484E-2,-4.5816192E-1,1.123424E0,5.5128217E-2,-1.9043288E-1,-9.8580676E-1,2.2854346E-1,-4.1637693E-2,2.9498661E-2,-6.497098E-1,6.73052E-2,3.0488698E-3,-5.777051E-2,6.7252207E-1,-2.6470774E-1,4.200557E-2,-6.9397956E-2,1.4575469E-2,4.033001E-1,-1.377856E-1,-7.7563554E-1,-2.5776187E-2,-4.9446497E-2,8.649676E-3,6.1736323E-2,-1.8467723E-3,-2.6221767E-3,-4.1655637E-2,7.8945225E-3,3.45459E-2,-3.899814E-2,1.9989663E-3,1.45125035E-2,-5.5944856E-2,1.0250934E-2,-3.4837534E-3],"categories":[],"categories_nodes":[],"categories_segments":[],"categories_sizes":[],"default_left":[0,0,0,0,0,0,0,0,0,0,0,0,0,0,0,0,0,0,0,0,0,0,0,0,0,0,0,0,0,0,0,0,0,0,0,0,0,0,0,0,0,0,0],"id":29,"left_children":[1,3,5,7,9,11,13,-1,15,17,19,21,23,25,27,-1,29,-1,-1,-1,31,33,-1,-1,-1,35,37,39,41,-1,-1,-1,-1,-1,-1,-1,-1,-1,-1,-1,-1,-1,-1],"loss_changes":[2.2316792E0,4.7280493E0,3.7922404E0,4.560845E0,4.161174E0,3.084754E0,4.16705E0,0E0,2.6175663E0,1.894783E0,6.5027514E0,2.7920902E0,3.4449158E0,4.6326623E0,3.2776644E0,0E0,2.9297419E0,0E0,0E0,0E0,2.3213336E0,3.8262544E0,0E0,0E0,0E0,3.3255124E0,2.7523174E0,2.5043142E0,2.8338232E0,0E0,0E0,0E0,0E0,0E0,0E0,0E0,0E0,0E0,0E0,0E0,0E0,0E0,0E0],"parents":[2147483647,0,0,1,1,2,2,3,3,4,4,5,5,6,6,8,8,9,9,10,10,11,11,12,12,13,13,14,14,16,16,20,20,21,21,25,25,26,26,27,27,28,28],"right_children":[2,4,6,8,10,12,14,-1,16,18,20,22,24,26,28,-1,30,-1,-1,-1,32,34,-1,-1,-1,36,38,40,42,-1,-1,-1,-1,-1,-1,-1,-1,-1,-1,-1,-1,-1,-1],"split_conditions":[1.3402788E1,-4.0062787E-3,1.5223597E1,-1.1828296E-1,6.1044957E-2,5.1399946E-2,1.8612453E1,4.6820484E-2,1.0512799E1,6.178459E-2,1.1985857E1,3.78257E7,2.4353097E-1,1.368999E1,1.8872814E1,2.9498661E-2,1.3798797E1,6.73052E-2,3.0488698E-3,-5.777051E-2,5.7815723E1,2.45731E7,4.200557E-2,-6.9397956E-2,1.4575469E-2,-1.0139468E-2,1.3463943E1,1.778235E1,-6.92401E-2,-4.9446497E-2,8.649676E-3,6.1736323E-2,-1.8467723E-3,-2.6221767E-3,-4.1655637E-2,7.8945225E-3,3.45459E-2,-3.899814E-2,1.9989663E-3,1.45125035E-2,-5.5944856E-2,1.0250934E-2,-3.4837534E-3],"split_indices":[14,8,14,9,8,16,14,0,0,9,13,4,16,0,14,0,13,0,0,0,5,4,0,0,0,10,7,15,10,0,0,0,0,0,0,0,0,0,0,0,0,0,0],"split_type":[0,0,0,0,0,0,0,0,0,0,0,0,0,0,0,0,0,0,0,0,0,0,0,0,0,0,0,0,0,0,0,0,0,0,0,0,0,0,0,0,0,0,0],"sum_hessian":[4.1637482E2,2.6140137E1,3.9023468E2,1.2123261E1,1.4016876E1,3.7490562E1,3.527441E2,1.9947239E0,1.0128537E1,7.3558187E0,6.6610575E0,3.2571823E1,4.918739E0,7.049649E1,2.8224762E2,1.2436042E0,8.884933E0,5.8605185E0,1.4953004E0,1.9554769E0,4.7055807E0,3.1075258E1,1.4965627E0,3.6750565E0,1.2436824E0,4.7659626E1,2.2836864E1,4.957061E0,2.7729056E2,6.1479416E0,2.7369914E0,2.2121766E0,2.493404E0,2.3421164E1,7.654096E0,2.6552603E1,2.1107021E1,4.2166343E0,1.8620232E1,1.245136E0,3.711925E0,4.3727333E1,2.3356323E2],"tree_param":{"num_deleted":"0","num_feature":"17","num_nodes":"43","size_leaf_vector":"1"}},{"base_weights":[-3.282268E-4,5.410512E-3,-4.4616304E-2,-2.8975673E-3,6.935547E-1,7.103895E-3,-6.4967877E-1,5.538085E-2,1.9663878E-1,-1.8909009E-3,9.196093E-1,-6.7427856E-5,-8.006052E-1,-1.2794614E-2,2.8133294E-2,2.7518341E-2,-6.722861E-4,5.551463E-2,1.783788E-2,-9.38726E-3,-5.9179522E-2],"categories":[],"categories_nodes":[],"categories_segments":[],"categories_sizes":[],"default_left":[0,0,0,0,0,0,0,0,0,0,0,0,0,0,0,0,0,0,0,0,0],"id":30,"left_children":[1,3,-1,5,7,9,11,-1,13,15,17,-1,19,-1,-1,-1,-1,-1,-1,-1,-1],"loss_changes":[2.1397579E0,2.3768737E0,0E0,2.666076E0,8.0262446E-1,3.3353941E0,6.130383E-1,0E0,7.187549E-1,2.5802543E0,2.9611588E-2,0E0,9.723234E-1,0E0,0E0,0E0,0E0,0E0,0E0,0E0,0E0],"parents":[2147483647,0,0,1,1,3,3,4,4,5,5,6,6,8,8,9,9,10,10,12,12],"right_children":[2,4,-1,6,8,10,12,-1,14,16,18,-1,20,-1,-1,-1,-1,-1,-1,-1,-1],"split_conditions":[1.7795525E1,1.8083923E1,-4.4616304E-2,1.6712332E1,1.7439316E1,1.6660112E1,-1.0596992E-1,5.538085E-2,1.8227922E1,2.5327143E1,2.2036856E1,-6.7427856E-5,1.696512E1,-1.2794614E-2,2.8133294E-2,2.7518341E-2,-6.722861E-4,5.551463E-2,1.783788E-2,-9.38726E-3,-5.9179522E-2],"split_indices":[0,11,0,7,0,3,10,0,11,5,14,0,14,0,0,0,0,0,0,0,0],"split_type":[0,0,0,0,0,0,0,0,0,0,0,0,0,0,0,0,0,0,0,0,0],"sum_hessian":[4.160646E2,4.1439252E2,1.6720927E0,4.1043307E2,3.9594374E0,4.0515698E2,5.276104E0,1.489395E0,2.4700422E0,4.021904E2,2.9665644E0,1.1868255E0,4.089278E0,1.2390532E0,1.2309891E0,7.2868657E0,3.9490353E2,1.4893734E0,1.4771909E0,2.145779E0,1.9434992E0],"tree_param":{"num_deleted":"0","num_feature":"17","num_nodes":"21","size_leaf_vector":"1"}},{"base_weights":[-1.748293E-4,6.1498594E-1,-8.406774E-3,9.1237265E-1,-1.1779893E-2,-7.565266E-1,2.291777E-3,1.3431142E-2,5.2137293E-2,1.62538E-2,-5.5859007E-2,1.7873324E-1,-3.0688439E-2,8.3572066E-1,6.9886684E-2,-6.4215297E-1,-1.6847933E-2,5.992597E-2,-3.5795578E-4,-4.8290696E-3,2.502397E-2,1.63205E-2,-6.681632E-2,-1.4809836E-3,3.671686E-2],"categories":[],"categories_nodes":[],"categories_segments":[],"categories_sizes":[],"default_left":[0,0,0,0,0,0,0,0,0,0,0,0,0,0,0,0,0,0,0,0,0,0,0,0,0],"id":31,"left_children":[1,3,5,7,-1,9,11,-1,-1,-1,-1,13,15,17,19,21,23,-1,-1,-1,-1,-1,-1,-1,-1],"loss_changes":[2.1167107E0,1.611161E0,3.30293E0,8.036327E-2,0E0,2.632749E0,2.377548E0,0E0,0E0,0E0,0E0,4.5427394E0,2.9029305E0,2.777114E0,4.0830855E0,5.5417895E0,3.261624E0,0E0,0E0,0E0,0E0,0E0,0E0,0E0,0E0],"parents":[2147483647,0,0,1,1,2,2,3,3,5,5,6,6,11,11,12,12,13,13,14,14,15,15,16,16],"right_children":[2,4,6,8,-1,10,12,-1,-1,-1,-1,14,16,18,20,22,24,-1,-1,-1,-1,-1,-1,-1,-1],"split_conditions":[8.991932E0,8.762498E0,9.329031E0,3.5205425E1,-1.1779893E-2,1.9142E7,1.1818751E1,1.3431142E-2,5.2137293E-2,1.62538E-2,-5.5859007E-2,-8.6096115E-2,1.0837114E1,3.890941E1,1.1549378E1,1.182352E1,1.559973E-1,5.992597E-2,-3.5795578E-4,-4.8290696E-3,2.502397E-2,1.63205E-2,-6.681632E-2,-1.4809836E-3,3.671686E-2],"split_indices":[2,13,2,5,0,4,3,0,0,0,0,10,13,5,3,2,10,0,0,0,0,0,0,0,0],"split_type":[0,0,0,0,0,0,0,0,0,0,0,0,0,0,0,0,0,0,0,0,0,0,0,0,0],"sum_hessian":[4.1597336E2,4.5196486E0,4.114537E2,3.2949896E0,1.2246588E0,4.818189E0,4.0663553E2,1.0703396E0,2.2246501E0,1.2295144E0,3.588675E0,6.3341934E1,3.4329358E2,8.053544E0,5.5288387E1,6.5936537E0,3.3669992E2,5.3351955E0,2.718349E0,4.0432716E1,1.4855674E1,2.9739547E0,3.6196988E0,3.3201553E2,4.6843977E0],"tree_param":{"num_deleted":"0","num_feature":"17","num_nodes":"25","size_leaf_vector":"1"}},{"base_weights":[2.514149E-5,1.5463047E-2,-3.320506E-1,1.8241015E-1,-2.5714183E-2,-1.0624781E0,-1.6222782E-2,3.3282593E-1,-2.0438792E-1,-4.3103877E-1,-9.0789126E-4,-1.912008E-2,-6.3228264E-2,3.7833953E-1,-4.7425237E-2,5.484295E-1,-2.9452736E-2,8.985238E-2,-5.8733404E-1,-1.0339849E0,1.9682421E-1,1.4253241E-2,-6.012224E-1,-3.731395E-1,6.4802206E-1,3.2170452E-3,4.7285404E-2,-9.658353E-3,6.093235E-2,-2.8309245E-2,3.308498E-2,-2.096027E-3,-5.5416733E-2,7.288716E-4,-6.9933504E-2,6.543883E-2,-1.24119455E-2,-1.3105072E-3,2.1365084E-2,1.3626458E-2,-4.0776476E-2,1.4705256E-2,-4.4431422E-2,4.493294E-2,-1.4522863E-2],"categories":[],"categories_nodes":[],"categories_segments":[],"categories_sizes":[],"default_left":[0,0,0,0,0,0,0,0,0,0,0,0,0,0,0,0,0,0,0,0,0,0,0,0,0,0,0,0,0,0,0,0,0,0,0,0,0,0,0,0,0,0,0,0,0],"id":32,"left_children":[1,3,5,7,9,11,13,15,17,19,21,-1,-1,23,-1,25,27,29,31,33,35,37,39,41,43,-1,-1,-1,-1,-1,-1,-1,-1,-1,-1,-1,-1,-1,-1,-1,-1,-1,-1,-1,-1],"loss_changes":[2.1415238E0,2.7487721E0,4.2637267E0,4.670081E0,3.2278717E0,2.8417683E-1,5.497989E0,4.494333E0,2.6180968E0,7.2125635E0,2.7713923E0,0E0,0E0,2.3760843E0,0E0,6.86131E0,4.8000646E0,5.529944E0,2.802239E0,3.693163E0,5.2292433E0,4.9760275E0,1.6267843E0,1.4362551E0,2.169918E0,0E0,0E0,0E0,0E0,0E0,0E0,0E0,0E0,0E0,0E0,0E0,0E0,0E0,0E0,0E0,0E0,0E0,0E0,0E0,0E0],"parents":[2147483647,0,0,1,1,2,2,3,3,4,4,5,5,6,6,7,7,8,8,9,9,10,10,13,13,15,15,16,16,17,17,18,18,19,19,20,20,21,21,22,22,23,23,24,24],"right_children":[2,4,6,8,10,12,14,16,18,20,22,-1,-1,24,-1,26,28,30,32,34,36,38,40,42,44,-1,-1,-1,-1,-1,-1,-1,-1,-1,-1,-1,-1,-1,-1,-1,-1,-1,-1,-1,-1],"split_conditions":[3.72084E-1,1.1289299E1,1.3895145E1,3.52118E7,-1.2578668E-1,3.9309675E-1,1.47990265E1,5.157158E-2,2.441202E1,1.3328764E1,2.2708452E1,-1.912008E-2,-6.3228264E-2,1.148199E1,-4.7425237E-2,1.0404648E1,2.130694E-1,2.0945513E1,1.1534148E1,1.8919895E1,1.292175E1,2.0346077E1,-1.5772745E-1,1.3402983E1,1.5590976E1,3.2170452E-3,4.7285404E-2,-9.658353E-3,6.093235E-2,-2.8309245E-2,3.308498E-2,-2.096027E-3,-5.5416733E-2,7.288716E-4,-6.9933504E-2,6.543883E-2,-1.24119455E-2,-1.3105072E-3,2.1365084E-2,1.3626458E-2,-4.0776476E-2,1.4705256E-2,-4.4431422E-2,4.493294E-2,-1.4522863E-2],"split_indices":[8,13,3,4,16,8,6,10,14,11,15,0,0,13,0,13,8,14,1,14,6,15,8,6,3,0,0,0,0,0,0,0,0,0,0,0,0,0,0,0,0,0,0,0,0],"split_type":[0,0,0,0,0,0,0,0,0,0,0,0,0,0,0,0,0,0,0,0,0,0,0,0,0,0,0,0,0,0,0,0,0,0,0,0,0,0,0,0,0,0,0,0,0],"sum_hessian":[4.157301E2,3.9817282E2,1.7557264E1,7.809957E1,3.2007327E2,4.5862827E0,1.2970982E1,5.6332756E1,2.1766817E1,1.7514666E1,3.025586E2,1.7131941E0,2.8730886E0,9.531303E0,3.4396791E0,3.4993298E1,2.133946E1,1.2741857E1,9.024961E0,8.604655E0,8.910009E0,2.9605783E2,6.5007763E0,2.4158459E0,7.115457E0,1.6297073E1,1.8696224E1,1.9612148E1,1.7273115E0,5.938716E0,6.80314E0,4.9370427E0,4.0879188E0,2.4681437E0,6.136512E0,1.9921467E0,6.917863E0,2.7049582E2,2.5561985E1,1.2269012E0,5.273875E0,1.240115E0,1.1757308E0,5.6491795E0,1.4662776E0],"tree_param":{"num_deleted":"0","num_feature":"17","num_nodes":"45","size_leaf_vector":"1"}},{"base_weights":[-2.335563E-4,2.7188033E-1,-1.9045886E-2,-1.6023314E-1,6.324716E-1,-6.836977E-1,-5.723435E-3,4.5448653E-2,-4.3413013E-1,1.0856884E0,5.670513E-2,1.4462898E-2,-1.0156323E0,3.065269E-1,-2.7880078E-2,-7.4447834E-1,2.5302753E-1,6.5084025E-2,3.1169318E-3,-5.6039717E-2,6.5424293E-1,-7.0228637E-3,-6.0824435E-2,5.0641215E-1,-4.8986128E-1,1.8109303E-2,-3.326256E-1,1.0320384E-2,-5.233979E-2,-2.4430877E-2,3.5939123E-2,6.060685E-2,-2.206931E-3,-1.0664366E-2,4.36969E-2,-4.098887E-2,2.144506E-2,-1.0038078E-3,2.036153E-2,-2.5293415E-2,-3.2495155E-3],"categories":[],"categories_nodes":[],"categories_segments":[],"categories_sizes":[],"default_left":[0,0,0,0,0,0,0,0,0,0,0,0,0,0,0,0,0,0,0,0,0,0,0,0,0,0,0,0,0,0,0,0,0,0,0,0,0,0,0,0,0],"id":33,"left_children":[1,3,5,7,9,11,13,-1,15,17,19,-1,21,23,25,27,29,-1,-1,-1,31,-1,-1,33,35,37,39,-1,-1,-1,-1,-1,-1,-1,-1,-1,-1,-1,-1,-1,-1],"loss_changes":[2.1365585E0,4.3066254E0,3.4527316E0,4.2235646E0,3.8302045E0,2.7684348E0,2.6631954E0,0E0,2.5523725E0,1.7512436E0,6.097524E0,0E0,8.7241507E-1,4.308354E0,5.0402465E0,2.4841871E0,1.8003358E0,0E0,0E0,0E0,2.270038E0,0E0,0E0,5.709527E0,2.0568495E0,4.6597133E0,2.153325E0,0E0,0E0,0E0,0E0,0E0,0E0,0E0,0E0,0E0,0E0,0E0,0E0,0E0,0E0],"parents":[2147483647,0,0,1,1,2,2,3,3,4,4,5,5,6,6,8,8,9,9,10,10,12,12,13,13,14,14,15,15,16,16,20,20,23,23,24,24,25,25,26,26],"right_children":[2,4,6,8,10,12,14,-1,16,18,20,-1,22,24,26,28,30,-1,-1,-1,32,-1,-1,34,36,38,40,-1,-1,-1,-1,-1,-1,-1,-1,-1,-1,-1,-1,-1,-1],"split_conditions":[1.3402788E1,-4.0062787E-3,1.3744378E1,-1.1828296E-1,6.1044957E-2,1.8016684E1,9.1036E6,4.5448653E-2,2.30808E7,6.178459E-2,1.1985857E1,1.4462898E-2,-9.58541E-2,6.686799E1,1.4645426E1,1.09292E7,4.3531982E1,6.5084025E-2,3.1169318E-3,-5.6039717E-2,1.2539978E1,-7.0228637E-3,-6.0824435E-2,1.3331896E1,2.2955035E-1,6.721993E1,1.5830263E1,1.0320384E-2,-5.233979E-2,-2.4430877E-2,3.5939123E-2,6.060685E-2,-2.206931E-3,-1.0664366E-2,4.36969E-2,-4.098887E-2,2.144506E-2,-1.0038078E-3,2.036153E-2,-2.5293415E-2,-3.2495155E-3],"split_indices":[14,8,14,9,8,15,4,0,4,9,13,0,8,5,6,4,5,0,0,0,14,0,0,2,8,5,0,0,0,0,0,0,0,0,0,0,0,0,0,0,0],"split_type":[0,0,0,0,0,0,0,0,0,0,0,0,0,0,0,0,0,0,0,0,0,0,0,0,0,0,0,0,0,0,0,0,0,0,0,0,0,0,0,0,0],"sum_hessian":[4.1535867E2,2.5988707E1,3.8936996E2,1.2074684E1,1.3914022E1,6.662476E0,3.827075E2,1.9895297E0,1.0085155E1,7.2900186E0,6.624004E0,1.7274888E0,4.9349875E0,2.4506495E1,3.58201E2,6.889955E0,3.1951993E0,5.794937E0,1.4950818E0,1.9350785E0,4.6889253E0,1.2383816E0,3.6966057E0,1.9880747E1,4.6257486E0,3.1204987E2,4.615111E1,1.7386347E0,5.1513205E0,1.2136139E0,1.9815855E0,2.1976893E0,2.491236E0,6.8623557E0,1.3018391E1,3.4828413E0,1.1429071E0,2.850278E2,2.702209E1,2.7475702E1,1.8675407E1],"tree_param":{"num_deleted":"0","num_feature":"17","num_nodes":"41","size_leaf_vector":"1"}},{"base_weights":[-1.3442406E-4,1.5040484E-2,-3.2823402E-1,1.2506802E-1,-4.301497E-2,-1.0360068E0,-2.1683168E-2,4.624956E-2,9.772508E-1,3.568678E-1,-7.7248275E-2,-1.8701132E-2,-6.167078E-2,3.515025E-1,-4.582076E-2,1.7482862E-1,-2.1538267E-1,7.1314454E-2,5.2897596E-1,-9.360535E-2,6.977606E-1,1.5631525E-1,-1.4105895E-1,-3.7564328E-1,6.1374456E-1,3.7783235E-3,4.5641255E-2,4.705885E-3,-3.0652538E-2,-1.3458273E-2,4.9081538E-2,4.4047948E-2,-2.2564841E-2,4.71665E-2,-1.7061941E-3,-4.1103613E-2,1.1271818E-2,2.100612E-3,-1.2859938E-2,1.3719109E-2,-4.37586E-2,4.272471E-2,-1.4280691E-2],"categories":[],"categories_nodes":[],"categories_segments":[],"categories_sizes":[],"default_left":[0,0,0,0,0,0,0,0,0,0,0,0,0,0,0,0,0,0,0,0,0,0,0,0,0,0,0,0,0,0,0,0,0,0,0,0,0,0,0,0,0,0,0],"id":34,"left_children":[1,3,5,7,9,11,13,15,17,19,21,-1,-1,23,-1,25,27,-1,29,31,33,35,37,39,41,-1,-1,-1,-1,-1,-1,-1,-1,-1,-1,-1,-1,-1,-1,-1,-1,-1,-1],"loss_changes":[2.0759883E0,2.5511017E0,3.9767418E0,9.217835E0,3.6090484E0,2.6385784E-1,4.957661E0,4.319519E0,1.5856905E0,3.2608273E0,3.6260533E0,0E0,0E0,2.236507E0,0E0,6.223192E0,5.274911E0,0E0,2.9403472E0,3.829671E0,2.182382E0,3.7265248E0,4.060199E0,1.3469228E0,2.0002458E0,0E0,0E0,0E0,0E0,0E0,0E0,0E0,0E0,0E0,0E0,0E0,0E0,0E0,0E0,0E0,0E0,0E0,0E0],"parents":[2147483647,0,0,1,1,2,2,3,3,4,4,5,5,6,6,7,7,8,8,9,9,10,10,13,13,15,15,16,16,18,18,19,19,20,20,21,21,22,22,23,23,24,24],"right_children":[2,4,6,8,10,12,14,16,18,20,22,-1,-1,24,-1,26,28,-1,30,32,34,36,38,40,42,-1,-1,-1,-1,-1,-1,-1,-1,-1,-1,-1,-1,-1,-1,-1,-1,-1,-1],"split_conditions":[3.72084E-1,1.197014E1,1.3895145E1,1.2478806E1,1.3402788E1,3.9309675E-1,1.47990265E1,5.157158E-2,1.2559323E1,-4.0062787E-3,1.18681E7,-1.8701132E-2,-6.167078E-2,1.148199E1,-4.582076E-2,4.136249E-2,1.1933688E1,7.1314454E-2,1.2662161E1,-1.1828296E-1,5.7815723E1,-6.92401E-2,4.456517E1,1.3402983E1,1.5590976E1,3.7783235E-3,4.5641255E-2,4.705885E-3,-3.0652538E-2,-1.3458273E-2,4.9081538E-2,4.4047948E-2,-2.2564841E-2,4.71665E-2,-1.7061941E-3,-4.1103613E-2,1.1271818E-2,2.100612E-3,-1.2859938E-2,1.3719109E-2,-4.37586E-2,4.272471E-2,-1.4280691E-2],"split_indices":[8,13,3,12,14,8,6,10,12,8,4,0,0,13,0,10,2,0,12,9,5,10,5,6,3,0,0,0,0,0,0,0,0,0,0,0,0,0,0,0,0,0,0],"split_type":[0,0,0,0,0,0,0,0,0,0,0,0,0,0,0,0,0,0,0,0,0,0,0,0,0,0,0,0,0,0,0,0,0,0,0,0,0,0,0,0,0,0,0],"sum_hessian":[4.1496732E2,3.975351E2,1.7432207E1,1.3690897E2,2.6062613E2,4.5492396E0,1.2882967E1,1.2628328E2,1.062568E1,1.9809126E1,2.40817E2,1.7099173E0,2.8393223E0,9.519571E0,3.3633957E0,8.489395E1,4.1389328E1,4.2183843E0,6.407295E0,8.845561E0,1.0963564E1,5.136354E1,1.8945346E2,2.408591E0,7.11098E0,7.580095E1,9.093001E0,2.3704063E1,1.7685265E1,2.4654555E0,3.94184E0,1.9821378E0,6.8634233E0,7.992824E0,2.9707398E0,2.6704824E0,4.8693058E1,7.378477E1,1.1566869E2,1.2424877E0,1.1661034E0,5.648749E0,1.4622309E0],"tree_param":{"num_deleted":"0","num_feature":"17","num_nodes":"43","size_leaf_vector":"1"}},{"base_weights":[-6.113397E-5,5.45715E-3,-4.343509E-2,-6.6880197E-3,4.6061108E-1,1.7153066E-2,-3.171148E-1,-2.782231E-1,7.6480204E-1,7.392554E-1,5.7545467E-3,-1.0229336E-1,-9.3280226E-1,1.4344758E-2,-3.242033E-2,9.8150516E-1,-1.1301465E-2,5.21111E-2,1.3725958E-2,-3.0248528E-2,9.878528E-4,3.985658E-2,-1.199074E-2,3.6654887E-3,-5.6635972E-2,5.6690633E-2,8.812098E-3],"categories":[],"categories_nodes":[],"categories_segments":[],"categories_sizes":[],"default_left":[0,0,0,0,0,0,0,0,0,0,0,0,0,0,0,0,0,0,0,0,0,0,0,0,0,0,0],"id":35,"left_children":[1,3,-1,5,7,9,11,13,15,17,19,21,23,-1,-1,25,-1,-1,-1,-1,-1,-1,-1,-1,-1,-1,-1],"loss_changes":[1.9966888E0,2.2912564E0,0E0,2.9965782E0,2.6338527E0,3.0928762E0,3.7239625E0,9.966556E-1,1.9175644E0,5.360913E-1,3.1884022E0,2.9780192E0,1.5606632E0,0E0,0E0,6.179123E-1,0E0,0E0,0E0,0E0,0E0,0E0,0E0,0E0,0E0,0E0,0E0],"parents":[2147483647,0,0,1,1,3,3,4,4,5,5,6,6,7,7,8,8,9,9,10,10,11,11,12,12,15,15],"right_children":[2,4,-1,6,8,10,12,14,16,18,20,22,24,-1,-1,26,-1,-1,-1,-1,-1,-1,-1,-1,-1,-1,-1],"split_conditions":[1.7795525E1,1.6660112E1,-4.343509E-2,1.607186E1,7.4851304E-2,2.5327143E1,2.2338179E-1,9.6249E6,1.7780676E1,-7.8866705E-2,-5.288575E-1,1.3699121E1,1.4783907E1,1.4344758E-2,-3.242033E-2,1.764896E1,-1.1301465E-2,5.21111E-2,1.3725958E-2,-3.0248528E-2,9.878528E-4,3.985658E-2,-1.199074E-2,3.6654887E-3,-5.6635972E-2,5.6690633E-2,8.812098E-3],"split_indices":[0,3,0,11,9,5,8,4,3,10,9,13,12,0,0,12,0,0,0,0,0,0,0,0,0,0,0],"split_type":[0,0,0,0,0,0,0,0,0,0,0,0,0,0,0,0,0,0,0,0,0,0,0,0,0,0,0],"sum_hessian":[4.1456012E2,4.1293057E2,1.6295401E0,4.0315814E2,9.772426E0,3.7528094E2,2.7877205E1,2.8749564E0,6.8974695E0,4.839517E0,3.704414E2,2.1530928E1,6.3462787E0,1.2269299E0,1.6480266E0,5.667379E0,1.2300907E0,2.1774228E0,2.6620944E0,7.3570323E0,3.6308438E2,2.2193573E0,1.931157E1,1.1569679E0,5.1893106E0,4.4228406E0,1.2445383E0],"tree_param":{"num_deleted":"0","num_feature":"17","num_nodes":"27","size_leaf_vector":"1"}},{"base_weights":[-5.4248238E-5,4.427596E-2,-5.42233E-3,-4.9671942E-1,5.604256E-3,-5.7442527E-2,-8.5533917E-1,2.491567E-1,-1.5553751E-2,-3.2924574E-2,4.8075765E-1,-1.2695352E-2,-5.142355E-2,6.121717E-2,1.4592838E-1,-1.9194968E-1,2.1243488E-2,-3.245714E-3,4.012631E-2,-4.8821855E-2,1.3940993E-2,-6.410874E-3,-6.434742E-2,2.5804553E-2,-3.4293413E-4],"categories":[],"categories_nodes":[],"categories_segments":[],"categories_sizes":[],"default_left":[0,0,0,0,0,0,0,0,0,0,0,0,0,0,0,0,0,0,0,0,0,0,0,0,0],"id":36,"left_children":[1,-1,3,5,7,9,11,13,15,-1,17,-1,-1,-1,19,21,23,-1,-1,-1,-1,-1,-1,-1,-1],"loss_changes":[1.9790282E0,0E0,2.2443848E0,1.3835039E0,2.094426E0,1.9855716E0,2.527051E-1,3.0915012E0,2.4329934E0,0E0,6.3151556E-1,0E0,0E0,0E0,4.823024E0,4.3493137E0,4.321676E0,0E0,0E0,0E0,0E0,0E0,0E0,0E0,0E0],"parents":[2147483647,0,0,2,2,3,3,4,4,5,5,6,6,7,7,8,8,10,10,14,14,15,15,16,16],"right_children":[2,-1,4,6,8,10,12,14,16,-1,18,-1,-1,-1,20,22,24,-1,-1,-1,-1,-1,-1,-1,-1],"split_conditions":[8.976252E0,4.427596E-2,-5.6568396E-1,-6.0908324E-1,3.3766808E1,-4.822847E-2,2.4329784E1,1.1844097E1,4.165025E1,-3.2924574E-2,1.154845E1,-1.2695352E-2,-5.142355E-2,6.121717E-2,1.2149562E1,4.76789E7,4.3138664E1,-3.245714E-3,4.012631E-2,-4.8821855E-2,1.3940993E-2,-6.410874E-3,-6.434742E-2,2.5804553E-2,-3.4293413E-4],"split_indices":[0,0,9,8,5,10,5,7,5,0,7,0,0,0,7,4,5,0,0,0,0,0,0,0,0],"split_type":[0,0,0,0,0,0,0,0,0,0,0,0,0,0,0,0,0,0,0,0,0,0,0,0,0],"sum_hessian":[4.142917E2,1.5082927E0,4.1278342E2,8.094182E0,4.046892E2,4.1594305E0,3.9347508E0,3.1485039E1,3.732042E2,1.8593959E0,2.3000348E0,1.4308298E0,2.503921E0,1.9742237E0,2.9510815E1,6.3687458E1,3.0951672E2,1.1492811E0,1.1507537E0,2.4522395E0,2.7058575E1,6.124019E1,2.4472685E0,1.5699602E1,2.9381714E2],"tree_param":{"num_deleted":"0","num_feature":"17","num_nodes":"25","size_leaf_vector":"1"}},{"base_weights":[-1.3817099E-4,1.4457804E-2,-3.1798095E-1,1.7205548E-1,-2.4360782E-2,-1.0071282E0,-1.919375E-2,3.1653515E-1,-1.9962484E-1,-5.385565E-1,-6.190069E-3,-1.8161558E-2,-6.0023632E-2,3.3336276E-1,-4.4232827E-2,2.0964907E-1,9.947286E-1,-3.013792E-1,3.7305135E-2,7.149619E-2,-6.428188E-2,5.433339E-2,-1.768748E-2,5.8946157E-1,-3.7977648E-1,1.6919937E-2,-1.4921141E-2,-1.2163612E-2,7.054507E-2,-4.1708928E-2,-3.5370102E-3,-1.7266618E-2,5.4952957E-2,1.575836E-2,-2.3252217E-3,4.1066356E-2,-1.3898827E-2,-4.5556642E-2,1.575048E-2],"categories":[],"categories_nodes":[],"categories_segments":[],"categories_sizes":[],"default_left":[0,0,0,0,0,0,0,0,0,0,0,0,0,0,0,0,0,0,0,0,0,0,0,0,0,0,0,0,0,0,0,0,0,0,0,0,0,0,0],"id":37,"left_children":[1,3,5,7,9,11,13,15,17,19,21,-1,-1,23,-1,25,27,29,-1,31,-1,-1,33,35,37,-1,-1,-1,-1,-1,-1,-1,-1,-1,-1,-1,-1,-1,-1],"loss_changes":[1.93073E0,2.4385033E0,3.7431226E0,4.2928886E0,2.9878933E0,2.4951744E-1,4.4951453E0,3.9309254E0,2.4055293E0,5.066802E0,3.917285E0,0E0,0E0,2.142886E0,0E0,3.4107354E0,4.2112865E0,2.5426426E0,0E0,3.3589988E0,0E0,0E0,2.968806E0,1.8620694E0,1.5365117E0,0E0,0E0,0E0,0E0,0E0,0E0,0E0,0E0,0E0,0E0,0E0,0E0,0E0,0E0],"parents":[2147483647,0,0,1,1,2,2,3,3,4,4,5,5,6,6,7,7,8,8,9,9,10,10,13,13,15,15,16,16,17,17,19,19,22,22,23,23,24,24],"right_children":[2,4,6,8,10,12,14,16,18,20,22,-1,-1,24,-1,26,28,30,-1,32,-1,-1,34,36,38,-1,-1,-1,-1,-1,-1,-1,-1,-1,-1,-1,-1,-1,-1],"split_conditions":[3.72084E-1,1.1289299E1,1.3895145E1,3.52118E7,1.1928141E1,3.9309675E-1,1.47990265E1,1.118792E1,2.7560505E-1,1.2323685E1,1.1989297E1,-1.8161558E-2,-6.0023632E-2,1.8680662E1,-4.4232827E-2,1.1852837E1,1.81624E7,3.82325E7,3.7305135E-2,-4.0062787E-3,-6.428188E-2,5.433339E-2,1.2276139E1,1.5590976E1,6.1576027E-2,1.6919937E-2,-1.4921141E-2,-1.2163612E-2,7.054507E-2,-4.1708928E-2,-3.5370102E-3,-1.7266618E-2,5.4952957E-2,1.575836E-2,-2.3252217E-3,4.1066356E-2,-1.3898827E-2,-4.5556642E-2,1.575048E-2],"split_indices":[8,13,3,4,12,8,6,13,8,11,6,0,0,15,0,2,4,4,0,8,0,0,7,3,16,0,0,0,0,0,0,0,0,0,0,0,0,0,0],"split_type":[0,0,0,0,0,0,0,0,0,0,0,0,0,0,0,0,0,0,0,0,0,0,0,0,0,0,0,0,0,0,0,0,0,0,0,0,0,0,0],"sum_hessian":[4.141841E2,3.9691165E2,1.7272463E1,7.776501E1,3.1914664E2,4.5068274E0,1.2765636E1,5.6104443E1,2.1660566E1,9.9156065E0,3.0923105E2,1.7055357E0,2.8012915E0,9.507471E0,3.2581654E0,4.95969E1,6.507545E0,2.0171558E1,1.4890077E0,5.95619E0,3.9594164E0,2.245823E0,3.069852E2,7.122944E0,2.3845267E0,3.9836063E1,9.760837E0,1.7417538E0,4.7657914E0,5.3033857E0,1.4868173E1,4.7096586E0,1.2465315E0,2.3667953E1,2.8331726E2,5.6625156E0,1.4604284E0,1.1747324E0,1.2097943E0],"tree_param":{"num_deleted":"0","num_feature":"17","num_nodes":"39","size_leaf_vector":"1"}},{"base_weights":[-2.1035348E-4,5.885503E-1,-8.019785E-3,8.81858E-1,-1.1726255E-2,-7.312267E-1,2.278975E-3,5.078719E-2,1.2200392E-2,1.5596707E-2,-5.4121938E-2,3.66864E-1,-1.3210697E-2,7.532233E-1,-4.128185E-1,-8.982292E-1,5.6996127E-3,-6.3926033E-3,5.214397E-2,4.0273976E-2,-4.9023148E-2,6.6444017E-3,-6.497852E-2,1.2925784E-2,-1.2433572E-3],"categories":[],"categories_nodes":[],"categories_segments":[],"categories_sizes":[],"default_left":[0,0,0,0,0,0,0,0,0,0,0,0,0,0,0,0,0,0,0,0,0,0,0,0,0],"id":38,"left_children":[1,3,5,7,-1,9,11,-1,-1,-1,-1,13,15,17,19,21,23,-1,-1,-1,-1,-1,-1,-1,-1],"loss_changes":[1.9123448E0,1.5212234E0,3.0587316E0,1.1289477E-1,0E0,2.450134E0,2.2958505E0,0E0,0E0,0E0,0E0,5.3018503E0,6.5340424E0,3.050971E0,5.032914E0,3.552662E0,2.965743E0,0E0,0E0,0E0,0E0,0E0,0E0,0E0,0E0],"parents":[2147483647,0,0,1,1,2,2,3,3,5,5,6,6,11,11,12,12,13,13,14,14,15,15,16,16],"right_children":[2,4,6,8,-1,10,12,-1,-1,-1,-1,14,16,18,20,22,24,-1,-1,-1,-1,-1,-1,-1,-1],"split_conditions":[8.991932E0,8.762498E0,9.329031E0,9.156562E0,-1.1726255E-2,1.9142E7,1.0353215E1,5.078719E-2,1.2200392E-2,1.5596707E-2,-5.4121938E-2,2.1628685E1,1.0703418E1,-1.1705574E-1,-6.7901965E-3,-2.7063575E-1,1.1818751E1,-6.3926033E-3,5.214397E-2,4.0273976E-2,-4.9023148E-2,6.6444017E-3,-6.497852E-2,1.2925784E-2,-1.2433572E-3],"split_indices":[2,13,2,3,0,4,7,0,0,0,0,14,6,9,10,8,3,0,0,0,0,0,0,0,0],"split_type":[0,0,0,0,0,0,0,0,0,0,0,0,0,0,0,0,0,0,0,0,0,0,0,0,0],"sum_hessian":[4.138917E2,4.444605E0,4.0944708E2,3.224218E0,1.220387E0,4.7659755E0,4.0468112E2,2.1751924E0,1.0490255E0,1.228614E0,3.5373614E0,1.5568003E1,3.8911313E2,1.0432351E1,5.1356506E0,7.1675234E0,3.819456E2,2.7193239E0,7.7130275E0,1.4991462E0,3.6365047E0,2.195579E0,4.971945E0,4.0393726E1,3.4155185E2],"tree_param":{"num_deleted":"0","num_feature":"17","num_nodes":"25","size_leaf_vector":"1"}},{"base_weights":[-1.935779E-4,1.083016E-2,-4.1461343E-1,-9.7893E-3,3.6548778E-1,-9.485771E-1,1.1072122E-1,2.047213E-2,-2.4021985E-1,8.003597E-2,1.0940242E0,-2.100718E-3,-5.9955962E-2,8.544611E-1,-6.85108E-1,3.3073616E-1,-1.815787E-3,5.083964E-1,-3.8452727E-1,5.4429686E-1,-4.3358654E-1,1.7510332E-2,6.8220906E-2,5.602457E-2,8.647453E-3,-4.552592E-2,-7.0212046E-3,-1.0239689E-2,3.493075E-2,1.4714355E-2,-1.3592668E-3,4.248116E-2,-3.454138E-2,-3.521385E-2,1.36380745E-2,-1.5282056E-2,4.467086E-2,3.437346E-2,-4.648477E-2],"categories":[],"categories_nodes":[],"categories_segments":[],"categories_sizes":[],"default_left":[0,0,0,0,0,0,0,0,0,0,0,0,0,0,0,0,0,0,0,0,0,0,0,0,0,0,0,0,0,0,0,0,0,0,0,0,0,0,0],"id":39,"left_children":[1,3,5,7,9,11,13,15,17,19,21,-1,-1,23,25,27,29,31,33,35,37,-1,-1,-1,-1,-1,-1,-1,-1,-1,-1,-1,-1,-1,-1,-1,-1,-1,-1],"loss_changes":[1.899055E0,2.9648046E0,3.1263862E0,2.6802373E0,4.5448084E0,1.1866121E0,4.329E0,2.352062E0,5.0152035E0,4.3095865E0,7.674918E-1,0E0,0E0,4.796455E-1,3.154192E-1,4.634036E0,2.3986921E0,3.713631E0,8.17288E0,3.067137E0,5.459466E0,0E0,0E0,0E0,0E0,0E0,0E0,0E0,0E0,0E0,0E0,0E0,0E0,0E0,0E0,0E0,0E0,0E0,0E0],"parents":[2147483647,0,0,1,1,2,2,3,3,4,4,5,5,6,6,7,7,8,8,9,9,10,10,13,13,14,14,15,15,16,16,17,17,18,18,19,19,20,20],"right_children":[2,4,6,8,10,12,14,16,18,20,22,-1,-1,24,26,28,30,32,34,36,38,-1,-1,-1,-1,-1,-1,-1,-1,-1,-1,-1,-1,-1,-1,-1,-1,-1,-1],"split_conditions":[2.2708452E1,2.0690556E1,2.8097492E1,5.1399946E-2,4.195376E-2,1.2937064E1,2.17611E7,1.3337107E1,-1.9613957E-1,1.3082403E1,-1.5557323E-1,-2.100718E-3,-5.9955962E-2,1.4170143E1,1.235191E1,-4.0062787E-3,9.1036E6,4.3278786E1,1.0576982E-1,1.93145E7,