{"learner":{"attributes":{"best_iteration":"0","best_score":"0.6920875391960144","scikit_learn":"{\"_estimator_type\": \"classifier\"}"},"feature_names":["Close","High","Low","Open","Volume","RSI","EMA_short","EMA_long","MACD","MACD_signal","MACD_hist","BB_upper","BB_middle","BB_lower","ADX","wavelet_cA","wavelet_cD"],"feature_types":["float","float","float","float","float","float","float","float","float","float","float","float","float","float","float","float","float"],"gradient_booster":{"model":{"gbtree_model_param":{"num_parallel_tree":"1","num_trees":"51"},"iteration_indptr":[0,1,2,3,4,5,6,7,8,9,10,11,12,13,14,15,16,17,18,19,20,21,22,23,24,25,26,27,28,29,30,31,32,33,34,35,36,37,38,39,40,41,42,43,44,45,46,47,48,49,50,51],"tree_info":[0,0,0,0,0,0,0,0,0,0,0,0,0,0,0,0,0,0,0,0,0,0,0,0,0,0,0,0,0,0,0,0,0,0,0,0,0,0,0,0,0,0,0,0,0,0,0,0,0,0,0],"trees":[{"base_weights":[-7.963248E-9,1.8976085E-2,-6.613206E-2,1.1003013E0,-2.4200124E-3,-1.2137038E-2,7.636485E-2,-1.9428954E-2,7.012948E-2,3.4901558E-4,-8.4645116E-1,2.6312096E-3,-1.444866E-2,7.920091E-3,-6.149074E-2],"categories":[],"categories_nodes":[],"categories_segments":[],"categories_sizes":[],"default_left":[0,0,0,0,0,0,0,0,0,0,0,0,0,0,0],"id":0,"left_children":[1,3,-1,5,7,-1,-1,9,-1,11,13,-1,-1,-1,-1],"loss_changes":[7.5395746E0,6.8544254E0,0E0,3.667283E0,6.99108E0,0E0,0E0,4.7258167E0,0E0,4.297735E0,2.7943153E0,0E0,0E0,0E0,0E0],"parents":[2147483647,0,0,1,1,3,3,4,4,7,7,9,9,10,10],"right_children":[2,4,-1,6,8,-1,-1,10,-1,12,14,-1,-1,-1,-1],"split_conditions":[2.8806925E-1,1.4561242E1,-6.613206E-2,-2.3106125E-1,2.0807452E-1,-1.2137038E-2,7.636485E-2,7.5828766E1,7.012948E-2,2.1452214E-1,-1.7888086E-1,2.6312096E-3,-1.444866E-2,7.920091E-3,-6.149074E-2],"split_indices":[16,12,0,8,16,0,0,11,0,10,16,0,0,0,0],"split_type":[0,0,0,0,0,0,0,0,0,0,0,0,0,0,0],"sum_hessian":[2.9839865E2,2.9514975E2,3.2488966E0,4.7483873E0,2.9040137E2,1.2495756E0,3.4988117E0,2.8790222E2,2.4991512E0,2.8215417E2,5.748048E0,2.3966861E2,4.2485573E1,1.7494059E0,3.998642E0],"tree_param":{"num_deleted":"0","num_feature":"17","num_nodes":"15","size_leaf_vector":"1"}},{"base_weights":[1.186118E-5,1.66072E-2,-7.0393816E-2,1.0583137E0,-3.91211E-3,-1.1798691E-2,7.356244E-2,-1.8683447E-2,1.0028403E0,2.9017095E-4,-8.120015E-1,6.377863E-2,9.664672E-3,6.5266987E-4,-5.516089E-2,7.6689306E-3,-5.902179E-2],"categories":[],"categories_nodes":[],"categories_segments":[],"categories_sizes":[],"default_left":[0,0,0,0,0,0,0,0,0,0,0,0,0,0,0,0,0],"id":1,"left_children":[1,3,-1,5,7,-1,-1,9,11,13,15,-1,-1,-1,-1,-1,-1],"loss_changes":[7.0182223E0,6.3500037E0,0E0,3.414218E0,4.3632097E0,0E0,0E0,4.348788E0,6.901846E-1,4.002394E0,2.581359E0,0E0,0E0,0E0,0E0,0E0,0E0],"parents":[2147483647,0,0,1,1,3,3,4,4,7,7,8,8,9,9,10,10],"right_children":[2,4,-1,6,8,-1,-1,10,12,14,16,-1,-1,-1,-1,-1,-1],"split_conditions":[3.1148744E-1,1.4561242E1,-7.0393816E-2,-2.3106125E-1,2.0807452E-1,-1.1798691E-2,7.356244E-2,7.5828766E1,5.1595135E1,1.6908689E-1,-1.7888086E-1,6.377863E-2,9.664672E-3,6.5266987E-4,-5.516089E-2,7.6689306E-3,-5.902179E-2],"split_indices":[16,12,0,8,16,0,0,11,5,16,16,0,0,0,0,0,0],"split_type":[0,0,0,0,0,0,0,0,0,0,0,0,0,0,0,0,0],"sum_hessian":[2.9838052E2,2.9588107E2,2.4994643E0,4.7386165E0,2.9114246E2,1.2498091E0,3.4888074E0,2.8789975E2,3.2426994E0,2.8215125E2,5.748516E0,1.9949485E0,1.2477509E0,2.7990204E2,2.2491891E0,1.7491232E0,3.999393E0],"tree_param":{"num_deleted":"0","num_feature":"17","num_nodes":"17","size_leaf_vector":"1"}},{"base_weights":[-1.2379503E-4,1.7605154E-2,-6.185491E-2,2.0377052E-3,6.620976E-2,1.0196533E0,-1.8116625E-2,-1.1470243E-2,7.101402E-2,2.418119E-3,-6.96372E-1,2.7499194E-3,-1.4224971E-2,3.340908E-2,-5.1190116E-2],"categories":[],"categories_nodes":[],"categories_segments":[],"categories_sizes":[],"default_left":[0,0,0,0,0,0,0,0,0,0,0,0,0,0,0],"id":2,"left_children":[1,3,-1,5,-1,7,9,-1,-1,11,13,-1,-1,-1,-1],"loss_changes":[6.5863447E0,6.019947E0,0E0,6.0402236E0,0E0,3.1879425E0,4.02529E0,0E0,0E0,4.2608647E0,4.478651E0,0E0,0E0,0E0,0E0],"parents":[2147483647,0,0,1,1,3,3,5,5,6,6,9,9,10,10],"right_children":[2,4,-1,6,-1,8,10,-1,-1,12,14,-1,-1,-1,-1],"split_conditions":[2.8806925E-1,2.0807452E-1,-6.185491E-2,1.4561242E1,6.620976E-2,-2.3106125E-1,6.827064E1,-1.1470243E-2,7.101402E-2,2.1452214E-1,4.301705E1,2.7499194E-3,-1.4224971E-2,3.340908E-2,-5.1190116E-2],"split_indices":[16,16,0,12,0,8,13,0,0,10,5,0,0,0,0],"split_type":[0,0,0,0,0,0,0,0,0,0,0,0,0,0,0],"sum_hessian":[2.983383E2,2.950946E2,3.243679E0,2.9260986E2,2.4847586E0,4.719598E0,2.8789026E2,1.2499478E0,3.4696498E0,2.8039743E2,7.4928308E0,2.3765355E2,4.274388E1,1.2486107E0,6.2442203E0],"tree_param":{"num_deleted":"0","num_feature":"17","num_nodes":"15","size_leaf_vector":"1"}},{"base_weights":[1.5285066E-6,1.5491024E-2,-6.597837E-2,9.8390496E-1,-3.4350152E-3,-1.1151368E-2,6.8685375E-2,-1.7313229E-2,9.4772214E-1,5.5754575E-4,-7.660795E-1,6.039201E-2,9.004885E-3,6.396275E-4,-5.2865427E-2,7.167832E-3,-5.5681743E-2],"categories":[],"categories_nodes":[],"categories_segments":[],"categories_sizes":[],"default_left":[0,0,0,0,0,0,0,0,0,0,0,0,0,0,0,0,0],"id":3,"left_children":[1,3,-1,5,7,-1,-1,9,11,13,15,-1,-1,-1,-1,-1,-1],"loss_changes":[6.137354E0,5.442945E0,0E0,2.9844909E0,3.8721485E0,0E0,0E0,3.8658729E0,6.248014E-1,3.6782107E0,2.2883086E0,0E0,0E0,0E0,0E0,0E0,0E0],"parents":[2147483647,0,0,1,1,3,3,4,4,7,7,8,8,9,9,10,10],"right_children":[2,4,-1,6,8,-1,-1,10,12,14,16,-1,-1,-1,-1,-1,-1],"split_conditions":[3.1148744E-1,1.4561242E1,-6.597837E-2,-2.3106125E-1,2.0807452E-1,-1.1151368E-2,6.8685375E-2,7.5828766E1,5.1595135E1,1.6908689E-1,-1.7888086E-1,6.039201E-2,9.004885E-3,6.396275E-4,-5.2865427E-2,7.167832E-3,-5.5681743E-2],"split_indices":[16,12,0,8,16,0,0,11,5,16,16,0,0,0,0,0,0],"split_type":[0,0,0,0,0,0,0,0,0,0,0,0,0,0,0,0,0],"sum_hessian":[2.9826978E2,2.95786E2,2.4837642E0,4.692486E0,2.9109354E2,1.2499993E0,3.4424863E0,2.8787497E2,3.2185497E0,2.821404E2,5.7345786E0,1.9756131E0,1.2429366E0,2.7989117E2,2.249241E0,1.7480487E0,3.9865298E0],"tree_param":{"num_deleted":"0","num_feature":"17","num_nodes":"17","size_leaf_vector":"1"}},{"base_weights":[-1.2970422E-4,1.6444188E-2,-5.8163222E-2,1.7953825E-3,6.280656E-2,9.5071834E-1,-1.6799299E-2,-1.0841749E-2,6.654798E-2,3.4490888E-4,-7.367714E-1,-2.0152584E-2,1.6054343E-3,6.629067E-5,-5.8639366E-2],"categories":[],"categories_nodes":[],"categories_segments":[],"categories_sizes":[],"default_left":[0,0,0,0,0,0,0,0,0,0,0,0,0,0,0],"id":4,"left_children":[1,3,-1,5,-1,7,9,-1,-1,11,13,-1,-1,-1,-1],"loss_changes":[5.786681E0,5.3724656E0,0E0,5.1949472E0,0E0,2.8006277E0,3.5656624E0,0E0,0E0,3.6408482E0,2.1637936E0,0E0,0E0,0E0,0E0],"parents":[2147483647,0,0,1,1,3,3,5,5,6,6,9,9,10,10],"right_children":[2,4,-1,6,-1,8,10,-1,-1,12,14,-1,-1,-1,-1],"split_conditions":[2.8806925E-1,2.0807452E-1,-5.8163222E-2,1.4561242E1,6.280656E-2,-2.3106125E-1,7.5828766E1,-1.0841749E-2,6.654798E-2,1.5303527E1,4.301705E1,-2.0152584E-2,1.6054343E-3,6.629067E-5,-5.8639366E-2],"split_indices":[16,16,0,12,0,8,11,0,0,13,5,0,0,0,0],"split_type":[0,0,0,0,0,0,0,0,0,0,0,0,0,0,0],"sum_hessian":[2.9818307E2,2.9496585E2,3.217204E0,2.9251083E2,2.4550166E0,4.658336E0,2.878525E2,1.2499707E0,3.4083655E0,2.8213376E2,5.7187395E0,1.9740646E1,2.6239313E2,2.4939263E0,3.2248135E0],"tree_param":{"num_deleted":"0","num_feature":"17","num_nodes":"15","size_leaf_vector":"1"}},{"base_weights":[-1.7596384E-4,1.4287175E-2,-6.218905E-2,9.197957E-1,-3.1830487E-3,-1.05410805E-2,6.457786E-2,-1.622891E-2,8.989765E-1,2.9271116E-2,-2.7181655E-1,5.7442844E-2,8.391534E-3,-1.0095893E-2,7.060736E-3,2.7286118E-2,-2.3502316E-2],"categories":[],"categories_nodes":[],"categories_segments":[],"categories_sizes":[],"default_left":[0,0,0,0,0,0,0,0,0,0,0,0,0,0,0,0,0],"id":5,"left_children":[1,3,-1,5,7,-1,-1,9,11,13,15,-1,-1,-1,-1,-1,-1],"loss_changes":[5.397167E0,4.695466E0,0E0,2.6336913E0,3.4514225E0,0E0,0E0,3.3668637E0,5.7091475E-1,6.3972898E0,7.3459034E0,0E0,0E0,0E0,0E0,0E0,0E0],"parents":[2147483647,0,0,1,1,3,3,4,4,7,7,8,8,9,9,10,10],"right_children":[2,4,-1,6,8,-1,-1,10,12,14,16,-1,-1,-1,-1,-1,-1],"split_conditions":[3.1148744E-1,1.4561242E1,-6.218905E-2,-2.3106125E-1,2.0807452E-1,-1.05410805E-2,6.457786E-2,2.1452214E-1,5.1595135E1,-3.6116384E-3,5.1275013E1,5.7442844E-2,8.391534E-3,-1.0095893E-2,7.060736E-3,2.7286118E-2,-2.3502316E-2],"split_indices":[16,12,0,8,16,0,0,10,5,9,5,0,0,0,0,0,0],"split_type":[0,0,0,0,0,0,0,0,0,0,0,0,0,0,0,0,0],"sum_hessian":[2.9808087E2,2.9563116E2,2.449682E0,4.6181097E0,2.9101306E2,1.2498682E0,3.3682418E0,2.8783282E2,3.1802542E0,2.4508751E2,4.2745308E1,1.9444114E0,1.2358427E0,7.969515E1,1.6539235E2,7.9997544E0,3.4745552E1],"tree_param":{"num_deleted":"0","num_feature":"17","num_nodes":"17","size_leaf_vector":"1"}},{"base_weights":[3.3024666E-5,1.5537217E-2,-5.4936785E-2,1.7467851E-3,5.9821334E-2,8.9088255E-1,-1.5415062E-2,-1.024908E-2,6.275472E-2,-3.995785E-3,-5.0946373E-2,6.413183E-4,-3.5432484E-2],"categories":[],"categories_nodes":[],"categories_segments":[],"categories_sizes":[],"default_left":[0,0,0,0,0,0,0,0,0,0,0,0,0],"id":6,"left_children":[1,3,-1,5,-1,7,9,-1,-1,11,-1,-1,-1],"loss_changes":[5.1102767E0,4.815033E0,0E0,4.4906125E0,0E0,2.4814768E0,3.305582E0,0E0,0E0,3.4060352E0,0E0,0E0,0E0],"parents":[2147483647,0,0,1,1,3,3,5,5,6,6,9,9],"right_children":[2,4,-1,6,-1,8,10,-1,-1,12,-1,-1,-1],"split_conditions":[2.8806925E-1,2.0807452E-1,-5.4936785E-2,1.4561242E1,5.9821334E-2,-2.3106125E-1,1.6908689E-1,-1.024908E-2,6.275472E-2,7.5828766E1,-5.0946373E-2,6.413183E-4,-3.5432484E-2],"split_indices":[16,16,0,12,0,8,16,0,0,11,0,0,0],"split_type":[0,0,0,0,0,0,0,0,0,0,0,0,0],"sum_hessian":[2.979756E2,2.9480167E2,3.1739438E0,2.923886E2,2.4130363E0,4.572679E0,2.8781595E2,1.2496982E0,3.3229809E0,2.855703E2,2.245611E0,2.798708E2,5.699537E0],"tree_param":{"num_deleted":"0","num_feature":"17","num_nodes":"13","size_leaf_vector":"1"}},{"base_weights":[-5.945231E-5,1.3454933E-2,-5.8895707E-2,8.637606E-1,-2.6779682E-3,-9.965465E-3,6.106129E-2,6.547517E-1,-1.983674E-2,6.060658E-2,-5.592816E-2,3.6584942E-3,-8.383763E-1,-3.196875E-2,2.006136E-2,-1.903665E-2,1.7233223E-3,1.0005845E-2,-5.3060215E-2],"categories":[],"categories_nodes":[],"categories_segments":[],"categories_sizes":[],"default_left":[0,0,0,0,0,0,0,0,0,0,0,0,0,0,0,0,0,0,0],"id":7,"left_children":[1,3,-1,5,7,-1,-1,9,11,-1,13,15,17,-1,-1,-1,-1,-1,-1],"loss_changes":[4.7728786E0,4.068915E0,0E0,2.3421354E0,3.3060706E0,0E0,0E0,3.020742E0,5.4931135E0,0E0,1.3854886E0,3.31118E0,2.056602E0,0E0,0E0,0E0,0E0,0E0,0E0],"parents":[2147483647,0,0,1,1,3,3,4,4,7,7,8,8,10,10,11,11,12,12],"right_children":[2,4,-1,6,8,-1,-1,10,12,-1,14,16,18,-1,-1,-1,-1,-1,-1],"split_conditions":[3.1148744E-1,1.4561242E1,-5.8895707E-2,-2.3106125E-1,2.1519556E1,-9.965465E-3,6.106129E-2,7.183634E1,7.110308E1,6.060658E-2,7.36698E1,1.5303527E1,6.534415E1,-3.196875E-2,2.006136E-2,-1.903665E-2,1.7233223E-3,1.0005845E-2,-5.3060215E-2],"split_indices":[16,12,0,8,15,0,0,2,0,0,0,13,13,0,0,0,0,0,0],"split_type":[0,0,0,0,0,0,0,0,0,0,0,0,0,0,0,0,0,0,0],"sum_hessian":[2.9784625E2,2.9544498E2,2.4012787E0,4.522833E0,2.9092215E2,1.2494663E0,3.2733667E0,6.4547114E0,2.8446744E2,3.2220738E0,3.2326376E0,2.774977E2,6.969722E0,1.2450464E0,1.9875913E0,1.9747644E1,2.5775006E2,1.2492937E0,5.720428E0],"tree_param":{"num_deleted":"0","num_feature":"17","num_nodes":"19","size_leaf_vector":"1"}},{"base_weights":[-1.18979544E-4,1.2924644E-2,-5.733354E-2,8.382418E-1,-2.5841147E-3,-9.689975E-3,5.948278E-2,6.297521E-1,-1.905878E-2,5.849452E-2,-5.5948224E-2,5.1542763E-3,-7.479289E-1,-3.1101093E-2,1.938228E-2,-6.1790383E-4,4.8283465E-2,1.3618912E-2,-4.7084447E-2],"categories":[],"categories_nodes":[],"categories_segments":[],"categories_sizes":[],"default_left":[0,0,0,0,0,0,0,0,0,0,0,0,0,0,0,0,0,0,0],"id":8,"left_children":[1,3,-1,5,7,-1,-1,9,11,-1,13,15,17,-1,-1,-1,-1,-1,-1],"loss_changes":[4.4823613E0,3.7954319E0,0E0,2.2141187E0,3.0527518E0,0E0,0E0,2.8214054E0,5.0414696E0,0E0,1.3040781E0,4.6757298E0,2.0722232E0,0E0,0E0,0E0,0E0,0E0,0E0],"parents":[2147483647,0,0,1,1,3,3,4,4,7,7,8,8,10,10,11,11,12,12],"right_children":[2,4,-1,6,8,-1,-1,10,12,-1,14,16,18,-1,-1,-1,-1,-1,-1],"split_conditions":[3.1148744E-1,1.4561242E1,-5.733354E-2,-2.3106125E-1,2.1519556E1,-9.689975E-3,5.948278E-2,7.183634E1,7.082437E1,5.849452E-2,7.36698E1,6.8740944E1,7.110309E1,-3.1101093E-2,1.938228E-2,-6.1790383E-4,4.8283465E-2,1.3618912E-2,-4.7084447E-2],"split_indices":[16,12,0,8,15,0,0,2,0,0,0,2,3,0,0,0,0,0,0],"split_type":[0,0,0,0,0,0,0,0,0,0,0,0,0,0,0,0,0,0,0],"sum_hessian":[2.977285E2,2.9535712E2,2.371371E0,4.4692826E0,2.9088782E2,1.2491779E0,3.2201047E0,6.441017E0,2.844468E2,3.2079406E0,3.2330766E0,2.762623E2,8.184502E0,1.2437211E0,1.9893556E0,2.7228506E2,3.9772365E0,1.2414559E0,6.943046E0],"tree_param":{"num_deleted":"0","num_feature":"17","num_nodes":"19","size_leaf_vector":"1"}},{"base_weights":[6.933688E-5,1.2662818E-2,-5.5868573E-2,5.191452E-2,6.5528386E-4,-5.9557594E-2,1.0844203E-2,5.46388E-2,-2.3289612E-1,1.2830788E-3,3.3934776E-2,2.9353252E-2,-2.2053597E-2],"categories":[],"categories_nodes":[],"categories_segments":[],"categories_sizes":[],"default_left":[0,0,0,0,0,0,0,0,0,0,0,0,0],"id":9,"left_children":[1,3,-1,-1,5,-1,7,9,11,-1,-1,-1,-1],"loss_changes":[4.2162023E0,3.6478634E0,0E0,0E0,3.5810146E0,0E0,3.1332536E0,4.4784675E0,7.8917274E0,0E0,0E0,0E0,0E0],"parents":[2147483647,0,0,1,1,4,4,6,6,7,7,8,8],"right_children":[2,4,-1,-1,6,-1,8,10,12,-1,-1,-1,-1],"split_conditions":[3.1148744E-1,1.3958377E1,-5.5868573E-2,5.191452E-2,1.4304499E1,-5.9557594E-2,2.1452214E-1,7.471078E1,5.1275013E1,1.2830788E-3,3.3934776E-2,2.9353252E-2,-2.2053597E-2],"split_indices":[16,2,0,0,0,0,10,5,5,0,0,0,0],"split_type":[0,0,0,0,0,0,0,0,0,0,0,0,0],"sum_hessian":[2.9760098E2,2.952621E2,2.3389153E0,2.427719E0,2.9283435E2,1.4997574E0,2.913346E2,2.4761893E2,4.3715664E1,2.376262E2,9.992729E0,8.48297E0,3.5232697E1],"tree_param":{"num_deleted":"0","num_feature":"17","num_nodes":"13","size_leaf_vector":"1"}},{"base_weights":[-6.1538403E-6,1.3481225E-2,-4.9233373E-2,4.5960507E-4,5.719445E-2,8.091837E-1,-1.4668714E-2,-9.403586E-3,5.7718318E-2,-3.754558E-3,-4.882164E-2,6.065952E-4,-3.3620562E-2],"categories":[],"categories_nodes":[],"categories_segments":[],"categories_sizes":[],"default_left":[0,0,0,0,0,0,0,0,0,0,0,0,0],"id":10,"left_children":[1,3,-1,5,-1,7,9,-1,-1,11,-1,-1,-1],"loss_changes":[3.9777067E0,4.3486876E0,0E0,3.597886E0,0E0,2.0759866E0,3.0268104E0,0E0,0E0,3.0511892E0,0E0,0E0,0E0],"parents":[2147483647,0,0,1,1,3,3,5,5,6,6,9,9],"right_children":[2,4,-1,6,-1,8,10,-1,-1,12,-1,-1,-1],"split_conditions":[2.8806925E-1,2.0807452E-1,-4.9233373E-2,1.4561242E1,5.719445E-2,-2.3106125E-1,1.6908689E-1,-9.403586E-3,5.7718318E-2,7.5828766E1,-4.882164E-2,6.065952E-4,-3.3620562E-2],"split_indices":[16,16,0,12,0,8,16,0,0,11,0,0,0],"split_type":[0,0,0,0,0,0,0,0,0,0,0,0,0],"sum_hessian":[2.9751526E2,2.9446808E2,3.0471618E0,2.9210364E2,2.3644521E0,4.400038E0,2.877036E2,1.2484208E0,3.1516168E0,2.85468E2,2.2356043E0,2.798021E2,5.665898E0],"tree_param":{"num_deleted":"0","num_feature":"17","num_nodes":"13","size_leaf_vector":"1"}},{"base_weights":[-8.741468E-5,1.1693821E-2,-5.3315308E-2,4.9909562E-2,2.2404383E-4,-5.7789154E-2,1.0105026E-2,1.9270843E-2,-5.3513862E-2,3.8882077E-2,3.951319E-5],"categories":[],"categories_nodes":[],"categories_segments":[],"categories_sizes":[],"default_left":[0,0,0,0,0,0,0,0,0,0,0],"id":11,"left_children":[1,3,-1,-1,5,-1,7,9,-1,-1,-1],"loss_changes":[3.760231E0,3.3499448E0,0E0,0E0,3.366255E0,0E0,2.914004E0,4.0737023E0,0E0,0E0,0E0],"parents":[2147483647,0,0,1,1,4,4,6,6,7,7],"right_children":[2,4,-1,-1,6,-1,8,10,-1,-1,-1],"split_conditions":[3.1148744E-1,1.3958377E1,-5.3315308E-2,4.9909562E-2,1.4304499E1,-5.7789154E-2,7.484944E1,2.1519556E1,-5.3513862E-2,3.8882077E-2,3.951319E-5],"split_indices":[16,2,0,0,0,0,0,15,0,0,0],"split_type":[0,0,0,0,0,0,0,0,0,0,0],"sum_hessian":[2.9735605E2,2.9508453E2,2.2715185E0,2.4027166E0,2.926818E2,1.4976408E0,2.9118417E2,2.8970847E2,1.4756849E0,5.914671E0,2.8379382E2],"tree_param":{"num_deleted":"0","num_feature":"17","num_nodes":"11","size_leaf_vector":"1"}},{"base_weights":[-3.396826E-4,1.1035661E-2,-5.208062E-2,7.828596E-1,-3.0974287E-3,-9.107782E-3,5.6118693E-2,-2.668778E-1,3.505931E-2,1.1260392E-2,-9.250929E-1,6.449343E-2,1.2548508E-2,4.3225676E-2,-7.629655E-3,-1.8033136E-2,-6.301898E-2,-4.3535948E-2,1.3781772E-3],"categories":[],"categories_nodes":[],"categories_segments":[],"categories_sizes":[],"default_left":[0,0,0,0,0,0,0,0,0,0,0,0,0,0,0,0,0,0,0],"id":12,"left_children":[1,3,-1,5,7,-1,-1,9,11,13,15,-1,17,-1,-1,-1,-1,-1,-1],"loss_changes":[3.5445135E0,3.2317195E0,0E0,1.9498832E0,2.945457E0,0E0,0E0,6.7806897E0,7.207443E0,3.9045012E0,1.6265631E0,0E0,3.3692272E0,0E0,0E0,0E0,0E0,0E0,0E0],"parents":[2147483647,0,0,1,1,3,3,4,4,7,7,8,8,9,9,10,10,12,12],"right_children":[2,4,-1,6,8,-1,-1,10,12,14,16,-1,18,-1,-1,-1,-1,-1,-1],"split_conditions":[3.1148744E-1,1.4561242E1,-5.208062E-2,-2.3106125E-1,1.8387634E1,-9.107782E-3,5.6118693E-2,5.289505E-2,1.8971716E1,-3.3050776E-1,1.5829588E1,6.449343E-2,1.8605852E1,4.3225676E-2,-7.629655E-3,-1.8033136E-2,-6.301898E-2,-4.3535948E-2,1.3781772E-3],"split_indices":[16,12,0,8,3,0,0,10,2,8,2,0,12,0,0,0,0,0,0],"split_type":[0,0,0,0,0,0,0,0,0,0,0,0,0,0,0,0,0,0,0],"sum_hessian":[2.9727505E2,2.950413E2,2.2337654E0,4.3273587E0,2.9071393E2,1.2468545E0,3.0805044E0,3.598092E1,2.54733E2,2.598393E1,9.996988E0,3.4970772E0,2.5123593E2,3.4970746E0,2.2486856E1,4.4989777E0,5.4980106E0,3.2468767E0,2.4798904E2],"tree_param":{"num_deleted":"0","num_feature":"17","num_nodes":"19","size_leaf_vector":"1"}},{"base_weights":[-4.133202E-4,1.0574823E-2,-5.091087E-2,7.6167685E-1,-3.0202225E-3,-8.856833E-3,5.4844197E-2,-3.5857254E-1,2.409959E-2,6.204671E-1,-6.480649E-1,9.220192E-1,4.6983063E-3,-1.8040814E-3,5.1760036E-2,7.439052E-3,-3.9217975E-2,6.0942918E-2,7.736701E-3,-2.6734209E-2,1.5794954E-3],"categories":[],"categories_nodes":[],"categories_segments":[],"categories_sizes":[],"default_left":[0,0,0,0,0,0,0,0,0,0,0,0,0,0,0,0,0,0,0,0,0],"id":13,"left_children":[1,3,-1,5,7,-1,-1,9,11,13,15,17,19,-1,-1,-1,-1,-1,-1,-1,-1],"loss_changes":[3.3453076E0,3.024466E0,0E0,1.8513966E0,2.8213446E0,0E0,0E0,6.2790537E0,4.7334733E0,1.4649663E0,1.907886E0,1.1203103E0,3.8928173E0,0E0,0E0,0E0,0E0,0E0,0E0,0E0,0E0],"parents":[2147483647,0,0,1,1,3,3,4,4,7,7,8,8,9,9,10,10,11,11,12,12],"right_children":[2,4,-1,6,8,-1,-1,10,12,14,16,18,20,-1,-1,-1,-1,-1,-1,-1,-1],"split_conditions":[3.1148744E-1,1.4561242E1,-5.091087E-2,-2.3106125E-1,1.5303527E1,-8.856833E-3,5.4844197E-2,-3.3050776E-1,1.73271E1,2.199781E1,-5.7692073E-2,2.5524734E1,1.8387634E1,-1.8040814E-3,5.1760036E-2,7.439052E-3,-3.9217975E-2,6.0942918E-2,7.736701E-3,-2.6734209E-2,1.5794954E-3],"split_indices":[16,12,0,8,13,0,0,8,12,14,10,14,3,0,0,0,0,0,0,0,0],"split_type":[0,0,0,0,0,0,0,0,0,0,0,0,0,0,0,0,0,0,0,0,0],"sum_hessian":[2.9715863E2,2.9496384E2,2.1947992E0,4.265696E0,2.9069815E2,1.2464178E0,3.019278E0,1.9735502E1,2.7096265E2,4.242938E0,1.5492564E1,4.7468724E0,2.6621576E2,1.9960574E0,2.2468808E0,2.249464E0,1.32431E1,2.9983637E0,1.7485087E0,1.1745504E1,2.5447026E2],"tree_param":{"num_deleted":"0","num_feature":"17","num_nodes":"21","size_leaf_vector":"1"}},{"base_weights":[-1.994949E-4,1.16305845E-2,-4.4830073E-2,-8.4655045E-4,5.5386033E-2,4.4326633E-2,-2.5016496E-1,-1.3165313E-2,5.175052E-1,3.933957E-2,-9.7143185E-1,1.5089953E-3,-4.2547878E-2,-3.4083273E-2,3.203309E-2,1.2036688E-2,-3.4081306E-2,-2.0819599E-2,-6.473195E-2],"categories":[],"categories_nodes":[],"categories_segments":[],"categories_sizes":[],"default_left":[0,0,0,0,0,0,0,0,0,0,0,0,0,0,0,0,0,0,0],"id":14,"left_children":[1,3,-1,5,-1,7,9,11,13,15,17,-1,-1,-1,-1,-1,-1,-1,-1],"loss_changes":[3.1708503E0,4.0371766E0,0E0,3.3088534E0,0E0,6.773621E0,9.44837E0,8.115424E0,4.4202814E0,4.9729176E0,1.7834482E0,0E0,0E0,0E0,0E0,0E0,0E0,0E0,0E0],"parents":[2147483647,0,0,1,1,3,3,5,5,6,6,7,7,8,8,9,9,10,10],"right_children":[2,4,-1,6,-1,8,10,12,14,16,18,-1,-1,-1,-1,-1,-1,-1,-1],"split_conditions":[2.8806925E-1,2.0807452E-1,-4.4830073E-2,5.6008423E1,5.5386033E-2,3.4574642E1,2.3546106E1,3.5489403E1,1.81566E7,2.9719885E1,-1.0098703E-1,1.5089953E-3,-4.2547878E-2,-3.4083273E-2,3.203309E-2,1.2036688E-2,-3.4081306E-2,-2.0819599E-2,-6.473195E-2],"split_indices":[16,16,0,3,0,13,15,0,4,14,16,0,0,0,0,0,0,0,0],"split_type":[0,0,0,0,0,0,0,0,0,0,0,0,0,0,0,0,0,0,0],"sum_hessian":[2.9702637E2,2.9413162E2,2.894716E0,2.918091E2,2.3225265E0,2.4774348E2,4.406562E1,2.2177023E2,2.5973255E1,3.2119034E1,1.1946588E1,2.1177739E2,9.992842E0,1.9966819E0,2.3976572E1,2.5626606E1,6.4924283E0,5.2386417E0,6.7079453E0],"tree_param":{"num_deleted":"0","num_feature":"17","num_nodes":"19","size_leaf_vector":"1"}},{"base_weights":[-6.605233E-4,4.220081E-2,-2.4054936E-1,-1.4708129E-1,1.3646956E-1,6.8993425E-1,-4.0624163E-1,-3.933904E-2,-9.4581264E-1,1.1406853E0,8.975755E-2,1.1997893E0,-2.8790036E-2,-6.835591E-2,-3.1047815E-1,-1.21071234E-1,9.354372E-1,-9.376888E-4,-1.1032705E0,9.646872E-3,6.5008335E-2,5.9250217E-2,6.1041154E-2,8.879428E-3,7.299188E-2,-1.0010642E-1,-7.8370917E-1,-1.1108143E-2,3.7201803E-2,6.1998307E-3,6.959565E-2,-1.0117373E-2,-6.5247945E-2,-1.0344464E-3,1.5940687E-2,-1.0334238E-2,4.5387566E-2,-7.814366E-2,-1.8439541E-3],"categories":[],"categories_nodes":[],"categories_segments":[],"categories_sizes":[],"default_left":[0,0,0,0,0,0,0,0,0,0,0,0,0,0,0,0,0,0,0,0,0,0,0,0,0,0,0,0,0,0,0,0,0,0,0,0,0,0,0],"id":15,"left_children":[1,3,5,7,9,11,13,15,17,19,21,23,-1,-1,25,27,29,-1,31,-1,-1,33,-1,-1,-1,35,37,-1,-1,-1,-1,-1,-1,-1,-1,-1,-1,-1,-1],"loss_changes":[3.0731432E0,4.545023E0,7.2654486E0,7.25959E0,7.8628664E0,5.3495455E0,3.1723037E0,6.148744E0,1.4440947E0,8.7702274E-1,5.563856E0,1.1948886E0,0E0,0E0,3.5890667E0,6.355407E0,2.0406003E0,0E0,1.2914286E0,0E0,0E0,3.3285873E0,0E0,0E0,0E0,3.050128E0,6.454148E0,0E0,0E0,0E0,0E0,0E0,0E0,0E0,0E0,0E0,0E0,0E0,0E0],"parents":[2147483647,0,0,1,1,2,2,3,3,4,4,5,5,6,6,7,7,8,8,9,9,10,10,11,11,14,14,15,15,16,16,18,18,21,21,25,25,26,26],"right_children":[2,4,6,8,10,12,14,16,18,20,22,24,-1,-1,26,28,30,-1,32,-1,-1,34,-1,-1,-1,36,38,-1,-1,-1,-1,-1,-1,-1,-1,-1,-1,-1,-1],"split_conditions":[2.1452214E-1,-1.245614E-2,5.0263657E1,5.3647324E1,4.126367E1,5.1582134E1,1.2280115E1,3.281513E1,-5.9462506E-1,1.70215E7,4.85942E7,2.5607955E-1,-2.8790036E-2,-6.835591E-2,5.6008423E1,1.251611E-1,2.5159527E1,-9.376888E-4,-1.8052149E-1,9.646872E-3,6.5008335E-2,3.527593E1,6.1041154E-2,8.879428E-3,7.299188E-2,4.452704E1,5.985054E1,-1.1108143E-2,3.7201803E-2,6.1998307E-3,6.959565E-2,-1.0117373E-2,-6.5247945E-2,-1.0344464E-3,1.5940687E-2,-1.0334238E-2,4.5387566E-2,-7.814366E-2,-1.8439541E-3],"split_indices":[10,9,5,2,5,13,14,14,10,4,4,10,0,0,3,10,0,0,16,0,0,7,0,0,0,13,6,0,0,0,0,0,0,0,0,0,0,0,0],"split_type":[0,0,0,0,0,0,0,0,0,0,0,0,0,0,0,0,0,0,0,0,0,0,0,0,0,0,0,0,0,0,0,0,0,0,0,0,0,0,0],"sum_hessian":[2.9689972E2,2.5259265E2,4.4307064E1,8.379019E1,1.6880246E2,6.21898E0,3.8088085E1,7.475554E1,9.034651E0,6.462032E0,1.6234042E2,4.47036E0,1.74862E0,2.248725E0,3.583936E1,6.978045E1,4.975095E0,1.4741944E0,7.5604563E0,1.2490573E0,5.212974E0,1.591015E2,3.238933E0,1.2479217E0,3.222438E0,2.5648865E1,1.01904955E1,6.3144882E1,6.6355634E0,2.2489514E0,2.7261431E0,1.7493845E0,5.811072E0,1.2234313E2,3.675837E1,2.3914856E1,1.7340077E0,4.4525237E0,5.7379723E0],"tree_param":{"num_deleted":"0","num_feature":"17","num_nodes":"39","size_leaf_vector":"1"}},{"base_weights":[-2.3767115E-4,4.699196E-2,-1.0924818E-2,-5.4700743E-2,-1.7227684E-3,9.685043E-3,-4.3428805E-2,-2.3457478E-3,5.3469718E-2,2.0368062E-3,-1.1836989E-2],"categories":[],"categories_nodes":[],"categories_segments":[],"categories_sizes":[],"default_left":[0,0,0,0,0,0,0,0,0,0,0],"id":16,"left_children":[1,-1,3,-1,5,7,-1,9,-1,-1,-1],"loss_changes":[3.0016582E0,0E0,2.9421544E0,0E0,2.9147809E0,3.7134469E0,0E0,2.926025E0,0E0,0E0,0E0],"parents":[2147483647,0,0,2,2,4,4,5,5,7,7],"right_children":[2,-1,4,-1,6,8,-1,10,-1,-1,-1],"split_conditions":[1.3958377E1,4.699196E-2,1.4304499E1,-5.4700743E-2,2.8806925E-1,2.0807452E-1,-4.3428805E-2,5.6008423E1,5.3469718E-2,2.0368062E-3,-1.1836989E-2],"split_indices":[2,0,0,0,16,16,0,3,0,0,0],"split_type":[0,0,0,0,0,0,0,0,0,0,0],"sum_hessian":[2.9674744E2,2.358347E0,2.9438907E2,1.4869375E0,2.9290213E2,2.9007358E2,2.8285487E0,2.8780396E2,2.2696278E0,2.4381645E2,4.3987514E1],"tree_param":{"num_deleted":"0","num_feature":"17","num_nodes":"11","size_leaf_vector":"1"}},{"base_weights":[-2.500226E-4,7.391755E-1,-1.3313318E-2,-8.3506955E-3,5.3376775E-2,-3.5043191E-3,-4.7264155E-2,5.3729797E-3,-5.2264918E-2,7.215334E-1,-1.1947351E-2,4.7892924E-2,-4.476869E-3,1.4570741E-3,-1.3371942E-2],"categories":[],"categories_nodes":[],"categories_segments":[],"categories_sizes":[],"default_left":[0,0,0,0,0,0,0,0,0,0,0,0,0,0,0],"id":17,"left_children":[1,3,5,-1,-1,7,-1,9,-1,11,13,-1,-1,-1,-1],"loss_changes":[2.8846896E0,1.720968E0,2.6792197E0,0E0,0E0,2.7004545E0,0E0,3.6048245E0,0E0,1.4011283E0,2.989784E0,0E0,0E0,0E0,0E0],"parents":[2147483647,0,0,1,1,2,2,5,5,7,7,9,9,10,10],"right_children":[2,4,6,-1,-1,8,-1,10,-1,12,14,-1,-1,-1,-1],"split_conditions":[1.4561242E1,-2.3106125E-1,3.1148744E-1,-8.3506955E-3,5.3376775E-2,7.484944E1,-4.7264155E-2,2.1519556E1,-5.2264918E-2,6.831874E1,5.6008423E1,4.7892924E-2,-4.476869E-3,1.4570741E-3,-1.3371942E-2],"split_indices":[12,8,16,0,0,0,0,15,0,13,3,0,0,0,0],"split_type":[0,0,0,0,0,0,0,0,0,0,0,0,0,0,0],"sum_hessian":[2.966239E2,4.1844788E0,2.9243945E2,1.2436614E0,2.940817E0,2.9038687E2,2.0525668E0,2.8891977E2,1.4670906E0,5.8624206E0,2.8305737E2,4.399531E0,1.4628896E0,2.4460522E2,3.8452133E1],"tree_param":{"num_deleted":"0","num_feature":"17","num_nodes":"15","size_leaf_vector":"1"}},{"base_weights":[-3.1213244E-4,4.5315452E-2,-1.0526481E-2,-5.325156E-2,-1.5917745E-3,1.3802303E-1,-6.78909E-2,-5.872862E-2,4.3487597E-1,-3.4898037E-1,1.300515E-2,-6.3585006E-2,1.521885E-3,4.287804E-2,2.6157447E-3,2.2341939E-2,-2.2691693E-2,4.701486E-3,-1.5654696E-2],"categories":[],"categories_nodes":[],"categories_segments":[],"categories_sizes":[],"default_left":[0,0,0,0,0,0,0,0,0,0,0,0,0,0,0,0,0,0,0],"id":18,"left_children":[1,-1,3,-1,5,7,9,11,13,15,17,-1,-1,-1,-1,-1,-1,-1,-1],"loss_changes":[2.7642767E0,0E0,2.7790666E0,0E0,2.727647E0,5.5673027E0,4.547422E0,6.3056526E0,6.090055E0,3.9313598E0,4.1539264E0,0E0,0E0,0E0,0E0,0E0,0E0,0E0,0E0],"parents":[2147483647,0,0,2,2,4,4,5,5,6,6,7,7,8,8,9,9,10,10],"right_children":[2,-1,4,-1,6,8,10,12,14,16,18,-1,-1,-1,-1,-1,-1,-1,-1],"split_conditions":[1.3958377E1,4.5315452E-2,1.4304499E1,-5.325156E-2,1.60838E7,1.3227E7,1.97275E7,-1.8868615E-1,1.4878984E-3,-2.3352088E-1,2.1201165E-1,-6.3585006E-2,1.521885E-3,4.287804E-2,2.6157447E-3,2.2341939E-2,-2.2691693E-2,4.701486E-3,-1.5654696E-2],"split_indices":[2,0,0,0,4,4,4,10,10,10,10,0,0,0,0,0,0,0,0],"split_type":[0,0,0,0,0,0,0,0,0,0,0,0,0,0,0,0,0,0,0],"sum_hessian":[2.9647025E2,2.32556E0,2.9414468E2,1.4782227E0,2.9266647E2,9.388295E1,1.9878352E2,5.6943462E1,3.6939487E1,4.3683285E1,1.5510023E2,2.991162E0,5.39523E1,1.6959555E1,1.9979933E1,4.70577E0,3.8977516E1,1.24802666E2,3.0297577E1],"tree_param":{"num_deleted":"0","num_feature":"17","num_nodes":"19","size_leaf_vector":"1"}},{"base_weights":[-4.150133E-4,7.166665E-1,-1.2893159E-2,-8.117183E-3,5.2050658E-2,-3.4568952E-3,-4.6176616E-2,-3.408321E-1,2.2258805E-2,5.834346E-1,-6.136239E-1,8.83208E-1,3.661957E-3,-2.698171E-3,4.960091E-2,4.0429034E-3,-3.8645364E-2,5.8590528E-2,7.1288156E-3,-2.5862744E-2,1.483457E-3],"categories":[],"categories_nodes":[],"categories_segments":[],"categories_sizes":[],"default_left":[0,0,0,0,0,0,0,0,0,0,0,0,0,0,0,0,0,0,0,0,0],"id":19,"left_children":[1,3,5,-1,-1,7,-1,9,11,13,15,17,19,-1,-1,-1,-1,-1,-1,-1,-1],"loss_changes":[2.6702633E0,1.6242228E0,2.5170434E0,0E0,0E0,2.5347211E0,0E0,5.5749645E0,4.3452225E0,1.4150254E0,1.883676E0,1.0594807E0,3.6305795E0,0E0,0E0,0E0,0E0,0E0,0E0,0E0,0E0],"parents":[2147483647,0,0,1,1,2,2,5,5,7,7,8,8,9,9,10,10,11,11,12,12],"right_children":[2,4,6,-1,-1,8,-1,10,12,14,16,18,20,-1,-1,-1,-1,-1,-1,-1,-1],"split_conditions":[1.4561242E1,-2.3106125E-1,3.1148744E-1,-8.117183E-3,5.2050658E-2,1.5303527E1,-4.6176616E-2,-3.3050776E-1,1.73271E1,2.199781E1,1.4683067E1,2.5524734E1,1.8387634E1,-2.698171E-3,4.960091E-2,4.0429034E-3,-3.8645364E-2,5.8590528E-2,7.1288156E-3,-2.5862744E-2,1.483457E-3],"split_indices":[12,8,16,0,0,13,0,8,12,14,3,14,3,0,0,0,0,0,0,0,0],"split_type":[0,0,0,0,0,0,0,0,0,0,0,0,0,0,0,0,0,0,0,0,0],"sum_hessian":[2.9639252E2,4.104175E0,2.9228836E2,1.2408444E0,2.8633308E0,2.9028415E2,2.0041986E0,1.9691332E1,2.705928E2,4.2278566E0,1.5463476E1,4.738311E0,2.658545E2,1.9905255E0,2.237331E0,2.9768124E0,1.2486664E1,2.990733E0,1.7475781E0,1.174364E1,2.5411087E2],"tree_param":{"num_deleted":"0","num_feature":"17","num_nodes":"21","size_leaf_vector":"1"}},{"base_weights":[-2.1830385E-4,1.1303131E-1,-7.895995E-2,9.033567E-1,3.677392E-2,-6.1516804E-1,-1.6848233E-2,1.1189001E0,-1.2430975E-3,-1.452011E-2,1.1446747E0,4.2576093E-2,-8.8413715E-1,1.7183569E-1,-1.6681424E-1,7.17627E-2,2.354859E-1,-4.1544124E-2,5.7578463E-2,7.0844024E-2,9.097147E-3,-5.348636E-1,3.7011087E-2,-1.076964E0,1.785552E-2,-1.080503E-1,3.955772E-1,-4.9136007E-1,5.420843E-2,3.181336E-2,-1.3516843E-2,1.843365E-2,-5.782889E-3,-6.1216813E-2,1.8441597E-2,-1.327284E-2,-6.992614E-2,4.332453E-2,-9.617566E-3,5.799138E-2,7.9186745E-3,3.6112335E-2,-2.9659176E-2,1.374874E-2,-1.3313057E-2],"categories":[],"categories_nodes":[],"categories_segments":[],"categories_sizes":[],"default_left":[0,0,0,0,0,0,0,0,0,0,0,0,0,0,0,0,0,0,0,0,0,0,0,0,0,0,0,0,0,0,0,0,0,0,0,0,0,0,0,0,0,0,0,0,0],"id":20,"left_children":[1,3,5,7,9,11,13,15,-1,17,19,21,23,25,27,-1,29,31,-1,-1,-1,33,-1,35,-1,37,39,41,43,-1,-1,-1,-1,-1,-1,-1,-1,-1,-1,-1,-1,-1,-1,-1,-1],"loss_changes":[2.659569E0,7.3387527E0,5.8486986E0,2.1728659E0,6.415425E0,3.2635412E0,4.5189295E0,2.0997639E0,0E0,3.4701889E0,1.0511942E0,2.9122705E0,3.4932165E0,4.474209E0,6.4052496E0,0E0,8.8078505E-1,3.2990263E0,0E0,0E0,0E0,2.942723E0,0E0,2.627201E0,0E0,2.8139932E0,6.9845343E0,4.892414E0,3.879418E0,0E0,0E0,0E0,0E0,0E0,0E0,0E0,0E0,0E0,0E0,0E0,0E0,0E0,0E0,0E0,0E0],"parents":[2147483647,0,0,1,1,2,2,3,3,4,4,5,5,6,6,7,7,9,9,10,10,11,11,12,12,13,13,14,14,16,16,17,17,21,21,23,23,25,25,26,26,27,27,28,28],"right_children":[2,4,6,8,10,12,14,16,-1,18,20,22,24,26,28,-1,30,32,-1,-1,-1,34,-1,36,-1,38,40,42,44,-1,-1,-1,-1,-1,-1,-1,-1,-1,-1,-1,-1,-1,-1,-1,-1],"split_conditions":[3.0068687E1,-4.1644174E-1,2.6155334E1,3.24197E7,2.6546991E1,2.7356218E1,-5.598999E-2,3.5428173E1,-1.2430975E-3,3.97049E7,2.9574102E1,2.5159527E1,5.13439E7,3.515188E-1,5.676018E-2,7.17627E-2,2.4927559E1,4.519237E1,5.7578463E-2,7.0844024E-2,9.097147E-3,2.7990929E1,3.7011087E-2,1.64199E7,1.785552E-2,2.6144648E1,1.70215E7,2.9088976E1,5.3647324E1,3.181336E-2,-1.3516843E-2,1.843365E-2,-5.782889E-3,-6.1216813E-2,1.8441597E-2,-1.327284E-2,-6.992614E-2,4.332453E-2,-9.617566E-3,5.799138E-2,7.9186745E-3,3.6112335E-2,-2.9659176E-2,1.374874E-2,-1.3313057E-2],"split_indices":[11,8,13,4,13,6,10,14,0,4,0,0,4,9,10,0,3,5,0,0,0,7,0,4,0,2,4,12,2,0,0,0,0,0,0,0,0,0,0,0,0,0,0,0,0],"split_type":[0,0,0,0,0,0,0,0,0,0,0,0,0,0,0,0,0,0,0,0,0,0,0,0,0,0,0,0,0,0,0,0,0,0,0,0,0,0,0,0,0,0,0,0,0],"sum_hessian":[2.96242E2,1.2131954E2,1.7492245E2,9.721417E0,1.1159812E2,1.723439E1,1.5768806E2,7.72269E0,1.9987273E0,1.07603165E2,3.9949603E0,5.2464037E0,1.1987987E1,6.97652E1,8.792287E1,5.2264214E0,2.4962687E0,1.0610848E2,1.4946812E0,2.7466376E0,1.2483227E0,2.9981623E0,2.2482414E0,1.0490628E1,1.4973578E0,3.1223595E1,3.8541603E1,3.5124115E1,5.2798756E1,1.248864E0,1.2474048E0,1.5628842E1,9.047964E1,1.4993927E0,1.4987694E0,3.4952679E0,6.995361E0,1.7471834E0,2.9476412E1,8.207652E0,3.0333952E1,2.2472012E0,3.287691E1,3.134657E1,2.1452187E1],"tree_param":{"num_deleted":"0","num_feature":"17","num_nodes":"45","size_leaf_vector":"1"}},{"base_weights":[7.2495866E-4,6.9926775E-1,-1.130044E-2,-7.999706E-3,5.107695E-2,-1.4148267E-1,5.2924044E-2,-3.298841E-2,-8.648974E-1,1.0811158E0,1.2582263E-2,-8.766214E-2,6.468253E-2,-6.412876E-4,-9.760751E-1,8.891536E-3,6.1733987E-2,8.277027E-2,-3.877124E-1,-1.0539245E-2,1.5721047E-2,-2.1613011E-2,-6.2313706E-2,2.67815E-3,5.8441054E-2,-1.6637214E-3,-3.5573572E-2],"categories":[],"categories_nodes":[],"categories_segments":[],"categories_sizes":[],"default_left":[0,0,0,0,0,0,0,0,0,0,0,0,0,0,0,0,0,0,0,0,0,0,0,0,0,0,0],"id":21,"left_children":[1,3,5,-1,-1,7,9,11,13,15,17,19,-1,-1,21,-1,-1,23,25,-1,-1,-1,-1,-1,-1,-1,-1],"loss_changes":[2.504015E0,1.5603995E0,2.4580853E0,0E0,0E0,7.5926514E0,8.1578E0,6.313321E0,1.1833706E0,8.104906E-1,5.386456E0,4.176785E0,0E0,0E0,1.1001816E0,0E0,0E0,5.1068425E0,3.258985E0,0E0,0E0,0E0,0E0,0E0,0E0,0E0,0E0],"parents":[2147483647,0,0,1,1,2,2,5,5,6,6,7,7,8,8,9,9,10,10,11,11,14,14,17,17,18,18],"right_children":[2,4,6,-1,-1,8,10,12,14,16,18,20,-1,-1,22,-1,-1,24,26,-1,-1,-1,-1,-1,-1,-1,-1],"split_conditions":[1.4561242E1,-2.3106125E-1,-1.245614E-2,-7.999706E-3,5.107695E-2,5.3647324E1,4.126367E1,5.349186E1,-5.9462506E-1,1.70215E7,2.1452214E-1,1.251611E-1,6.468253E-2,-6.412876E-4,-1.0098703E-1,8.891536E-3,6.1733987E-2,4.85942E7,2.3042E7,-1.0539245E-2,1.5721047E-2,-2.1613011E-2,-6.2313706E-2,2.67815E-3,5.8441054E-2,-1.6637214E-3,-3.5573572E-2],"split_indices":[12,8,9,0,0,2,5,0,10,4,10,10,0,0,16,0,0,4,4,0,0,0,0,0,0,0,0],"split_type":[0,0,0,0,0,0,0,0,0,0,0,0,0,0,0,0,0,0,0,0,0,0,0,0,0,0,0],"sum_hessian":[2.9614728E2,4.0447164E0,2.9210257E2,1.2405684E0,2.804148E0,9.610202E1,1.9600055E2,8.447802E1,1.1624005E1,6.4258504E0,1.8957469E2,8.203125E1,2.446768E0,1.4703712E0,1.0153634E1,1.2472671E0,5.1785836E0,1.6196826E2,2.760643E1,6.3165092E1,1.8866158E1,4.233295E0,5.920339E0,1.5874835E2,3.219916E0,1.3705258E1,1.3901173E1],"tree_param":{"num_deleted":"0","num_feature":"17","num_nodes":"27","size_leaf_vector":"1"}},{"base_weights":[1.1082684E-3,9.421566E-3,-5.0139338E-2,6.9510335E-1,-6.772104E-3,9.273819E-1,-4.7857845E-3,3.549313E-2,-2.4163248E-1,6.425099E-2,7.384255E-5,-1.7351817E-2,5.0285566E-1,-8.241093E-1,3.3402126E-2,1.1591961E-3,-3.994518E-2,4.2608543E-3,4.567888E-2,-4.6035584E-2,1.1891926E-3,1.3457596E-2,-2.8073376E-2],"categories":[],"categories_nodes":[],"categories_segments":[],"categories_sizes":[],"default_left":[0,0,0,0,0,0,0,0,0,0,0,0,0,0,0,0,0,0,0,0,0,0,0],"id":22,"left_children":[1,3,-1,5,7,9,-1,11,13,-1,-1,15,17,19,21,-1,-1,-1,-1,-1,-1,-1,-1],"loss_changes":[2.4873514E0,3.2854166E0,0E0,1.3427305E0,2.88361E0,1.7763891E0,0E0,6.0926013E0,7.124611E0,0E0,0E0,7.060407E0,4.22025E0,1.1889219E0,4.5060277E0,0E0,0E0,0E0,0E0,0E0,0E0,0E0,0E0],"parents":[2147483647,0,0,1,1,3,3,4,4,5,5,7,7,8,8,11,11,12,12,13,13,14,14],"right_children":[2,4,-1,6,8,10,-1,12,14,-1,-1,16,18,20,22,-1,-1,-1,-1,-1,-1,-1,-1],"split_conditions":[7.484944E1,2.1519556E1,-5.0139338E-2,6.831874E1,5.3647324E1,5.730828E1,-4.7857845E-3,3.4574642E1,4.886456E-1,6.425099E-2,7.384255E-5,3.5489403E1,2.67128E7,2.0265804E-1,2.0490982E-1,1.1591961E-3,-3.994518E-2,4.2608543E-3,4.567888E-2,-4.6035584E-2,1.1891926E-3,1.3457596E-2,-2.8073376E-2],"split_indices":[0,15,0,13,2,5,0,13,9,0,0,0,4,16,10,0,0,0,0,0,0,0,0],"split_type":[0,0,0,0,0,0,0,0,0,0,0,0,0,0,0,0,0,0,0,0,0,0,0],"sum_hessian":[2.959086E2,2.944608E2,1.4478273E0,5.8265195E0,2.8863428E2,4.3702183E0,1.456301E0,2.4533322E2,4.3301044E1,2.8727458E0,1.4974726E0,2.2127626E2,2.4056961E1,1.3247882E1,3.0053162E1,2.11288E2,9.988266E0,1.2526745E1,1.1530216E1,1.1815799E1,1.4320827E0,2.191549E1,8.137671E0],"tree_param":{"num_deleted":"0","num_feature":"17","num_nodes":"23","size_leaf_vector":"1"}},{"base_weights":[9.21537E-4,1.0940226E-2,-4.0138848E-2,-2.0875783E-4,5.1324416E-2,1.572793E-2,-5.4641855E-1,-1.0752174E-2,4.7294244E-1,3.5100233E-2,-8.635883E-1,1.0829809E-3,-3.6471825E-2,3.929701E-2,-2.7629672E-2,1.2091005E-2,-5.7041477E-2],"categories":[],"categories_nodes":[],"categories_segments":[],"categories_sizes":[],"default_left":[0,0,0,0,0,0,0,0,0,0,0,0,0,0,0,0,0],"id":23,"left_children":[1,3,-1,5,-1,7,9,11,13,-1,15,-1,-1,-1,-1,-1,-1],"loss_changes":[2.3980916E0,3.3297458E0,0E0,2.5492933E0,0E0,3.4504197E0,3.893728E0,6.30445E0,5.4421577E0,0E0,2.4422555E0,0E0,0E0,0E0,0E0,0E0,0E0],"parents":[2147483647,0,0,1,1,3,3,5,5,6,6,7,7,8,8,10,10],"right_children":[2,4,-1,6,-1,8,10,12,14,-1,16,-1,-1,-1,-1,-1,-1],"split_conditions":[2.8806925E-1,2.0807452E-1,-4.0138848E-2,6.827064E1,5.1324416E-2,6.478354E1,4.301705E1,5.8355114E1,2.9719885E1,3.5100233E-2,1.1212465E1,1.0829809E-3,-3.6471825E-2,3.929701E-2,-2.7629672E-2,1.2091005E-2,-5.7041477E-2],"split_indices":[16,16,0,13,0,2,5,2,14,0,14,0,0,0,0,0,0],"split_type":[0,0,0,0,0,0,0,0,0,0,0,0,0,0,0,0,0],"sum_hessian":[2.9573465E2,2.9306772E2,2.6669157E0,2.908742E2,2.1935077E0,2.835717E2,7.3025265E0,2.6897043E2,1.4601249E1,1.2335936E0,6.068933E0,2.5829166E2,1.0678779E1,1.1365945E1,3.2353039E0,1.2425274E0,4.8264055E0],"tree_param":{"num_deleted":"0","num_feature":"17","num_nodes":"17","size_leaf_vector":"1"}},{"base_weights":[7.9652533E-4,4.2620886E-2,-8.65488E-3,-5.192656E-2,5.4112268E-5,8.111002E-3,-4.8401404E-2,6.5653354E-1,-7.2770487E-3,4.3706577E-2,-4.144489E-3,2.0592844E-2,-1.4567099E-3],"categories":[],"categories_nodes":[],"categories_segments":[],"categories_sizes":[],"default_left":[0,0,0,0,0,0,0,0,0,0,0,0,0],"id":24,"left_children":[1,-1,3,-1,5,7,-1,9,11,-1,-1,-1,-1],"loss_changes":[2.3945148E0,0E0,2.639774E0,0E0,2.291938E0,2.9125175E0,0E0,1.1611495E0,2.6288588E0,0E0,0E0,0E0,0E0],"parents":[2147483647,0,0,2,2,4,4,5,5,7,7,8,8],"right_children":[2,-1,4,-1,6,8,-1,10,12,-1,-1,-1,-1],"split_conditions":[1.3958377E1,4.2620886E-2,1.4304499E1,-5.192656E-2,7.484944E1,2.1519556E1,-4.8401404E-2,6.831874E1,1.1212465E1,4.3706577E-2,-4.144489E-3,2.0592844E-2,-1.4567099E-3],"split_indices":[2,0,0,0,0,15,0,13,14,0,0,0,0],"split_type":[0,0,0,0,0,0,0,0,0,0,0,0,0],"sum_hessian":[2.9557498E2,2.2653525E0,2.9330963E2,1.4679675E0,2.9184167E2,2.904163E2,1.4253757E0,5.7663965E0,2.846499E2,4.314533E0,1.4518635E0,1.322393E1,2.7142596E2],"tree_param":{"num_deleted":"0","num_feature":"17","num_nodes":"13","size_leaf_vector":"1"}},{"base_weights":[7.6187454E-4,6.789909E-1,-1.0748712E-2,-7.7835987E-3,4.989557E-2,-3.285606E-1,1.3323283E-2,5.361581E-1,-5.8211493E-1,8.5476124E-1,-4.695401E-3,-3.2441185E-3,4.6386484E-2,-2.738012E-1,-1.0124655E0,5.6687135E-2,6.9765574E-3,-4.9732688E-1,1.9791972E-2,-3.0919572E-2,1.3042946E-2,-1.4423226E-2,-6.3508354E-2,4.615703E-2,-4.0373344E-2,3.1135747E-2,-1.0080469E-3],"categories":[],"categories_nodes":[],"categories_segments":[],"categories_sizes":[],"default_left":[0,0,0,0,0,0,0,0,0,0,0,0,0,0,0,0,0,0,0,0,0,0,0,0,0,0,0],"id":25,"left_children":[1,3,5,-1,-1,7,9,11,13,15,17,-1,-1,19,21,-1,-1,23,25,-1,-1,-1,-1,-1,-1,-1,-1],"loss_changes":[2.3219805E0,1.476609E0,2.242351E0,0E0,0E0,4.83663E0,4.1415467E0,1.2839017E0,1.9036369E0,9.845042E-1,3.2448294E0,0E0,0E0,2.1781206E0,8.444519E-1,0E0,0E0,6.3566074E0,6.1896167E0,0E0,0E0,0E0,0E0,0E0,0E0,0E0,0E0],"parents":[2147483647,0,0,1,1,2,2,5,5,6,6,7,7,8,8,9,9,10,10,13,13,14,14,17,17,18,18],"right_children":[2,4,6,-1,-1,8,10,12,14,16,18,-1,-1,20,22,-1,-1,24,26,-1,-1,-1,-1,-1,-1,-1,-1],"split_conditions":[1.4561242E1,-2.3106125E-1,1.5303527E1,-7.7835987E-3,4.989557E-2,-3.3050776E-1,1.73271E1,2.199781E1,1.5574062E1,2.5524734E1,1.8387634E1,-3.2441185E-3,4.6386484E-2,1.4920123E1,4.3717236E1,5.6687135E-2,6.9765574E-3,1.2248E7,2.279826E1,-3.0919572E-2,1.3042946E-2,-1.4423226E-2,-6.3508354E-2,4.615703E-2,-4.0373344E-2,3.1135747E-2,-1.0080469E-3],"split_indices":[12,8,13,0,0,8,12,14,7,14,3,0,0,12,5,0,0,4,0,0,0,0,0,0,0,0,0],"split_type":[0,0,0,0,0,0,0,0,0,0,0,0,0,0,0,0,0,0,0,0,0,0,0,0,0,0,0],"sum_hessian":[2.9549512E2,3.9635859E0,2.9153152E2,1.23729E0,2.7262957E0,1.9636074E1,2.7189545E2,4.1995187E0,1.5436556E1,4.726772E0,2.671687E2,1.9857723E0,2.2137465E0,9.946713E0,5.4898424E0,2.9794636E0,1.7473084E0,1.1736992E1,2.554317E2,5.9532304E0,3.9934833E0,1.9974558E0,3.4923868E0,1.7491603E0,9.987832E0,1.4967862E1,2.4046384E2],"tree_param":{"num_deleted":"0","num_feature":"17","num_nodes":"27","size_leaf_vector":"1"}},{"base_weights":[1.0310261E-3,9.657655E-3,-4.3883946E-2,6.5244216E-1,-2.3260203E-3,5.584609E-2,-1.7968297E-2,-3.797927E-1,1.8375369E-2,8.1005573E-1,-7.049324E-1,2.6316646E-1,-3.4033466E-2,3.044049E-3,5.7511855E-2,-4.411768E-2,1.7762361E-2,1.8450672E-2,-5.0719626E-2,-1.5787631E-2,1.2696874E-3],"categories":[],"categories_nodes":[],"categories_segments":[],"categories_sizes":[],"default_left":[0,0,0,0,0,0,0,0,0,0,0,0,0,0,0,0,0,0,0,0,0],"id":26,"left_children":[1,3,-1,5,7,-1,-1,9,11,13,15,17,19,-1,-1,-1,-1,-1,-1,-1,-1],"loss_changes":[2.2549317E0,2.2697365E0,0E0,2.9358292E0,2.2736053E0,0E0,0E0,6.4232936E0,3.5490763E0,8.7595963E-1,2.6487794E0,6.969918E0,3.827947E0,0E0,0E0,0E0,0E0,0E0,0E0,0E0,0E0],"parents":[2147483647,0,0,1,1,3,3,4,4,7,7,8,8,9,9,10,10,11,11,12,12],"right_children":[2,4,-1,6,8,-1,-1,10,12,14,16,18,20,-1,-1,-1,-1,-1,-1,-1,-1],"split_conditions":[3.1148744E-1,2.8037895E1,-4.3883946E-2,5.4613224E1,3.572881E1,5.584609E-2,-1.7968297E-2,2.5211926E1,4.519237E1,1.4423475E1,3.1890238E1,4.6057E7,-2.6749356E-2,3.044049E-3,5.7511855E-2,-4.411768E-2,1.7762361E-2,1.8450672E-2,-5.0719626E-2,-1.5787631E-2,1.2696874E-3],"split_indices":[16,5,0,0,5,0,0,1,5,0,15,4,8,0,0,0,0,0,0,0,0],"split_type":[0,0,0,0,0,0,0,0,0,0,0,0,0,0,0,0,0,0,0,0,0],"sum_hessian":[2.9535425E2,2.9346222E2,1.8920206E0,4.3928485E0,2.8906937E2,2.9395394E0,1.453309E0,1.41273155E1,2.7494205E2,2.7118597E0,1.1415456E1,4.7774693E1,2.2716736E2,1.2150172E0,1.4968424E0,9.922634E0,1.4928218E0,4.4776104E1,2.9985847E0,3.882087E1,1.883465E2],"tree_param":{"num_deleted":"0","num_feature":"17","num_nodes":"21","size_leaf_vector":"1"}},{"base_weights":[9.1611367E-4,1.04235515E-1,-7.1015075E-2,8.610923E-1,3.1366196E-2,-5.8077615E-1,-1.1814374E-2,1.0693668E0,-1.4502488E-3,-1.8235931E-2,1.1034614E0,5.043487E-2,-8.3955425E-1,1.6418949E-1,-1.5150315E-1,6.840689E-2,2.3442219E-1,-4.4174638E-2,5.526334E-2,6.8833396E-2,7.859514E-3,-3.4187455E-2,5.5691636E-1,-1.0224639E0,1.7020732E-2,-8.9786045E-2,3.6616927E-1,-4.6146935E-1,6.0049266E-2,-1.3141352E-2,3.136253E-2,1.7146353E-2,-5.6971847E-3,5.4330982E-2,-1.3350633E-3,-1.2860494E-2,-6.625525E-2,-3.17348E-2,4.0338575E-3,5.5305686E-2,6.8631433E-3,3.476264E-2,-2.7936695E-2,4.741443E-2,-5.6352204E-4],"categories":[],"categories_nodes":[],"categories_segments":[],"categories_sizes":[],"default_left":[0,0,0,0,0,0,0,0,0,0,0,0,0,0,0,0,0,0,0,0,0,0,0,0,0,0,0,0,0,0,0,0,0,0,0,0,0,0,0,0,0,0,0,0,0],"id":27,"left_children":[1,3,5,7,9,11,13,15,-1,17,19,21,23,25,27,-1,29,31,-1,-1,-1,-1,33,35,-1,37,39,41,43,-1,-1,-1,-1,-1,-1,-1,-1,-1,-1,-1,-1,-1,-1,-1,-1],"loss_changes":[2.2092173E0,6.70187E0,5.2821445E0,2.0104146E0,5.99361E0,3.0176487E0,3.9105093E0,1.8443213E0,0E0,3.206269E0,1.0719833E0,2.7010002E0,3.148509E0,3.6448555E0,5.8396926E0,0E0,8.4734994E-1,2.9251916E0,0E0,0E0,0E0,0E0,1.3408725E0,2.318777E0,0E0,3.0230541E0,6.524645E0,4.446462E0,3.4038944E0,0E0,0E0,0E0,0E0,0E0,0E0,0E0,0E0,0E0,0E0,0E0,0E0,0E0,0E0,0E0,0E0],"parents":[2147483647,0,0,1,1,2,2,3,3,4,4,5,5,6,6,7,7,9,9,10,10,11,11,12,12,13,13,14,14,16,16,17,17,22,22,23,23,25,25,26,26,27,27,28,28],"right_children":[2,4,6,8,10,12,14,16,-1,18,20,22,24,26,28,-1,30,32,-1,-1,-1,-1,34,36,-1,38,40,42,44,-1,-1,-1,-1,-1,-1,-1,-1,-1,-1,-1,-1,-1,-1,-1,-1],"split_conditions":[3.0068687E1,-4.1644174E-1,2.6155334E1,3.24197E7,2.6546991E1,2.7356218E1,-5.598999E-2,3.5428173E1,-1.4502488E-3,3.97049E7,4.659272E-1,2.6809494E1,5.13439E7,3.515188E-1,5.676018E-2,6.840689E-2,1.61926E7,4.519237E1,5.526334E-2,6.8833396E-2,7.859514E-3,-3.4187455E-2,2.7008783E1,1.64199E7,1.7020732E-2,3.0762178E1,1.70215E7,2.9088976E1,6.907829E-2,-1.3141352E-2,3.136253E-2,1.7146353E-2,-5.6971847E-3,5.4330982E-2,-1.3350633E-3,-1.2860494E-2,-6.625525E-2,-3.17348E-2,4.0338575E-3,5.5305686E-2,6.8631433E-3,3.476264E-2,-2.7936695E-2,4.741443E-2,-5.6352204E-4],"split_indices":[11,8,13,4,13,6,10,14,0,4,8,12,4,9,10,0,4,5,0,0,0,0,14,4,0,11,4,12,10,0,0,0,0,0,0,0,0,0,0,0,0,0,0,0,0],"split_type":[0,0,0,0,0,0,0,0,0,0,0,0,0,0,0,0,0,0,0,0,0,0,0,0,0,0,0,0,0,0,0,0,0,0,0,0,0,0,0,0,0,0,0,0,0],"sum_hessian":[2.9526596E2,1.2100688E2,1.7425908E2,9.677248E0,1.11329636E2,1.7215012E1,1.5704407E2,7.6790237E0,1.9982243E0,1.0734609E2,3.9835413E0,5.2396274E0,1.1975385E1,6.94118E1,8.763228E1,5.1850457E0,2.4939783E0,1.05862686E2,1.4834081E0,2.7381504E0,1.2453909E0,1.9961116E0,3.243516E0,1.0483756E1,1.4916285E0,3.0994205E1,3.841759E1,3.506855E1,5.2563725E1,1.2467529E0,1.2472254E0,1.5568476E1,9.029421E1,1.2484908E0,1.9950252E0,3.4953487E0,6.9884076E0,6.7365384E0,2.4257668E1,8.171356E0,3.0246233E1,2.2431958E0,3.2825356E1,2.9928963E0,4.9570827E1],"tree_param":{"num_deleted":"0","num_feature":"17","num_nodes":"45","size_leaf_vector":"1"}},{"base_weights":[1.8043537E-3,6.666127E-1,-9.379958E-3,-7.6029E-3,4.9164977E-2,-3.267116E-1,1.460484E-2,4.8906976E-1,-5.633408E-1,8.297067E-1,-2.8285454E-3,-3.7820705E-3,4.3238226E-2,-2.6334688E-1,-9.830274E-1,5.498756E-2,6.8958807E-3,-4.7829485E-1,2.079683E-2,-2.9934434E-2,1.2781498E-2,-5.730774E-2,-8.266602E-3,4.447583E-2,-3.8862795E-2,5.839608E-2,7.880563E-5],"categories":[],"categories_nodes":[],"categories_segments":[],"categories_sizes":[],"default_left":[0,0,0,0,0,0,0,0,0,0,0,0,0,0,0,0,0,0,0,0,0,0,0,0,0,0,0],"id":28,"left_children":[1,3,5,-1,-1,7,9,11,13,15,17,-1,-1,19,21,-1,-1,23,25,-1,-1,-1,-1,-1,-1,-1,-1],"loss_changes":[2.2080019E0,1.4233055E0,2.228768E0,0E0,0E0,4.2475176E0,3.8763683E0,1.1605276E0,1.8077712E0,9.154494E-1,3.019449E0,0E0,0E0,2.0566647E0,6.7437744E-1,0E0,0E0,5.894456E0,5.6467934E0,0E0,0E0,0E0,0E0,0E0,0E0,0E0,0E0],"parents":[2147483647,0,0,1,1,2,2,5,5,6,6,7,7,8,8,9,9,10,10,13,13,14,14,17,17,18,18],"right_children":[2,4,6,-1,-1,8,10,12,14,16,18,-1,-1,20,22,-1,-1,24,26,-1,-1,-1,-1,-1,-1,-1,-1],"split_conditions":[1.4561242E1,-2.3106125E-1,1.5303527E1,-7.6029E-3,4.9164977E-2,-3.3050776E-1,1.73271E1,2.199781E1,1.5574062E1,2.5524734E1,1.8387634E1,-3.7820705E-3,4.3238226E-2,1.4920123E1,1.8337273E1,5.498756E-2,6.8958807E-3,1.2248E7,1.8971716E1,-2.9934434E-2,1.2781498E-2,-5.730774E-2,-8.266602E-3,4.447583E-2,-3.8862795E-2,5.839608E-2,7.880563E-5],"split_indices":[12,8,13,0,0,8,12,14,7,14,3,0,0,12,11,0,0,4,2,0,0,0,0,0,0,0,0],"split_type":[0,0,0,0,0,0,0,0,0,0,0,0,0,0,0,0,0,0,0,0,0,0,0,0,0,0,0],"sum_hessian":[2.9511615E2,3.913123E0,2.91203E2,1.2364944E0,2.6766284E0,1.9576317E1,2.716267E2,4.161767E0,1.541455E1,4.712232E0,2.6691446E2,1.9817053E0,2.1800616E0,9.938178E0,5.476371E0,2.965075E0,1.7471572E0,1.1723868E1,2.551906E2,5.943886E0,3.9942925E0,4.2306767E0,1.2456943E0,1.7485435E0,9.975325E0,3.2205257E0,2.5197006E2],"tree_param":{"num_deleted":"0","num_feature":"17","num_nodes":"27","size_leaf_vector":"1"}},{"base_weights":[2.142026E-3,9.824045E-3,-4.6978768E-2,6.2896335E-1,-4.641765E-3,4.8806112E-2,8.731401E-2,3.43279E-2,-2.2168788E-1,-3.3362444E-2,3.6477827E-2,-1.1687679E-2,5.4111564E-1,-7.692708E-1,3.4817595E-2,1.1869929E-3,-2.812541E-2,3.7671838E-2,-8.842752E-3,-6.1877735E-2,-2.3853872E-2,1.3015141E-2,-2.6796535E-2],"categories":[],"categories_nodes":[],"categories_segments":[],"categories_sizes":[],"default_left":[0,0,0,0,0,0,0,0,0,0,0,0,0,0,0,0,0,0,0,0,0,0,0],"id":29,"left_children":[1,3,-1,5,7,-1,9,11,13,-1,-1,15,17,19,21,-1,-1,-1,-1,-1,-1,-1,-1],"loss_changes":[2.1502254E0,2.6409762E0,0E0,1.1806619E0,2.4504592E0,0E0,2.293294E0,5.7364926E0,6.2204385E0,0E0,0E0,4.428306E0,3.2544332E0,1.3402596E0,4.1272683E0,0E0,0E0,0E0,0E0,0E0,0E0,0E0,0E0],"parents":[2147483647,0,0,1,1,3,3,4,4,6,6,7,7,8,8,11,11,12,12,13,13,14,14],"right_children":[2,4,-1,6,8,-1,10,12,14,-1,-1,16,18,20,22,-1,-1,-1,-1,-1,-1,-1,-1],"split_conditions":[7.484944E1,2.1519556E1,-4.6978768E-2,7.183634E1,5.3647324E1,4.8806112E-2,7.36698E1,3.8152863E1,4.886456E-1,-3.3362444E-2,3.6477827E-2,3.5653137E1,7.611611E1,5.6645214E1,2.0490982E-1,1.1869929E-3,-2.812541E-2,3.7671838E-2,-8.842752E-3,-6.1877735E-2,-2.3853872E-2,1.3015141E-2,-2.6796535E-2],"split_indices":[0,15,0,2,2,0,0,3,9,0,0,0,5,0,10,0,0,0,0,0,0,0,0],"split_type":[0,0,0,0,0,0,0,0,0,0,0,0,0,0,0,0,0,0,0,0,0,0,0],"sum_hessian":[2.9495093E2,2.935459E2,1.4050201E0,5.7320905E0,2.878138E2,3.0043716E0,2.727719E0,2.4471768E2,4.309613E1,1.2362858E0,1.4914331E0,2.252429E2,1.9474785E1,1.3110037E1,2.9986094E1,2.1253033E2,1.271257E1,1.4991918E1,4.4828663E0,3.7940702E0,9.315967E0,2.188423E1,8.101864E0],"tree_param":{"num_deleted":"0","num_feature":"17","num_nodes":"23","size_leaf_vector":"1"}},{"base_weights":[1.7211335E-3,1.1164133E-2,-3.8582277E-2,5.831155E-4,4.9696986E-2,1.0097729E-2,-4.3321483E-2,1.7777875E-2,-4.5935865E-2,1.9042423E-2,-8.96236E-5],"categories":[],"categories_nodes":[],"categories_segments":[],"categories_sizes":[],"default_left":[0,0,0,0,0,0,0,0,0,0,0],"id":30,"left_children":[1,3,-1,5,-1,7,-1,9,-1,-1,-1],"loss_changes":[2.168603E0,3.0482252E0,0E0,2.409843E0,0E0,2.0771515E0,0E0,2.0435436E0,0E0,0E0,0E0],"parents":[2147483647,0,0,1,1,3,3,5,5,7,7],"right_children":[2,4,-1,6,-1,8,-1,10,-1,-1,-1],"split_conditions":[2.8806925E-1,2.0807452E-1,-3.8582277E-2,1.6908689E-1,4.9696986E-2,7.484944E1,-4.3321483E-2,1.1212465E1,-4.5935865E-2,1.9042423E-2,-8.96236E-5],"split_indices":[16,16,0,16,0,0,0,14,0,0,0],"split_type":[0,0,0,0,0,0,0,0,0,0,0],"sum_hessian":[2.9477124E2,2.9218912E2,2.5821378E0,2.900667E2,2.1223996E0,2.878957E2,2.171019E0,2.865075E2,1.3882014E0,1.3709388E1,2.727981E2],"tree_param":{"num_deleted":"0","num_feature":"17","num_nodes":"11","size_leaf_vector":"1"}},{"base_weights":[1.4340694E-3,6.4990294E-1,-9.343081E-3,-7.424839E-3,4.821354E-2,-3.1423828E-1,1.3681705E-2,4.729727E-1,-5.4225105E-1,8.011129E-1,-3.1192244E-3,-3.6924866E-3,4.1947838E-2,-2.2595815E-1,-9.1359824E-1,5.3164758E-2,6.6429726E-3,-4.5548296E-1,1.9362472E-2,-2.8755983E-2,1.9856622E-2,-1.3473056E-2,-5.541888E-2,4.30608E-2,-3.7189405E-2,2.9230392E-2,-9.03451E-4],"categories":[],"categories_nodes":[],"categories_segments":[],"categories_sizes":[],"default_left":[0,0,0,0,0,0,0,0,0,0,0,0,0,0,0,0,0,0,0,0,0,0,0,0,0,0,0],"id":31,"left_children":[1,3,5,-1,-1,7,9,11,13,15,17,-1,-1,19,21,-1,-1,23,25,-1,-1,-1,-1,-1,-1,-1,-1],"loss_changes":[2.0722504E0,1.3598292E0,2.0527818E0,0E0,0E0,3.941556E0,3.6045172E0,1.0916399E0,1.7180886E0,8.559542E-1,2.7300653E0,0E0,0E0,2.4425347E0,6.056986E-1,0E0,0E0,5.4651723E0,5.424233E0,0E0,0E0,0E0,0E0,0E0,0E0,0E0,0E0],"parents":[2147483647,0,0,1,1,2,2,5,5,6,6,7,7,8,8,9,9,10,10,13,13,14,14,17,17,18,18],"right_children":[2,4,6,-1,-1,8,10,12,14,16,18,-1,-1,20,22,-1,-1,24,26,-1,-1,-1,-1,-1,-1,-1,-1],"split_conditions":[1.4561242E1,-2.3106125E-1,1.5303527E1,-7.424839E-3,4.821354E-2,-3.3050776E-1,1.73271E1,2.199781E1,1.5658135E1,2.5524734E1,1.8387634E1,-3.6924866E-3,4.1947838E-2,1.4920123E1,4.3717236E1,5.3164758E-2,6.6429726E-3,1.2248E7,2.279826E1,-2.8755983E-2,1.9856622E-2,-1.3473056E-2,-5.541888E-2,4.30608E-2,-3.7189405E-2,2.9230392E-2,-9.03451E-4],"split_indices":[12,8,13,0,0,8,12,14,6,14,3,0,0,12,5,0,0,4,0,0,0,0,0,0,0,0,0],"split_type":[0,0,0,0,0,0,0,0,0,0,0,0,0,0,0,0,0,0,0,0,0,0,0,0,0,0,0],"sum_hessian":[2.9464783E2,3.8473322E0,2.908005E2,1.2359713E0,2.611361E0,1.9530394E1,2.712701E2,4.1451154E0,1.5385278E1,4.691777E0,2.6657834E2,1.9819977E0,2.1631174E0,9.177162E0,6.208115E0,2.9451308E0,1.7466465E0,1.1709352E1,2.5486899E2,5.9307404E0,3.2464223E0,1.9947792E0,4.213336E0,1.7463851E0,9.962966E0,1.4921679E1,2.3994731E2],"tree_param":{"num_deleted":"0","num_feature":"17","num_nodes":"27","size_leaf_vector":"1"}},{"base_weights":[1.6916379E-3,9.818979E-3,-4.239032E-2,6.231085E-1,-1.5509765E-3,5.5326164E-2,-1.4827147E-2,-3.6289364E-1,1.82046E-2,7.5122136E-1,-6.642704E-1,2.55676E-1,-3.2627825E-2,-4.2215065E-4,5.577701E-2,-4.146936E-2,1.6261663E-2,1.7886944E-2,-4.873227E-2,-1.9488819E-2,6.9424155E-4],"categories":[],"categories_nodes":[],"categories_segments":[],"categories_sizes":[],"default_left":[0,0,0,0,0,0,0,0,0,0,0,0,0,0,0,0,0,0,0,0,0],"id":32,"left_children":[1,3,-1,5,7,-1,-1,9,11,13,15,17,19,-1,-1,-1,-1,-1,-1,-1,-1],"loss_changes":[2.0482106E0,2.048583E0,0E0,2.7054358E0,2.071775E0,0E0,0E0,5.550513E0,3.3310032E0,1.0258133E0,2.2911458E0,6.456996E0,3.7864437E0,0E0,0E0,0E0,0E0,0E0,0E0,0E0,0E0],"parents":[2147483647,0,0,1,1,3,3,4,4,7,7,8,8,9,9,10,10,11,11,12,12],"right_children":[2,4,-1,6,8,-1,-1,10,12,14,16,18,20,-1,-1,-1,-1,-1,-1,-1,-1],"split_conditions":[3.1148744E-1,2.8037895E1,-4.239032E-2,-1.7833357E-1,3.572881E1,5.5326164E-2,-1.4827147E-2,2.4793047E1,4.519237E1,1.4423475E1,3.1890238E1,4.6057E7,-1.5952511E-1,-4.2215065E-4,5.577701E-2,-4.146936E-2,1.6261663E-2,1.7886944E-2,-4.873227E-2,-1.9488819E-2,6.9424155E-4],"split_indices":[16,5,0,16,5,0,0,3,5,0,15,4,10,0,0,0,0,0,0,0,0],"split_type":[0,0,0,0,0,0,0,0,0,0,0,0,0,0,0,0,0,0,0,0,0],"sum_hessian":[2.9445752E2,2.9264615E2,1.8113711E0,4.347385E0,2.8829877E2,2.7163415E0,1.6310436E0,1.4044595E1,2.7425418E2,2.6724775E0,1.1372117E1,4.764474E1,2.2660944E2,1.1828554E0,1.4896221E0,9.88452E0,1.4875977E0,4.4649975E1,2.9947648E0,2.5261143E1,2.013483E2],"tree_param":{"num_deleted":"0","num_feature":"17","num_nodes":"21","size_leaf_vector":"1"}},{"base_weights":[1.5334893E-3,3.9162315E-2,-6.9248998E-3,-4.976379E-2,1.3857493E-3,1.1996062E-1,-5.4905493E-2,-6.668975E-2,4.0022883E-1,-3.2100925E-1,2.16393E-2,-6.018072E-2,8.870608E-4,4.0036995E-2,1.9922901E-3,2.1930864E-2,-2.1055356E-2,-3.440286E-2,2.5442555E-3],"categories":[],"categories_nodes":[],"categories_segments":[],"categories_sizes":[],"default_left":[0,0,0,0,0,0,0,0,0,0,0,0,0,0,0,0,0,0,0],"id":33,"left_children":[1,-1,3,-1,5,7,9,11,13,15,17,-1,-1,-1,-1,-1,-1,-1,-1],"loss_changes":[1.9583851E0,0E0,2.4096293E0,0E0,1.9539254E0,4.9561067E0,4.050518E0,5.5331225E0,5.4257092E0,3.5615273E0,3.254359E0,0E0,0E0,0E0,0E0,0E0,0E0,0E0,0E0],"parents":[2147483647,0,0,2,2,4,4,5,5,6,6,7,7,8,8,9,9,10,10],"right_children":[2,-1,4,-1,6,8,10,12,14,16,18,-1,-1,-1,-1,-1,-1,-1,-1],"split_conditions":[1.3958377E1,3.9162315E-2,1.4304499E1,-4.976379E-2,1.60838E7,1.3227E7,1.97275E7,-1.8868615E-1,1.4878984E-3,-2.3352088E-1,1.788468E1,-6.018072E-2,8.870608E-4,4.0036995E-2,1.9922901E-3,2.1930864E-2,-2.1055356E-2,-3.440286E-2,2.5442555E-3],"split_indices":[2,0,0,0,4,4,4,10,10,10,2,0,0,0,0,0,0,0,0],"split_type":[0,0,0,0,0,0,0,0,0,0,0,0,0,0,0,0,0,0,0],"sum_hessian":[2.943648E2,2.170497E0,2.921943E2,1.4461873E0,2.907481E2,9.3230774E1,1.9751735E2,5.6419254E1,3.6811516E1,4.341025E1,1.5410709E2,2.9838562E0,5.34354E1,1.6856339E1,1.9955177E1,4.660511E0,3.874974E1,5.2076797E0,1.4889941E2],"tree_param":{"num_deleted":"0","num_feature":"17","num_nodes":"19","size_leaf_vector":"1"}},{"base_weights":[1.2597281E-3,9.103793E-3,-4.156099E-2,1.6412683E-2,-4.4808693E-2,6.1122954E-1,2.4821213E-3,8.322758E-1,-5.8887936E-3,1.8107932E-2,-5.381558E-1,5.9541237E-2,-2.051938E-3,1.0100942E-4,4.570472E-2,-4.117121E-2,2.148366E-2],"categories":[],"categories_nodes":[],"categories_segments":[],"categories_sizes":[],"default_left":[0,0,0,0,0,0,0,0,0,0,0,0,0,0,0,0,0],"id":34,"left_children":[1,3,-1,5,-1,7,9,11,-1,13,15,-1,-1,-1,-1,-1,-1],"loss_changes":[1.9355774E0,1.9565825E0,0E0,2.4190094E0,0E0,1.1745827E0,2.4295378E0,1.6928797E0,0E0,4.024935E0,2.5842752E0,0E0,0E0,0E0,0E0,0E0,0E0],"parents":[2147483647,0,0,1,1,3,3,5,5,6,6,7,7,9,9,10,10],"right_children":[2,4,-1,6,-1,8,10,12,-1,14,16,-1,-1,-1,-1,-1,-1],"split_conditions":[3.1148744E-1,7.484944E1,-4.156099E-2,2.1519556E1,-4.4808693E-2,6.831874E1,7.082437E1,5.730828E1,-5.8887936E-3,6.8740944E1,7.411703E1,5.9541237E-2,-2.051938E-3,1.0100942E-4,4.570472E-2,-4.117121E-2,2.148366E-2],"split_indices":[16,0,0,15,0,13,0,5,0,2,1,0,0,0,0,0,0],"split_type":[0,0,0,0,0,0,0,0,0,0,0,0,0,0,0,0,0],"sum_hessian":[2.9425314E2,2.9248627E2,1.7668967E0,2.9111774E2,1.3685116E0,5.6807384E0,2.85437E2,4.2503147E0,1.4304236E0,2.7835825E2,7.0787544E0,2.755461E0,1.4948537E0,2.7443298E2,3.925283E0,5.58251E0,1.4962447E0],"tree_param":{"num_deleted":"0","num_feature":"17","num_nodes":"17","size_leaf_vector":"1"}},{"base_weights":[1.1672932E-3,6.298513E-1,-9.120534E-3,-7.403993E-3,4.7159743E-2,-3.091141E-1,1.3480655E-2,4.424582E-1,-5.2529866E-1,7.795761E-1,-2.8254192E-3,-4.453908E-3,4.02815E-2,1.296422E-1,-6.790531E-1,5.1737785E-2,6.5418924E-3,-4.2964658E-1,1.8347748E-2,-2.0406859E-2,3.5913616E-2,-6.1963987E-2,-1.6810562E-2,4.155489E-2,-3.533073E-2,5.5322673E-2,1.10868195E-5],"categories":[],"categories_nodes":[],"categories_segments":[],"categories_sizes":[],"default_left":[0,0,0,0,0,0,0,0,0,0,0,0,0,0,0,0,0,0,0,0,0,0,0,0,0,0,0],"id":35,"left_children":[1,3,5,-1,-1,7,9,11,13,15,17,-1,-1,19,21,-1,-1,23,25,-1,-1,-1,-1,-1,-1,-1,-1],"loss_changes":[1.9145074E0,1.3013909E0,1.9795967E0,0E0,0E0,3.5557723E0,3.398757E0,1.0585771E0,1.7336874E0,8.032954E-1,2.422863E0,0E0,0E0,1.5425133E0,2.1561756E0,0E0,0E0,5.0117006E0,5.0401125E0,0E0,0E0,0E0,0E0,0E0,0E0,0E0,0E0],"parents":[2147483647,0,0,1,1,2,2,5,5,6,6,7,7,8,8,9,9,10,10,13,13,14,14,17,17,18,18],"right_children":[2,4,6,-1,-1,8,10,12,14,16,18,-1,-1,20,22,-1,-1,24,26,-1,-1,-1,-1,-1,-1,-1,-1],"split_conditions":[1.4561242E1,-2.3106125E-1,1.5303527E1,-7.403993E-3,4.7159743E-2,-3.3050776E-1,1.73271E1,2.199781E1,1.4683067E1,2.5524734E1,1.8387634E1,-4.453908E-3,4.02815E-2,1.4234192E1,1.5470317E1,5.1737785E-2,6.5418924E-3,1.2248E7,1.8971716E1,-2.0406859E-2,3.5913616E-2,-6.1963987E-2,-1.6810562E-2,4.155489E-2,-3.533073E-2,5.5322673E-2,1.10868195E-5],"split_indices":[12,8,13,0,0,8,12,14,3,14,3,0,0,2,3,0,0,4,2,0,0,0,0,0,0,0,0],"split_type":[0,0,0,0,0,0,0,0,0,0,0,0,0,0,0,0,0,0,0,0,0,0,0,0,0,0,0],"sum_hessian":[2.9411813E2,3.7658517E0,2.9035226E2,1.2327503E0,2.5331013E0,1.9454111E1,2.7089816E2,4.1119885E0,1.5342122E1,4.670256E0,2.662279E2,1.9754506E0,2.1365378E0,2.9467611E0,1.2395361E1,2.9247754E0,1.7454807E0,1.1670715E1,2.5455719E2,1.7001324E0,1.2466288E0,3.7131302E0,8.682231E0,1.7417336E0,9.928982E0,3.1871977E0,2.5137E2],"tree_param":{"num_deleted":"0","num_feature":"17","num_nodes":"27","size_leaf_vector":"1"}},{"base_weights":[1.5645713E-3,9.8730914E-2,-6.594201E-2,8.0395037E-1,3.1098397E-2,-5.586869E-1,-8.67803E-3,1.004986E0,-1.988747E-3,-1.6835516E-2,1.064856E0,5.1325243E-2,-8.0900145E-1,1.5502334E-1,-1.3848114E-1,1.289879E0,2.1900456E-1,-4.0523183E-2,5.562401E-2,6.6669516E-2,7.220396E-3,-4.9858397E-1,3.550668E-2,-9.855466E-1,1.6498515E-2,-8.7153815E-2,3.4733593E-1,-4.3567204E-1,6.45643E-2,1.9084023E-2,7.123952E-2,-1.3087585E-2,3.010535E-2,2.0078443E-2,-5.1081083E-3,-5.653655E-2,1.6808866E-2,-1.31522585E-2,-6.3455425E-2,-3.0422613E-2,3.846059E-3,5.062275E-2,6.0283304E-3,3.3315018E-2,-2.642165E-2,4.612651E-2,-2.3001416E-4],"categories":[],"categories_nodes":[],"categories_segments":[],"categories_sizes":[],"default_left":[0,0,0,0,0,0,0,0,0,0,0,0,0,0,0,0,0,0,0,0,0,0,0,0,0,0,0,0,0,0,0,0,0,0,0,0,0,0,0,0,0,0,0,0,0,0,0],"id":36,"left_children":[1,3,5,7,9,11,13,15,-1,17,19,21,23,25,27,29,31,33,-1,-1,-1,35,-1,37,-1,39,41,43,45,-1,-1,-1,-1,-1,-1,-1,-1,-1,-1,-1,-1,-1,-1,-1,-1,-1,-1],"loss_changes":[1.9409811E0,5.7604856E0,4.9222507E0,1.8336501E0,5.554134E0,2.8151412E0,3.367177E0,1.6383E0,0E0,2.927714E0,1.0350351E0,2.6094074E0,2.9269962E0,3.2953594E0,5.3592834E0,2.0254421E-1,7.9975706E-1,2.9434218E0,0E0,0E0,0E0,2.4806647E0,0E0,2.0126858E0,0E0,2.7692394E0,5.801929E0,4.0309E0,3.1705573E0,0E0,0E0,0E0,0E0,0E0,0E0,0E0,0E0,0E0,0E0,0E0,0E0,0E0,0E0,0E0,0E0,0E0,0E0],"parents":[2147483647,0,0,1,1,2,2,3,3,4,4,5,5,6,6,7,7,9,9,10,10,11,11,12,12,13,13,14,14,15,15,16,16,17,17,21,21,23,23,25,25,26,26,27,27,28,28],"right_children":[2,4,6,8,10,12,14,16,-1,18,20,22,24,26,28,30,32,34,-1,-1,-1,36,-1,38,-1,40,42,44,46,-1,-1,-1,-1,-1,-1,-1,-1,-1,-1,-1,-1,-1,-1,-1,-1,-1,-1],"split_conditions":[3.0068687E1,-4.1644174E-1,2.6155334E1,3.24197E7,2.6546991E1,2.7356218E1,-5.598999E-2,3.5428173E1,-1.988747E-3,2.9528606E1,6.010649E1,2.5159527E1,5.13439E7,3.515188E-1,5.676018E-2,1.4693885E1,1.61926E7,4.429744E1,5.562401E-2,6.6669516E-2,7.220396E-3,2.7990929E1,3.550668E-2,1.64199E7,1.6498515E-2,3.0762178E1,1.73772E7,2.9088976E1,6.907829E-2,1.9084023E-2,7.123952E-2,-1.3087585E-2,3.010535E-2,2.0078443E-2,-5.1081083E-3,-5.653655E-2,1.6808866E-2,-1.31522585E-2,-6.3455425E-2,-3.0422613E-2,3.846059E-3,5.062275E-2,6.0283304E-3,3.3315018E-2,-2.642165E-2,4.612651E-2,-2.3001416E-4],"split_indices":[11,8,13,4,13,6,10,14,0,0,5,0,4,9,10,0,4,5,0,0,0,7,0,4,0,11,4,12,10,0,0,0,0,0,0,0,0,0,0,0,0,0,0,0,0,0,0],"split_type":[0,0,0,0,0,0,0,0,0,0,0,0,0,0,0,0,0,0,0,0,0,0,0,0,0,0,0,0,0,0,0,0,0,0,0,0,0,0,0,0,0,0,0,0,0,0,0],"sum_hessian":[2.9391724E2,1.2029982E2,1.736174E2,9.574747E0,1.10725075E2,1.7164452E1,1.5645296E2,7.577997E0,1.9967496E0,1.0675854E2,3.966532E0,5.225342E0,1.193911E1,6.910579E1,8.734716E1,5.091417E0,2.4865804E0,1.0550957E2,1.2489715E0,2.7233746E0,1.2431573E0,2.980616E0,2.2447255E0,1.0453484E1,1.4856261E0,3.0829435E1,3.8276356E1,3.4989094E1,5.235807E1,1.1537443E0,3.9376724E0,1.2432194E0,1.2433611E0,1.223584E1,9.327373E1,1.4943901E0,1.486226E0,3.4896576E0,6.963826E0,6.732041E0,2.4097393E1,8.851129E0,2.9425228E1,2.236551E0,3.2752544E1,2.985511E0,4.937256E1],"tree_param":{"num_deleted":"0","num_feature":"17","num_nodes":"47","size_leaf_vector":"1"}},{"base_weights":[2.4066507E-3,3.6687657E-2,-1.894463E-1,1.1037525E-2,5.987823E-1,6.5532434E-1,-3.4010142E-1,4.719128E-1,-1.6640622E-2,-1.5184212E-2,1.1651886E0,1.1121442E0,-2.4238683E-2,-6.534429E-2,-2.4488883E-1,7.666993E-1,-6.1674446E-1,-1.6139089E-1,6.4754024E-2,5.713264E-1,-6.381383E-1,7.078209E-2,7.438177E-3,4.9142404E-3,6.941416E-2,2.5809977E-2,-5.162679E-1,6.3431635E-2,5.8357655E-3,-5.859101E-2,1.1069956E-2,-4.047795E-3,-3.786178E-2,5.015027E-2,7.702802E-4,6.9784853E-3,3.6526408E-2,8.200414E-3,-5.7791617E-2,-2.3950329E-2,2.0047454E-2,-4.6759727E-4,-6.380894E-2],"categories":[],"categories_nodes":[],"categories_segments":[],"categories_sizes":[],"default_left":[0,0,0,0,0,0,0,0,0,0,0,0,0,0,0,0,0,0,0,0,0,0,0,0,0,0,0,0,0,0,0,0,0,0,0,0,0,0,0,0,0,0,0],"id":37,"left_children":[1,3,5,7,9,11,13,15,17,19,21,23,-1,-1,25,27,29,31,33,35,37,-1,-1,-1,-1,39,41,-1,-1,-1,-1,-1,-1,-1,-1,-1,-1,-1,-1,-1,-1,-1,-1],"loss_changes":[1.9452269E0,3.6103878E0,5.929489E0,3.0813332E0,3.818511E0,4.251501E0,3.2433114E0,4.8643904E0,2.699745E0,2.6414733E0,1.2398887E0,1.3732581E0,0E0,0E0,2.6925595E0,3.5105162E0,1.8738148E0,3.8898265E0,6.7822857E0,1.5493476E-1,1.6406589E0,0E0,0E0,0E0,0E0,3.8301277E0,7.022111E0,0E0,0E0,0E0,0E0,0E0,0E0,0E0,0E0,0E0,0E0,0E0,0E0,0E0,0E0,0E0,0E0],"parents":[2147483647,0,0,1,1,2,2,3,3,4,4,5,5,6,6,7,7,8,8,9,9,10,10,11,11,14,14,15,15,16,16,17,17,18,18,19,19,20,20,25,25,26,26],"right_children":[2,4,6,8,10,12,14,16,18,20,22,24,-1,-1,26,28,30,32,34,36,38,-1,-1,-1,-1,40,42,-1,-1,-1,-1,-1,-1,-1,-1,-1,-1,-1,-1,-1,-1,-1,-1],"split_conditions":[2.1452214E-1,7.471078E1,5.0263657E1,1.1212465E1,1.78478E7,5.1582134E1,1.2280115E1,2.2882156E-1,-3.6116384E-3,1.27776E7,5.2962727E1,2.5607955E-1,-2.4238683E-2,-6.534429E-2,6.3194794E1,2.7634722E1,2.8504885E1,5.3647324E1,4.126367E1,1.8338839E1,4.2904507E1,7.078209E-2,7.438177E-3,4.9142404E-3,6.941416E-2,5.7921333E1,5.0420414E1,6.3431635E-2,5.8357655E-3,-5.859101E-2,1.1069956E-2,-4.047795E-3,-3.786178E-2,5.015027E-2,7.702802E-4,6.9784853E-3,3.6526408E-2,8.200414E-3,-5.7791617E-2,-2.3950329E-2,2.0047454E-2,-4.6759727E-4,-6.380894E-2],"split_indices":[10,5,5,14,4,13,14,9,9,4,2,10,0,0,5,0,0,2,5,13,14,0,0,0,0,5,0,0,0,0,0,0,0,0,0,0,0,0,0,0,0,0,0],"split_type":[0,0,0,0,0,0,0,0,0,0,0,0,0,0,0,0,0,0,0,0,0,0,0,0,0,0,0,0,0,0,0,0,0,0,0,0,0,0,0,0,0,0,0],"sum_hessian":[2.937092E2,2.4987021E2,4.3838974E1,2.3994061E2,9.929603E0,6.1279273E0,3.771105E1,1.2684134E1,2.2725648E2,5.2317467E0,4.6978555E0,4.392456E0,1.7354712E0,2.240019E0,3.547103E1,1.0214099E1,2.4700341E0,8.144099E1,1.4581549E2,2.737381E0,2.4943657E0,3.4540038E0,1.2438519E0,1.2305074E0,3.1619484E0,1.8210787E1,1.7260242E1,5.226375E0,4.987724E0,1.2464418E0,1.2235923E0,7.275537E1,8.685615E0,6.320483E0,1.3949501E2,1.2430104E0,1.4943707E0,1.2463655E0,1.248E0,7.6455107E0,1.0565275E1,1.0960858E1,6.299385E0],"tree_param":{"num_deleted":"0","num_feature":"17","num_nodes":"43","size_leaf_vector":"1"}},{"base_weights":[2.3562748E-3,6.1771756E-1,-7.624912E-3,-7.2250203E-3,4.645102E-2,-2.0713778E-1,2.5034674E-2,-8.1080854E-1,-4.405506E-2,3.0628482E-1,-4.751446E-2,-1.3544774E-1,-1.1346436E0,-1.377073E-1,7.9696184E-1,3.8481688E-1,-2.6548743E-1,-2.3911123E-1,4.0830806E-2,-4.5924716E-2,2.7140597E-2,-6.48454E-2,-1.5189232E-2,-2.8105872E-4,-5.13014E-2,5.2375007E-2,9.592045E-3,2.134728E-3,3.323448E-2,-4.3338265E-2,2.0295586E-2,2.5284845E-2,-1.711933E-2,4.7129788E-2,2.6601067E-4],"categories":[],"categories_nodes":[],"categories_segments":[],"categories_sizes":[],"default_left":[0,0,0,0,0,0,0,0,0,0,0,0,0,0,0,0,0,0,0,0,0,0,0,0,0,0,0,0,0,0,0,0,0,0,0],"id":38,"left_children":[1,3,5,-1,-1,7,9,11,13,15,17,19,21,23,25,27,29,31,33,-1,-1,-1,-1,-1,-1,-1,-1,-1,-1,-1,-1,-1,-1,-1,-1],"loss_changes":[1.8133473E0,1.25237E0,1.8997569E0,0E0,0E0,4.001486E0,5.1309295E0,1.7413363E0,2.7359989E0,2.416977E0,3.3984149E0,2.593133E0,3.7731314E-1,3.614642E0,3.2789564E-1,4.3507557E0,3.1039472E0,5.0440874E0,4.4099345E0,0E0,0E0,0E0,0E0,0E0,0E0,0E0,0E0,0E0,0E0,0E0,0E0,0E0,0E0,0E0,0E0],"parents":[2147483647,0,0,1,1,2,2,5,5,6,6,7,7,8,8,9,9,10,10,11,11,12,12,13,13,14,14,15,15,16,16,17,17,18,18],"right_children":[2,4,6,-1,-1,8,10,12,14,16,18,20,22,24,26,28,30,32,34,-1,-1,-1,-1,-1,-1,-1,-1,-1,-1,-1,-1,-1,-1,-1,-1],"split_conditions":[1.4561242E1,-2.3106125E-1,1.16265E7,-7.2250203E-3,4.645102E-2,1.3837819E1,1.59162E7,7.05E6,3.0427204E1,3.1686483E1,2.08958E7,-4.3525882E-2,3.0326638E-1,3.0122671E1,1.02363E7,2.7190075E1,3.91738E-1,-2.3352088E-1,9.814032E0,-4.5924716E-2,2.7140597E-2,-6.48454E-2,-1.5189232E-2,-2.8105872E-4,-5.13014E-2,5.2375007E-2,9.592045E-3,2.134728E-3,3.323448E-2,-4.3338265E-2,2.0295586E-2,2.5284845E-2,-1.711933E-2,4.7129788E-2,2.6601067E-4],"split_indices":[12,8,4,0,0,14,4,4,3,7,4,9,9,11,4,7,9,10,14,0,0,0,0,0,0,0,0,0,0,0,0,0,0,0,0],"split_type":[0,0,0,0,0,0,0,0,0,0,0,0,0,0,0,0,0,0,0,0,0,0,0,0,0,0,0,0,0,0,0,0,0,0,0],"sum_hessian":[2.9346872E2,3.712253E0,2.8975644E2,1.2318693E0,2.4803839E0,4.0008396E1,2.4974805E2,7.6647215E0,3.2343674E1,5.0552025E1,1.9919603E2,2.9437547E0,4.720967E0,2.9855364E1,2.4883113E0,4.473475E1,5.8172765E0,6.2324543E1,1.3687149E2,1.2019353E0,1.7418195E0,3.4803414E0,1.2406253E0,2.6866814E1,2.9885502E0,1.2427262E0,1.2455851E0,2.0647434E1,2.4087313E1,2.915389E0,2.9018877E0,7.115063E0,5.520948E1,4.2178655E0,1.3265363E2],"tree_param":{"num_deleted":"0","num_feature":"17","num_nodes":"35","size_leaf_vector":"1"}},{"base_weights":[2.3101731E-3,9.26513E-3,-4.3444175E-2,5.892791E-1,-4.1388934E-3,8.092962E-1,-6.3515105E-3,1.0510529E-2,-5.1411235E-1,5.7998266E-2,-1.8321548E-3,-5.040828E-3,8.849854E-1,-7.868219E-1,2.0370143E-2,1.3469665E-3,-1.4867581E-2,5.4770213E-2,7.357567E-3,1.25121595E-2,-6.0649093E-2],"categories":[],"categories_nodes":[],"categories_segments":[],"categories_sizes":[],"default_left":[0,0,0,0,0,0,0,0,0,0,0,0,0,0,0,0,0,0,0,0,0],"id":39,"left_children":[1,3,-1,5,7,9,-1,11,13,-1,-1,15,17,19,-1,-1,-1,-1,-1,-1,-1],"loss_changes":[1.7910763E0,2.2798336E0,0E0,1.146692E0,2.1518207E0,1.5859156E0,0E0,3.81585E0,2.3417346E0,0E0,0E0,2.5914779E0,5.999739E-1,3.1971335E0,0E0,0E0,0E0,0E0,0E0,0E0,0E0],"parents":[2147483647,0,0,1,1,3,3,4,4,5,5,7,7,8,8,11,11,12,12,13,13],"right_children":[2,4,-1,6,8,10,-1,12,14,-1,-1,16,18,20,-1,-1,-1,-1,-1,-1,-1],"split_conditions":[7.484944E1,2.1519556E1,-4.3444175E-2,6.831874E1,7.082437E1,5.730828E1,-6.3515105E-3,6.8740944E1,7.411703E1,5.7998266E-2,-1.8321548E-3,5.5340824E1,2.9349771E1,7.0459145E1,2.0370143E-2,1.3469665E-3,-1.4867581E-2,5.4770213E-2,7.357567E-3,1.25121595E-2,-6.0649093E-2],"split_indices":[0,15,0,13,0,5,0,2,1,0,0,2,14,6,0,0,0,0,0,0,0],"split_type":[0,0,0,0,0,0,0,0,0,0,0,0,0,0,0,0,0,0,0,0,0],"sum_hessian":[2.932717E2,2.919305E2,1.3411894E0,5.6236386E0,2.863069E2,4.2028913E0,1.4207474E0,2.7926416E2,7.0427117E0,2.7087932E0,1.4940981E0,2.7536148E2,3.9026973E0,5.547247E0,1.495465E0,2.4902484E2,2.6336632E1,2.6595993E0,1.2430979E0,1.7358446E0,3.811402E0],"tree_param":{"num_deleted":"0","num_feature":"17","num_nodes":"21","size_leaf_vector":"1"}},{"base_weights":[2.2881646E-3,9.746667E-3,-4.034951E-2,4.8760878E-4,7.177048E-1,1.4832254E-2,-5.006908E-1,4.852127E-2,2.4018171E-3,-1.0041157E-2,4.4708577E-1,3.1679984E-2,-7.9370886E-1,5.445955E-4,-4.357551E-2,3.7113115E-2,-2.5795449E-2,1.0818589E-2,-5.2485395E-2],"categories":[],"categories_nodes":[],"categories_segments":[],"categories_sizes":[],"default_left":[0,0,0,0,0,0,0,0,0,0,0,0,0,0,0,0,0,0,0],"id":40,"left_children":[1,3,-1,5,7,9,11,-1,-1,13,15,-1,17,-1,-1,-1,-1,-1,-1],"loss_changes":[1.783198E0,1.9165095E0,0E0,2.0897963E0,5.921688E-1,3.0424993E0,3.191231E0,0E0,0E0,4.845382E0,4.759568E0,0E0,2.004047E0,0E0,0E0,0E0,0E0,0E0,0E0],"parents":[2147483647,0,0,1,1,3,3,4,4,5,5,6,6,9,9,10,10,12,12],"right_children":[2,4,-1,6,8,10,12,-1,-1,14,16,-1,18,-1,-1,-1,-1,-1,-1],"split_conditions":[3.1148744E-1,2.0807452E-1,-4.034951E-2,6.827064E1,5.1595135E1,6.478354E1,4.301705E1,4.852127E-2,2.4018171E-3,6.202502E1,2.9719885E1,3.1679984E-2,1.1212465E1,5.445955E-4,-4.357551E-2,3.7113115E-2,-2.5795449E-2,1.0818589E-2,-5.2485395E-2],"split_indices":[16,16,0,13,5,2,5,0,0,0,14,0,14,0,0,0,0,0,0],"split_type":[0,0,0,0,0,0,0,0,0,0,0,0,0,0,0,0,0,0,0],"sum_hessian":[2.931238E2,2.9142593E2,1.6978948E0,2.886515E2,2.774451E0,2.8156302E2,7.0884447E0,1.6882305E0,1.0862205E0,2.671661E2,1.4396921E1,1.2165978E0,5.8718467E0,2.617921E2,5.3739996E0,1.1194733E1,3.2021883E0,1.218576E0,4.6532707E0],"tree_param":{"num_deleted":"0","num_feature":"17","num_nodes":"19","size_leaf_vector":"1"}},{"base_weights":[2.0629927E-3,3.482001E-2,-1.8139647E-1,1.0086534E-2,5.771968E-1,6.322337E-1,-3.261191E-1,-3.1965557E-2,2.9350933E-1,-1.5680492E-2,1.1267371E0,1.0722408E0,-2.3130752E-2,-6.348076E-2,-2.3337978E-1,2.3023257E-2,-3.5708588E-1,9.0279305E-1,1.1032871E-2,5.534829E-1,-6.189799E-1,6.848388E-2,7.2634737E-3,4.7112643E-3,6.703128E-2,2.3686185E-2,-4.9212325E-1,-1.7140423E-3,3.1177301E-2,1.6534673E-2,-3.5508826E-2,1.549993E-2,5.9888363E-2,-2.1040311E-2,3.0094532E-2,6.743047E-3,3.5407063E-2,7.864307E-3,-5.5932134E-2,-2.3124414E-2,1.922527E-2,-6.0758914E-4,-6.0978778E-2],"categories":[],"categories_nodes":[],"categories_segments":[],"categories_sizes":[],"default_left":[0,0,0,0,0,0,0,0,0,0,0,0,0,0,0,0,0,0,0,0,0,0,0,0,0,0,0,0,0,0,0,0,0,0,0,0,0,0,0,0,0,0,0],"id":41,"left_children":[1,3,5,7,9,11,13,15,17,19,21,23,-1,-1,25,27,29,31,33,35,37,-1,-1,-1,-1,39,41,-1,-1,-1,-1,-1,-1,-1,-1,-1,-1,-1,-1,-1,-1,-1,-1],"loss_changes":[1.7727988E0,3.3512518E0,5.468919E0,2.874045E0,3.567831E0,3.9113863E0,3.0815406E0,3.766198E0,5.3516397E0,2.481075E0,1.1526413E0,1.2802238E0,0E0,0E0,2.4310796E0,6.240796E0,7.63433E0,1.3520288E0,5.942456E0,1.4615393E-1,1.5316786E0,0E0,0E0,0E0,0E0,3.5460033E0,6.3307652E0,0E0,0E0,0E0,0E0,0E0,0E0,0E0,0E0,0E0,0E0,0E0,0E0,0E0,0E0,0E0,0E0],"parents":[2147483647,0,0,1,1,2,2,3,3,4,4,5,5,6,6,7,7,8,8,9,9,10,10,11,11,14,14,15,15,16,16,17,17,18,18,19,19,20,20,25,25,26,26],"right_children":[2,4,6,8,10,12,14,16,18,20,22,24,-1,-1,26,28,30,32,34,36,38,-1,-1,-1,-1,40,42,-1,-1,-1,-1,-1,-1,-1,-1,-1,-1,-1,-1,-1,-1,-1,-1],"split_conditions":[2.1452214E-1,7.471078E1,5.0263657E1,1.2875207E-1,1.78478E7,5.1582134E1,1.2280115E1,7.410246E-1,2.626222E-1,1.27776E7,5.2962727E1,2.5607955E-1,-2.3130752E-2,-6.348076E-2,6.3194794E1,6.7043805E-1,2.9719885E1,-3.325509E-2,3.1467981E1,1.8338839E1,4.2904507E1,6.848388E-2,7.2634737E-3,4.7112643E-3,6.703128E-2,5.7921333E1,5.0420414E1,-1.7140423E-3,3.1177301E-2,1.6534673E-2,-3.5508826E-2,1.549993E-2,5.9888363E-2,-2.1040311E-2,3.0094532E-2,6.743047E-3,3.5407063E-2,7.864307E-3,-5.5932134E-2,-2.3124414E-2,1.922527E-2,-6.0758914E-4,-6.0978778E-2],"split_indices":[10,5,5,10,4,13,14,8,8,4,2,10,0,0,5,9,14,8,2,13,14,0,0,0,0,5,0,0,0,0,0,0,0,0,0,0,0,0,0,0,0,0,0],"split_type":[0,0,0,0,0,0,0,0,0,0,0,0,0,0,0,0,0,0,0,0,0,0,0,0,0,0,0,0,0,0,0,0,0,0,0,0,0,0,0,0,0,0,0],"sum_hessian":[2.9294418E2,2.4925029E2,4.3693886E1,2.3935387E2,9.896423E0,6.089597E0,3.7604286E1,2.092014E2,3.0152473E1,5.2278113E0,4.668612E0,4.3585825E0,1.731015E0,2.2297246E0,3.537456E1,1.7973187E2,2.9469534E1,8.855574E0,2.12969E1,2.732498E0,2.4953136E0,3.425232E0,1.2433802E0,1.2294499E0,3.1291325E0,1.820051E1,1.7174053E1,1.6493597E2,1.4795886E1,1.0018364E1,1.945117E1,3.6238477E0,5.2317257E0,1.247045E1,8.826449E0,1.2421895E0,1.4903083E0,1.2455177E0,1.2497959E0,7.63338E0,1.0567129E1,1.0959622E1,6.2144313E0],"tree_param":{"num_deleted":"0","num_feature":"17","num_nodes":"43","size_leaf_vector":"1"}},{"base_weights":[2.2554086E-3,3.7335824E-2,-5.69379E-3,-4.749095E-2,2.1867647E-3,1.0476418E-2,-3.5262033E-2,5.2942755E-4,4.7528815E-2,4.6492481E-4,-3.99705E-2],"categories":[],"categories_nodes":[],"categories_segments":[],"categories_sizes":[],"default_left":[0,0,0,0,0,0,0,0,0,0,0],"id":42,"left_children":[1,-1,3,-1,5,7,-1,9,-1,-1,-1],"loss_changes":[1.7423477E0,0E0,2.1715927E0,0E0,1.7090786E0,2.6907709E0,0E0,2.0121586E0,0E0,0E0,0E0],"parents":[2147483647,0,0,2,2,4,4,5,5,7,7],"right_children":[2,-1,4,-1,6,8,-1,10,-1,-1,-1],"split_conditions":[1.3958377E1,3.7335824E-2,1.4304499E1,-4.749095E-2,2.8806925E-1,2.0807452E-1,-3.5262033E-2,1.6908689E-1,4.7528815E-2,4.6492481E-4,-3.99705E-2],"split_indices":[2,0,0,0,16,16,0,16,0,0,0],"split_type":[0,0,0,0,0,0,0,0,0,0,0],"sum_hessian":[2.9270306E2,2.1105344E0,2.9059253E2,1.4160545E0,2.8917648E2,2.8680093E2,2.37555E0,2.847882E2,2.0127184E0,2.8267783E2,2.1103854E0],"tree_param":{"num_deleted":"0","num_feature":"17","num_nodes":"11","size_leaf_vector":"1"}},{"base_weights":[2.0161492E-3,8.722784E-3,-4.2308852E-2,5.455517E-1,-3.5217942E-3,4.4067454E-2,5.1673505E-2,3.522198E-1,-2.1880543E-2,-3.3122797E-2,3.365382E-2,6.286488E-1,-3.8633745E-2,-6.965279E-3,-8.133009E-1,4.9717784E-2,5.034421E-3,-1.3561446E-3,2.1116622E-2,-6.2152643E-2,1.4646667E-2],"categories":[],"categories_nodes":[],"categories_segments":[],"categories_sizes":[],"default_left":[0,0,0,0,0,0,0,0,0,0,0,0,0,0,0,0,0,0,0,0,0],"id":43,"left_children":[1,3,-1,5,7,-1,9,11,13,-1,-1,15,-1,17,19,-1,-1,-1,-1,-1,-1],"loss_changes":[1.677324E0,1.9229543E0,0E0,1.0363718E0,1.8803102E0,0E0,2.0889795E0,4.879337E0,3.2239437E0,0E0,0E0,2.1962824E0,0E0,2.3439941E0,2.7660031E0,0E0,0E0,0E0,0E0,0E0,0E0],"parents":[2147483647,0,0,1,1,3,3,4,4,6,6,7,7,8,8,11,11,13,13,14,14],"right_children":[2,4,-1,6,8,-1,10,12,14,-1,-1,16,-1,18,20,-1,-1,-1,-1,-1,-1],"split_conditions":[7.484944E1,2.1519556E1,-4.2308852E-2,7.183634E1,1.1212465E1,4.4067454E-2,7.36698E1,2.2882156E-1,7.071132E1,-3.3122797E-2,3.365382E-2,2.7634722E1,-3.8633745E-2,6.478354E1,2.71523E7,4.9717784E-2,5.034421E-3,-1.3561446E-3,2.1116622E-2,-6.2152643E-2,1.4646667E-2],"split_indices":[0,15,0,2,14,0,0,9,2,0,0,0,0,2,4,0,0,0,0,0,0],"split_type":[0,0,0,0,0,0,0,0,0,0,0,0,0,0,0,0,0,0,0,0,0],"sum_hessian":[2.925636E2,2.912504E2,1.3131909E0,5.5237255E0,2.8572668E2,2.8210747E0,2.7026505E0,1.3129428E1,2.7259726E2,1.2267632E0,1.4758874E0,1.0893607E1,2.235821E0,2.68545E2,4.052251E0,5.913831E0,4.9797754E0,2.5739584E2,1.1149164E1,2.8294005E0,1.2228503E0],"tree_param":{"num_deleted":"0","num_feature":"17","num_nodes":"21","size_leaf_vector":"1"}},{"base_weights":[1.8847646E-3,5.980598E-1,-7.6235514E-3,-6.965641E-3,4.530464E-2,-2.9518816E-1,1.4032523E-2,3.985245E-1,-5.08954E-1,7.621517E-1,-1.9200027E-3,-4.973952E-2,5.242435E-2,-1.6055784E-1,-1.0358822E0,5.0435882E-2,6.6977264E-3,-4.1091943E-1,1.8396262E-2,2.438101E-2,-3.657085E-2,1.114739E-2,-3.2895904E-2,-7.1476274E-3,-6.159013E-2,4.0164012E-2,-3.3910625E-2,2.7402623E-2,-8.361046E-4],"categories":[],"categories_nodes":[],"categories_segments":[],"categories_sizes":[],"default_left":[0,0,0,0,0,0,0,0,0,0,0,0,0,0,0,0,0,0,0,0,0,0,0,0,0,0,0,0,0],"id":44,"left_children":[1,3,5,-1,-1,7,9,11,13,15,17,19,-1,21,23,-1,-1,25,27,-1,-1,-1,-1,-1,-1,-1,-1,-1,-1],"loss_changes":[1.6679305E0,1.1753838E0,1.8089763E0,0E0,0E0,3.2194538E0,3.2293983E0,1.6116902E0,2.769072E0,7.3994637E-1,2.2163804E0,1.8667874E0,0E0,2.2083826E0,9.051986E-1,0E0,0E0,4.6413193E0,4.737479E0,0E0,0E0,0E0,0E0,0E0,0E0,0E0,0E0,0E0,0E0],"parents":[2147483647,0,0,1,1,2,2,5,5,6,6,7,7,8,8,9,9,10,10,11,11,13,13,14,14,17,17,18,18],"right_children":[2,4,6,-1,-1,8,10,12,14,16,18,20,-1,22,24,-1,-1,26,28,-1,-1,-1,-1,-1,-1,-1,-1,-1,-1],"split_conditions":[1.4561242E1,-2.3106125E-1,1.5303527E1,-6.965641E-3,4.530464E-2,-5.7692073E-2,1.73271E1,-7.478148E-2,1.5606919E1,2.5524734E1,1.8387634E1,-1.202575E-1,5.242435E-2,7.302621E-2,1.5786321E1,5.0435882E-2,6.6977264E-3,1.2248E7,2.279826E1,2.438101E-2,-3.657085E-2,1.114739E-2,-3.2895904E-2,-7.1476274E-3,-6.159013E-2,4.0164012E-2,-3.3910625E-2,2.7402623E-2,-8.361046E-4],"split_indices":[12,8,13,0,0,10,12,10,6,14,3,10,0,10,1,0,0,4,0,0,0,0,0,0,0,0,0,0,0],"split_type":[0,0,0,0,0,0,0,0,0,0,0,0,0,0,0,0,0,0,0,0,0,0,0,0,0,0,0,0,0],"sum_hessian":[2.924349E2,3.6190727E0,2.8881583E2,1.2277665E0,2.3913062E0,1.9342447E1,2.694734E2,4.352715E0,1.4989733E1,4.6495395E0,2.6482385E2,3.1226022E0,1.230113E0,9.808935E0,5.180798E0,2.9039943E0,1.7455454E0,1.1622282E1,2.5320155E2,1.9053273E0,1.2172748E0,5.8499107E0,3.9590242E0,1.2434189E0,3.937379E0,1.73512E0,9.887162E0,1.4836165E1,2.3836539E2],"tree_param":{"num_deleted":"0","num_feature":"17","num_nodes":"29","size_leaf_vector":"1"}},{"base_weights":[2.0621207E-3,3.338312E-2,-1.7353736E-1,9.848828E-3,5.5074346E-1,6.1100614E-1,-3.1265104E-1,-3.004055E-2,2.791279E-1,-2.4537474E-2,1.0881152E0,1.038866E0,-2.2369606E-2,-6.1645575E-2,-2.2251755E-1,-1.3632744E-2,-5.3509153E-2,8.655021E-1,8.892626E-3,5.248753E-1,-6.028209E-1,6.61848E-2,7.1116313E-3,4.629886E-3,6.502616E-2,-5.650507E-2,-6.0740066E-1,-1.6295726E-3,5.5176735E-2,5.655078E-2,1.3290606E-2,-2.4311734E-2,2.4996713E-2,3.4317788E-2,5.5396007E-3,7.540898E-3,-5.4344174E-2,-7.7426294E-3,4.325503E-2,-6.666247E-2,2.6392029E-3],"categories":[],"categories_nodes":[],"categories_segments":[],"categories_sizes":[],"default_left":[0,0,0,0,0,0,0,0,0,0,0,0,0,0,0,0,0,0,0,0,0,0,0,0,0,0,0,0,0,0,0,0,0,0,0,0,0,0,0,0,0],"id":45,"left_children":[1,3,5,7,9,11,13,15,17,19,21,23,-1,-1,25,27,-1,29,31,33,35,-1,-1,-1,-1,37,39,-1,-1,-1,-1,-1,-1,-1,-1,-1,-1,-1,-1,-1,-1],"loss_changes":[1.6185235E0,3.034608E0,5.0528383E0,2.5845397E0,3.3794303E0,3.6562946E0,2.9189656E0,3.5658457E0,4.91103E0,2.2912886E0,1.066155E0,1.1967535E0,0E0,0E0,2.2840889E0,4.4318557E0,0E0,1.2569323E0,5.654839E0,1.7283809E-1,1.4384915E0,0E0,0E0,0E0,0E0,2.5315726E0,5.260889E0,0E0,0E0,0E0,0E0,0E0,0E0,0E0,0E0,0E0,0E0,0E0,0E0,0E0,0E0],"parents":[2147483647,0,0,1,1,2,2,3,3,4,4,5,5,6,6,7,7,8,8,9,9,10,10,11,11,14,14,15,15,17,17,18,18,19,19,20,20,25,25,26,26],"right_children":[2,4,6,8,10,12,14,16,18,20,22,24,-1,-1,26,28,-1,30,32,34,36,-1,-1,-1,-1,38,40,-1,-1,-1,-1,-1,-1,-1,-1,-1,-1,-1,-1,-1,-1],"split_conditions":[2.1452214E-1,7.471078E1,5.0263657E1,1.2875207E-1,1.78478E7,5.1582134E1,1.2280115E1,7.244824E1,2.626222E-1,1.27776E7,5.2962727E1,2.5607955E-1,-2.2369606E-2,-6.1645575E-2,5.6008423E1,7.045108E1,-5.3509153E-2,5.47099E1,4.886456E-1,7.876663E1,4.2904507E1,6.61848E-2,7.1116313E-3,4.629886E-3,6.502616E-2,4.452704E1,5.985054E1,-1.6295726E-3,5.5176735E-2,5.655078E-2,1.3290606E-2,-2.4311734E-2,2.4996713E-2,3.4317788E-2,5.5396007E-3,7.540898E-3,-5.4344174E-2,-7.7426294E-3,4.325503E-2,-6.666247E-2,2.6392029E-3],"split_indices":[10,5,5,10,4,13,14,5,8,4,2,10,0,0,3,5,0,5,9,5,14,0,0,0,0,13,6,0,0,0,0,0,0,0,0,0,0,0,0,0,0],"split_type":[0,0,0,0,0,0,0,0,0,0,0,0,0,0,0,0,0,0,0,0,0,0,0,0,0,0,0,0,0,0,0,0,0,0,0,0,0,0,0,0,0],"sum_hessian":[2.922263E2,2.4868008E2,4.3546215E1,2.3883473E2,9.845357E0,6.0476785E0,3.7498535E1,2.0879372E2,3.0041004E1,5.2158694E0,4.6294875E0,4.3198314E0,1.7278471E0,2.2140827E0,3.5284454E1,2.0654861E2,2.24511E0,8.782148E0,2.1258856E1,2.7220619E0,2.4938073E0,3.3865955E0,1.2428919E0,1.2290242E0,3.0908074E0,2.5452696E1,9.831757E0,2.0405653E2,2.4920812E0,5.47298E0,3.3091683E0,1.0590265E1,1.0668591E1,1.4853052E0,1.2367568E0,1.2445678E0,1.2492396E0,2.375021E1,1.7024862E0,4.1973815E0,5.6343756E0],"tree_param":{"num_deleted":"0","num_feature":"17","num_nodes":"41","size_leaf_vector":"1"}},{"base_weights":[2.2860088E-3,1.0217026E-2,-3.4536254E-2,8.4215275E-4,4.6190422E-2,1.4564313E-2,-4.831149E-1,-8.410992E-3,4.1510192E-1,3.021293E-2,-7.667703E-1,9.2815515E-4,-3.0566424E-2,3.465345E-2,-2.4462791E-2,1.0104834E-2,-5.0711345E-2],"categories":[],"categories_nodes":[],"categories_segments":[],"categories_sizes":[],"default_left":[0,0,0,0,0,0,0,0,0,0,0,0,0,0,0,0,0],"id":46,"left_children":[1,3,-1,5,-1,7,9,11,13,-1,15,-1,-1,-1,-1,-1,-1],"loss_changes":[1.617452E0,2.4887302E0,0E0,1.9243795E0,0E0,2.5960674E0,2.9277034E0,4.360484E0,4.1860623E0,0E0,1.8299005E0,0E0,0E0,0E0,0E0,0E0,0E0],"parents":[2147483647,0,0,1,1,3,3,5,5,6,6,7,7,8,8,10,10],"right_children":[2,4,-1,6,-1,8,10,12,14,-1,16,-1,-1,-1,-1,-1,-1],"split_conditions":[2.8806925E-1,2.0807452E-1,-3.4536254E-2,6.827064E1,4.6190422E-2,6.478354E1,4.301705E1,5.8355114E1,2.9719885E1,3.021293E-2,1.1212465E1,9.2815515E-4,-3.0566424E-2,3.465345E-2,-2.4462791E-2,1.0104834E-2,-5.0711345E-2],"split_indices":[16,16,0,13,0,2,5,2,14,0,14,0,0,0,0,0,0],"split_type":[0,0,0,0,0,0,0,0,0,0,0,0,0,0,0,0,0],"sum_hessian":[2.9199707E2,2.896673E2,2.3297784E0,2.877158E2,1.9514912E0,2.8072598E2,6.9898233E0,2.6642267E2,1.4303315E1,1.2122996E0,5.7775235E0,2.5594125E2,1.0481416E1,1.1119281E1,3.1840343E0,1.2127092E0,4.5648146E0],"tree_param":{"num_deleted":"0","num_feature":"17","num_nodes":"17","size_leaf_vector":"1"}},{"base_weights":[2.107087E-3,5.415596E-1,-8.1259925E-3,5.3452093E-2,-1.7664758E-2,-3.6436763E-1,1.2144887E-2,7.1228725E-1,-6.391757E-1,2.310884E-1,-3.487409E-2,-2.043424E-3,5.4039717E-2,-1.2644772E-1,-8.963142E-1,3.2753146E-1,-4.6480443E-2,-3.856006E-1,1.0694913E-2,-3.1423964E-2,3.702799E-2,-5.4840017E-2,2.8940137E-3,-1.8776573E-2,2.2247339E-2,4.917602E-3,-4.437585E-2,-1.4439679E-2,3.7526998E-3],"categories":[],"categories_nodes":[],"categories_segments":[],"categories_sizes":[],"default_left":[0,0,0,0,0,0,0,0,0,0,0,0,0,0,0,0,0,0,0,0,0,0,0,0,0,0,0,0,0],"id":47,"left_children":[1,3,5,-1,-1,7,9,11,13,15,17,-1,-1,19,21,23,-1,25,27,-1,-1,-1,-1,-1,-1,-1,-1,-1,-1],"loss_changes":[1.6206475E0,2.9574327E0,2.0864737E0,0E0,0E0,5.0575695E0,2.8263254E0,1.0532926E0,1.5899348E0,5.736912E0,3.6198688E0,0E0,0E0,2.8503537E0,1.6780348E0,3.9269156E0,0E0,6.4127846E0,3.899645E0,0E0,0E0,0E0,0E0,0E0,0E0,0E0,0E0,0E0,0E0],"parents":[2147483647,0,0,1,1,2,2,5,5,6,6,7,7,8,8,9,9,10,10,13,13,14,14,15,15,17,17,18,18],"right_children":[2,4,6,-1,-1,8,10,12,14,16,18,-1,-1,20,22,24,-1,26,28,-1,-1,-1,-1,-1,-1,-1,-1,-1,-1],"split_conditions":[2.8037895E1,-1.7833357E-1,3.572881E1,5.3452093E-2,-1.7664758E-2,2.5211926E1,4.519237E1,1.4423475E1,3.042981E1,4.6057E7,-1.5952511E-1,-2.043424E-3,5.4039717E-2,2.61983E7,3.2256145E1,1.3102371E1,-4.6480443E-2,-2.3109965E-1,-2.6749356E-2,-3.1423964E-2,3.702799E-2,-5.4840017E-2,2.8940137E-3,-1.8776573E-2,2.2247339E-2,4.917602E-3,-4.437585E-2,-1.4439679E-2,3.7526998E-3],"split_indices":[5,16,5,0,0,1,5,0,5,4,10,0,0,4,15,14,0,10,8,0,0,0,0,0,0,0,0,0,0],"split_type":[0,0,0,0,0,0,0,0,0,0,0,0,0,0,0,0,0,0,0,0,0,0,0,0,0,0,0,0,0],"sum_hessian":[2.9178455E2,4.4653306E0,2.873192E2,2.6868703E0,1.77846E0,1.4554937E1,2.7276428E2,2.6359105E0,1.1919027E1,4.752936E1,2.2523491E2,1.1580936E0,1.4778169E0,4.479253E0,7.439774E0,4.4545837E1,2.9835265E0,2.5041159E1,2.0019376E2,3.0109253E0,1.4683278E0,6.0245104E0,1.4152641E0,6.06018E0,3.8485657E1,1.3158069E1,1.1883089E1,3.4794384E1,1.6539937E2],"tree_param":{"num_deleted":"0","num_feature":"17","num_nodes":"29","size_leaf_vector":"1"}},{"base_weights":[1.824453E-3,8.3025545E-3,-4.1250765E-2,5.143905E-1,-3.1254264E-3,4.248418E-2,3.3906482E-2,8.795998E-2,-6.911795E-2,-3.277879E-2,3.205755E-2,7.7126086E-1,2.2709267E-2,-5.3317285E-1,-1.2477394E-2,4.813392E-2,-1.4302477E-3,-1.17443E-3,5.1050026E-2,2.5381001E-3,-3.8645342E-2,4.3236323E-2,-1.7358372E-3],"categories":[],"categories_nodes":[],"categories_segments":[],"categories_sizes":[],"default_left":[0,0,0,0,0,0,0,0,0,0,0,0,0,0,0,0,0,0,0,0,0,0,0],"id":48,"left_children":[1,3,-1,5,7,-1,9,11,13,-1,-1,15,17,19,21,-1,-1,-1,-1,-1,-1,-1,-1],"loss_changes":[1.5743695E0,1.686718E0,0E0,1.0086939E0,1.7247438E0,0E0,1.9646289E0,5.3579035E0,4.365973E0,0E0,0E0,1.6319714E0,5.1470656E0,2.56916E0,2.9423652E0,0E0,0E0,0E0,0E0,0E0,0E0,0E0,0E0],"parents":[2147483647,0,0,1,1,3,3,4,4,6,6,7,7,8,8,11,11,12,12,13,13,14,14],"right_children":[2,4,-1,6,8,-1,10,12,14,-1,-1,16,18,20,22,-1,-1,-1,-1,-1,-1,-1,-1],"split_conditions":[7.484944E1,2.1519556E1,-4.1250765E-2,7.183634E1,3.0068687E1,4.248418E-2,7.36698E1,-4.1644174E-1,2.6155334E1,-3.277879E-2,3.205755E-2,3.24197E7,2.6546991E1,2.7356218E1,2.649572E1,4.813392E-2,-1.4302477E-3,-1.17443E-3,5.1050026E-2,2.5381001E-3,-3.8645342E-2,4.3236323E-2,-1.7358372E-3],"split_indices":[0,15,0,2,11,0,0,8,13,0,0,4,13,6,13,0,0,0,0,0,0,0,0],"split_type":[0,0,0,0,0,0,0,0,0,0,0,0,0,0,0,0,0,0,0,0,0,0,0],"sum_hessian":[2.9164694E2,2.9036197E2,1.2849611E0,5.4400034E0,2.8492197E2,2.75153E0,2.6884732E0,1.1956328E2,1.6535869E2,1.221714E0,1.4667592E0,9.479077E0,1.100842E2,1.7072313E1,1.4828638E2,7.484417E0,1.9946607E0,1.06148445E2,3.9357545E0,5.1984315E0,1.1873881E1,2.729806E0,1.4555656E2],"tree_param":{"num_deleted":"0","num_feature":"17","num_nodes":"23","size_leaf_vector":"1"}},{"base_weights":[2.0923042E-3,5.8569986E-1,-7.1230237E-3,-6.7278147E-3,4.4558104E-2,-2.010655E-1,2.4692172E-2,-7.7736723E-1,-4.5299962E-2,2.8337994E-1,-4.5968834E-2,-1.335365E-1,-1.0834937E0,-1.3708396E-1,7.7790153E-1,1.666234E-2,4.6660906E-1,-2.8394073E-1,2.2420904E-2,-4.4145588E-2,2.5578393E-2,-6.1962612E-2,-1.4513249E-2,-4.885427E-4,-4.941405E-2,5.159671E-2,8.8747805E-3,3.000894E-2,-1.7377757E-2,3.9974958E-2,1.8585644E-3,-1.823673E-2,2.5904303E-2,-3.1526458E-2,2.4681098E-3],"categories":[],"categories_nodes":[],"categories_segments":[],"categories_sizes":[],"default_left":[0,0,0,0,0,0,0,0,0,0,0,0,0,0,0,0,0,0,0,0,0,0,0,0,0,0,0,0,0,0,0,0,0,0,0],"id":49,"left_children":[1,3,5,-1,-1,7,9,11,13,15,17,19,21,23,25,27,29,31,33,-1,-1,-1,-1,-1,-1,-1,-1,-1,-1,-1,-1,-1,-1,-1,-1],"loss_changes":[1.5771065E0,1.1228067E0,1.7876313E0,0E0,0E0,3.629507E0,4.566097E0,1.5551534E0,2.615111E0,2.6107183E0,3.2044575E0,2.3466234E0,3.4511375E-1,3.3193932E0,3.476405E-1,5.066156E0,4.5054164E0,3.0361905E0,2.7325497E0,0E0,0E0,0E0,0E0,0E0,0E0,0E0,0E0,0E0,0E0,0E0,0E0,0E0,0E0,0E0,0E0],"parents":[2147483647,0,0,1,1,2,2,5,5,6,6,7,7,8,8,9,9,10,10,11,11,12,12,13,13,14,14,15,15,16,16,17,17,18,18],"right_children":[2,4,6,-1,-1,8,10,12,14,16,18,20,22,24,26,28,30,32,34,-1,-1,-1,-1,-1,-1,-1,-1,-1,-1,-1,-1,-1,-1,-1,-1],"split_conditions":[1.4561242E1,-2.3106125E-1,1.16265E7,-6.7278147E-3,4.4558104E-2,1.3837819E1,1.60838E7,7.05E6,2.92611E1,2.7190075E1,1.97275E7,-4.3525882E-2,2.9628418E1,3.0122671E1,3.037582E1,2.3312054E1,2.971629E1,1.2691268E0,1.788468E1,-4.4145588E-2,2.5578393E-2,-6.1962612E-2,-1.4513249E-2,-4.885427E-4,-4.941405E-2,5.159671E-2,8.8747805E-3,3.000894E-2,-1.7377757E-2,3.9974958E-2,1.8585644E-3,-1.823673E-2,2.5904303E-2,-3.1526458E-2,2.4681098E-3],"split_indices":[12,8,4,0,0,14,4,4,7,7,4,9,12,11,7,0,2,8,2,0,0,0,0,0,0,0,0,0,0,0,0,0,0,0,0],"split_type":[0,0,0,0,0,0,0,0,0,0,0,0,0,0,0,0,0,0,0,0,0,0,0,0,0,0,0,0,0,0,0,0,0,0,0],"sum_hessian":[2.9146838E2,3.5583854E0,2.8790997E2,1.2263193E0,2.332066E0,3.9824394E1,2.4808559E2,7.6245265E0,3.2199867E1,5.2580303E1,1.955053E2,2.9198499E0,4.7046766E0,2.9719704E1,2.4801652E0,2.1856216E1,3.0724085E1,4.2939465E1,1.5256583E2,1.1802256E0,1.7396243E0,3.4624927E0,1.242184E0,2.6732775E1,2.9869285E0,1.2377456E0,1.2424196E0,8.150446E0,1.37057705E1,1.6822186E1,1.3901899E1,3.950507E1,3.434393E0,5.1577835E0,1.4740804E2],"tree_param":{"num_deleted":"0","num_feature":"17","num_nodes":"35","size_leaf_vector":"1"}},{"base_weights":[1.9485677E-3,3.231198E-2,-1.6850932E-1,-1.4391702E-1,9.644218E-2,5.8639777E-1,-3.0169478E-1,7.648177E-2,-3.5714558E-1,5.4079854E-1,3.194762E-2,1.0036154E0,-2.1792583E-2,-5.9922762E-2,-2.1409957E-1,4.83681E-1,-2.722089E-1,2.5623903E-1,-5.16629E-1,-2.683458E-1,7.5307107E-1,3.059089E-3,5.3915393E-2,4.0065055E-3,6.316126E-2,-5.0478917E-2,-5.961881E-1,3.0656843E-2,-2.3033757E-2,6.53058E-3,-4.5605365E-2,5.1922947E-2,-6.2406864E-3,7.816208E-3,-3.1841617E-2,2.0718861E-2,-4.073305E-2,1.9403705E-2,5.8730375E-2,-1.9783318E-2,3.861035E-3,-7.281989E-3,4.2069804E-2,-6.453664E-2,1.5090097E-3],"categories":[],"categories_nodes":[],"categories_segments":[],"categories_sizes":[],"default_left":[0,0,0,0,0,0,0,0,0,0,0,0,0,0,0,0,0,0,0,0,0,0,0,0,0,0,0,0,0,0,0,0,0,0,0,0,0,0,0,0,0,0,0,0,0],"id":50,"left_children":[1,3,5,7,9,11,13,15,17,19,21,23,-1,-1,25,27,29,31,33,35,37,39,-1,-1,-1,41,43,-1,-1,-1,-1,-1,-1,-1,-1,-1,-1,-1,-1,-1,-1,-1,-1,-1,-1],"loss_changes":[1.5181011E0,2.8269875E0,4.635961E0,3.1672363E0,5.230073E0,3.418992E0,2.7565882E0,4.913482E0,3.4716778E0,4.1773047E0,4.8620086E0,1.1615992E0,0E0,0E0,2.2307334E0,2.225745E0,4.9605284E0,2.428431E0,2.3178391E0,2.4065592E0,2.4054937E0,4.691786E0,0E0,0E0,0E0,2.3642342E0,4.715781E0,0E0,0E0,0E0,0E0,0E0,0E0,0E0,0E0,0E0,0E0,0E0,0E0,0E0,0E0,0E0,0E0,0E0,0E0],"parents":[2147483647,0,0,1,1,2,2,3,3,4,4,5,5,6,6,7,7,8,8,9,9,10,10,11,11,14,14,15,15,16,16,17,17,18,18,19,19,20,20,21,21,25,25,26,26],"right_children":[2,4,6,8,10,12,14,16,18,20,22,24,-1,-1,26,28,30,32,34,36,38,40,-1,-1,-1,42,44,-1,-1,-1,-1,-1,-1,-1,-1,-1,-1,-1,-1,-1,-1,-1,-1,-1,-1],"split_conditions":[2.1452214E-1,-1.0503696E-1,5.0263657E1,3.065479E1,4.5668804E1,5.1582134E1,1.2280115E1,-3.3050776E-1,3.042981E1,1.3102371E1,4.85942E7,2.5607955E-1,-2.1792583E-2,-5.9922762E-2,5.6008423E1,2.8355328E1,2.0628656E1,-2.3947825E0,2.7286179E1,-1.7103556E-1,4.25001E1,-1.5952511E-1,5.3915393E-2,4.0065055E-3,6.316126E-2,4.452704E1,5.985054E1,3.0656843E-2,-2.3033757E-2,6.53058E-3,-4.5605365E-2,5.1922947E-2,-6.2406864E-3,7.816208E-3,-3.1841617E-2,2.0718861E-2,-4.073305E-2,1.9403705E-2,5.8730375E-2,-1.9783318E-2,3.861035E-3,-7.281989E-3,4.2069804E-2,-6.453664E-2,1.5090097E-3],"split_indices":[10,9,5,11,5,13,14,8,5,14,4,10,0,0,3,0,14,9,6,10,5,10,0,0,0,13,6,0,0,0,0,0,0,0,0,0,0,0,0,0,0,0,0,0,0],"split_type":[0,0,0,0,0,0,0,0,0,0,0,0,0,0,0,0,0,0,0,0,0,0,0,0,0,0,0,0,0,0,0,0,0,0,0,0,0,0,0,0,0,0,0,0,0],"sum_hessian":[2.9126215E2,2.4791234E2,4.3349815E1,6.58135E1,1.8209883E2,5.990764E0,3.735905E1,3.2677975E1,3.3135525E1,2.2144165E1,1.5995467E2,4.2673354E0,1.7234285E0,2.1959686E0,3.5163082E1,1.4895707E1,1.7782269E1,6.7124157E0,2.6423107E1,4.547138E0,1.7597027E1,1.5663318E2,3.3214977E0,1.2235552E0,3.0437803E0,2.5412764E1,9.7503195E0,1.3408374E1,1.4873337E0,1.140109E1,6.3811784E0,1.6336483E0,5.0787673E0,3.9588952E0,2.2464212E1,2.128582E0,2.4185562E0,1.046033E1,7.136697E0,2.3884483E1,1.3274869E2,2.3718737E1,1.6940268E0,4.1205797E0,5.6297398E0],"tree_param":{"num_deleted":"0","num_feature":"17","num_nodes":"45","size_leaf_vector":"1"}}]},"name":"gbtree"},"learner_model_param":{"base_score":"5.0921273E-1","boost_from_average":"1","num_class":"0","num_feature":"17","num_target":"1"},"objective":{"name":"binary:logistic","reg_loss_param":{"scale_pos_weight":"1"}}},"version":[3,0,4]}